-0.114889 -0.0024889 0.062265 0.0589414 0.123469 0.190984 0.0649581 0.0275111 0.0175111 0.0675111 0.0075111 0.0414621 0.103547 0.0371418 0.0659459 0.0694698 0.0558752 0.0294698 0.0775111 0.0675111 0.0175111 0.0475111 0.0553892 0.0353892 0.0275111 0.0375111 0.0475111 0.0375111 0.0075111 0.0175111 0.0762445 0.0638421 0.0838421 0.0972401 0.0814487 0.00702066 0.0204993 -0.0237108 0.0675111 0.0075111 0.0113955 0.0265909 0.155796 0.0375111 0.0775111 0.0334269 0.0713997 0.0934694 0.039386 0.00938603 0.0460931 -0.125936 -0.0024889 0.118908 0.0463152 -0.0036848 0.0275111 0.0653892 0.0590478 0.0484414 0.0892327 0.0690207 0.0371418 0.0775111 -0.0124889 0.0575111 0.0890583 0.0567198 -0.0220448 0.00564894 0.1495 0.0091132 -0.000830712 0.000431304 0.0675111 0.0575111 0.0275111 0.0475111 0.0775111 0.0453892 -0.00461082 0.0175111 0.0275111 0.0675111 0.0275111 0.000431304 0.0472401 0.0675111 0.0335472 0.0471418 0.0475606 -0.0229665 -0.0210979 0.0386172 0.0539165 -0.0124889 0.0262892 0.0075111 0.0475111 0.0475111 0.123947 
-0.609593 -0.0319593 0.291636 0.175692 0.236558 0.578388 0.342402 0.0180407 0.0180407 0.0180407 0.0180407 -0.0504382 0.0572755 0.110638 0.0763848 0.238317 0.234955 0.208317 0.0280407 0.0180407 -0.0119593 0.0280407 0.0212068 0.0112068 -0.00195926 -0.0119593 -0.0119593 -0.0519593 -0.0519593 -0.0119593 0.162358 0.0915958 0.131596 0.160622 0.0245323 -0.0605616 -0.0722154 -0.127822 -0.0619593 0.00804074 -0.261904 -0.0744093 0.525457 0.00804074 0.0180407 -0.0214581 -0.00555433 0.316558 -0.0825485 -0.0125485 0.0801381 -0.397348 -0.0319593 0.40449 -0.00621247 0.00378753 0.00804074 0.0112068 0.0235346 -0.040084 0.122102 -0.0772087 0.050638 0.0180407 -0.0419593 -0.0119593 0.255709 -0.134145 -0.161194 0.167357 0.379487 -0.153503 -0.185474 0.0603165 -0.0119593 -0.0519593 -0.0319593 -0.0319593 -0.0319593 0.0112068 -0.0187932 -0.0519593 -0.0119593 0.00804074 -0.0119593 0.0903165 0.200622 0.00804074 0.0872755 0.030638 0.0728719 -0.243647 -0.168314 0.0398569 -0.0253217 -0.0319593 -0.107822 -0.0319593 -0.0419593 -0.0519593 0.283309 
-0.389636 3.6379e-05 0.245291 0.125783 0.237994 0.350647 0.239954 -0.0299636 -0.0199636 -0.0299636 0.0100364 0.00147655 0.119493 0.0927988 0.105516 0.179607 0.166301 0.119607 -0.00996362 0.0100364 0.0200364 0.0400364 -0.0283264 0.0316736 -0.0399636 3.6379e-05 -0.0199636 -0.0299636 -0.0199636 -0.0199636 0.143539 0.0578072 0.0578072 0.136239 0.0492136 -0.0186581 -0.0510048 -0.0412985 0.0100364 0.0100364 -0.141243 -0.0871563 0.346286 0.0400364 -0.0199636 0.0554938 -0.0115036 0.237994 -0.00259867 -0.0225987 0.0613642 -0.278324 0.0400364 0.289095 -0.0272461 0.0127539 0.0500364 0.0216736 -0.0116607 0.063992 0.0524976 -0.0446283 0.0427988 -0.0399636 0.0200364 0.0200364 0.206173 -0.0184691 -0.0252911 0.127666 0.275139 -0.14529 -0.0937611 0.09626 0.0500364 3.6379e-05 0.0400364 -0.0399636 0.0300364 -0.00832635 0.0116736 0.0100364 -0.0299636 0.0300364 -0.0299636 0.08626 0.0962387 0.0100364 0.0594926 0.0327988 0.0643423 -0.130416 -0.0498724 0.0255099 0.0267303 -0.00996362 -0.0512985 0.0300364 0.0300364 -0.0199636 0.230202 
-0.0433484 0.0546652 -0.0141636 0.0157041 0.092717 0.0449615 0.0443499 0.0746652 0.0446652 0.0846652 0.0146652 0.0381001 0.0880833 0.0232872 0.0926769 -0.00298804 0.081808 -0.012988 0.0646652 0.0646652 0.0346652 0.0446652 0.0103093 0.0103093 0.00466516 0.0546652 0.00466516 0.0546652 0.0746652 0.0746652 0.0631859 0.0544869 0.0244869 0.0395934 -0.0220168 0.0698286 0.057013 -0.0467017 0.0246652 0.0546652 0.0884007 0.0583953 0.00932556 0.0546652 0.0346652 0.0687701 0.0945459 0.052717 0.0551398 0.0451398 0.0435818 -0.045549 -0.00533484 0.00211064 0.0940549 0.0540549 0.0546652 0.0103093 -0.00594716 0.0311967 0.0255337 0.101699 0.0732872 0.0246652 0.0646652 0.0146652 0.085915 0.0203281 0.0185329 -0.0531513 0.0235831 0.0926887 0.0656936 0.0444532 0.0646652 0.0146652 0.0846652 0.0246652 0.00466516 0.0703093 0.0403093 -0.00533484 0.0646652 0.0246652 0.0346652 0.0644532 0.0195934 0.0846652 0.0580833 0.0132872 0.113613 0.0567514 0.0815401 0.00702307 0.0294612 0.0846652 -0.0267017 0.00466516 0.00466516 0.0846652 0.0480355 
-0.338647 -0.00486467 0.19857 0.131567 0.196728 0.355591 0.20162 -0.0348647 -0.0148647 0.0151353 0.0551353 -0.0354351 0.0831358 0.112858 0.121218 0.167325 0.127603 0.177325 -0.0248647 0.0551353 -0.0248647 0.0551353 0.0471712 -0.0128288 -0.0248647 0.00513533 -0.0248647 0.00513533 0.0551353 0.00513533 0.0598804 0.0628096 0.0428096 0.0624161 0.0437813 0.0150527 -0.0152848 -0.0650851 -0.0248647 -0.00486467 -0.0793306 -0.0662312 0.285318 0.0451353 0.0551353 -0.00132633 -0.0426979 0.236728 0.00806797 -0.051932 0.0447846 -0.207761 0.00513533 0.266713 0.00349519 -0.0265048 -0.0148647 -0.0328288 -0.0235757 0.0562819 0.11946 -0.0318712 0.092858 -0.00486467 -0.00486467 -0.0248647 0.208212 -0.058043 -0.0274582 0.159918 0.232636 -0.0433464 -0.114033 0.00233698 0.0151353 -0.00486467 0.0551353 0.0451353 0.0551353 0.0471712 0.0471712 0.0551353 0.0251353 -0.0148647 -0.00486467 0.042337 0.122416 0.0351353 0.0431358 0.112858 0.0268909 -0.12669 -0.0527473 0.0293821 0.0554131 -0.0348647 0.00491487 0.0451353 0.0151353 0.0151353 0.229133 
-0.23526 0.045474 0.133397 0.120378 0.132424 0.307612 0.152433 0.045474 -0.00452598 -0.024526 0.065474 0.0591022 0.0467746 0.0242754 0.0361697 0.136993 0.079492 0.0669928 -0.024526 0.025474 -0.00452598 0.00547402 0.00483357 -0.0251664 -0.00452598 -0.00452598 0.025474 -0.00452598 0.055474 0.035474 0.110691 0.0976082 0.0476082 0.0609921 0.0495116 -0.015897 0.0127577 -7.59282e-05 0.015474 0.065474 -0.0771234 -0.01509 0.200999 0.025474 0.045474 -0.0052057 0.0571462 0.202424 -0.0179978 0.0320022 0.0777628 -0.181109 0.045474 0.224915 0.00736836 -0.00263164 0.00547402 0.00483357 0.0617511 0.061534 0.0779743 -0.0385633 0.0942754 0.065474 -0.014526 -0.024526 0.164429 0.0190337 -0.0579541 0.0442435 0.193905 -0.0570438 -0.0325766 0.0745296 0.065474 0.025474 0.045474 0.045474 0.025474 0.0648336 0.00483357 0.065474 0.025474 0.065474 0.065474 0.00452955 0.0809921 -0.024526 0.0567746 0.0242754 0.0760495 -0.0631092 0.0378565 -0.0473585 0.0579732 0.00547402 -0.0500759 0.00547402 0.015474 0.015474 0.176753 
-0.091801 0.0398199 0.116586 0.0652548 0.135205 0.147762 0.105437 -0.0001801 -0.0001801 0.0598199 0.0398199 0.0254157 0.0362954 0.0997149 0.0191487 0.0650073 0.0215877 0.0750073 0.0498199 0.0598199 -0.0101801 0.0798199 0.0474451 0.0174451 0.0298199 0.0198199 0.0598199 0.0698199 0.0098199 0.0598199 0.0216927 0.0192597 0.10926 0.0677313 0.0829611 0.0231085 0.0653826 -0.0639645 0.0198199 0.0498199 0.0513668 -0.0172339 0.0675406 -0.0001801 0.0098199 0.0844052 0.0451386 0.0752054 0.0646725 0.0846725 0.111995 -0.110812 0.0798199 0.0809181 -0.000746286 0.0492537 0.0598199 0.0574451 0.0123751 0.0245182 0.0472553 0.0593086 0.0697149 0.0498199 -0.0001801 -0.0101801 0.0630516 -0.0029172 0.0593223 -0.0261581 0.0997308 0.060097 0.0652944 0.00844318 0.0498199 0.0598199 0.0698199 0.0798199 -0.0101801 0.00744505 -0.0125549 0.0098199 0.0498199 0.0198199 0.0698199 -0.00155682 0.0577313 0.0398199 0.0762954 0.0797149 0.0198084 0.0560054 0.0150766 0.0013278 -0.00359967 0.0098199 -0.0539645 -0.0101801 0.0098199 0.0398199 0.0850537 
-0.316335 -0.00263351 0.203234 0.11807 0.199279 0.349921 0.204709 -0.00263351 0.0573665 0.0573665 0.0573665 -0.0174116 0.0823734 0.0451969 0.108045 0.128273 0.105449 0.138273 -0.0126335 0.0573665 0.0473665 0.0273665 -0.0122696 0.0577304 0.0273665 0.0573665 0.0573665 0.0173665 0.0173665 0.0373665 0.0876189 0.0628904 0.11289 0.0897067 0.0330419 -0.0127348 0.0305792 -0.0635297 -0.0226335 0.00736649 -0.145429 -0.0757115 0.328576 0.0373665 0.0173665 -0.0103175 0.0206647 0.159279 0.0312439 -0.0087561 0.0677194 -0.230664 0.0273665 0.257852 0.0202143 -0.0197857 -0.00263351 0.0377304 -0.013717 0.00667215 0.100832 -0.0636331 0.0951969 -0.0326335 0.0373665 -0.00263351 0.131697 -0.0767929 -0.0152269 0.046641 0.260285 -0.0347727 -0.0142684 0.0972795 -0.0226335 -0.0226335 -0.0226335 -0.0126335 -0.0326335 -0.0322696 0.0477304 -0.00263351 -0.0126335 -0.0126335 0.0573665 0.0672795 0.0697067 -0.0126335 0.0623734 0.0351969 0.0163694 -0.0449447 -0.0737011 -0.000453741 0.034543 0.00736649 -0.0835297 -0.0326335 0.0273665 -0.0326335 0.216182 
-0.155486 0.0634514 0.0810738 0.102963 0.136224 0.181454 0.11504 0.0234514 0.0534514 -0.0165486 0.0434514 0.0605483 0.112424 0.0752825 0.0743358 0.0870109 0.0941524 0.0670109 0.0534514 0.0134514 0.0134514 0.0734514 0.0421648 0.00216483 0.0134514 0.0634514 -0.0065486 0.0634514 -0.0065486 -0.0165486 0.0323213 0.115675 0.0856751 0.048704 0.0680796 0.0625384 0.0742366 -0.0111178 0.0434514 0.0734514 0.0243687 -0.0185314 0.169135 0.0434514 0.0134514 0.00732764 0.00421444 0.146224 0.00304029 -0.00695971 0.0764448 -0.158139 0.0234514 0.16212 0.00250474 0.0525047 0.0034514 0.0421648 -0.0143484 0.0735783 0.0731066 0.03728 0.0352825 0.0034514 0.0734514 0.0134514 0.144882 -0.0360768 0.023004 0.0559658 0.154557 -0.0380153 0.0248354 0.0305961 0.0534514 -0.0065486 0.0134514 0.0334514 0.0534514 0.0421648 0.0721648 0.0534514 -0.0065486 -0.0165486 0.0534514 0.0605961 0.028704 -0.0065486 0.052424 0.0452825 0.034561 -0.033195 0.00713831 -0.00938936 0.0605929 0.0634514 -0.0111178 0.0134514 0.0434514 0.0734514 0.0721084 
-0.0388166 0.0451183 0.0559405 0.0104936 0.0910947 0.0235534 -0.0353527 0.0251183 0.0851183 0.0351183 0.00511834 0.00538302 0.0732972 0.0504148 0.0287877 0.0358465 0.00872891 0.0658465 0.0151183 0.00511834 0.0851183 0.0851183 0.0117247 0.0117247 0.0351183 0.0151183 0.0651183 0.0851183 0.0351183 0.0851183 0.0334325 0.0500611 0.0100611 0.0534477 0.0387417 0.0880413 0.0959665 -0.0262328 0.0751183 0.00511834 0.0979567 0.0862303 0.0175358 0.0451183 0.0851183 0.102187 0.115725 0.0710947 0.0828375 0.0128375 0.0659528 -0.0890086 0.0651183 0.0603888 0.0634913 0.0634913 0.0551183 0.0717247 -0.00549684 0.0882337 0.0142806 0.0117387 0.0104148 -0.00488166 0.0551183 0.0851183 0.0947854 0.0990715 0.062452 0.00739299 0.0149045 0.0748035 0.0790191 0.00303669 0.00511834 0.0451183 0.0651183 0.0851183 -0.00488166 0.0317247 0.0117247 0.0151183 0.0251183 0.0551183 0.0151183 -0.00696331 0.0434477 0.0851183 0.0732972 0.0404148 0.0890891 0.0940647 0.0196183 0.0191989 0.0480007 0.0151183 -0.0462328 0.0351183 0.0851183 0.0451183 0.0265629 
-0.0891346 0.0300865 0.0260917 0.115511 0.0769767 0.115655 0.00969687 -0.00991346 0.0100865 0.0400865 -0.00991346 0.0187962 0.105335 0.0705164 0.119432 0.0734154 0.0882339 0.0234154 0.0700865 0.0400865 0.0600865 8.65417e-05 0.026952 0.066952 0.0700865 0.0500865 0.0800865 0.0700865 0.0100865 0.0700865 0.087804 0.0377877 0.0477877 0.0254855 0.0549371 0.0577011 0.00644056 0.00457655 -0.00991346 0.0100865 0.00491119 0.0430491 0.0907349 0.0100865 -0.00991346 0.0387557 0.0867055 0.116977 -0.00749834 0.0625017 0.124405 -0.061159 0.0200865 0.0501675 0.049002 0.039002 8.65417e-05 -0.00304803 0.0597513 0.0609238 0.00415805 0.079469 0.0705164 0.0700865 0.0800865 0.0500865 0.0761537 0.0168523 0.0474118 0.0104054 0.135299 0.0497035 0.0417166 0.0373721 0.0300865 8.65417e-05 0.0400865 0.0400865 0.0100865 0.066952 0.00695197 0.0600865 0.0700865 0.0100865 0.0200865 0.0673721 0.0154855 0.0200865 0.0653349 0.0905164 0.0900198 0.0551502 0.0273132 -0.0325244 0.064905 0.0500865 0.0245765 -0.00991346 0.0400865 0.0500865 0.057389 
-0.223006 0.0166994 0.137959 0.0970977 0.195059 0.219643 0.118557 -0.0033006 0.0166994 0.0566994 -0.0233006 0.0589558 0.0264601 0.0929304 0.045553 0.0796114 0.143141 0.119611 0.0366994 0.0166994 0.0666994 0.0466994 0.0555193 0.0455193 -0.0133006 0.0666994 0.0366994 0.0566994 0.0266994 -0.0133006 0.0369101 0.0631896 0.12319 0.0910909 -0.0042075 0.0408412 0.0659024 -0.0337192 0.0466994 -0.0033006 -0.0779826 0.0184835 0.25916 0.0466994 -0.0033006 0.0522632 0.00955289 0.165059 0.0374763 0.0374763 0.102869 -0.182772 0.0066994 0.214987 0.049322 0.039322 0.0466994 0.0455193 -0.00644847 -0.00371576 0.106113 -0.0310213 0.0429304 -0.0033006 0.0566994 0.0566994 0.114475 -0.0331294 0.00290377 -0.00309677 0.142462 -0.0424391 0.00317991 0.0731757 0.0566994 -0.0233006 -0.0133006 0.0266994 0.0266994 0.0155193 0.0255193 0.0066994 0.0566994 0.0266994 -0.0033006 0.0531757 0.0910909 0.0366994 0.0664601 0.0629304 0.0371588 -0.0282275 0.000442633 -0.0370383 0.0402291 -0.0033006 -0.0337192 0.0566994 0.0566994 0.0566994 0.146484 
-0.0906994 0.0299301 0.08091 0.0632738 0.0691186 0.175169 0.0705671 0.0199301 0.0499301 -0.0100699 -6.99373e-05 0.0758315 0.0922835 0.087989 0.0253504 0.0553632 0.0396577 0.0753632 -6.99373e-05 0.0299301 0.0299301 0.00993006 -0.00231573 -0.0123157 -6.99373e-05 -6.99373e-05 0.0699301 -6.99373e-05 -0.0100699 -0.0100699 0.0515988 0.054975 0.044975 0.0818608 0.00551352 0.0271661 0.0437017 -0.027279 -0.0100699 -0.0100699 -0.0265221 0.00984882 0.102926 0.00993006 0.0599301 0.0889843 0.0755768 0.0791186 -0.00941666 0.0305833 0.0763683 -0.0985556 0.0199301 0.0651973 0.0572915 0.0672915 0.0599301 0.0276843 0.0805735 0.0386396 0.0853704 0.0356554 0.107989 -0.0100699 0.0799301 0.0799301 0.0854298 0.00319932 0.0513561 0.0727106 0.101745 0.00685426 0.0533 0.0482887 0.0499301 0.0199301 0.0199301 0.00993006 0.00993006 -0.00231573 0.0276843 0.0399301 0.0499301 0.0799301 0.0399301 -0.00171129 0.0418608 0.0699301 0.0722835 0.027989 0.105838 -0.0137139 0.0351896 0.0200952 0.0742246 0.0599301 -0.017279 0.0299301 0.0399301 0.0299301 0.0776457 
-0.139624 0.0250376 0.112971 0.0721405 0.120928 0.147847 0.0854544 0.0250376 0.0150376 0.0250376 0.0750376 0.0454367 0.0829043 0.0754482 0.104726 0.0333447 0.0908008 0.0833447 0.0250376 0.0550376 0.0650376 0.0450376 0.0432918 0.0532918 -0.00496241 0.0150376 0.0550376 0.0550376 0.0350376 -0.0149624 0.0103902 0.0866776 0.0766776 0.0233247 0.0297395 0.0366394 0.0471707 -0.0214236 0.0650376 0.0550376 -0.00506034 -0.0110818 0.184822 0.0550376 -0.00496241 0.0286737 0.0673623 0.140928 0.0268222 0.0468222 0.0654416 -0.155214 0.0150376 0.081249 0.0543153 0.00431534 0.0250376 0.0132918 0.0179507 0.0375399 0.0625233 -0.0173556 0.0254482 0.0650376 0.0650376 -0.0149624 0.160801 0.0400543 0.0469534 0.0372741 0.150963 -0.0202089 0.0642344 0.000669046 0.0150376 -0.00496241 0.0750376 0.0450376 -0.0149624 0.0732918 0.00329176 0.0150376 0.0250376 -0.0149624 -0.0149624 0.040669 0.0133247 -0.00496241 0.0929043 0.0354482 0.0368457 -0.0230612 0.00292372 0.0164728 0.0224937 -0.00496241 0.0185764 -0.0149624 0.0650376 0.0750376 0.121944 
-0.130315 0.0159685 0.0545592 0.107056 0.168373 0.148791 0.0545861 0.0759685 0.0259685 0.0459685 0.0759685 0.0771207 0.0733505 0.0387785 0.0864373 0.122408 0.0469796 0.0724076 0.0459685 0.0359685 0.00596854 0.0759685 0.0543815 0.0243815 0.0159685 0.00596854 0.0659685 0.0559685 -0.0140315 0.0459685 0.0741696 0.057155 0.067155 0.0180437 0.0448843 0.0684317 -0.00156767 0.0162515 0.0459685 0.00596854 0.00402239 0.0353491 0.0786395 0.0359685 -0.0140315 0.0829817 0.0753578 0.138373 -0.0169004 -0.00690042 0.103655 -0.0569964 -0.0140315 0.164905 0.0636274 0.0736274 0.0359685 0.0743815 0.0660557 0.0230915 0.0266334 0.0359359 0.0587785 0.00596854 -0.00403146 0.0759685 0.131564 0.0324266 -0.000804158 0.0711367 0.0942628 0.0124102 0.00923117 0.0866316 0.0359685 0.0159685 0.0159685 0.0659685 0.0759685 0.0543815 0.0443815 0.00596854 0.0559685 0.0659685 -0.0140315 0.00663162 0.0680437 0.0659685 0.113351 0.0287785 0.0941371 -0.00994724 0.00346265 0.0398806 0.0405406 0.0459685 -0.0637485 0.00596854 -0.00403146 -0.0140315 0.138599 
-0.0665775 0.0323422 0.0451574 0.0389207 0.131198 0.121585 0.000180944 0.0823422 0.00234225 0.00234225 0.00234225 0.0415505 0.0480653 0.0248187 0.0225598 0.094031 0.0272775 0.054031 0.0423422 -0.00765775 0.00234225 0.0723422 0.0497856 -0.0102144 0.0823422 0.0123422 0.0523422 0.0123422 -0.00765775 0.0623422 -0.00519896 0.039599 0.059599 0.0518256 -0.000378474 0.0801629 -0.00137297 -0.00461448 -0.00765775 0.0523422 0.00801102 0.0478031 0.0322354 0.0323422 0.0223422 0.0708849 0.048813 0.121198 0.00470858 0.0147086 0.112571 -0.0669942 0.0623422 0.111349 0.0300834 8.33771e-05 -0.00765775 0.0097856 0.00223482 0.0917661 0.0910858 0.0157561 0.0248187 0.0123422 0.0123422 0.0623422 0.103669 -0.00697742 0.00793913 0.0373453 0.0734781 0.0501902 0.0761382 -0.00392153 0.0223422 0.0823422 0.0523422 0.00234225 0.0223422 0.0697856 -0.0102144 0.00234225 0.0223422 0.0723422 0.0523422 0.0160785 0.0618256 -0.00765775 0.0680653 0.0248187 0.0178108 0.0941776 0.00230214 -0.0154022 0.0655888 0.0823422 0.00538552 0.0623422 0.0523422 0.0823422 0.0396879 
-0.166814 0.00231859 0.110416 0.130263 0.176895 0.250791 0.0863561 -0.00768141 0.00231859 0.0123186 0.0623186 0.0428603 0.060657 0.0600842 0.0313141 0.115751 0.0863234 0.105751 0.0523186 -0.00768141 0.0123186 0.0123186 0.0207556 0.0107556 0.0623186 0.0323186 0.0123186 0.0423186 -0.0176814 0.0523186 0.0585577 0.0794103 0.10941 0.0530444 0.00341672 0.0350241 0.0633965 -0.00861893 0.0423186 -0.0176814 0.0167291 -0.0247988 0.148748 0.0623186 0.0423186 0.0873949 0.00562335 0.136895 -0.00641645 0.0335836 0.0298491 -0.136792 0.0523186 0.157104 0.0235485 -0.00645151 0.0123186 -0.0092444 0.0767956 -0.00155368 0.0496356 -0.00678783 0.0900842 0.0423186 0.0123186 0.0723186 0.128153 0.0211293 0.00976864 -0.000127434 0.200016 -0.000944189 0.0350509 0.0735379 0.0723186 0.00231859 -0.00768141 0.0523186 0.0523186 -0.0092444 0.0307556 -0.00768141 0.0523186 -0.0176814 0.0323186 0.00353793 0.0230444 -0.00768141 0.050657 0.0300842 0.0586532 0.00325279 0.0267628 0.0370474 0.0128914 0.00231859 -0.0586189 0.0523186 0.0723186 -0.0176814 0.08931 
-0.374944 -0.0284944 0.170451 0.133277 0.23727 0.372591 0.242648 -0.0384944 -0.0284944 -0.0184944 0.0115056 0.0182429 0.0396421 0.0897688 0.064778 0.134183 0.164056 0.124183 0.0015056 0.0015056 -0.0384944 -0.0184944 -0.037328 0.00267198 0.0415056 -0.0084944 -0.0284944 0.0415056 0.0015056 -0.0284944 0.0857928 0.101534 0.121534 0.138552 0.0678758 0.00250175 0.0131539 -0.120857 -0.0084944 -0.0284944 -0.0815373 -0.0791041 0.351363 -0.0284944 0.0315056 0.0264656 0.0263546 0.22727 0.0250794 0.0350794 0.0533461 -0.285548 -0.0284944 0.287066 0.0265148 0.0365148 -0.0284944 0.052672 0.00261277 0.0441344 0.0874411 -0.068444 0.0997688 0.0315056 0.0215056 0.0415056 0.212918 -0.0318011 -0.0781818 0.0744531 0.246206 -0.106495 -0.0731547 0.00897555 0.0415056 0.0015056 0.0415056 0.0415056 -0.0284944 0.032672 0.052672 -0.0084944 0.0515056 0.0315056 -0.0184944 0.0389755 0.128552 -0.0284944 0.0596421 0.0697688 0.0634583 -0.126742 -0.0530692 -0.00644304 0.0713789 -0.0184944 -0.0708569 0.0315056 -0.0384944 0.0515056 0.156819 
-0.477863 -0.0387863 0.241178 0.136456 0.274294 0.455116 0.241336 0.0212137 0.0412137 -0.00878634 -0.0187863 0.00567709 0.125536 0.0750419 0.0797592 0.158006 0.168501 0.208006 0.0212137 -0.0287863 -0.00878634 0.0412137 -0.0169547 -0.0169547 -0.0287863 -0.0287863 0.0112137 -0.0487863 -0.0387863 -0.0387863 0.124672 0.117019 0.127019 0.0964302 0.0492423 -0.0161271 -0.0316285 -0.0748959 -0.00878634 -0.0387863 -0.138907 -0.0912789 0.453084 -0.0387863 -0.00878634 -0.0410001 0.0217258 0.214294 -0.0126713 0.00732866 0.0281457 -0.323874 -0.0387863 0.307848 0.0459309 -0.0140691 0.0212137 0.0230453 -0.00885292 0.0587994 0.0618302 -0.0673977 0.0650419 0.0212137 0.0312137 0.0412137 0.171071 -0.0818171 -0.0618112 0.114149 0.316891 -0.134575 -0.0978078 0.0576714 -0.00878634 0.0412137 0.0312137 -0.0287863 0.0112137 0.0430453 0.0330453 -0.0387863 0.00121366 0.0312137 0.00121366 0.0876714 0.12643 0.00121366 0.125536 0.0550419 0.0604897 -0.105711 -0.102857 -0.0119317 0.0217081 -0.0487863 -0.0548959 -0.0287863 0.0312137 0.0212137 0.247247 
-0.0646546 0.0825345 0.0905155 0.0250946 0.052476 0.0890355 0.084888 0.0625345 0.0525345 -0.00746546 0.0825345 0.0101609 0.0664812 0.094674 0.0708114 0.0522395 0.0840467 0.102239 0.00253454 0.0325345 0.0125345 0.0625345 0.0298229 0.0498229 0.0525345 0.0725345 0.00253454 0.0725345 0.0325345 0.00253454 0.0419073 0.0403512 0.0203512 0.0397627 0.0107444 0.0668809 0.0884807 -0.0111289 0.0525345 0.0325345 0.01794 0.0644326 0.0432734 0.0125345 0.00253454 0.0938034 0.0997 0.122476 0.00282266 0.0528227 0.113207 -0.0181491 0.0425345 0.106709 0.068672 0.068672 0.0725345 0.0298229 0.0109842 0.0287376 0.0878534 0.0365311 0.104674 0.0325345 -0.00746546 0.00253454 0.0930033 0.0134187 -0.00506867 0.0582387 0.0795661 -0.00181668 0.092737 0.0742747 0.0625345 0.0125345 0.0725345 0.0625345 0.0225345 -0.000177122 0.00982288 0.0625345 0.0325345 0.0425345 0.0425345 0.0642747 0.0097627 0.0725345 0.0164812 0.034674 0.0543628 0.0735527 0.0612946 0.0164366 0.00434178 -0.00746546 0.0288711 0.0425345 0.0225345 0.0825345 0.0201473 
-0.0177221 0.0672278 0.0234549 0.0978099 0.0132336 -0.0316334 0.0137173 0.0272278 0.0372278 0.0672278 -0.00277221 0.0184097 0.00349015 0.0191378 0.0587668 0.0337688 -0.0218789 -0.0362312 0.0872278 0.0572278 0.0572278 0.0272278 0.0624455 -0.00755451 0.0672278 0.0772278 0.0672278 0.0472278 0.0372278 -0.00277221 -0.0237888 0.0148759 0.0348759 0.0172252 0.0408963 0.0967836 0.0214616 0.0289969 0.0472278 0.0572278 0.0310127 0.0429952 0.02334 0.0372278 0.00722779 0.084907 0.08492 0.0532336 0.0110376 0.0410376 0.023805 -0.015952 0.0672278 -0.0588689 0.0168569 0.0568569 0.00722779 0.0524455 0.0167706 0.0153568 0.0804449 0.0623663 0.0591378 -0.00277221 0.0672278 -0.00277221 0.0858866 0.0221396 0.0714442 -0.0790957 0.0581137 0.0603662 0.0711301 0.0528181 0.0372278 0.0272278 -0.00277221 0.0272278 0.0872278 0.0424455 0.0524455 0.0172278 0.0372278 0.0772278 0.0272278 0.0528181 -0.0227748 0.0172278 -0.00650985 0.0191378 0.0737646 0.0669072 0.00513729 -0.0263721 0.0615802 0.0872278 -0.0110031 -0.00277221 -0.00277221 0.0472278 0.0399926 
-0.160385 0.0229615 0.12658 0.114072 0.150825 0.146097 0.0532006 0.0229615 0.0629615 -0.00703854 0.0429615 0.019912 0.0422528 0.0334322 0.0946045 0.122834 0.0916549 0.102834 0.0529615 0.0529615 0.0529615 -0.00703854 0.0612029 0.0512029 0.0629615 0.00296146 0.0229615 0.0329615 -0.0170385 0.0429615 0.101184 0.0500424 0.0700424 0.0342894 0.0561535 0.0744419 -0.00455787 -0.0699963 0.0329615 0.0329615 -0.0304386 0.0323144 0.136265 -0.00703854 0.0629615 0.0796411 0.0683741 0.110825 0.0150581 0.0650581 0.0683924 -0.125428 0.0329615 0.14457 0.0641338 -0.00586619 0.0129615 0.0412029 -0.00429115 0.0770101 0.0736649 0.0586888 0.0434322 0.0129615 0.0629615 -0.00703854 0.13676 0.0263067 0.0125559 0.00180241 0.16628 0.0394336 0.0508694 0.08041 0.0129615 0.0429615 0.0729615 0.00296146 0.0729615 0.0612029 0.0412029 0.00296146 -0.0170385 0.0629615 -0.00703854 0.06041 0.0742894 0.00296146 0.0822528 0.0534322 0.0972886 -0.0367936 0.0570506 0.0194058 -0.00821792 0.0129615 -0.0499963 0.0329615 0.00296146 -0.0170385 0.0876238 
-0.410781 0.0379219 0.265517 0.127287 0.252102 0.418643 0.263643 0.0279219 0.0179219 -0.00207808 0.0179219 -0.0539663 0.120946 0.0951833 0.0674115 0.115831 0.171594 0.195831 0.0479219 -0.0320781 0.0179219 -0.0320781 0.0298316 0.0198316 -0.0420781 0.00792192 0.0279219 0.0379219 -0.0320781 -0.0320781 0.124333 0.0836688 0.133669 0.0819141 0.0860035 -0.0545722 0.00639586 -0.103003 -0.0120781 -0.0320781 -0.172022 -0.0800259 0.326002 0.0479219 0.0279219 0.0453757 -0.0444409 0.252102 -0.00660443 0.0133956 0.0341749 -0.221392 0.0479219 0.264304 0.0301501 0.0301501 0.0279219 0.0298316 -0.00475565 0.0494809 0.0628064 -0.0803099 0.115183 -0.0320781 -0.0420781 0.0379219 0.193953 -0.0654036 -0.0329544 0.0982503 0.249255 -0.0889845 -0.0841632 0.0655759 -0.0420781 0.0179219 -0.0320781 -0.0420781 0.00792192 0.00983164 0.0498316 0.0279219 -0.0220781 0.0179219 0.0179219 0.0155759 0.141914 0.0379219 0.130946 0.0651833 0.0319533 -0.171407 -0.0875048 0.0276447 0.0636845 -0.0120781 -0.0630032 0.00792192 -0.0120781 0.0479219 0.192693 
-0.375743 0.0514257 0.200429 0.151209 0.206418 0.356993 0.224918 -0.00857427 -0.0185743 -0.0285743 0.0214257 0.00395884 0.106452 0.0402675 0.0635523 0.171147 0.187332 0.151147 0.0114257 -0.00857427 0.0314257 0.0114257 0.00243621 0.0124362 0.0514257 -0.0285743 -0.0185743 -0.0185743 0.0214257 -0.0385743 0.12849 0.110078 0.110078 0.09683 0.0722523 -0.0439049 0.0323241 -0.0391426 0.0114257 -0.0285743 -0.114889 -0.0819069 0.321766 -0.0385743 0.0514257 0.0101364 0.0377401 0.246418 0.0312922 -0.0187078 0.0538172 -0.239853 -0.0385743 0.288372 0.0147105 0.00471052 0.0314257 0.0224362 -0.0315085 0.0355745 0.0393887 -0.0277896 0.0302675 0.0514257 0.0514257 0.0314257 0.142262 -0.0923885 -0.0106025 0.0951034 0.266999 -0.0700359 -0.043663 0.0752406 -0.0185743 -0.00857427 0.0214257 -0.0185743 0.00142573 -0.00756379 0.0424362 -0.0385743 0.0514257 0.0214257 0.0414257 0.0352406 0.11683 -0.0385743 0.0764521 0.0702675 0.00359681 -0.0783191 -0.0232166 0.0117374 0.0276104 -0.0185743 -0.0291426 0.0214257 0.0414257 -0.0185743 0.219355 
-0.373174 -0.00831743 0.206972 0.14433 0.209502 0.378759 0.245638 -0.0283174 0.0516826 0.0316826 -0.0383174 -0.0621593 0.0827504 0.0250407 0.117978 0.166171 0.173881 0.126171 -0.0183174 -0.0283174 0.00168257 0.0416826 -0.0377816 0.0122184 0.0116826 0.0416826 -0.00831743 0.0416826 0.0316826 -0.0183174 0.0505227 0.11612 0.13612 0.082034 0.00729752 0.00667682 -0.00693362 -0.0235022 -0.00831743 0.0216826 -0.124622 -0.0311159 0.373334 -0.00831743 0.00168257 -0.0254399 -0.00715364 0.209502 0.0228794 -0.0371206 0.0401794 -0.287458 -0.00831743 0.278946 -0.0153798 0.0546202 0.0216826 0.0222184 -0.0216095 0.067484 0.121906 -0.0492679 0.0950407 0.0416826 -0.0283174 -0.00831743 0.202988 -0.10274 -0.0192198 0.110207 0.201165 -0.0547826 -0.0341574 0.0377647 -0.00831743 -0.0183174 0.0516826 0.0116826 -0.0283174 0.0322184 0.0222184 0.0416826 -0.0183174 0.0316826 -0.00831743 0.0477647 0.092034 0.0516826 0.0827504 0.0450407 0.0437518 -0.110753 -0.0613278 0.0276282 -0.000607793 0.0316826 -0.0835022 0.0316826 -0.00831743 0.0216826 0.169334 
-0.0145313 0.0775469 0.0263072 0.0252056 0.0247868 0.0101629 -0.00734852 0.00754687 0.0875469 0.00754687 -0.00245313 0.0294898 0.0466534 0.0447168 0.0831089 -2.26813e-05 0.0119139 0.0499773 0.0875469 0.0375469 0.0275469 0.0375469 -0.00657294 0.0434271 0.0675469 -0.00245313 0.0875469 0.0175469 0.0775469 0.0375469 -0.00525601 0.00557018 0.0755702 0.0105851 0.0299743 0.0309497 0.0410541 0.0367162 0.0275469 -0.00245313 0.0562415 0.0609522 -0.0676651 0.0875469 0.0875469 0.115359 0.05167 0.0247868 0.0373316 0.0273316 0.0333124 -0.0336629 0.0575469 0.00996986 0.015939 0.025939 0.0375469 -0.00657294 0.00463867 0.0600826 0.0682513 0.0318656 0.0347168 0.0475469 -0.00245313 0.0875469 0.0410264 0.0893782 0.0190887 -0.0330756 0.0628996 0.102996 0.0531537 0.0707827 0.0875469 0.0675469 0.0375469 0.00754687 0.0775469 0.0734271 -0.00657294 0.0275469 0.0775469 0.00754687 0.0875469 0.0207827 0.000585091 0.0475469 -0.00334658 0.0447168 0.0599851 0.0920891 0.0566715 0.00197674 0.00948348 -0.00245313 -0.0132838 0.0775469 0.0475469 0.00754687 0.0265659 
-0.0954901 0.00945099 0.10531 0.116202 0.0680622 0.140465 0.0438218 0.079451 0.019451 0.049451 0.029451 0.0149159 0.0886098 0.0492861 0.0315592 0.0188461 0.0981697 0.0688461 0.039451 0.069451 0.059451 -0.000549014 0.0557818 0.0757818 0.079451 0.069451 0.029451 0.019451 -0.010549 0.039451 0.0483346 0.0968721 0.0968721 0.0178833 0.00369232 0.00328614 0.0479417 -0.0101943 0.039451 0.029451 0.0762297 0.0284077 0.119673 -0.000549014 -0.000549014 0.0750119 0.104457 0.0580622 0.0421631 0.0621631 0.0728941 -0.136365 0.059451 0.0166548 0.0117241 0.0617241 0.049451 0.0657818 0.00384085 0.0916553 0.0368254 0.0749448 0.00928611 0.049451 0.069451 -0.010549 0.0416139 0.0742809 0.066857 -0.0519269 0.0978919 0.0619478 0.09378 0.0299101 0.079451 0.059451 0.079451 0.00945099 0.019451 0.0357818 0.00578176 -0.010549 0.039451 0.019451 0.059451 0.0499101 0.0478833 0.069451 0.0786098 0.0892861 0.0954903 0.0520478 0.0460069 -0.0406343 0.0387746 -0.010549 -0.0801943 -0.000549014 0.039451 -0.000549014 0.00861431 
-0.45198 -0.026198 0.249537 0.132229 0.198882 0.384154 0.294763 -0.00619798 0.023802 -0.00619798 0.043802 -0.0251235 0.0617821 0.0633624 0.10733 0.194833 0.163253 0.194833 0.043802 0.043802 -0.026198 0.013802 -0.0446883 -0.0146883 0.043802 0.013802 0.033802 -0.00619798 -0.026198 0.00380202 0.123692 0.0653788 0.0653788 0.16953 0.0612037 -0.0554501 0.030991 -0.0456231 -0.016198 -0.046198 -0.165716 -0.0344685 0.411782 0.023802 -0.016198 -0.0366826 0.0137047 0.268882 0.0184425 0.00844254 0.0690678 -0.323685 0.023802 0.281909 -0.00223057 -0.0222306 -0.036198 0.0253117 -0.0258374 -0.0302287 0.140881 -0.0321609 0.103362 -0.00619798 0.00380202 0.00380202 0.226375 -0.127308 -0.114407 0.0796655 0.309885 -0.0942296 -0.0467987 0.0466803 -0.036198 -0.026198 -0.00619798 -0.00619798 -0.016198 0.00531166 -0.0246883 0.043802 0.013802 -0.036198 -0.016198 0.0566803 0.14953 -0.036198 0.0917821 0.0733624 0.0194776 -0.129303 -0.0423366 -0.0341526 0.0422217 -0.036198 -0.0356231 -0.026198 -0.036198 -0.036198 0.240155 
-0.145695 -0.0155695 0.09464 0.0844931 0.149739 0.209714 0.0994846 0.0344305 0.0344305 -0.00556948 0.0344305 0.0740013 0.0308077 0.0320805 0.0724189 0.0606942 0.0494214 0.0706942 -0.00556948 0.00443052 -0.0155695 0.0144305 0.0525983 0.0725983 -0.00556948 0.0344305 0.0544305 0.0244305 0.0144305 0.0344305 0.0917714 0.113913 0.0939131 0.0633046 0.0825377 0.0289507 0.00685873 -0.015762 0.0544305 0.0744305 0.0242971 -0.00244825 0.140654 0.0644305 0.0444305 0.00809095 0.00865583 0.139739 -0.00191967 0.0180803 0.0363991 -0.124448 0.0344305 0.119862 0.00476895 0.014769 -0.00556948 -0.0174017 0.0583858 0.0295413 0.0541996 0.0321137 0.102081 -0.00556948 0.0744305 0.0344305 0.109465 0.0297722 -0.00152972 0.0307621 0.137744 -0.0328006 0.0766076 0.0119373 0.0544305 0.0544305 0.0344305 0.0444305 0.0344305 0.00259834 -0.00740166 0.0544305 0.0344305 0.0444305 0.0744305 0.0319373 0.103305 0.0144305 0.0208077 0.0920805 0.0690177 -0.0122062 0.0511032 0.00285171 0.0831578 0.0644305 -0.065762 0.0444305 0.0444305 0.0544305 0.121623 
-0.254862 -0.0264862 0.118206 0.13125 0.193331 0.317779 0.133497 0.0235138 0.0435138 -0.0264862 0.0135138 0.0300361 0.0802373 0.0367334 0.0585597 0.124941 0.108445 0.114941 0.0635138 0.0135138 -0.0264862 0.00351384 0.0434834 -0.0165166 0.0135138 0.0235138 0.0635138 0.00351384 -0.00648616 -0.0264862 0.0752259 0.0969586 0.0469586 0.133973 0.00400554 0.0239023 -0.0105805 -0.0117975 0.0635138 -0.00648616 -0.0815725 0.024185 0.258 0.0335138 0.00351384 0.0284789 0.0206255 0.133331 0.0598414 -0.000158616 0.0347726 -0.229616 -0.00648616 0.19552 -0.00465976 0.00534024 0.0335138 0.0434834 0.0717557 0.0311654 0.0311316 -0.0039457 0.0867334 0.0135138 0.0535138 -0.0164862 0.166995 -0.0264524 -0.0494401 0.0718814 0.229704 -0.05919 -0.0390298 0.0549551 0.0635138 0.0635138 -0.0164862 -0.0164862 -0.0264862 0.0134834 -0.0265166 0.0435138 0.00351384 0.0435138 0.0235138 0.0249551 0.133973 -0.00648616 0.0702373 0.0567334 0.083701 -0.0520855 -0.0115662 -0.0435895 0.0170178 -0.0264862 -0.0417975 0.0535138 0.0335138 -0.0264862 0.148904 
-0.418104 -0.0428104 0.188326 0.118286 0.189221 0.385516 0.223814 -0.00281038 0.0271896 0.00718962 0.00718962 -0.0176489 0.126259 0.0678541 0.111651 0.1212 0.119606 0.1512 0.0271896 -0.0128104 0.0471896 -0.0128104 -0.0117979 -0.00179793 -0.0328104 0.0471896 -0.0328104 -0.00281038 0.0371896 0.0471896 0.0689411 0.131227 0.0612274 0.165635 0.0268343 -0.025753 -0.0335447 -0.062328 0.0371896 0.0371896 -0.170013 -0.0249558 0.398662 0.0371896 0.0271896 0.00419687 0.0392987 0.229221 -0.0436277 -0.00362772 0.0847702 -0.311765 -0.0328104 0.329725 0.0309865 0.0509865 0.0171896 0.00820207 0.0391452 0.0268161 0.0582067 -0.019689 0.0578541 -0.0228104 0.0171896 0.0271896 0.218454 -0.044201 -0.0531219 0.126782 0.227879 -0.0789545 -0.0372766 0.036785 0.0371896 -0.0328104 0.0171896 0.0171896 0.0171896 -0.0417979 -0.0417979 -0.0128104 0.0371896 -0.0228104 0.0271896 0.066785 0.135635 0.0371896 0.106259 0.107854 0.0230213 -0.157283 -0.0304903 -0.00898183 0.00559488 -0.0428104 -0.122328 -0.0128104 0.0271896 -0.0228104 0.194033 
-0.260022 0.00299779 0.161489 0.136578 0.162875 0.301964 0.185516 -0.0170022 0.0529978 0.0629978 0.0429978 -0.00117954 0.119554 0.0573714 0.0385244 0.129289 0.101472 0.129289 0.00299779 0.00299779 0.0129978 0.0629978 0.0324724 0.0324724 0.0429978 -0.0270022 0.0329978 0.0629978 0.0529978 0.0629978 0.107098 0.0663352 0.0863352 0.0900915 0.0900577 0.0491185 0.0494535 -0.0712503 0.0229978 -0.0170022 -0.0716406 -0.0682436 0.231129 0.00299779 0.0429978 0.0408655 0.0738565 0.122875 0.0286568 0.0386568 0.0553124 -0.13391 0.0329978 0.239407 0.0441507 0.00415074 0.0229978 -0.0175276 0.0261276 0.074766 0.0635538 -0.00328035 0.0473714 -0.0270022 -0.0170022 -0.00700221 0.157363 -0.01579 0.00914944 0.0902171 0.177063 -0.0429479 -0.0397842 0.0128821 0.0229978 0.0329978 0.0629978 -0.00700221 0.0129978 -0.0175276 0.0124724 -0.0270022 -0.00700221 0.0229978 0.0229978 0.0528821 0.0900915 -0.0170022 0.0595541 0.0473714 0.0903047 -0.0709152 0.0206546 0.0206674 0.0351805 0.0629978 -0.0812503 -0.0270022 -0.00700221 0.00299779 0.146747 
-0.0939964 0.0296004 0.0709011 0.0868649 0.135782 0.0999064 0.0976167 0.0196004 0.0396004 0.0796004 0.0396004 0.024028 0.0676088 0.0316874 0.100572 0.077915 0.0338364 0.047915 -0.0103996 0.00960036 0.0396004 0.0196004 0.0372853 -0.0127147 -0.0103996 -0.000399635 0.0296004 0.0496004 0.0496004 0.0596004 0.0317493 0.0337869 0.0237869 0.019558 0.0264048 0.0612549 0.045001 -0.0550393 0.0796004 0.0796004 0.0389647 0.0499899 0.051816 0.0396004 0.0196004 0.0281074 0.0677299 0.0857823 0.00351695 -0.00648305 0.0262195 -0.113784 0.0396004 0.117588 0.0484853 0.0784853 0.0196004 0.0472853 0.0516324 0.0629544 0.07715 0.0579981 0.101687 0.00960036 -0.0103996 0.0696004 0.109196 -0.00459517 0.00525533 0.0570053 0.0679083 -0.0117321 0.0222222 0.0188931 0.0596004 0.00960036 0.0296004 0.0496004 0.0396004 -0.0027147 0.0372853 -0.000399635 -0.0103996 0.0396004 0.00960036 0.0188931 0.059558 -0.000399635 0.107609 0.0816874 0.0702322 0.0726875 0.032761 -0.0588117 0.0455217 0.0496004 -0.0650393 0.0196004 -0.0103996 -0.000399635 0.0622605 
-0.269988 0.0320012 0.151297 0.086368 0.214297 0.30553 0.119979 0.0220012 -0.0279988 0.0420012 0.00200121 0.00868962 0.126357 0.0427635 0.0849578 0.0835231 0.157117 0.143523 -0.00799879 0.0520012 0.0420012 -0.00799879 0.0319752 -0.0180248 -0.0179988 0.00200121 0.0120012 0.0420012 -0.0179988 -0.00799879 0.0363544 0.0402459 0.0602459 0.110524 0.089441 0.0394549 -0.00227085 -0.0457785 0.0120012 0.0320012 -0.044453 -0.0586827 0.242633 0.0320012 0.0620012 0.0396711 0.0302734 0.174297 0.0566444 0.0466444 0.0482225 -0.209919 -0.00799879 0.236331 0.0441954 0.00419544 0.0420012 0.00197519 -0.0111475 0.0281741 0.0620823 0.00169042 0.0827635 -0.00799879 -0.00799879 0.0220012 0.200129 -0.011907 -0.00431168 0.0735061 0.198797 -0.0924293 -0.0429688 0.0444743 0.0520012 0.0420012 0.0320012 0.0320012 0.0220012 0.00197519 0.0319752 -0.0179988 0.0620012 -0.0179988 -0.0279988 0.0544743 0.0505235 0.00200121 0.0563572 0.0527635 0.105332 -0.0500236 -0.0142418 -0.0350189 0.0655948 0.0220012 -0.0357785 -0.00799879 0.0320012 0.0220012 0.152102 
-0.111858 0.0778142 0.118448 0.0404775 0.0824516 0.122959 0.114222 0.0778142 0.0378142 -0.0121858 0.0078142 0.0832327 0.11477 0.0785107 0.117849 0.0372817 0.0635406 0.0972817 0.0078142 -0.0121858 -0.0121858 0.0578142 0.0650216 0.0650216 -0.0121858 0.0478142 0.0578142 0.0578142 0.0678142 0.0578142 0.0628441 0.11827 0.0982705 0.0420437 0.0110349 0.0368654 0.0227096 -0.0112808 -0.0121858 0.0778142 0.0056601 0.0562219 0.0748607 0.0078142 0.0078142 0.0334923 0.0714803 0.122452 0.0299117 -8.82638e-05 0.0832975 -0.0668849 0.0478142 0.0742492 0.0471522 0.0671522 0.0278142 0.0150216 0.0588774 0.0300317 0.0877395 0.032645 0.0285107 0.0178142 0.0678142 0.0578142 0.107493 0.0601064 -0.0149348 -0.00635478 0.14419 0.0112714 0.0463694 0.0786095 0.0078142 0.0778142 -0.0121858 0.0678142 0.0678142 0.0750216 -0.00497843 0.0178142 0.0778142 0.0678142 0.0778142 0.0286095 0.0120437 0.0178142 0.10477 0.0585107 0.0209534 0.0442752 0.04023 -0.00250986 -0.00592686 -0.0121858 -0.00128081 -0.0021858 0.0478142 0.0078142 0.0854295 
-0.0890574 0.0800943 0.0452429 0.0820389 0.07135 0.172161 0.0632175 0.0500943 0.0800943 0.0500943 0.0500943 0.0743559 0.0468407 0.0325614 0.100376 0.0566721 0.0809514 0.0366721 9.42574e-05 0.0300943 0.0800943 0.0100943 0.0476448 0.0376448 9.42574e-05 0.0400943 0.0400943 0.0200943 0.0400943 9.42574e-05 0.0484843 0.061752 0.031752 0.0375776 0.0573967 0.0482949 -0.00501089 0.00128521 9.42574e-05 0.0300943 0.0280884 0.00923542 0.072066 0.0300943 0.0100943 0.0587395 0.0665753 0.06135 0.0620297 0.0120297 0.0444209 -0.0693523 9.42574e-05 0.0828152 -0.002091 -0.002091 0.0600943 0.0576448 0.0804591 0.0696333 0.0833792 0.0189622 0.0925614 0.0700943 0.0400943 0.0800943 0.117047 0.0363484 -0.0164231 0.0512357 0.141356 -0.00196158 0.0487557 0.0373011 0.0300943 0.0400943 0.0300943 0.0500943 0.0500943 -0.0023552 0.0376448 -0.00990574 0.0800943 0.0800943 0.0400943 0.0873011 0.0175776 -0.00990574 0.0468407 0.0925614 0.0969336 0.0030311 -0.0161679 0.0153959 0.0443736 0.0500943 0.0312852 0.0200943 0.0500943 0.0500943 0.0499687 
-0.045666 0.0344334 0.0544635 0.0331876 0.0405765 0.0719582 0.0362125 0.0344334 0.0344334 0.0844334 0.0144334 0.053419 0.0260771 0.0328859 0.080818 -0.00836355 0.0648276 0.0816364 0.0244334 0.0244334 0.0844334 0.0644334 0.0812879 0.00128787 0.0544334 0.0644334 0.0844334 0.0044334 0.0044334 0.0744334 -0.0136249 0.0929555 0.0629555 0.0589005 0.0117197 0.00605316 0.0939259 0.00316477 -0.0055666 0.0444334 0.0411222 0.073106 0.0338273 0.0244334 0.0744334 0.0725946 0.0750337 0.0505765 0.021017 0.041017 0.088748 -0.0222596 0.0844334 0.0534235 0.00236545 0.0523654 -0.0055666 0.0512879 0.0136141 0.0362978 -0.00413239 0.0073782 0.0428859 0.0144334 0.0544334 0.0544334 0.0817402 0.0648636 0.0595646 0.0160844 0.114925 0.0398827 0.0933681 0.00432331 0.0644334 0.0344334 0.0244334 0.0444334 0.0144334 0.0112879 0.0812879 -0.0055666 0.0344334 0.0044334 0.0844334 0.0643233 0.0289005 0.0444334 0.0460771 0.0328859 0.0688661 0.11574 0.0368563 -0.0480847 0.0476246 0.0044334 -0.0268352 0.0444334 -0.0055666 0.0044334 0.0266315 
-0.28699 0.010301 0.202899 0.114779 0.154201 0.355728 0.135044 -0.019699 0.040301 -0.029699 0.040301 -0.00450185 0.0662946 0.0988446 0.122967 0.154702 0.142152 0.104702 0.050301 -0.029699 -0.009699 0.030301 0.0102195 -0.00978046 0.020301 -0.019699 0.010301 0.040301 -0.029699 0.030301 0.0436083 0.0455095 0.105509 0.0658711 0.00521757 -0.0266346 -0.0340097 -0.0379887 0.020301 0.020301 -0.095427 0.0125877 0.276474 0.000300996 0.030301 0.0745622 0.0672937 0.204201 -0.0211 -0.0111 0.0986857 -0.247573 0.040301 0.235753 0.0544235 0.0244235 -0.019699 -0.0297805 0.0706339 0.0637731 0.0792976 -0.0332452 0.0888446 -0.019699 -0.029699 0.060301 0.150203 0.0147766 -0.0544945 0.0561251 0.169263 -0.0461966 -0.0529163 0.019207 -0.029699 0.030301 -0.029699 0.060301 0.050301 -0.0197805 0.000219545 0.040301 0.040301 -0.019699 0.060301 0.039207 0.125871 -0.029699 0.0862946 0.0488446 0.0402376 -0.0546471 -0.0612141 -0.0121314 0.00775098 -0.009699 -0.0279887 0.000300996 -0.029699 0.060301 0.115657 
-0.457474 -0.0167474 0.235804 0.106889 0.280529 0.458905 0.232945 -0.0367474 0.0432526 0.0032526 0.0032526 -0.0390815 0.122453 0.0706112 0.0960855 0.129285 0.241127 0.219285 0.0032526 -0.0167474 0.0232526 0.0332526 -0.0448094 -0.00480938 0.0432526 0.0132526 -0.0067474 0.0332526 -0.0267474 -0.0467474 0.093768 0.134378 0.0543776 0.104009 0.0251963 -0.0519849 0.0198783 -0.112309 -0.0067474 -0.0467474 -0.168062 -0.0633643 0.417313 -0.0167474 0.0232526 0.00626693 -0.0424496 0.240529 -0.0204656 0.0195344 0.107744 -0.332711 0.0432526 0.326537 0.0387269 -0.0312731 -0.0167474 0.0151906 -0.0132684 -0.0248012 0.120394 -0.0665805 0.0906112 -0.0467474 -0.0267474 0.0032526 0.226136 -0.0519423 -0.100495 0.0958056 0.335808 -0.152792 -0.0932508 0.0411947 0.0032526 0.0132526 0.0232526 0.0432526 0.0232526 -0.0348094 -0.0148094 0.0032526 -0.0367474 -0.0367474 0.0132526 0.0611947 0.154009 -0.0167474 0.102453 0.0406112 0.0287011 -0.106301 -0.102233 -0.00363532 -0.00490599 -0.0267474 -0.102309 -0.0167474 -0.0067474 0.0432526 0.222218 
-0.191771 -0.000177057 0.0905227 0.038527 0.185052 0.190249 0.117027 -0.0101771 0.00982294 -0.0101771 0.0598229 0.00516165 0.0725939 0.034788 0.0732398 0.106711 0.114516 0.0867106 -0.0201771 0.0598229 0.0198229 0.0498229 0.049291 0.039291 -0.0101771 0.0498229 -0.000177057 -0.0201771 0.00982294 0.0598229 0.0495513 0.10282 0.06282 0.0596244 0.0128679 0.0603135 -0.0224913 -0.0514536 0.0398229 0.0198229 -0.04266 -0.0517247 0.17796 -0.0101771 -0.0101771 0.0723999 0.04093 0.185052 0.0124102 0.0524102 0.0749492 -0.156346 0.0298229 0.157802 0.0282747 0.0182747 0.00982294 0.029291 0.00178337 0.017275 0.0772371 0.0435601 0.104788 0.0398229 0.0298229 -0.0101771 0.133585 0.0198608 -0.0149976 0.0833129 0.199674 -0.0131579 -0.0273903 0.0595163 0.0398229 0.0298229 0.0398229 -0.000177057 -0.0201771 -0.020709 -0.010709 0.0698229 0.0598229 0.00982294 0.0598229 0.0495163 0.109624 0.0398229 0.102594 0.114788 0.101525 -0.0479502 -0.0327278 0.0404689 0.0276288 0.0698229 0.0185464 -0.0101771 0.0698229 -0.0201771 0.142163 
-0.188558 -0.00985575 0.137102 0.119986 0.181061 0.20398 0.0958934 0.0401442 0.0601442 0.0201442 -0.0198558 0.0474081 0.0398992 0.0494761 0.0507943 0.0805707 0.0609938 0.0705707 0.000144248 0.0101442 0.0101442 0.0401442 0.0589238 0.0389238 -0.00985575 0.0301442 0.0201442 0.0601442 0.0401442 0.0301442 0.0916619 0.0717634 0.111763 0.0376831 0.064876 0.00162737 -0.00996471 -0.0819136 0.0101442 0.0401442 -0.0509905 0.0493605 0.234109 -0.0198558 0.0301442 0.071103 0.0771093 0.121061 0.0705083 0.0105083 0.0670849 -0.156816 0.0201442 0.176542 0.0414625 0.0114625 0.0601442 -0.0210762 -0.014379 0.0559352 0.081553 0.0268221 0.0194761 -0.00985575 0.0601442 0.0601442 0.117794 -0.0454735 -0.0337162 0.0349571 0.145829 -0.0397538 0.0354054 0.0528653 -0.00985575 0.0101442 0.0501442 0.0601442 -0.0198558 0.0289238 0.0289238 -0.00985575 0.0101442 -0.0198558 -0.00985575 0.0528653 0.0876831 -0.0198558 0.0698992 0.109476 0.105372 -0.0474774 -0.00956622 -0.020819 0.0605674 0.0401442 -0.0719136 0.0701442 0.0701442 0.0501442 0.11426 
-0.196897 0.0693103 0.117097 0.0702419 0.17601 0.17752 0.10276 -0.000689669 0.00931033 -0.0206897 0.0493103 0.034865 0.0970692 0.0268993 0.0878018 0.0947893 0.124959 0.0647893 0.0193103 0.0593103 0.0393103 -0.000689669 0.0179387 0.00793869 0.0493103 0.0193103 0.0393103 0.0593103 0.0493103 0.0693103 0.0473703 0.119435 0.0494346 0.0563354 0.0784188 0.0681904 0.0694226 0.00732576 0.0293103 -0.000689669 -0.0524003 -0.0246663 0.20953 0.0293103 -0.0206897 0.0596096 0.00482421 0.17601 0.0192645 0.0492645 0.113788 -0.188216 -0.000689669 0.144574 0.0102128 0.0502128 0.0193103 0.0579387 0.0729759 0.073258 0.0874825 0.0267273 0.0268993 0.0693103 -0.000689669 -0.0106897 0.152496 -0.00491418 -0.0440206 0.0419398 0.163637 -0.0614085 0.0469714 0.0913616 -0.0106897 -0.0206897 -0.000689669 0.0193103 -0.0106897 -0.0120613 0.0479387 -0.000689669 0.0693103 0.0293103 0.0693103 0.0413616 0.116335 0.0593103 0.0370692 0.0168993 0.106638 0.0134053 0.0186404 0.0052158 0.0794803 0.0593103 -0.0526742 0.0293103 -0.000689669 0.0493103 0.130859 
-0.12622 0.046378 0.104433 0.106268 0.144201 0.160745 0.032225 0.016378 0.056378 0.00637797 -0.013622 0.0309124 0.0612545 0.0214535 0.103211 0.0234419 0.083243 0.0434419 0.046378 0.016378 0.016378 0.046378 0.0334203 0.0334203 0.016378 0.066378 -0.00362203 -0.013622 0.066378 -0.00362203 0.0681675 0.026569 0.056569 0.024344 0.0123931 0.0653196 0.00196285 0.00842276 0.016378 0.066378 0.0500738 0.0586406 0.109216 -0.013622 0.036378 0.0620927 0.106076 0.144201 0.00364197 0.053642 0.0763865 -0.111113 0.066378 0.0839233 0.0181351 0.0881351 0.00637797 0.00342035 0.0213367 0.0367227 0.0737524 -0.00908411 0.0214535 0.066378 0.016378 0.076378 0.155756 -0.0106518 0.00352493 0.0214643 0.10618 -0.0199147 0.0751247 0.0412656 0.026378 0.056378 0.076378 0.056378 0.056378 0.0434203 0.0434203 0.00637797 0.046378 -0.013622 0.00637797 0.0212656 0.054344 0.036378 0.0612545 0.0514535 0.0556092 0.0656433 0.038258 -0.0695888 -0.00382094 0.016378 -0.0115772 0.076378 0.076378 -0.013622 0.0670885 
-0.348091 0.0141909 0.157082 0.0990195 0.239208 0.327754 0.240498 -0.0258091 0.0141909 0.0241909 -0.00580908 0.00843607 0.116121 0.0408806 0.0729771 0.167057 0.112297 0.177057 0.00419092 0.0341909 0.0341909 -0.0358091 -0.0349629 0.0450371 0.00419092 0.0341909 -0.0158091 -0.0258091 0.0441909 0.0241909 0.0656074 0.113756 0.0437558 0.0774936 0.0853935 0.0354512 0.0457705 -0.0759511 -0.00580908 0.0541909 -0.103751 -0.0441919 0.332162 0.00419092 -0.0158091 0.0404978 0.0253866 0.209208 -0.0278037 0.0421963 0.0283076 -0.178478 -0.0358091 0.302192 -0.00371261 -0.0237126 0.0141909 0.0150371 -0.0194377 -0.0226176 0.0771869 -0.0708 0.110881 0.00419092 0.0541909 0.0341909 0.194329 -0.0656136 -0.0845096 0.104041 0.2575 -0.0573661 -0.0681522 0.00353187 0.0541909 0.0341909 -0.0358091 -0.0358091 0.0141909 0.0550371 -0.0249629 0.0341909 0.0541909 0.0541909 0.0441909 0.0835319 0.0774936 -0.0358091 0.0361212 0.0508806 0.0844914 -0.098508 0.000212999 -0.0297752 0.0294315 -0.00580908 -0.0459511 0.0141909 0.00419092 -0.0258091 0.143605 
-0.229192 0.0160808 0.10065 0.14272 0.153159 0.254551 0.190204 0.0560808 0.0560808 0.0460808 0.0560808 -0.0115123 0.0797565 0.0845657 0.0672108 0.11548 0.11067 0.12548 -0.0239192 0.0560808 0.0160808 -0.0239192 -0.0149524 -0.0049524 -0.0239192 0.0560808 0.0260808 0.0460808 -0.00391919 -0.0139192 0.0821854 0.0943754 0.124375 0.109201 0.00678196 0.0241168 0.0443902 -0.0364157 0.0260808 -0.00391919 -0.0130988 -0.00925547 0.246716 -0.00391919 -0.0139192 -0.00904727 0.0609467 0.173159 -0.0217261 0.00827391 0.0560177 -0.211946 0.0460808 0.190825 -0.0112741 0.0787259 -0.0239192 -0.0149524 0.0341229 0.017623 0.0504948 0.0252415 0.0545657 0.0660808 -0.00391919 -0.0139192 0.180145 -0.046791 -0.0248182 0.0151895 0.155202 -0.0530429 0.0316453 0.00712101 0.0160808 -0.0139192 -0.0139192 -0.0239192 -0.00391919 -0.0249524 -0.0249524 0.0460808 0.00608081 0.0360808 -0.0239192 0.097121 0.129201 -0.0139192 0.0397565 0.0345657 0.058993 0.00501472 -0.0406065 0.00449818 0.0312715 -0.0239192 -0.0564157 0.0460808 -0.0239192 0.0360808 0.136945 
-0.193355 -0.0103355 0.170845 0.0922761 0.185338 0.179962 0.09644 -0.000335529 0.0196645 0.0596645 0.0696645 0.0222235 0.116503 0.0670936 0.0679816 0.0578873 0.127296 0.117887 0.0296645 -0.0203355 0.0496645 0.0396645 0.0287539 0.0687539 0.0396645 -0.0203355 0.0696645 0.0496645 -0.0203355 0.0696645 0.0598673 0.0833802 0.10338 0.0576421 0.0622831 0.0367382 -0.000595971 0.00810337 -0.0103355 -0.0103355 -0.0348194 0.020564 0.177955 0.0396645 0.0596645 0.0328409 0.0760114 0.155338 -0.0123985 0.0576015 0.0676684 -0.137238 -0.0203355 0.158534 0.0805524 0.0605524 -0.0203355 -0.00124608 0.0235676 0.0727163 0.0296068 0.0464503 0.0870936 -0.000335529 0.0396645 -0.0103355 0.167458 0.022774 -0.0493215 0.0435101 0.146639 -0.00175868 -0.017028 0.0515553 -0.0103355 -0.0203355 0.0196645 0.0396645 0.0596645 0.0187539 0.0187539 0.0396645 0.00966447 0.0596645 -0.000335529 0.0415553 0.0576421 0.0296645 0.0765027 0.0870936 0.0271249 -0.0595522 -0.0359162 -0.051103 0.0390736 0.0696645 -0.00189663 0.0196645 -0.000335529 -0.000335529 0.097709 
-0.102097 0.00879026 0.0738734 0.0999743 0.148171 0.0972504 0.0350893 0.00879026 0.0687903 0.0787903 0.0587903 0.00326267 0.0484812 0.070462 0.0606748 0.0982593 0.0562786 0.0682593 -0.00120974 0.0787903 -0.00120974 -0.0112097 0.0660663 0.0660663 0.0187903 0.0787903 -0.00120974 0.0287903 -0.0112097 0.0387903 0.0446068 0.0348761 0.0748761 0.0807087 0.0028985 0.0647635 0.0838895 -0.0714948 0.0387903 0.0587903 -0.0214055 -0.00823345 0.131752 0.0787903 0.0387903 0.0248628 0.107942 0.0881705 0.0450864 0.0150864 0.0360626 -0.115101 0.0787903 0.120446 0.0690031 0.0190031 0.0687903 0.0560663 0.031684 0.0148025 0.0597061 0.0556316 0.040462 0.0487903 0.0287903 0.0587903 0.0996702 0.0138867 0.0363474 0.00209533 0.0723893 0.00489584 0.0247104 0.0211086 0.0387903 0.0487903 0.0687903 0.0287903 0.0687903 0.0560663 -0.00393366 0.0687903 0.0287903 0.0587903 0.0587903 0.00110859 0.0807087 0.00879026 0.0884812 0.070462 0.022165 0.0209408 -0.0178771 0.00630253 0.0368095 0.0287903 -0.0314948 0.0187903 -0.00120974 -0.00120974 0.0816848 
-0.301487 0.0488513 0.196849 0.152208 0.177907 0.33151 0.157544 0.0588513 -0.0311487 -0.0311487 0.0488513 -0.0444908 0.042957 0.0470348 0.110925 0.131011 0.166933 0.131011 0.0388513 0.0588513 0.0588513 0.0188513 0.0182714 0.0182714 0.0588513 0.0188513 0.0488513 -0.00114872 0.00885128 -0.0311487 0.128749 0.0759889 0.115989 0.0594152 0.0351854 -0.0230524 0.0340239 -0.0794465 -0.0111487 -0.0111487 -0.048519 -0.00714878 0.334613 -0.00114872 -0.0311487 0.0709715 -0.0153725 0.157907 -0.0142814 -0.0342814 0.0773743 -0.197823 0.0188513 0.21986 0.0127417 0.00274168 -0.00114872 -0.00172859 0.0332916 0.0343864 0.103922 -0.0483409 0.0370348 0.0388513 0.0188513 -0.00114872 0.158503 -0.0806842 -0.0704602 0.069301 0.210856 -0.101928 -0.0225021 0.0991138 0.0188513 0.0188513 0.0188513 -0.0311487 0.0588513 -0.0117286 0.0382714 -0.0311487 -0.0111487 0.0488513 0.0188513 0.0991138 0.0694152 -0.0111487 0.092957 0.0870348 0.0154677 -0.063986 0.000554556 0.0145294 0.0547735 0.00885128 -0.0494465 0.0188513 -0.0211487 0.0488513 0.131071 
-0.141562 0.00484381 0.0517332 0.051582 0.138955 0.204412 0.0620441 0.0248438 0.0548438 -0.0151562 0.0448438 0.0126281 0.0263281 0.0486986 0.107991 0.105548 0.0731771 0.0255476 0.0748438 0.0448438 0.0748438 -0.0151562 0.0333641 0.0333641 0.0448438 0.0448438 -0.00515619 0.0648438 0.0448438 0.00484381 0.0793224 0.0335378 0.0935378 0.0226245 0.0430117 -0.0140359 0.0774582 0.0188033 0.0248438 0.00484381 0.00948603 0.0573 0.181273 0.0748438 0.0348438 0.0930938 0.0801747 0.108955 -0.00308181 0.0469182 0.107978 -0.156785 0.0148438 0.162974 0.0341361 0.0441361 -0.00515619 -0.00663589 0.0788832 0.0391271 0.0619368 -0.00569154 0.0586986 -0.00515619 0.0248438 0.0748438 0.12668 0.0320342 -0.008531 0.0404388 0.081581 -0.0379288 0.0365975 0.0692017 0.0748438 0.0448438 0.00484381 0.0248438 -0.00515619 0.0133641 0.0333641 -0.00515619 0.0248438 0.0348438 0.0448438 0.0692017 0.0126245 0.0448438 0.106328 0.0386986 0.0978207 0.0107911 0.0198265 0.00565228 0.0524733 0.00484381 -0.0211967 -0.00515619 0.0248438 0.00484381 0.0936841 
-0.334021 -0.0044021 0.155341 0.0888883 0.213754 0.379524 0.188667 0.0555979 0.0555979 -0.0044021 -0.0344021 -0.0390577 0.0471935 0.0535507 0.113969 0.127935 0.181578 0.137935 0.0455979 -0.0044021 0.0155979 -0.0344021 -0.0233033 -0.0133033 0.0255979 -0.0044021 0.0555979 0.0255979 -0.0244021 0.0255979 0.0636255 0.0426107 0.0926107 0.145693 0.0918054 -0.0160238 -0.0233756 -0.0158777 -0.0144021 0.0555979 -0.142901 -0.0324566 0.318016 -0.0144021 0.0555979 -0.0112606 0.0524092 0.193754 -0.0468945 0.0431055 0.0359233 -0.169236 -0.0344021 0.222267 0.0460162 0.0160162 0.0355979 0.00669665 0.0503064 -0.00502424 0.094652 -0.0388942 0.113551 -0.0044021 -0.0144021 0.0455979 0.18043 -0.0940784 -0.045484 0.13217 0.264947 -0.122268 -0.0372885 0.0739236 -0.0244021 0.0355979 0.0355979 0.0455979 0.0255979 0.0466967 -0.0233033 -0.0144021 -0.0344021 0.0255979 -0.0144021 0.00392357 0.0956931 0.0355979 0.107193 0.113551 0.084961 -0.0981521 -0.0468083 -0.0314929 -0.0207593 0.0255979 -0.0558777 0.0155979 -0.0244021 0.0455979 0.168511 
0.0453691 0.0735369 -0.0805522 -0.0295908 -0.0229021 -0.0890244 -0.125595 0.0635369 0.0635369 0.00353691 0.0735369 0.0365021 0.026665 0.00260639 0.028659 -0.070426 -0.0463674 -0.010426 0.00353691 0.0535369 0.0235369 0.0235369 0.0882523 0.00825227 0.0735369 0.0335369 0.0235369 0.0435369 0.0935369 0.0235369 -0.0254369 0.0321578 -0.0178422 -0.0233659 0.00175639 -0.00718512 0.0866781 0.0537356 0.00353691 0.0835369 0.104755 0.0689401 -0.181887 0.0535369 0.0135369 0.08759 0.120656 -0.0629021 0.0618653 0.0818653 0.0266743 0.0515603 0.0235369 -0.164624 0.00958955 0.0995895 0.0335369 0.0882523 -0.0102513 0.0869484 0.0377043 0.144644 0.0126064 0.0235369 0.0735369 0.0435369 0.0575266 0.092781 0.0528762 -0.134098 -0.0138238 0.0700638 0.107644 0.043668 0.0535369 0.0935369 0.0535369 0.0935369 0.0435369 0.0482523 0.0882523 0.0735369 0.0835369 0.0335369 0.0335369 0.053668 -0.0333659 0.0135369 0.036665 0.0626064 0.0485062 0.159941 0.100651 -0.0392968 -0.00240452 0.0535369 0.0337356 0.00353691 0.0635369 0.0735369 -0.108557 
-0.612679 0.0277321 0.334648 0.105859 0.334618 0.607981 0.312729 0.0077321 -0.0522679 -0.0622679 0.0177321 -0.0595056 0.0835609 0.0984555 0.103874 0.233544 0.23865 0.163544 -0.0622679 -0.0122679 0.0077321 -0.0322679 -0.00886816 -0.00886816 -0.0122679 -0.0022679 -0.0622679 -0.0322679 -0.0322679 -0.0422679 0.187926 0.113787 0.0737871 0.211627 0.0449208 -0.0471574 -0.0636925 -0.155099 -0.0522679 -0.0522679 -0.253246 -0.126054 0.595735 -0.0322679 0.0177321 -0.019701 -0.0616254 0.264618 -0.0487036 -0.0687036 0.0319174 -0.407169 -0.0622679 0.476796 0.0331502 -0.0368498 -0.0122679 -0.0588682 -0.035233 -0.00155218 0.116502 -0.0925753 0.0784555 -0.0522679 -0.0422679 0.0277321 0.2496 -0.090322 -0.152385 0.149519 0.382663 -0.191091 -0.12955 0.0579421 -0.0022679 0.0277321 -0.0422679 0.0277321 -0.0622679 0.0211318 -0.0188682 -0.0322679 0.0177321 -0.0022679 0.0277321 0.0679421 0.171627 -0.0622679 0.143561 0.108455 0.0395424 -0.225211 -0.108911 0.0299901 -0.0171625 -0.0322679 -0.155099 -0.0522679 -0.0122679 0.0077321 0.302248 
-0.149787 0.0540213 0.13766 0.0612952 0.112802 0.143836 0.119815 0.0140213 0.0540213 0.0340213 0.0640213 0.045143 0.0715404 0.0590146 0.0817935 0.0786651 0.0711909 0.0686651 0.0540213 -0.00597873 0.0240213 0.0140213 0.00177325 0.0717732 0.0440213 0.0340213 0.0240213 0.0140213 0.0240213 0.0240213 0.0261977 0.047888 0.037888 0.0129124 0.0406828 0.0248889 0.0382187 -0.0874279 0.0740213 0.0240213 0.0304783 0.0214067 0.107783 0.0240213 0.0740213 0.00745873 0.0811947 0.162802 0.0410432 -0.00895681 0.0969995 -0.148004 0.0540213 0.148456 0.0368002 0.0668002 0.0140213 -0.0182268 0.081153 0.00787621 0.0403951 0.0130309 0.0290146 0.0640213 0.00402127 -0.00597873 0.0902757 0.0315024 0.00221279 -0.0235435 0.184583 -0.0319439 0.0474222 0.0829785 0.0240213 0.0340213 0.0640213 -0.0159787 0.0340213 0.0417732 0.0617732 0.0440213 -0.0159787 0.0440213 0.0340213 0.0729785 0.0229124 -0.00597873 0.0515404 0.0690146 0.094832 0.023291 0.000250288 -0.0677773 0.0165471 -0.0159787 -0.0874279 0.00402127 0.0340213 -0.0159787 0.108869 
-0.200304 0.0489696 0.122888 0.120232 0.148197 0.275746 0.0912772 0.0389696 0.0189696 0.0389696 0.0289696 0.0243074 0.0930069 0.0239013 0.103107 0.077707 0.0868125 0.117707 -0.0110304 0.0489696 -0.0210304 0.00896963 0.0583894 0.0683894 0.0489696 -0.0210304 -0.0110304 -0.00103037 -0.0210304 0.00896963 0.0618808 0.0415254 0.121525 0.100731 0.0700974 -0.00697602 -0.00256499 -0.046059 0.00896963 0.0689696 -0.0071158 -0.0395744 0.193121 0.0489696 -0.0210304 0.0527586 0.00266568 0.188197 -0.0252401 0.0147599 0.0882073 -0.107714 0.0189696 0.169354 0.0681758 0.0581758 -0.0210304 0.0383894 0.0231169 0.0706879 0.0503462 -0.00783824 0.0639013 0.0289696 0.0489696 0.0189696 0.15566 0.0393113 -0.00606541 0.0606336 0.178934 0.0238794 -0.0486436 0.0521943 0.0489696 0.0489696 0.0589696 0.0689696 0.0689696 -0.0216106 -0.0216106 0.0489696 0.00896963 -0.00103037 0.0689696 0.0121943 0.0507306 -0.0110304 0.0830069 0.0739013 0.0922091 0.00170954 -0.0354602 -0.0122534 -0.0119248 -0.0210304 -0.036059 0.0289696 -0.0210304 0.0589696 0.114178 
-0.0989604 -0.000896043 0.0639527 0.0472709 0.117554 0.136621 0.0941003 -0.010896 0.049104 -0.000896043 0.059104 0.0327496 0.0182148 0.011643 0.11059 0.0701856 0.0567574 0.0801856 0.039104 0.069104 0.039104 -0.010896 0.076796 0.00679599 0.049104 -0.010896 0.019104 0.059104 0.079104 0.029104 0.0742183 0.0632765 0.103277 0.0223576 0.0162078 0.0117134 -0.00613804 0.0248374 0.049104 0.029104 0.00541844 0.0295012 0.0901223 0.039104 0.069104 0.0266844 0.026761 0.067554 0.00297894 0.0429789 0.076569 -0.10547 0.00910396 0.131734 0.0380509 0.0580509 0.029104 0.046796 0.0116369 0.0229667 0.0689763 0.0554607 0.071643 -0.010896 0.019104 0.059104 0.0807518 -0.0169057 -0.0145397 0.0206301 0.149286 0.0147368 0.04908 0.0297913 -0.010896 0.029104 -0.010896 0.00910396 0.049104 0.016796 0.026796 0.029104 0.079104 0.00910396 0.079104 0.0797913 0.00235763 0.00910396 0.0782148 0.071643 0.0988783 0.00839798 0.0415581 -0.03662 0.0856758 0.059104 0.0148374 0.059104 0.019104 -0.000896043 0.0659477 
-0.104336 0.00856637 0.0836242 0.0487292 0.156527 0.164625 0.0733112 0.0485664 0.0685664 0.0285664 0.0785664 0.07179 0.017223 0.079894 0.0790139 0.0478273 0.0451563 0.107827 0.0785664 0.0285664 0.0685664 -0.00143363 0.00597101 0.045971 -0.00143363 0.0185664 0.0785664 -0.00143363 -0.00143363 0.0585664 0.0338287 0.0336479 0.0336479 0.0307904 0.0434166 -0.00804959 -0.00640988 -0.0584653 0.0185664 0.00856637 -0.00467429 -0.0106946 0.149736 0.0785664 0.0485664 0.034333 0.0152255 0.106527 0.0435796 0.00357959 0.034788 -0.0802197 0.00856637 0.0999281 0.0676863 0.0476863 0.0785664 0.065971 0.0110579 0.00341068 0.0388525 0.0754346 0.00989398 0.0485664 0.0185664 0.0485664 0.0675513 0.0731246 -0.0161612 0.0250863 0.0687893 0.0640426 0.0208274 0.0102374 0.0785664 0.0685664 0.0585664 0.0585664 0.0685664 0.015971 0.025971 0.0385664 0.0185664 0.0385664 0.0785664 0.0302374 0.0507904 -0.00143363 0.107223 0.089894 0.0500546 0.0791127 0.0396002 0.019468 0.0358954 0.0785664 -0.0384653 0.0785664 0.0685664 0.0485664 0.121999 
-0.353879 0.0236121 0.175433 0.0754092 0.230145 0.362385 0.235048 0.0336121 0.00361211 0.0336121 0.0436121 0.00854783 0.0510054 0.0956635 0.117966 0.162354 0.167695 0.162354 -0.00638789 -0.00638789 -0.00638789 0.0536121 0.0444142 0.0144142 0.0336121 -0.0263879 -0.0163879 0.00361211 -0.0263879 0.0336121 0.125644 0.0578819 0.127882 0.0889777 0.0496012 0.00974023 0.0346983 -0.0873796 0.0536121 -0.0263879 -0.151724 -0.005192 0.343253 0.0236121 0.0536121 0.0333815 -0.00496801 0.190145 -0.0197417 0.0302583 0.0422401 -0.232273 -0.0363879 0.226398 -0.0140853 -0.0140853 0.0236121 0.0544142 0.0180898 0.00451781 0.0667302 -0.0341247 0.105663 -0.0163879 0.0336121 0.0136121 0.14529 -0.0186003 -0.0926085 0.0800374 0.249824 -0.046327 -0.0901561 0.0538938 0.0236121 0.00361211 -0.0163879 -0.0163879 0.0336121 -0.0355858 -0.0255858 -0.0363879 -0.0263879 -0.00638789 -0.0363879 0.0538938 0.148978 0.0236121 0.111005 0.0256635 0.0290712 -0.114035 -0.0122872 -0.0306895 0.00895402 -0.00638789 -0.0273796 -0.00638789 0.0336121 0.0536121 0.17096 
-0.115243 0.0374757 0.0603938 0.0715392 0.147558 0.142105 0.0602617 -0.00252433 0.0774757 0.0574757 0.0174757 0.0696692 0.0273273 0.0792617 0.0494942 0.0901271 0.0781927 0.0501271 0.00747567 0.0774757 0.00747567 0.00747567 0.0452881 0.0152881 0.0374757 0.0674757 0.0574757 -0.0125243 0.00747567 0.0774757 0.0364066 0.052998 0.102998 0.0643958 0.0519637 0.0317178 0.0721347 -0.0112618 0.0174757 0.0774757 0.000831792 -0.0038216 0.112292 0.0774757 -0.00252433 0.091768 0.0225142 0.107558 0.0624332 0.0224332 0.024095 -0.159964 0.0774757 0.0675208 0.0477081 0.0177081 -0.0125243 0.0452881 0.0409716 0.0336962 0.0110657 0.0424027 0.0992617 0.0674757 -0.00252433 0.0774757 0.0792216 -0.0198938 -0.0258658 0.0474444 0.103521 0.010911 0.0394174 0.0603742 0.0774757 0.0174757 0.0774757 0.0474757 0.0774757 0.0652881 0.0452881 0.0474757 0.0474757 0.0374757 0.0574757 0.0603742 0.0843958 -0.00252433 0.0473273 0.0592617 0.0716776 0.0452658 0.0169411 -0.000396378 0.0455412 -0.0125243 -0.0712618 -0.0125243 -0.00252433 0.0374757 0.0960576 
0.0282357 0.0418236 -0.0699387 -0.0162134 -0.0500848 -0.0480194 -0.0803834 0.00182357 0.0618236 0.0818236 0.00182357 0.0687228 0.0147711 -0.0141518 0.0344911 -0.0696375 -0.0107147 -0.0796375 0.00182357 0.0318236 0.0218236 0.0718236 0.0460498 0.0060498 0.00182357 0.0218236 0.0918236 0.0518236 0.0518236 0.0418236 -0.0547393 0.0172111 0.00721109 -0.0529789 -0.0337091 0.00399054 0.113952 0.0387546 0.0818236 0.0218236 0.0736837 0.00806825 -0.121763 0.0618236 0.0918236 0.072366 0.134324 -0.0300848 0.0467054 0.0167054 0.051553 0.00609934 0.00182357 -0.068043 0.0304665 0.0704665 0.0218236 0.0660498 0.0220327 0.0330844 0.00738963 0.0494852 0.0558482 0.0318236 0.0118236 0.0118236 -0.0117384 0.137518 0.0523411 -0.102023 -0.0728593 0.120186 0.0884793 0.04968 0.00182357 0.00182357 0.0118236 0.0218236 0.0118236 0.0060498 0.0760498 0.0618236 0.0118236 0.0618236 0.0418236 -0.02032 -0.0629789 0.0418236 0.0147711 0.0258482 0.0670725 0.173823 0.0741428 -0.0267311 0.0107464 0.0218236 -0.0312454 0.0318236 0.00182357 0.0918236 -0.0281313 
-0.0386421 0.0551358 0.0452048 0.0908561 0.0874926 0.0397529 0.0142752 0.0351358 0.00513579 -0.00486421 0.0251358 0.0674312 0.0273332 0.00476489 0.0431023 -0.0101141 0.0624543 0.0198859 0.0551358 0.0651358 0.0251358 0.0451358 0.0616028 0.0516028 -0.00486421 0.0751358 0.0851358 0.0751358 0.0351358 0.0451358 0.0528252 0.0123005 0.0923005 -0.0279473 0.0136996 0.016849 0.0259091 -0.0561897 0.0551358 -0.00486421 0.00555365 0.0359067 -0.0325358 0.0551358 0.0451358 0.0958241 0.0892677 0.0374926 0.0622603 0.0322603 0.0398 -0.098141 0.0451358 0.0240605 0.0234732 0.0334732 0.0651358 0.0816028 0.0234054 0.0967471 0.0635985 0.0310698 0.0947649 0.0251358 0.0751358 -0.00486421 0.10321 0.0582844 0.0282129 0.00035637 0.030165 0.0931328 0.0584947 0.0627882 0.0451358 0.0251358 0.0851358 0.0751358 0.0351358 0.0316028 0.0316028 0.0651358 0.0551358 0.0851358 0.0851358 -0.00721183 -0.0279473 0.0851358 0.0773332 0.00476489 0.109 0.0925559 0.061453 0.0189314 0.0177041 0.00513579 -0.0461897 0.0851358 0.0251358 0.0751358 -0.000407557 
-0.3341 0.02559 0.196056 0.0974816 0.207397 0.356185 0.202766 0.02559 0.03559 0.05559 0.04559 -0.00629024 0.101798 0.0492866 0.0994159 0.145523 0.108034 0.105523 -0.02441 -0.00440999 0.01559 0.01559 0.0270608 0.0370608 -0.02441 -0.00440999 0.02559 0.01559 0.02559 -0.02441 0.134337 0.0529339 0.132934 0.136675 0.0979059 -0.0482448 -0.0439374 -0.03384 -0.01441 -0.00440999 -0.0788379 -0.0816055 0.282033 0.01559 0.00559001 0.0200502 0.0211205 0.207397 0.0323992 0.0123992 0.0680009 -0.226619 -0.00440999 0.26928 0.0657193 0.0457193 0.04559 0.00706077 0.0106848 0.0436683 0.0548099 -0.0503997 0.0892866 -0.00440999 0.05559 -0.01441 0.217529 -0.0555516 -0.0705317 0.100942 0.207691 -0.0520902 -0.0439757 0.0444513 -0.02441 -0.01441 -0.02441 0.03559 -0.01441 -0.0129392 0.0270608 -0.00440999 -0.03441 -0.00440999 0.00559001 0.00445133 0.136675 0.01559 0.131798 0.119287 0.0434858 -0.111412 -0.0858682 0.0423964 -0.0118991 -0.03441 -0.04384 -0.02441 0.05559 0.01559 0.172277 
-0.0413634 0.0648637 0.0729709 0.0795859 0.0432815 0.0534468 -0.015448 0.0348637 0.0248637 0.0548637 0.0648637 0.0349452 0.0603782 0.079243 0.0457323 0.028657 0.0697921 0.048657 0.0848637 0.0548637 0.00486366 0.0248637 0.0719285 0.0419285 0.00486366 0.00486366 0.00486366 0.00486366 0.0248637 0.0248637 -0.00458718 0.0433953 0.0633953 0.00938389 0.0417648 0.0411571 0.0232633 0.02209 0.0848637 0.0248637 0.0137441 0.0121321 0.0407655 0.0348637 0.0548637 0.0250734 0.113707 0.103282 0.057791 0.047791 0.0497546 -0.00466058 0.0248637 0.0789506 0.081353 0.061353 0.0748637 0.0319285 -0.00747615 0.0920587 0.0438125 0.0260736 0.049243 0.0448637 0.0648637 0.00486366 0.048831 0.0631099 0.0131055 -0.00901048 0.0964391 0.0691153 0.0251477 -0.00721368 0.0848637 0.0248637 0.0848637 -0.00513634 -0.00513634 0.00192846 0.0819285 0.0148637 0.0848637 -0.00513634 0.00486366 0.0727863 -0.0206161 0.0248637 0.0503782 0.059243 0.0947866 0.110809 0.0479599 -0.028496 0.0559988 0.0348637 -0.02791 0.0548637 0.0648637 0.0148637 0.0313474 
-0.108377 -0.00183767 0.0750616 0.0985231 0.0644194 0.126397 0.0882189 0.0481623 -0.00183767 -0.0118377 0.0181623 0.0107853 0.0459793 0.0477956 0.0576619 0.108071 0.0562547 0.018071 -0.00183767 -0.0118377 0.0781623 0.0481623 0.0158071 0.0158071 0.0681623 0.0681623 0.0381623 0.0781623 0.0281623 0.0281623 0.0566213 0.0626765 0.0526765 0.0528845 0.0109651 0.00509828 -0.00720603 -0.0504864 0.0181623 0.0181623 0.0375365 0.039133 0.136144 0.0781623 0.0181623 0.0509967 0.0638548 0.0744194 0.0441263 0.00412632 0.0931582 -0.135735 0.0181623 0.100063 -0.0019714 0.0680286 0.0181623 -0.0141929 -0.00775989 0.0050554 0.021253 -0.0162457 0.0377956 0.0281623 -0.00183767 0.0381623 0.104877 0.00196475 0.00854666 0.0038691 0.148527 0.0316172 0.051094 0.0808734 -0.0118377 -0.0118377 0.0681623 0.0181623 -0.00183767 0.0558071 -0.0141929 -0.0118377 0.0681623 0.0481623 0.0481623 0.0608734 0.0528845 0.0181623 0.0159793 0.0677956 0.0893765 -0.012577 0.0502049 -0.00021099 0.086346 0.00816233 -0.0304864 0.00816233 0.0581623 -0.00183767 0.111916 
-0.117781 0.00722189 0.0443967 0.0382191 0.111402 0.176436 0.0606155 0.00722189 0.0272219 0.0672219 0.0372219 -0.00911691 0.0594185 0.049102 0.0910486 0.0394704 0.0397868 0.0594704 0.0172219 0.0572219 0.00722189 0.0672219 -0.00573665 0.0542634 -0.00277811 0.0472219 -0.0127781 0.00722189 0.00722189 0.0772219 0.0479067 0.0462352 0.0262352 0.0137159 0.0210925 0.0853789 0.0630053 0.0107609 0.00722189 0.0172219 0.0239939 -0.0109674 0.0978382 0.00722189 0.0572219 0.0822128 0.046034 0.161402 0.0845174 0.0845174 0.0655409 -0.115581 -0.0127781 0.0804934 0.0591684 0.0491684 0.0172219 -0.0157366 0.0215576 0.0476575 0.10369 0.00282258 0.089102 0.0572219 -0.00277811 -0.0127781 0.122389 0.0511893 0.0361213 -0.0208649 0.113152 -0.0169716 0.0192341 0.0813648 -0.0127781 0.0372219 0.0572219 0.0172219 0.0572219 0.0342634 0.0142634 0.0472219 0.00722189 -0.0127781 0.0472219 0.0213648 0.0537159 0.0472219 0.109418 0.089102 0.0280332 -0.00126346 0.0483548 0.0211293 0.0575383 0.0472219 0.000760949 0.0272219 0.0772219 0.0472219 0.0947394 
-0.0333702 0.025663 -0.0262121 0.0199402 0.0194417 0.063071 -0.050567 0.00566298 0.045663 0.045663 -0.00433702 0.0995543 0.0372401 0.00216799 0.00312277 0.00568735 0.0307595 0.0156874 0.015663 0.055663 -0.00433702 0.065663 0.0508483 0.0508483 0.045663 0.055663 0.045663 -0.00433702 0.055663 0.065663 0.00425446 0.0562453 0.0962453 0.0445828 -0.0104031 0.0451309 0.0814347 -0.0498791 0.045663 0.085663 0.0470081 0.0513781 -0.068683 0.015663 0.075663 0.0770227 0.0988955 0.0194417 0.0599656 0.0599656 0.0672495 -0.0825352 0.045663 0.00452111 0.0766177 0.0866177 0.065663 0.0608483 0.0332581 0.064102 -0.00997377 0.11107 0.00216799 0.085663 0.085663 0.055663 0.0254788 0.0597387 -0.00376381 -0.114454 0.00513956 0.0977568 0.0925946 0.0315755 0.085663 -0.00433702 0.045663 0.075663 0.045663 0.0608483 0.0608483 0.025663 0.00566298 0.00566298 0.025663 0.0415755 -0.0354172 0.055663 0.0572401 -0.00783201 0.0941268 0.116101 0.0054313 -0.0463598 0.0607351 -0.00433702 -0.0598791 0.075663 0.035663 0.065663 0.0418667 
-0.225618 -0.0135618 0.111228 0.124093 0.142236 0.249097 0.162582 0.0464382 0.0464382 -0.00356175 0.0264382 0.00409179 0.0756565 0.0443742 0.0742825 0.0719894 0.143272 0.141989 0.00643825 0.00643825 -0.00356175 0.00643825 -0.014184 0.00581604 0.0564382 0.0364382 0.0264382 0.0464382 -0.00356175 0.00643825 0.0553358 0.06485 0.03485 0.124855 0.0512216 0.0540723 0.00374184 0.00564596 0.00643825 0.0164382 -0.0756421 -0.00903053 0.251267 0.00643825 0.0464382 0.0542844 -0.0127431 0.172236 0.0638635 -0.00613651 0.0646632 -0.177037 -0.00356175 0.19186 0.0663466 0.0463466 0.0464382 0.025816 0.0510999 0.0396858 0.0326394 0.0159294 0.0743742 0.0664382 -0.0235618 -0.00356175 0.166365 -0.0565153 0.0273891 0.0919987 0.163705 -0.0487605 -0.038938 0.0930242 0.0164382 -0.0135618 -0.0235618 -0.0135618 0.0664382 0.035816 -0.014184 0.00643825 0.0664382 0.0364382 0.0364382 0.0130242 0.0948551 0.0364382 0.115656 0.0143742 0.102462 -0.0071158 -0.00393108 0.00326118 -0.00227945 0.00643825 -0.074354 0.00643825 0.00643825 0.0264382 0.105655 
-0.223174 -0.0133174 0.134831 0.123488 0.164068 0.283469 0.0949239 -0.0233174 0.0166826 0.0466826 -0.0133174 -0.024249 0.119084 0.0787904 0.0787485 0.136711 0.147005 0.136711 0.0266826 0.00668263 0.00668263 -0.00331737 0.0664647 -0.00353535 0.0166826 0.00668263 0.0466826 0.0466826 -0.0233174 -0.00331737 0.0448976 0.114785 0.0647848 0.0883201 0.00453454 0.0416884 0.0435979 -0.0314143 0.0266826 0.0466826 -0.0494314 -0.0179739 0.243894 0.0366826 -0.0133174 0.00473536 0.077295 0.134068 0.0517001 -0.0182999 0.105228 -0.161929 0.00668263 0.220024 0.0566407 0.0566407 -0.0233174 0.0664647 0.0191287 0.0163379 0.111813 0.014945 0.0787904 0.0466826 0.0466826 -0.00331737 0.11257 -0.0187923 -0.0530833 0.0423309 0.159455 -0.0460725 0.00716299 0.0324386 0.0166826 -0.00331737 0.00668263 -0.0233174 0.0166826 0.0364647 -0.0235353 0.0366826 -0.0133174 0.0666826 0.0166826 0.0124386 0.12832 0.0366826 0.0490844 0.0887904 0.0107619 -0.0605718 0.0181256 0.0165067 0.0169766 0.0166826 -0.0114143 0.0566826 0.0466826 -0.00331737 0.101848 
-0.0780433 0.0811957 0.106423 0.0499188 0.0977559 0.130586 0.0937032 0.0711957 0.00119567 0.0311957 0.0311957 0.0564321 0.0825432 0.0678449 0.105406 0.0484552 0.0531534 0.0484552 0.0411957 0.0811957 -0.00880433 0.0311957 0.0384782 -0.0115218 0.00119567 0.0211957 0.0511957 0.0111957 -0.00880433 0.0411957 0.0365042 0.0471344 0.0671344 0.0823984 0.0707571 0.0426806 0.0771229 0.0217745 0.0411957 0.0511957 0.038477 0.014166 0.0874316 0.0711957 0.0711957 0.0267548 0.0470867 0.0977559 0.0753048 0.0153048 0.0603212 -0.0952459 0.0511957 0.0471453 0.068757 0.048757 0.0611957 0.0484782 0.0523486 0.0829741 0.0124314 0.00377769 0.0778449 0.00119567 0.0611957 0.0311957 0.125121 0.00173835 0.0610736 -0.0403736 0.0683537 0.0244341 0.0177654 0.0768007 0.0711957 0.0511957 0.0811957 0.0211957 0.0711957 -0.00152183 0.0484782 0.0411957 0.0611957 0.0311957 0.0311957 0.0268007 0.0723984 0.0111957 0.0325432 0.0378449 0.0573974 0.0518817 0.048016 0.0323847 0.0258939 0.00119567 0.00177447 0.0511957 0.0511957 -0.00880433 0.0474148 
-0.0517221 0.0638278 0.0861263 0.0778579 0.0720894 0.0859842 0.0503075 -0.00617221 0.0538278 0.0138278 0.0338278 0.00228769 0.0847535 0.00908103 0.0690305 -0.00125706 0.0244155 0.0187429 0.0238278 0.0438278 0.0338278 0.0138278 0.0702599 0.0602599 0.0438278 0.0838278 0.00382779 0.0538278 0.0338278 0.0838278 0.0391622 0.0432906 0.0932906 -0.00223132 0.0255847 0.0118275 0.0539977 0.0146913 0.0838278 0.0838278 0.074035 0.0441884 0.0012447 0.0538278 0.0238278 0.0713878 0.0382094 0.0720894 0.0242282 0.0742282 0.0302721 -0.0483961 0.0838278 0.0312096 0.0537772 0.00377722 -0.00617221 0.0702599 0.0850058 0.0308483 0.0493321 0.0270251 0.029081 0.00382779 0.0138278 0.00382779 0.0707468 0.00534393 -0.00780762 -0.0561146 0.0962554 0.0772749 0.0509165 -0.00341737 0.0338278 0.0838278 -0.00617221 0.0138278 0.0638278 -0.00974012 0.0302599 0.0138278 0.0838278 -0.00617221 0.0638278 0.0565826 0.0277687 0.0738278 0.0647535 0.059081 0.053481 0.0484907 0.0658591 0.0143532 0.0395003 0.0638278 -0.0553087 0.0838278 0.0238278 0.0638278 0.0338126 
-0.488852 0.0101148 0.271024 0.100539 0.231708 0.453332 0.234571 -0.0398852 0.000114793 -0.0298852 0.0301148 -0.0177165 0.108015 0.0570063 0.0612636 0.20929 0.230299 0.19929 -0.0298852 0.0201148 -0.0398852 -0.0198852 0.0421939 0.0221939 0.000114793 -0.0298852 -0.00988521 0.000114793 -0.0298852 0.000114793 0.103407 0.11453 0.10453 0.171608 0.0344985 0.00368404 -0.014734 -0.132202 0.0401148 -0.0498852 -0.225244 -0.125355 0.479296 0.0401148 0.0401148 0.0310961 -0.0394047 0.281708 -0.0164678 0.0235322 0.0927273 -0.289378 -0.0198852 0.332764 0.0243721 0.0343721 -0.0198852 0.0121939 0.0241848 0.0103447 0.108558 -0.0832176 0.0470063 0.0301148 0.0401148 0.0201148 0.151467 -0.108099 -0.0990793 0.116183 0.260481 -0.119521 -0.125876 0.0680982 0.0401148 -0.0398852 -0.0498852 -0.0398852 -0.0398852 0.0421939 -0.00780611 -0.0198852 -0.0298852 -0.0298852 -0.0498852 0.0880982 0.171608 -0.0398852 0.138015 0.0270063 0.0404229 -0.177174 -0.0391151 0.0500817 0.0211235 0.0201148 -0.102202 -0.0398852 -0.0298852 -0.0398852 0.250803 
-0.322053 -0.0232053 0.142829 0.115608 0.18376 0.365963 0.186975 0.0567947 0.0167947 0.0467947 0.00679474 -0.0398723 0.0711733 0.0934869 0.066482 0.0949789 0.112665 0.174979 0.0167947 0.0467947 0.0267947 -0.00320526 0.00683412 0.0468341 0.00679474 -0.0132053 0.0567947 -0.0132053 -0.00320526 0.0167947 0.135973 0.0572007 0.0472007 0.101703 0.00887833 0.0354241 0.0401279 -0.108817 -0.0232053 -0.00320526 -0.123495 -0.0169817 0.35597 0.0567947 -0.0132053 -0.0225386 -0.0308189 0.21376 -0.0187042 -0.0387042 0.116545 -0.2206 -0.0232053 0.256188 -0.0102102 0.0697898 -0.0132053 -0.0231659 -0.0262955 -0.00527595 0.129306 -0.0849766 0.0734869 0.0367947 -0.00320526 0.0167947 0.169417 -0.0877875 -0.0247963 0.102783 0.182421 -0.101457 -0.0487081 0.0481052 0.00679474 -0.00320526 0.0367947 0.0367947 -0.0332053 -0.0131659 0.0568341 0.00679474 0.0167947 0.0367947 -0.0132053 0.0881052 0.121703 -0.0332053 0.0511733 0.0634869 0.0630008 -0.0365638 -0.00620256 0.0226745 0.0644811 -0.0332053 -0.0588175 0.0367947 0.0367947 -0.0332053 0.216952 
-0.241268 0.0648732 0.173521 0.118323 0.152448 0.247373 0.126035 0.0348732 0.0148732 0.0548732 0.0348732 0.0355352 0.0461994 0.0815673 0.0348662 0.12754 0.112172 0.13754 0.0348732 0.0548732 0.0548732 -0.0251268 0.034334 0.00433403 0.0348732 0.0148732 0.0248732 0.0248732 -0.00512676 0.0348732 0.0554778 0.0426364 0.112636 0.0947036 0.0392377 0.00594834 0.0619904 -0.0153897 -0.00512676 0.0548732 -0.088688 -0.00684102 0.232104 0.0448732 -0.0251268 0.0321011 -0.00356615 0.212448 0.0140384 -0.0259616 0.110496 -0.214679 0.0348732 0.183098 -0.00182787 0.0181721 -0.0251268 0.054334 -0.00838437 0.0733648 0.0725949 -0.0513729 0.0815673 0.0148732 -0.0251268 -0.0151268 0.175956 -0.0643568 -0.0396056 0.0911347 0.152611 -0.0605748 -0.0412328 0.0582265 0.0448732 0.00487324 0.0648732 -0.0251268 0.0548732 0.024334 -0.015666 0.00487324 -0.00512676 -0.0251268 -0.0151268 0.0282265 0.0647036 0.0548732 0.0561994 0.0715673 0.0406428 -0.0373041 -0.0385537 -0.0194173 -0.00049468 0.0348732 -0.0653897 0.0548732 0.0248732 0.0148732 0.191162 
-0.253698 0.0336302 0.113803 0.0962183 0.163642 0.300074 0.141807 0.0236302 0.0536302 0.0236302 0.0436302 -0.00654958 0.0865694 0.0660788 0.115493 0.108081 0.138572 0.0880815 0.0536302 0.0236302 0.0636302 0.0236302 0.0131627 -0.00683731 -0.00636983 0.0336302 -0.0263698 0.0236302 0.0636302 0.0136302 0.116124 0.116386 0.116386 0.0517056 0.0200925 0.0326925 0.039356 -0.0740163 0.0336302 -0.00636983 -0.0605213 -0.0448034 0.258927 0.0236302 -0.0163698 0.0532217 0.0204747 0.183642 -0.0249451 0.0250549 0.10484 -0.149438 0.0236302 0.240526 0.0630441 0.0330441 0.0536302 0.0331627 0.0554395 0.021656 0.0718493 -0.0439124 0.0560788 0.0636302 0.00363017 0.0536302 0.175768 0.0234368 -0.0076619 0.0965077 0.14287 -0.025417 -0.0559657 0.0611014 -0.0263698 -0.0163698 0.00363017 0.0436302 0.0136302 -0.0268373 0.00316269 0.0436302 0.00363017 0.0536302 -0.0263698 0.0311014 0.101706 0.0636302 0.0565694 0.0360788 0.0692224 -0.0946919 0.0227578 0.0379864 0.0441208 0.0436302 -0.00401626 0.0636302 0.0136302 -0.0263698 0.14149 
-0.101649 -0.0111649 0.098045 0.047257 0.0853248 0.155719 0.0651424 0.0288351 0.00883509 -0.0111649 0.0388351 0.0439112 0.093588 0.0988889 0.0469985 0.0678487 0.112548 0.0478487 0.0188351 0.0188351 -0.0111649 -0.0111649 -0.0132283 0.0367717 0.0588351 0.00883509 -0.0111649 0.00883509 0.0188351 0.0688351 0.0724939 0.0367283 0.0567283 0.0643222 0.0348487 0.0251323 0.0825945 -0.0523151 0.0488351 -0.00116491 -0.0122501 0.037349 0.0828518 -0.0111649 0.0588351 0.0793573 0.0150968 0.125325 0.0395673 0.0495673 0.0784915 -0.100627 -0.00116491 0.0643394 0.0369446 0.0769446 0.0588351 0.0367717 0.0493929 0.0578513 0.0862533 0.0133331 0.0988889 0.0588351 0.0688351 0.0588351 0.130622 -0.0095669 -0.0218562 0.00322578 0.109898 -0.00464578 0.0122228 -0.00149268 -0.0111649 -0.0111649 0.0788351 0.0588351 0.0788351 0.0667717 0.0567717 0.0688351 0.00883509 0.0588351 0.0288351 0.00850732 0.0343222 0.0588351 0.073588 0.0188889 0.0185061 0.0530406 0.0416506 0.0366446 0.0735341 0.0388351 -0.0123151 0.0688351 0.0488351 0.0188351 0.0832464 
-0.0651099 0.052489 0.0949177 0.020491 0.0583279 0.078744 -0.0123232 -0.00751099 0.00248901 0.052489 -0.00751099 0.050901 0.01875 0.0127072 0.0527719 0.0462597 0.0723025 0.0762597 0.012489 0.062489 0.062489 -0.00751099 0.0691755 0.00917549 -0.00751099 0.00248901 -0.00751099 0.052489 0.012489 0.032489 0.0620844 0.104613 0.104613 0.0429586 0.000704424 0.028775 0.0820546 -0.0357434 0.072489 0.062489 0.0731279 0.0120789 0.00489408 0.00248901 0.012489 0.0397874 0.0946004 0.0683279 0.0816284 0.0216284 0.0210064 -0.114064 0.052489 0.0155703 0.0525537 0.0525537 0.072489 0.0391755 0.033962 0.00957046 0.00164996 0.0321974 0.0527072 0.072489 0.012489 0.082489 0.0881927 0.0504095 0.0474386 -0.0250557 0.11609 0.0834387 0.0841238 0.0668263 0.082489 0.012489 0.082489 0.022489 0.022489 0.0491755 0.00917549 -0.00751099 0.00248901 0.00248901 0.082489 -0.00317375 0.0329586 -0.00751099 0.04875 0.0827072 0.0528677 0.110183 0.022385 -0.0121909 0.0885319 0.082489 -0.0557434 0.032489 0.082489 0.062489 0.0923365 
0.116457 -0.0553783 -0.174764 -0.127373 0.0648705 -0.118959 -0.0689542 -0.00321058 -0.0785905 -0.0200203 0.00984797 0.0240506 -0.0639874 -0.0278143 0.00875951 0.0162149 0.0243921 -0.0556111 -0.127254 -0.118424 -0.0312717 0.082872 -0.0415186 -0.0723953 -0.116917 -0.0623706 0.048234 0.03875 -0.125378 -0.033662 -0.0674184 -0.0551388 -0.0677814 0.0471852 -0.0978554 0.0141357 0.0117245 0.022026 -0.0331934 -0.0702309 -0.0228722 0.0167998 -0.0253818 0.00597858 -0.033283 -0.0866142 -0.0790613 0.0142068 -0.041689 0.0235577 -0.0945738 0.109186 -0.153485 0.0355168 -0.0701917 0.00128928 -6.69314e-05 -0.0605832 0.018987 0.0836548 0.0341383 -0.120484 -0.028183 0.00968247 0.0422368 0.0196678 -0.0609314 -0.00103385 0.00628568 0.013308 -0.12815 -0.0239163 -0.0317491 -0.00639837 -0.018941 0.00446775 
0.107862 0.0339782 -0.136532 -0.103375 -0.0182186 -0.0858104 -0.0776773 0.014597 -0.0454866 -0.0304323 -0.023899 0.00247906 -0.0832511 -0.0389108 -0.00202866 0.0250004 0.00220103 0.0141226 -0.104026 -0.0731083 -0.0032494 -0.0103538 0.00765364 -0.0981363 -0.0334839 -0.118127 0.0746062 0.0563181 -0.140256 -0.0143534 -0.0859895 -0.101193 -0.0560553 0.00543623 -0.0264087 -0.0170354 0.0404204 0.0390381 -0.0210382 -0.0852997 -0.0125509 -0.002983 -0.035342 -0.0155688 -0.100183 -0.0754206 -0.0688907 -0.0468879 -0.0984154 -0.0476686 -0.0314274 0.0324949 -0.195233 0.0242854 -0.0798702 0.0101544 0.00885176 -0.106976 0.0275754 0.0579264 0.0306394 -0.0874957 0.0590439 -0.051464 -0.0190015 0.0153968 0.000421475 -0.0200238 -0.0155579 0.0306683 -0.11195 -0.020263 -0.00998111 -0.0347867 -0.000214036 -0.0286855 
-0.348416 0.00265724 0.166019 0.0702831 -0.0906679 0.0315075 0.0775034 -0.020924 0.0663952 0.0234782 -0.0688038 -0.0444613 0.0603623 -0.00442356 0.0248961 -0.0226776 -0.0242654 -0.025613 0.126586 0.0963725 -0.0387595 -0.0421185 0.0141391 0.150465 0.0825891 0.123361 -0.0393721 -0.0340824 0.168353 -0.0453743 0.0903912 0.149912 0.00206233 -0.049562 0.097008 0.0061191 -0.0447591 -0.0712686 0.0878652 0.129644 0.00739889 0.0627665 0.0687212 0.0148025 0.102663 0.0453229 -0.0299515 -0.0557752 0.0922735 0.0254777 0.102792 -0.10894 0.231447 -0.0132424 0.0342226 0.0237154 0.00746908 0.0577609 -0.0138974 -0.123564 -0.0691176 0.0514597 -0.0700195 0.00643428 0.0034331 -0.0928712 0.045609 0.0834345 0.0132616 -0.0694681 0.17605 0.078698 0.0774627 0.077185 -0.0469646 -0.0336388 
-0.379503 -0.0564801 0.241612 0.141438 -0.0540386 0.0798835 0.0532668 -0.0273641 0.10424 0.0586187 -0.078496 0.00132573 0.0669873 -0.0445202 -0.0115023 0.00962911 -0.0146797 -0.0121436 0.0890112 0.168119 -0.0402108 -0.0868171 -0.00287062 0.141388 0.0716411 0.140377 -0.0848044 -0.0110801 0.0878808 -0.00119348 0.108591 0.13963 0.0180096 -0.0494724 0.0436607 -0.0264797 -0.0057539 -0.0517844 0.113762 0.172345 0.0527717 -0.000742428 0.0253249 -0.0046487 0.100422 0.0731826 0.0434879 0.023366 0.114961 0.00215244 0.0705885 -0.195021 0.219996 0.0414644 0.0189065 -0.0365068 0.00605752 0.05354 0.0275124 -0.150423 -0.10055 0.0395047 -0.0812817 -0.0306975 -0.017579 -0.0744053 0.0110341 0.0497544 0.00459219 -0.0809677 0.186384 0.0744436 0.0598035 0.0627337 -0.0273493 -0.0930708 
0.346199 0.0188925 -0.258488 -0.104867 0.100714 -0.122568 -0.0770255 0.0344018 -0.0355043 -0.0523964 0.0888583 0.0580137 -0.0397103 0.0507776 -0.0366945 -0.0136804 0.0719836 0.0058818 -0.151992 -0.185616 0.037627 0.0750785 0.0242972 -0.170967 -0.112588 -0.146399 0.131232 0.0526004 -0.177756 -0.0100547 -0.025803 -0.159796 -0.0395223 0.0473396 -0.0525622 -0.000165327 0.0742811 0.0568098 -0.102524 -0.151908 -0.0338156 -0.0334776 -0.00441008 0.0658877 -0.144774 -0.0493632 -0.0246509 0.0547493 -0.10558 0.0118914 -0.106825 0.221943 -0.26857 0.0396784 -0.0272366 0.0597224 0.022246 -0.139589 0.0645668 0.17026 0.106412 -0.090429 0.117395 -0.0201768 0.0827271 0.0905565 -0.089035 -0.0501714 0.0785207 0.0995554 -0.209742 -0.130688 0.00289878 -0.075536 0.0300479 0.0970539 
0.0860369 0.0317144 -0.14756 -0.0886404 -0.0233484 -0.0825293 -0.0666757 -0.047451 -0.0928276 -0.0607701 0.0520048 0.017987 -0.0822578 -0.0416283 -0.0230746 0.00333464 0.00881091 -0.0267054 -0.0391767 -0.0975102 0.0430567 0.0637542 0.0264117 -0.13333 -0.119911 -0.0849811 -0.00141897 0.0537777 -0.0752969 -0.0552986 -0.0338444 -0.0467184 -0.0648083 0.0127394 -0.0847455 -0.0506096 0.0272581 0.0550342 -0.0390724 -0.119119 -0.0322084 -0.0525014 -0.0349222 -0.00810818 -0.0271182 -0.0537273 -0.0291632 0.0201943 -0.0774785 -0.0477148 -0.0883362 0.0241699 -0.104952 -0.0465054 0.010089 0.0174201 0.0357223 -0.10437 0.0153962 0.0299851 -0.0139746 -0.104559 -0.0351483 -0.0430518 -0.0118122 0.0502106 -0.0586816 -0.0488852 -0.0182928 0.0464528 -0.0762044 -0.0278352 -0.0696514 -0.0737454 0.0170616 0.0577649 
-0.275448 -0.0443177 0.20109 0.0969391 -0.0355117 0.0220055 -0.0011621 -0.0406355 0.119785 -0.0260537 -0.0308359 -0.0387836 0.0151179 -0.0400712 -0.0231131 -0.0197774 0.0151024 0.0537779 0.0770741 0.127213 -0.0106052 -0.054791 0.0157173 0.105632 0.102488 0.100517 -0.0528408 0.00878187 0.108636 0.0570089 0.0803211 0.105549 0.0315762 -0.0537154 0.0957702 -0.0603289 0.0201763 -0.0275005 0.0926538 0.119774 0.00267496 0.050523 0.067273 -0.00941722 0.112821 0.0279674 0.065148 -0.0416261 0.104002 0.0594041 0.0227471 -0.124778 0.195116 0.0405072 0.0404332 -0.0122834 -0.0585185 0.0759303 -0.0188332 -0.0543015 -0.0824652 0.0731638 -0.0573472 0.0210998 0.0270248 -0.0611631 0.0168898 0.0756374 0.00249609 -0.0366868 0.0920506 0.0585588 0.0846229 0.027339 0.027029 -0.0693733 
0.0591389 -0.0620744 -0.10692 -0.0939964 0.0390668 -0.109575 -0.0667531 -0.0222921 -0.0703414 0.00713163 -0.00530248 -0.0178297 -0.0127005 -0.0559605 -0.0259775 -0.0403844 0.0430956 0.010762 -0.0551108 -0.071335 -0.012574 0.0255928 -0.0165399 -0.118512 -0.0665814 -0.021262 5.34503e-05 -0.0314125 -0.0996088 -0.0281507 -0.0929039 -0.0823325 -0.0842404 -0.0519654 -0.0941328 -0.0355946 -0.0474891 0.0384281 -0.0377242 -0.122851 -0.0833667 -0.0636165 0.0137934 0.0172142 -0.0543175 -0.0432858 0.00924294 -0.0442513 -0.0359756 -0.0603373 -0.0354408 0.0316321 -0.103236 0.020409 -0.0714639 -0.0369063 -0.00899996 -0.0715319 0.011135 0.0884145 0.0285797 -0.0419939 -0.0116572 0.00341516 0.0235629 0.0616964 -0.00854321 -0.0489004 -0.00327645 0.0298995 -0.109292 -0.0150742 -0.0297466 -0.0836066 -0.0573965 0.0212846 
-0.266312 0.0161442 0.202739 0.0963558 -0.0651244 0.0617052 0.028596 0.0363904 0.110657 -0.0277101 -0.0135724 -0.0460476 0.063811 -0.0396189 -0.0143716 -0.00113732 -0.00561171 -0.0268208 0.135087 0.158282 -0.0304094 -0.0139136 0.00500549 0.135459 0.042553 0.123199 -0.0423753 0.0166434 0.140545 -0.0344902 0.0687439 0.115744 0.0717492 0.0359019 0.0650929 0.0216908 -0.0390276 -0.0688951 0.0331263 0.0694035 0.00140693 0.00906191 0.0054425 0.0302297 0.0632504 0.0966499 0.0549514 -0.000677327 0.0182217 0.0355859 0.113073 -0.117278 0.194985 -0.00171306 -0.000421698 -0.0117252 -0.00749348 0.0882265 -0.00971959 -0.0554685 -0.0836747 0.0532416 -0.0678894 -0.0300713 -0.032385 -0.0430074 -0.00302979 0.0146846 -0.0587584 0.00297879 0.1345 0.100993 0.0666124 0.0774177 -0.052616 -0.021531 
0.258402 0.0258554 -0.23413 -0.149235 0.07478 -0.0820511 -0.0472047 0.0599496 -0.108207 -0.0391626 0.0555982 0.0470831 -0.0410439 0.0159597 -0.00616017 -0.0349668 0.043681 -0.0520423 -0.0776801 -0.126251 0.0586465 0.106459 0.0243281 -0.164778 -0.141535 -0.0762454 0.0428062 0.0148558 -0.170063 0.000944535 -0.0419422 -0.125118 -0.0483701 0.041842 -0.100024 0.0123113 0.057799 0.0853464 -0.0880947 -0.110402 -0.0667139 0.00277999 -0.00870206 0.00042018 -0.0953823 -0.0581491 0.020183 0.0491782 -0.0534536 0.0247573 -0.0871376 0.131181 -0.169771 -0.0396919 -0.0416163 0.0349508 0.0262238 -0.121036 -0.00897069 0.162066 0.0918081 -0.121545 0.0355581 -0.0119264 0.017268 0.0622936 -0.0594406 -2.89877e-05 0.0220522 0.0174734 -0.138194 -0.103333 -0.0479345 -0.0951566 0.00515999 0.0865329 
0.00156515 -0.021188 -0.0870034 -0.116138 0.00242076 -0.0554286 -0.0182669 -0.00342906 -0.0767482 -0.00853769 -0.0314332 -0.0511226 0.00507517 -0.0662092 -0.0131858 0.0105523 0.000153826 -0.00575875 -0.0681378 -0.0703336 -0.0654968 0.0379041 -0.0340226 -0.0703332 -0.0214642 -0.0252526 0.00135398 0.0269673 -0.0897324 -0.0753401 -0.0924079 -0.0250386 -0.0746303 -0.0528734 -0.0342755 0.0228 -0.0385651 -0.0263443 -0.0663231 -0.0315616 -0.087202 -0.0571234 -0.0800264 -0.043448 -0.0802557 -0.0335852 -0.0554277 0.025359 -0.0443969 0.0131683 -0.0911688 0.00514368 -0.0811489 0.0129888 -0.0560872 0.00286606 -0.0300498 -0.0674147 0.00116118 0.0239913 -0.0277497 -0.0884018 0.0337571 -0.00509108 -0.0170498 0.0535461 -0.0897505 -0.010423 -0.00476649 -0.00468202 -0.056936 -0.0809366 -0.0513903 -0.0448734 -0.00785528 -0.0331552 
-0.374926 0.0124101 0.216586 0.147826 -0.0240464 0.0467841 0.0609726 -0.048781 0.121412 -0.0132971 -0.0791161 -0.0587658 -0.00536006 -0.0653699 0.0469256 -0.0617534 -0.0553906 0.0461498 0.0752154 0.154187 -0.000713078 -0.116427 -0.00437475 0.107707 0.138412 0.0775029 -0.0444025 -0.0422658 0.154339 0.0270811 0.0758405 0.0761588 0.095676 -0.0703342 0.0311424 -0.026977 -0.026433 -0.0723061 0.0612786 0.188195 0.0506795 -0.012953 0.0231055 0.0243545 0.107451 0.0606112 0.051714 0.0126554 0.113004 -0.0299494 0.0376428 -0.154028 0.25442 0.0497202 -0.0231204 -0.0073466 -0.0646228 0.130846 -0.0436536 -0.139347 -0.0408631 0.106513 -0.0916869 -0.0520282 0.0116649 -0.0445571 0.0688903 0.00741742 -0.0264281 -0.031358 0.162588 0.0919147 0.0780126 0.0904112 0.0117912 -0.0338529 
0.292499 -0.0267971 -0.254221 -0.131884 0.0468016 -0.142044 -0.024528 0.0587725 -0.0588723 -0.0335812 0.10769 0.00685871 -0.0175974 0.0140966 -0.00975537 0.00291508 0.0633521 0.0435699 -0.0599066 -0.17118 0.0286662 0.0989936 0.0410301 -0.157639 -0.112594 -0.118217 0.0762627 0.0239331 -0.164049 0.037187 -0.0502303 -0.10732 -0.0659993 0.0106382 -0.067892 0.0111602 -0.0134356 0.0363761 -0.0170731 -0.18538 -0.0723303 -0.0233266 0.00566864 0.00866131 -0.0758336 -0.0562422 0.00514209 -0.0125336 -0.0830114 -0.0188673 -0.137678 0.159683 -0.220785 -0.0133214 0.0231554 0.0129653 0.0150841 -0.0616481 0.0391787 0.149143 0.0338432 -0.0617244 0.0665073 0.0351332 -0.00436095 0.125301 -0.0264748 -0.0169349 0.0612553 0.0182116 -0.18363 -0.0540261 -0.0850677 -0.0923485 -0.00640619 0.087366 
0.205109 -0.00695823 -0.206601 -0.0724699 0.0138404 -0.108086 -0.0111812 -0.0212694 -0.0883778 0.00355774 0.0187272 0.00777789 -0.0448521 -0.0278549 0.044564 -0.034731 -0.0116569 -0.0507558 -0.120988 -0.108419 -0.0074414 0.0929362 0.0246807 -0.0878655 -0.127962 -0.12548 0.0304172 0.0405819 -0.103381 0.0320144 -0.0622644 -0.108906 -0.0615108 0.0583946 -0.0416269 -0.0241518 -0.0272781 0.00842913 -0.0793439 -0.119923 -0.0715668 -0.0229925 -0.054397 0.0467781 -0.0831609 -0.010908 -0.0567314 0.0545828 -0.0791913 0.0189576 -0.034784 0.102621 -0.197932 0.0516434 -0.0676002 0.0309546 -0.00831631 -0.110623 0.0591245 0.0841104 0.012842 -0.0495045 -0.00218234 0.0371048 -0.0268536 0.0909564 -0.0835932 -0.0630681 0.0284427 0.0692523 -0.129371 -0.0641327 -0.0234676 -0.0885706 0.061571 0.0309169 
0.0984758 0.00310223 -0.114184 -0.0720498 0.0604627 -0.0953001 -0.0873583 -0.035948 -0.0547299 -0.0103613 -0.0248148 0.0311368 -0.052756 0.03021 -0.0121574 -0.0455701 0.0211412 0.0238558 -0.122373 -0.131403 0.0256308 0.0479599 -0.0524332 -0.0469365 -0.0825965 -0.0472736 0.0626894 -0.0138043 -0.13883 -0.0145755 -0.0751954 -0.109855 -0.0156898 0.0447942 -0.0458393 0.0318423 -0.000569636 -0.0320261 -0.0604133 -0.113479 -0.0225068 -0.00247289 0.00515499 0.0238884 -0.08941 0.00543733 -0.0788853 0.0421722 -0.0882727 -0.00734733 -0.110699 0.0402384 -0.192366 -0.0155024 -0.0400721 -0.0107195 -0.0523869 -0.116429 0.0369085 0.0856296 0.0595626 -0.0468988 0.00790391 0.0382849 -0.0298796 0.0143831 -0.0492217 -0.0796359 0.0236549 0.0194652 -0.140605 -0.0397098 -0.0701643 -0.0146713 -0.0210895 -0.0195068 
0.06865 -0.0302882 -0.162163 -0.0658306 0.0226405 -0.0907556 -0.0764889 0.040837 -0.0216084 -0.0312786 0.038937 0.0344292 -0.0120089 0.00608288 -0.0440976 0.00191387 0.04607 -0.0477474 -0.0963091 -0.054307 -0.0298007 -0.000704856 0.00523822 -0.0605528 -0.037991 -0.0935416 0.0640449 -0.0282893 -0.0725718 -0.0462777 -0.0827934 -0.104273 -0.0543622 -0.0195032 -0.0540079 -0.00358146 0.0347434 0.0520161 -0.0582702 -0.135495 -0.0823116 -0.0125504 -0.0249162 0.0396779 -0.0255298 -0.0430018 -0.0197286 -0.0322588 -0.0875395 -0.0579395 -0.0266661 0.0982025 -0.118512 -0.00738939 -0.0403806 -0.014862 -0.0069105 -0.0732792 0.0235211 0.0541734 -0.0274803 -0.0230376 -0.0383091 -0.0345077 0.00577646 0.00627271 -0.0184371 -0.0884699 0.00948805 -0.0168244 -0.112987 -0.106833 -0.0400084 -0.0935536 -0.0452279 -0.0250162 
-0.286591 0.0237268 0.169584 0.12981 -0.089819 0.104 0.058959 -0.035787 0.112183 0.0415082 -0.00743517 -0.0400532 0.0840547 -0.0523551 -0.0256626 -0.0527129 -0.0488098 -0.00796756 0.0985668 0.152292 -0.0437488 -0.00930314 0.0235161 0.118993 0.125005 0.105098 -0.0976297 0.00383134 0.0941083 0.00422705 0.020017 0.118976 0.0822706 0.0132843 0.0661605 -0.0115915 -0.0119988 -0.0325389 0.0844119 0.094088 -0.0185653 -0.0111459 0.0552599 0.0077055 0.0354749 0.00743147 0.0244756 0.0364396 0.108418 0.0351472 0.0453522 -0.094495 0.192897 -0.00278575 0.0191379 -0.0143903 -0.0204539 0.0499367 -0.00190538 -0.112348 0.00204093 0.035278 -0.0317155 0.0480832 0.00498533 -0.0877705 0.0872187 -0.00484459 -0.0515696 0.00905043 0.128607 0.062381 0.0565503 0.0677852 -0.0252735 -0.0249203 
-0.0137105 -0.0710055 -0.0608061 -0.0308356 0.0405937 -0.0606648 -0.0656137 -0.0503828 -0.014207 0.00425671 -0.0100436 -0.0341226 -0.0816525 -0.0363587 0.00890379 -0.0271228 -0.0393574 -0.0437776 -0.0518677 -0.0460762 0.0140127 -0.0350116 -0.0124943 -0.0751651 -0.107214 -0.0738185 -0.0506512 -0.0118033 -0.03631 -0.0429294 -0.0580985 -0.0903886 -0.0922304 0.0076342 -0.000696184 0.00103046 0.0207553 -0.0159073 -0.0035846 -0.0454267 -0.00389648 -0.0143003 -0.0568875 -0.0529143 -0.0765852 -0.0302192 -0.0334835 -0.0553149 -0.00549005 -0.0521655 -0.0274318 0.00365575 -0.112699 -0.0141675 -0.0832319 -0.0273795 -0.0305507 -0.0155424 -0.0474436 -0.0083185 -0.00798206 -0.0544179 -0.0266357 0.0164095 0.0128083 0.00307508 -0.0476444 -0.00714506 -0.00367922 0.014699 -0.123284 -0.0996375 -0.0205187 -0.0922234 -0.0577861 -0.0117666 
0.0923368 -0.0455498 -0.151212 -0.10897 0.0414436 -0.052624 -0.0650451 0.0368216 -0.0826669 -0.047725 0.0575663 0.00144245 -0.0200345 -0.0385234 -0.0197967 0.0268198 -0.0372266 -0.00402616 -0.0986417 -0.118749 -0.023038 0.068378 -0.0501997 -0.113951 -0.109955 -0.115762 0.0733837 0.0286502 -0.0766044 -0.0621557 -0.0421765 -0.0670246 -0.0734949 -0.0234918 -0.073129 -0.0374525 0.0405935 0.00980791 -0.0781271 -0.100115 0.000139466 0.0102316 -0.00193491 0.0256581 -0.036903 -0.0117452 -0.0166694 0.0332396 -0.0577084 0.0262451 -0.0881977 0.101622 -0.16846 -0.0126713 -0.0176998 -0.00943855 0.0286477 -0.0847717 -0.0510995 0.0864196 0.0012746 -0.0843648 0.0594036 0.0203983 -0.0385519 0.0662127 -0.0870598 -0.0770195 -0.00438866 0.0108155 -0.0785755 -0.0682873 -0.0888524 -0.0524877 0.020329 0.0527278 
0.0552575 -0.0127234 -0.0763125 -0.0436839 -0.0119779 -0.089419 -0.04696 0.0173587 -0.0405081 -0.0431046 -0.015942 -0.0389623 -0.0828576 -0.0466772 0.00364953 -0.0707409 -0.027588 -0.00964112 -0.0547066 -0.0511208 0.0166511 0.064433 -0.0670205 -0.108205 -0.0464946 -0.111532 0.0589768 0.0180024 -0.129557 -0.0284745 -0.00286773 -0.102183 -0.064458 -0.0226056 -0.0341957 0.0234667 0.0317629 -0.0422661 -0.0278711 -0.122409 -0.0635121 0.00616481 -0.0263714 -0.0134479 -0.104279 -0.0333829 0.00891595 0.0149474 -0.0866053 -0.0103357 -0.105375 0.0105428 -0.0823155 -0.0198837 -0.0716993 -0.0576121 0.0302255 -0.111745 0.000629396 0.0372563 0.0077565 -0.0619317 0.0175536 0.0129273 -0.0271593 0.0108286 -0.0387966 -0.0390237 -0.00384475 0.0190728 -0.129152 -0.08538 -0.000194673 -0.0538182 -0.00807475 0.0106546 
0.00636048 -0.0696272 -0.0578181 -0.0455854 -0.0457038 -0.0943543 -0.00720148 -0.0509254 -0.0664141 -0.0668279 0.0312195 -0.0599229 -0.0236696 -0.00466452 -0.00151609 0.00267066 -0.00776876 -0.0241521 -0.0173387 -0.110538 -0.0336339 0.0496887 -0.0625085 -0.0497865 -0.0207855 -0.0555473 -0.03638 0.02884 -0.070034 -0.0334924 -0.0212094 -0.104693 -0.0637446 -0.0011553 -0.0231669 -0.0458739 0.003017 -0.0340045 -0.0556945 -0.111354 -0.0855462 0.00415304 -0.0486118 -0.00181661 -0.0295667 -0.0626199 -0.00409697 0.00675304 -0.0147306 -0.0146221 -0.0404764 0.0585318 -0.0617074 -0.0452286 -0.0644291 -0.00556474 -0.0483952 -0.10725 -0.0169155 0.0268693 -0.0455162 -0.0775377 -0.0241542 -0.0434247 -0.0255163 0.035874 -0.0888685 -0.0791687 0.00728745 -0.0326499 -0.0474274 -0.0610174 -0.0707425 -0.0337501 -0.0362362 0.0292831 
-0.115255 -0.00481938 0.0223863 -0.0501903 -0.0128545 -1.39339e-05 0.0109804 0.00918593 -0.0240398 -0.031322 -0.0232428 -0.0562633 0.00222327 -0.0531767 -0.0403113 -0.0510834 -0.0539756 0.0197868 0.0165567 -0.045199 -0.0699839 -0.0636755 0.00890329 -0.0436056 0.0172145 0.0242369 -0.0411293 -0.0326035 -0.00812347 -0.0423934 0.0227551 0.0305241 0.0172098 -0.0410352 -0.0298574 -0.00729816 -0.018184 -0.00608299 -0.0588975 -0.00443053 -0.0244612 0.036261 0.0233288 -0.0595288 0.0248603 0.00826609 -0.0452948 -0.0426889 -0.00845929 -0.000833944 -0.00604848 0.0205421 -0.0344921 0.0360126 0.0152231 -0.014466 0.000613189 -0.0426541 0.0261812 0.0228973 -0.0312394 -0.0341426 -0.0358232 0.0325392 -0.00409787 0.033717 -0.0309692 -0.0516502 -0.0145306 0.0151017 -0.0292262 0.0124352 0.0265545 -0.0547627 -0.0347345 -0.0503302 
0.0645418 0.0195508 -0.0893682 -0.114145 0.0616933 -0.0792534 -0.0858086 0.0207909 -0.100526 -0.040977 0.0183382 0.00364808 -0.0713478 -0.0441598 -0.0639883 -0.0279895 0.0156721 -0.0575097 -0.0546726 -0.0424954 -0.0402998 0.0380948 -0.0246709 -0.0488027 -0.106579 -0.0723582 0.0329934 0.0513289 -0.130833 -0.00611039 -0.0217802 -0.032576 -0.00362802 -0.0297418 -0.0131513 0.0359204 -0.0356715 -0.0185527 -0.0573251 -0.0834214 -0.0117449 -0.0620824 -0.0745013 -0.0306046 -0.0942349 -0.032262 0.0106448 -0.0126024 -0.0870011 0.022465 -0.0453814 0.0965084 -0.165328 0.00277013 -0.0698439 -0.0551308 -0.0571996 -0.0721236 -0.00658587 0.0425729 -0.0282507 -0.111753 -0.0389427 -0.0545152 -0.0245725 0.0552422 -0.0178146 -0.0177333 -0.0107795 0.0524958 -0.0510496 -0.095834 0.000544136 -0.0927923 -0.00547681 0.0245277 
0.213171 -0.00994368 -0.217993 -0.0913783 0.0734869 -0.117319 -0.0366093 0.00393952 -0.114212 0.0186982 0.0758358 0.0477078 -0.0107053 -0.0305256 -0.0295989 -0.00975546 0.0355811 -0.0451492 -0.0999216 -0.126479 0.070308 0.0237847 -0.00929397 -0.156868 -0.0560586 -0.0610629 0.0896978 0.0683388 -0.161439 -0.0124318 -0.0192722 -0.107815 -0.0671617 0.0652653 -0.0681569 0.034421 -0.0294103 0.0861062 -0.0154257 -0.159838 -0.0475464 0.0223757 -0.00929998 -0.0259101 -0.130618 0.00376796 -0.0515412 -0.00777009 -0.0521264 -0.0371726 -0.102292 0.153018 -0.241327 -0.0127802 -0.0732915 0.00850416 0.0286932 -0.0670086 0.0551801 0.144787 0.0413795 -0.127225 0.0661337 0.0135604 0.000442168 0.0504794 -0.0588515 0.000792662 0.0450733 0.0778642 -0.168237 -0.109643 -0.0484141 -0.0146074 -0.0114044 0.0178021 
-0.355181 -0.056602 0.145364 0.101237 -0.049539 0.0316626 0.00858189 -0.03794 0.0569943 0.0457644 -0.0558486 -0.00521226 0.0523316 0.0161832 0.0368249 -0.0212136 -0.0629652 0.0556616 0.0887461 0.156662 -0.0879518 -0.0811289 0.00567697 0.111057 0.123047 0.122638 -0.0789954 -0.00066348 0.137588 0.0267146 0.052206 0.139993 0.0729194 0.0114414 0.088066 0.0156244 0.0157 -0.0592583 0.108042 0.17021 0.0289659 0.0252447 0.0214184 0.0260118 0.112788 0.0476269 -0.00912493 0.0245457 0.0206153 -0.000946983 0.0329476 -0.185874 0.181736 0.00943665 0.0254212 0.014254 -0.0225927 0.036665 0.0174486 -0.101556 -0.10699 0.1218 -0.00843172 0.0184296 -0.0363133 -0.039794 0.0865857 0.0448995 0.0152191 -0.0979909 0.174847 0.0979375 0.056396 -0.00213196 -0.0364823 -0.0112182 
-0.300904 0.00168882 0.165177 0.0925111 -0.0141481 0.115842 -0.000998701 -0.0278817 0.0834581 0.01063 -0.0810193 -0.00369553 0.0639897 0.025272 0.00292476 -0.0145068 -0.0217371 0.0508466 0.141118 0.12552 -0.0268985 -0.0840111 -0.0180003 0.0717508 0.0869085 0.0867059 -0.102396 -0.0287996 0.136923 0.0529699 0.0508066 0.121361 0.0825677 -0.0492415 0.0466185 -0.0646332 -0.0647212 -0.0659675 0.0950518 0.167658 0.0210344 0.018455 -0.00520189 0.0151721 0.116974 0.0878029 -0.0264041 -0.0461195 0.0685936 0.0342549 0.106924 -0.141062 0.219415 0.0458125 0.00855366 -0.0368285 0.00683934 0.0911942 -0.00405774 -0.0886364 -0.0218809 0.0467937 -0.0252196 -0.0237201 -0.0276573 -0.0123147 0.0672117 0.0353295 0.0159057 -0.064514 0.132118 0.113508 0.0362622 -0.00207633 -0.0576954 0.0118867 
0.0786454 -0.0181991 -0.0971887 -0.0673789 -0.00328898 -0.0915028 -0.00587501 -0.0356075 -0.102603 0.0206708 0.00369473 -0.0228522 -0.0109553 0.0385472 0.00814677 0.00468416 -0.0105088 0.0241355 -0.0372158 -0.0970388 0.0134218 0.0032986 -0.0125144 -0.0822846 -0.0890826 -0.105542 0.0685664 -0.034772 -0.105163 -0.0140666 -0.00226576 -0.125735 -0.0441703 0.00351115 -0.0834959 0.00891061 -0.0526595 -0.00390453 -0.0284038 -0.137777 -0.0708455 0.018846 -0.0233439 -0.0174478 -0.106349 -0.072427 0.00175738 0.0101184 -0.0388765 0.0148454 -0.0875544 0.0553053 -0.183496 0.0152589 -0.0688683 0.0075972 -0.00438282 -0.0746138 -0.0436644 0.0104137 0.0669715 -0.093736 0.0255169 0.00798813 0.00837166 0.0713071 -0.0179832 -0.0876681 -0.0273482 -0.00313177 -0.136458 -0.0683397 -0.0898952 -0.0231421 0.0273916 0.0592193 
-0.0502194 -0.0620243 -0.0673348 -0.0781691 -0.0160721 -0.0816061 -0.0202323 -0.013827 -0.0741839 -0.074366 0.0226677 0.0123549 -0.0169868 0.00164355 -0.0107889 -0.0288628 -0.0639412 -0.0126257 -0.0297143 -0.0895784 -0.0404268 -0.00286788 -0.00203425 -0.0321969 -0.0864407 -0.0311071 -0.0299133 -0.0143927 -0.1008 -0.0127432 -0.0215492 -0.0574867 -0.0159647 -0.00501301 -0.0343305 -0.0213801 -0.031941 -0.00215346 -0.0456622 -0.0894352 -0.0812288 -0.0505835 -0.0134749 -0.0647392 -0.0167865 -0.0438199 -0.0209881 -0.0572243 -0.00615043 -0.0719904 -0.0577562 -0.0324408 -0.0480359 -0.0238568 -0.0608729 -0.0494328 -0.0732113 -0.0349886 -0.029488 -0.0125724 -0.0249754 -0.0951948 0.0175085 0.00563436 0.0107738 0.0349437 0.00783809 -0.0123404 -0.00700311 -0.000968886 -0.0759159 -0.0589316 -0.0350765 -0.0167587 -0.060026 0.0025236 
0.12963 -0.0410137 -0.184626 -0.075181 0.0601701 -0.115893 -0.0655509 0.00226026 -0.0962812 -0.00584717 0.0158489 -0.0215975 -0.0703119 -0.0433392 0.0330723 0.0311374 -0.0104484 -0.051311 -0.0546836 -0.117112 0.0236287 0.0279686 -0.0172528 -0.0602255 -0.0843042 -0.0807323 0.0639586 0.023629 -0.0539574 -0.0192308 -0.0740719 -0.052825 -0.0646588 0.0319207 -0.0844684 0.0085322 -0.0438156 0.0274336 -0.0403444 -0.0684355 -0.0588536 -0.0395486 -0.031541 0.0506999 -0.0306675 0.00651432 -0.0152392 -0.0314092 -0.0798469 -0.0316469 -0.112033 0.0764895 -0.203223 0.0100013 -0.0359691 0.00565714 -0.00534006 -0.0883524 -0.0261698 0.0903288 0.0297277 -0.09764 0.0169893 0.00404171 0.0468389 0.0854627 -0.0578114 -0.0275054 -0.00866738 0.0284293 -0.097064 -0.111935 -0.0186233 -0.0728913 -0.00433282 0.020159 
