-0.650566 -0.096412 0.0570003 0.336134 1.00142 0.616649 -0.766097 -0.676688 0.0632845 -0.972031 -0.0499653 -0.307784 -0.417438 -0.60675 -0.0450675 -0.428842 -0.941645 -1.03677 -0.308042 -0.319501 0.185413 0.470987 0.473828 0.0165661 -0.131225 -0.839055 -0.517861 -0.416895 -0.856727 -0.969092 -0.487243 0.0340084 -0.582514 0.524532 0.613384 -1.27268 -1.31162 -0.888971 -1.63966 -0.217864 -0.832819 0.247731 -0.787859 -0.648585 0.297902 1.20119 0.0925308 0.309597 0.120612 -0.549866 -0.680695 -0.0169009 -0.034912 -0.842167 0.397724 0.0855159 -0.164953 0.858284 0.138116 -0.135603 0.273103 0.245942 0.261247 -0.675668 0.107903 0.313305 0.252209 0.377579 0.464622 -0.425973 0.137015 -1.19949 0.826995 0.0359679 0.390142 -0.400684 0.165752 0.345193 -0.0514499 0.369928 -0.845192 -0.790161 -0.727138 0.0695197 -0.0179826 0.152797 -0.162883 0.196549 -0.282441 0.493708 -0.432258 1.02503 -0.0544345 0.27858 -0.253092 0.171298 0.138544 0.030074 -0.375315 -0.159016 0.164546 
-0.529703 0.380949 0.399336 0.692847 -0.958616 -0.320332 1.07507 -0.540812 0.573667 0.196603 0.524851 -0.497957 -0.123792 -1.65633 -0.556546 0.0982259 0.66321 -0.213347 0.167861 0.317525 -0.032087 0.463941 1.04253 1.13174 0.314817 -0.042857 0.487708 0.592429 0.662322 0.874074 -0.0980988 -0.290602 1.08155 0.711302 -0.134684 -0.870956 0.136349 -0.172974 0.475799 0.669846 0.319945 0.133774 -0.358976 0.590684 -0.02534 -0.850003 0.115139 -0.41977 0.22693 -0.364206 0.37725 -0.19934 -0.477319 -1.53895 0.0876808 -0.289849 -1.00692 -0.941911 -0.580502 -0.49809 -0.447895 -0.359456 0.115855 -0.708935 0.165235 -0.560149 0.562834 -0.0300221 -0.0163733 0.415785 -0.37997 -1.2773 -1.65087 -2.56262 0.444652 -1.16474 0.0840989 -0.376126 -0.171841 -1.05219 -1.30571 -1.35719 -1.00067 -0.822256 0.649229 -0.637914 -0.428261 0.497508 -0.503315 1.34046 -0.574755 -0.556992 0.602617 -1.29133 -1.46339 0.096947 -1.50511 0.0263765 0.249291 -0.200261 0.0291068 
0.582163 -0.0996122 -0.584741 -1.80526 -1.43695 -1.9924 -1.93288 -0.34546 -0.530335 -0.362574 0.121606 0.0495283 -0.809289 -0.217203 -0.89054 -1.50319 -1.26412 -1.25201 -0.9054 -0.870582 -0.626174 -0.22813 0.818788 0.734943 1.42378 -0.388841 -0.120459 0.0492323 -1.00468 -0.493889 0.5797 0.171857 -0.728798 0.296485 0.867068 0.369017 -0.437371 -0.768458 -0.736946 -0.841481 -1.03867 -0.105453 -0.708092 -0.248252 0.185259 -0.753601 -0.500297 -0.16674 -0.14475 -0.0152875 0.321173 -0.66953 -0.0527601 -1.2583 -0.707371 0.193124 -1.10117 -0.100327 -0.445754 0.222602 -0.0302936 0.258449 0.295135 0.332307 -1.24073 0.100072 0.00569212 0.884976 0.955024 0.0135674 -0.273023 0.688993 1.02597 0.617452 0.183731 0.223541 0.0181626 -1.05312 0.117254 -0.219323 -0.306941 0.0283004 0.0081179 0.217878 -0.288758 0.391608 0.695486 0.739994 0.231175 0.360851 -0.143007 0.0494261 -1.2116 -0.653473 0.328138 0.973545 0.0112745 0.0938668 -0.0626077 -0.86883 -0.190284 
-1.93715 0.232702 0.633515 0.0273798 -0.000115307 0.272602 0.702859 0.101277 0.373658 -0.00161137 0.106481 -0.104133 0.11468 -0.127285 0.978221 0.173486 -0.303723 0.783121 0.292762 0.0609212 0.402473 0.756539 -0.262488 -0.23293 -0.0659588 0.124339 -0.522335 -0.39619 0.179955 -0.128995 -0.154942 0.0812488 -0.623533 -0.393397 -0.399376 -0.758415 0.551107 0.0415032 -1.19013 0.437936 0.0457923 -0.224977 -0.196094 -0.0417231 -0.0114081 -0.337046 0.161893 0.179204 0.303467 0.214811 0.361624 0.0674131 -0.0295364 0.420277 -0.627427 -0.00336551 0.537555 0.690588 0.404137 1.11027 0.0581166 -0.737491 0.335561 0.251106 0.300091 -0.301439 0.238747 1.02911 1.61861 0.439218 0.319948 -0.976975 -0.441395 -0.255877 0.456817 0.389413 -0.103493 -0.551009 -0.607567 0.0269088 -0.852824 -0.148148 0.0850528 -0.428598 0.23482 0.535117 -0.517415 0.331171 0.365027 -0.353567 0.0833269 0.607705 -0.878932 0.257208 -0.518959 0.286565 -0.457485 -0.0577331 -0.478613 0.195162 -0.150076 
0.454408 -0.0593739 -0.229757 -0.166393 0.0877845 -0.114368 -0.315306 -0.480074 -0.176011 -0.148065 0.265646 0.809049 -0.312274 -0.270887 -0.601894 0.484003 -0.433987 -0.365622 0.43001 -0.221958 -0.256577 -0.27364 0.574388 0.0383237 0.653726 -0.0239313 -0.409027 -0.464179 -0.316416 0.0155744 -0.398847 0.245845 0.104953 0.157258 0.73608 -0.0945837 -0.296816 -0.467381 -0.223062 -0.611519 0.0698199 -1.05063 -0.468822 -0.418548 0.0678426 -0.335361 -0.173223 0.013842 -0.444771 -0.286657 -0.395443 -0.260367 -0.0617084 -0.35815 0.220365 0.0117597 -0.311688 0.103754 -0.518871 -0.249359 -0.0138023 -0.155721 -0.151154 -0.0901179 -0.0622029 0.173135 0.258182 -0.652955 -0.451018 -0.595057 -0.714212 -0.718065 -0.640094 -0.351829 0.420193 0.330889 0.126951 -0.021151 -0.377074 -0.526437 -0.445722 -0.352334 -0.413967 0.00511711 0.00728625 0.183805 0.227275 0.00712972 -0.134262 -0.0287865 -0.239091 -0.43008 -0.907253 -0.999122 -0.606248 0.0230338 -0.117135 0.0590654 -0.265798 -0.149908 0.0811517 
0.460098 0.034523 0.113093 0.638863 -0.12406 -0.973142 -0.588157 -0.599952 -0.151233 0.0644941 0.145346 0.22798 0.0778479 0.802357 0.89412 0.7175 0.594989 0.408214 0.709178 1.031 -0.5935 -0.218558 -0.914487 0.0463145 -0.0132361 -0.197221 -0.393846 -0.912859 -0.843445 0.513283 -0.0761094 -0.250212 -0.432613 -1.62388 0.521718 0.271331 -0.406122 -0.725897 -0.369468 -0.276094 0.264936 -0.904327 0.246827 -0.715271 0.292321 -0.557946 -0.455012 -0.562941 -0.891002 0.0577914 0.294718 0.0822652 -0.428879 0.314894 -0.477948 0.354347 0.324599 -0.689854 -0.17607 0.166473 -0.63063 -0.975282 -0.242402 -0.469515 0.580737 -0.199514 0.402227 0.0292947 0.0748063 -0.433538 -1.19161 -1.46948 -2.28978 0.488617 0.427216 -0.40391 -0.0114832 -0.252852 0.426506 -0.693506 -0.499372 -0.374683 -0.453026 -0.199623 -0.215429 -0.367296 -0.882572 -0.249901 -0.632679 -0.483082 0.1682 0.0730843 -0.662138 0.442798 -0.376388 -1.22698 -1.08663 0.071919 -0.219573 0.344852 0.663465 
-0.383181 0.0993044 -0.130537 -0.788988 -0.910677 0.816618 0.199506 0.177288 0.443832 -0.474349 -0.602885 -0.543515 -0.173068 -0.300456 0.770076 0.0142247 -1.02787 0.494833 -0.125853 -2.23446 -0.404804 -0.541017 -0.120371 -0.337291 -0.300449 0.175097 0.108528 -0.06743 -1.43865 -0.898669 -0.921602 -0.536388 -1.30359 0.586242 -0.887203 -0.0914667 0.0257678 -0.530708 -0.436837 -0.663856 -1.10919 0.19427 -1.02828 0.144877 0.366031 0.493643 -0.159016 -0.82232 -0.777355 -0.988333 -0.519439 -0.497705 0.492307 0.118013 0.447727 0.32057 1.01144 -0.595845 -1.19858 -0.880296 -0.210332 -0.590635 -0.644089 -0.395916 1.2241 0.306229 0.246971 -1.88895 -0.427885 -0.44793 -0.156845 0.311299 -0.305613 -0.390159 -0.00682822 -0.0796314 -0.370914 0.386963 -0.0674519 0.287915 -0.0566469 0.872691 0.196269 0.402379 0.0874779 0.0231583 -0.0532194 -0.104845 -0.664435 0.849979 0.589046 0.338831 1.62248 0.347905 -0.264077 0.161641 -0.376097 0.0659111 -0.0122927 0.279009 0.362223 
2.16587 0.0162605 0.156033 -0.990335 -0.849132 -1.01835 -1.0117 -1.15457 -0.130441 -0.269594 0.291307 -1.01475 -0.0702025 -0.604897 0.191646 -0.00882431 -0.671724 0.0789478 -0.656518 -0.63061 -0.114041 -0.501659 -0.573292 0.207658 -0.614601 0.0558192 -0.69774 0.286704 -1.1697 -0.282729 -0.454575 0.0887993 -0.664453 -0.268702 -1.0159 -1.688 0.16657 0.115019 0.193045 -0.255703 -0.950477 -1.75051 -1.12367 -0.290233 0.163765 0.547736 -1.4202 -0.842905 0.32766 -0.300187 -0.663822 -0.549553 0.156225 -0.975147 -0.120336 0.229667 -0.514483 0.480678 -0.98713 0.131556 -1.25236 -0.299259 -0.143855 0.380093 -1.38173 -0.229269 -2.78778 0.137876 0.601568 -0.561594 -1.34638 -0.816536 1.83399 0.673548 -0.967624 -0.502826 0.208168 -0.277263 0.243585 -1.22623 -0.620639 -0.368398 0.144452 0.184062 0.276993 2.23078 0.560855 -0.745232 1.04527 0.0297143 -1.7001 -2.35402 -0.380164 -1.16228 -2.02378 -0.258929 -0.431158 0.289227 0.406862 -0.251709 -0.397674 
-2.81794 -0.0238898 0.0721671 -0.697168 -0.826953 -1.54801 -0.901167 -0.14203 -0.202789 0.147878 0.192373 0.185946 -0.783423 0.26637 -0.284149 -0.287659 -0.0508212 -0.179464 -0.0349702 -0.355348 0.176327 0.765597 0.433536 0.317597 -0.561163 0.39443 0.269056 -0.407218 -0.22699 0.268777 0.00626166 0.706759 0.0396665 0.545922 -0.69019 0.376778 1.64399 0.357332 -0.908121 -0.851843 -0.495108 0.0550241 0.164417 -0.146341 -0.428847 0.223501 0.776756 1.13085 0.643701 -0.576554 0.0198942 -0.572587 0.0409781 -0.15844 0.779351 -0.642474 -0.792167 -0.427856 -0.028445 0.889682 -0.1522 -0.509791 -0.158581 0.271916 0.336745 -0.549057 0.39353 -0.334645 1.66918 -0.570769 -0.582262 -1.23649 1.19341 1.14471 -0.0545917 -0.0588805 -0.268693 0.0657969 0.815509 0.776687 -0.244085 -0.217141 0.849335 -0.522316 0.514553 0.113238 -0.0679783 -0.519713 -0.698441 0.629411 0.258946 -0.348232 -0.0837392 -0.101517 0.0748927 -0.247635 -0.385542 -0.0666169 -0.098081 -0.560382 0.531753 
-2.59069 -0.0428806 -0.530239 -0.133427 -0.450204 -0.358802 0.132022 0.392126 0.0949635 0.0798922 0.032843 0.393747 0.129713 -0.0310117 0.655045 0.624703 -0.628492 -0.254045 0.479169 0.457874 0.313789 0.174002 0.231976 0.243963 0.38845 -0.280421 0.278915 0.733268 -0.665483 -0.099157 0.379808 -0.0242921 -0.167938 0.109734 1.412 0.174085 -0.262776 -0.33389 0.876749 0.386099 0.19603 0.236071 0.0952086 0.244312 -0.28013 -0.152445 0.426581 0.62658 0.284036 0.0181474 -0.205584 -0.452046 -0.153947 0.321254 0.878082 0.279923 -1.11513 -0.453987 -0.399461 0.348708 -0.290113 0.0567565 -0.304979 -0.116644 -0.250339 0.317191 -0.181621 -0.780443 -0.0137715 -0.522696 -0.262585 0.138426 -0.0742401 0.349336 -0.116777 0.013103 -0.10541 0.334486 0.763203 -0.110505 0.532907 -0.357165 -0.161834 -0.764415 0.251055 -0.454628 0.391819 0.324389 0.223393 -0.358932 0.174351 -0.481989 -0.443953 -0.334261 0.466805 -0.351217 -0.00476246 -0.0093896 0.144508 0.141136 -0.0526613 
-1.20464 -0.108747 -0.305333 -0.652424 -0.479714 -0.0214904 -0.44644 -0.274566 -0.102083 -0.165015 0.0978123 -0.166262 0.0520161 -0.185016 0.442652 0.224032 -0.00665943 -0.977355 -0.252005 0.357195 -0.376521 -0.112609 -0.721704 -0.13026 -0.2385 -0.253638 0.163001 -0.0545758 0.505123 -0.0773099 -0.220125 -0.123211 -0.0977483 -0.215161 -0.343525 0.642248 -0.0203168 0.674264 -0.33493 -0.11055 -0.570287 0.610223 -0.0905154 0.18867 -0.391162 -0.575905 0.0199562 -0.218218 -0.244936 0.235239 0.286536 0.258139 -0.172757 -0.0092836 -0.241659 -0.223018 -0.214974 -0.247839 -0.149593 0.610444 -0.245753 0.218674 0.0871777 0.0197263 -0.0294184 -0.612549 1.19361 0.79864 0.532299 1.0525 -0.583311 0.353589 -0.383798 -0.210575 -0.143538 0.00634168 -0.0608484 -0.13961 -0.29697 -0.254033 -0.426286 -0.139312 -0.247883 -1.02109 -0.245286 -0.45621 -0.115693 0.330296 0.109162 -0.223562 -0.132417 -0.217269 -0.569643 -0.122271 0.0942345 0.129505 -0.0513448 -0.0318896 -0.194975 -0.317562 -0.855359 
-1.46797 0.195521 0.136938 -0.192148 0.416681 0.43867 1.24487 1.52185 0.78135 0.787624 0.221918 0.578134 -0.0485521 0.991394 -0.29406 -1.49019 -0.08687 -1.27992 0.412818 0.391193 -0.233095 0.578492 0.951881 -0.124607 0.320832 -1.05787 0.580482 -0.111463 0.767422 -0.248014 0.477007 -0.464061 1.42692 -0.474408 0.307931 -0.325493 -0.357158 -1.18917 -0.0931513 -0.024471 -0.102684 0.842235 -0.0596502 0.202417 -0.430374 -0.625544 0.230705 -0.244584 -0.139106 0.185208 1.13852 -0.571132 -0.00593953 -0.0441864 0.0870228 -0.103228 -0.911452 -0.845153 -0.0548424 -0.0779065 0.313432 -0.600038 0.0889265 -0.317553 0.486811 -1.68019 -1.82664 -1.69144 -1.08097 -0.151591 -0.341716 0.804894 0.389586 0.368503 -0.201859 -1.48128 0.379531 -0.980828 -0.539011 -0.731396 0.440009 -0.548514 -0.638159 0.895487 -0.178357 0.260879 -0.820819 0.910929 0.810111 -1.13896 0.327643 -0.102864 1.01969 -0.619027 -0.407 0.361718 -0.0314901 0.115258 0.342901 0.162738 -0.180962 
0.678505 -0.177148 0.218552 -0.653014 -0.396687 -0.382214 -0.27288 -0.177927 0.242931 0.0714163 -0.00713904 -0.117459 0.743023 -0.556413 0.847871 -0.72736 -1.1019 -0.550971 -0.36788 -0.240074 0.121196 0.0487715 -0.178173 0.39264 -0.193501 0.69451 -0.823542 -1.2555 0.347394 -0.733053 0.280248 -0.25641 0.362363 0.510614 -1.4832 1.30748 0.0922734 -0.419643 -1.288 -0.980179 0.226942 -0.549625 -0.00205031 0.573261 0.13234 -0.784985 -0.790944 0.582661 0.809757 -0.187127 -0.17738 0.254271 -0.00533868 0.341477 -0.269232 0.0758944 -0.623656 -0.211096 -0.540828 0.0417045 0.109683 -0.258432 -0.541799 0.817361 0.42985 -0.456159 0.1376 -1.31158 -1.53805 -0.204499 0.0382367 0.181199 -1.47636 -0.993674 -0.0427072 0.761998 -0.276625 -1.21735 0.302401 -0.622254 -0.642083 -0.541596 -0.318392 -0.336823 0.0376949 -0.815635 -0.426595 -0.0328439 -0.322068 -0.393749 0.144059 -0.0237206 -0.670463 -1.00546 -0.247984 -0.288978 1.44832 0.109937 0.307959 0.213777 0.0984378 
-1.12852 -0.170549 0.234055 -0.737392 0.331082 1.39599 0.895242 0.374867 0.573896 -0.329235 -0.0260978 -1.23086 -0.310764 0.77272 -0.616981 0.387249 -0.112343 0.705716 -0.714496 -1.78561 -0.693157 -0.727293 -0.182438 -0.409517 0.00239631 0.412255 -0.841403 -0.826591 -0.0320695 -1.07703 0.206212 -0.627376 -0.198186 -0.925293 -0.997018 -0.919519 -0.217111 0.700961 -0.0526007 -0.699304 -0.663935 1.09689 -0.790478 -0.466736 0.28242 0.104115 -1.12025 -0.712161 -0.606904 0.15555 -0.0487995 0.925731 0.00696354 0.0619628 0.179113 -0.00269691 -0.866177 0.316059 -0.925304 -1.08392 0.504504 0.585902 -0.144168 -0.459727 -0.238652 0.297037 0.130515 -1.09714 -0.157518 0.824747 0.120202 -0.202288 0.0885233 1.08454 0.38589 1.58715 -0.019822 -0.323323 -0.335872 -0.731467 0.167536 1.32555 0.44138 -0.0834929 0.0477086 0.746181 0.255122 0.179509 1.43934 -1.02215 -0.975658 -0.685082 0.165078 -0.467273 0.251413 -0.505265 0.205716 -0.014571 -0.0145133 -0.43548 0.116412 
-2.3589 -0.28323 0.45907 0.480749 0.287998 0.491997 1.37143 0.90747 0.25765 -0.0369512 0.152148 0.768759 0.0689661 0.634327 -0.284912 0.218676 -0.30233 0.258952 0.539643 -0.163153 -0.523648 -0.0774727 0.0486931 -0.170636 -0.190483 -0.317684 0.610507 0.217781 0.381531 0.249124 0.115699 0.195095 0.985246 0.0478985 -1.73163 -0.376027 -0.66819 0.134874 -0.152506 0.250394 -1.08753 -0.990636 -0.382732 -0.650267 -0.198622 0.365478 -0.0733973 0.28302 -0.103058 -0.313665 0.225417 0.228702 0.000924858 0.410795 -0.212284 0.111632 -0.808151 -0.613742 -0.529815 -0.277055 -0.733704 -0.869109 0.957208 -0.34169 0.40423 -0.170675 0.205465 0.680049 0.347578 1.08331 -0.737718 -0.212773 -0.793 0.548609 -0.244168 -0.64063 -0.187533 -0.0768439 0.765709 0.436066 -0.529878 -0.186344 -0.258569 0.214244 0.531968 -0.992606 -0.437637 0.0292456 0.628779 0.218466 -0.260651 0.196944 0.395847 0.57514 0.637551 0.0721411 -0.234972 -0.323271 -0.468202 -0.591089 0.0413473 
-0.399649 0.494482 -0.704054 -0.61435 -0.949177 -0.876111 -0.162433 -0.0574466 0.197855 0.782406 -0.227547 -0.371074 0.511099 -0.0306215 -0.333364 -0.311748 -0.665859 -0.520158 0.345855 0.457654 0.379025 0.562569 0.366564 0.0408198 0.199993 0.18065 0.759983 -0.053992 -0.36966 -0.0951863 0.247188 -0.153503 0.0748564 -0.314603 -0.297819 0.568392 -0.564787 0.50159 1.68577 0.0298954 1.06555 -0.413404 0.568536 0.150548 0.135661 -0.729848 -0.800076 -0.870598 0.375963 -0.0318863 0.00959269 -0.362528 -0.408017 -0.880015 0.100492 0.377998 -0.132676 -0.620875 -0.390466 1.0748 0.792767 -0.302331 0.461527 -0.239532 -1.08429 -0.312393 -1.20877 0.294491 -0.601215 -0.132035 0.364753 1.04932 -0.356032 -1.15365 -0.970124 -0.0971578 -0.114836 -0.781697 -0.166004 -0.133695 -0.475526 -0.413196 -0.0616475 -0.0447733 -0.0304142 -0.684216 -0.60446 -0.41763 -0.589396 -0.675661 -0.926937 -1.12768 -0.909424 -0.413306 -0.54968 0.176069 -0.598748 -0.015627 0.573994 -0.210475 -0.567369 
-2.12951 -0.114463 -0.800074 -0.0468607 -1.33629 -1.39421 -0.824386 -0.369191 -0.0395969 0.0280194 -0.337802 -0.999497 0.108497 0.437014 0.275024 -0.196909 0.0579593 0.409611 -0.839268 -0.460135 0.0420218 0.155127 -0.0596108 0.00395486 0.107551 0.858367 0.501802 0.616718 -0.00700978 -0.0781724 -0.455528 -0.00611581 -0.0140437 -0.186026 -0.0317032 1.05191 0.0228445 0.15131 0.434017 0.145982 -0.193746 -0.638455 -0.460982 0.152912 -0.376803 -0.321873 0.656215 0.935521 0.597378 0.581069 -0.269743 0.621803 0.21119 0.180722 -0.394969 -0.0127942 -0.0474858 -0.0625598 -0.489121 0.319491 0.404616 -0.395955 0.918439 1.39464 0.582632 -0.445794 -0.204119 0.768489 0.372421 0.179189 0.0859902 0.537812 -1.27282 -0.917422 0.00199711 -0.72964 -0.129639 0.0337208 0.181472 -0.465696 -0.562707 -0.497263 0.444551 0.31536 -0.446604 0.380535 -1.0283 -1.06449 -0.219817 1.08473 0.817118 -0.247996 -0.442252 0.420038 -0.353983 0.0851505 -0.763992 -0.121166 -0.00584149 -0.297102 -0.437777 
-0.748623 -0.0238451 -0.313447 -0.556295 -1.01957 -1.51857 -0.677742 0.171852 -0.3821 -0.083293 0.140454 0.15606 -0.990935 -0.578805 1.13314 0.370462 -0.258957 0.749501 -0.281786 -0.574872 0.937906 0.596426 0.0876858 0.358268 -0.514356 -0.197399 -0.0751302 -0.147157 0.902969 0.745434 0.739688 -0.399239 -0.631316 0.284074 1.12117 -0.835205 -1.09658 -0.518232 -0.0996842 0.64781 -0.303082 0.284325 -0.0447294 0.498002 -0.0352876 -0.111497 0.284427 -1.02662 -0.888321 0.263366 0.358248 0.0957176 0.249863 -0.348388 0.494117 0.19366 -0.837173 -0.216722 -0.454914 -0.700964 -0.19277 -0.0414185 0.106031 0.429192 -0.511695 -0.215227 0.161228 0.7249 -0.35603 -0.962418 -0.743076 -1.18368 0.301199 -0.73434 -0.198786 0.191729 0.202936 0.571901 -0.13684 -0.257393 -0.471839 -0.291889 -0.161977 0.0257539 0.612592 0.237656 -0.082799 0.21083 0.161014 -0.656854 0.148156 -0.339241 0.267864 -0.588945 -0.292248 0.109698 0.315275 -0.0384991 -0.23511 0.0555282 0.571198 
-1.7461 -0.0751806 -0.218305 -0.575552 -0.229861 -0.595334 0.307811 -0.0017304 0.0555353 0.125432 -0.294219 0.846077 0.132714 -0.48575 -0.264363 -0.958875 -0.92926 -0.429576 -0.177026 -0.478996 0.473794 0.837121 0.432629 -0.0460136 0.300563 -0.563443 0.433174 0.223547 -0.554425 -0.397969 -0.128817 -0.21459 1.07841 0.066703 0.543568 -0.507367 0.133686 0.488406 0.762763 -1.24458 0.0214389 0.656584 0.634827 0.0181648 -0.0774605 -0.187195 0.449967 1.02381 0.618548 0.26679 0.203312 0.000284805 -0.471355 0.479719 -0.417238 -0.0241107 -0.512562 0.38363 -0.0338305 -0.473503 0.780965 0.514666 -0.213143 -0.357068 -0.0230473 -0.847552 0.452283 -0.730355 0.281029 -1.42837 0.366535 1.43783 0.753759 -0.137358 -0.173191 0.315048 0.184911 0.130906 -0.212994 -0.613525 0.0881101 0.152315 0.305468 0.388932 -0.0245639 0.00964548 -0.672801 0.0595941 -0.358856 -1.65345 -0.807771 0.303412 0.143683 -1.00703 -0.0460701 0.174223 -0.317377 -0.0870626 -0.213011 -0.603844 -0.282844 
0.215015 0.165731 -0.856859 -1.15394 -0.567764 -1.11689 -1.12959 0.565708 0.703668 0.248076 0.487737 -0.335675 0.0582491 -0.0531571 -0.536342 -0.663641 0.329896 -1.26182 -1.04431 -0.497786 -0.291045 0.351287 0.477137 0.497095 -1.05476 -0.285132 0.783077 -0.551021 0.413768 -0.195701 -1.12868 0.0817646 -1.12617 -0.881498 -1.28229 0.390395 0.164857 1.12413 0.441317 -0.103545 -0.2729 0.904183 -0.563265 -0.416079 0.0492814 -0.523258 -0.563826 0.753295 0.828736 -0.010554 0.758207 0.476222 -0.264658 0.290346 -0.140393 0.0961963 -0.43148 -0.630356 -0.488278 -0.457236 -0.486932 -0.488109 0.0842855 0.164111 0.171729 -1.73331 -1.49892 -1.07967 -0.443972 0.491831 0.582425 1.65368 0.988924 0.201244 0.212252 -0.175057 -0.0995548 -1.36499 -0.447251 -0.589273 -0.415754 -0.433546 -0.264009 -0.979464 0.239257 -1.45249 -0.147094 0.196223 0.343246 1.1243 -0.322176 0.358119 -0.245563 0.080701 0.361225 0.344742 -0.260789 0.111039 0.0315289 0.478836 -0.621729 
-1.93248 -0.254349 -0.149855 -0.808647 -1.25071 -1.3449 -1.73826 -1.61556 -0.386585 -0.614733 -0.359264 -0.0563614 -0.575219 0.19908 -0.818513 -0.742824 -1.3691 0.653364 1.16155 0.613192 -0.0564801 -0.302326 -0.450428 -0.222108 0.054932 -0.000408887 -0.36689 -0.178042 0.63107 0.834418 -0.262985 0.0520455 -0.420368 -0.174765 -1.06021 -0.269071 -1.51576 -1.24492 0.836275 1.53155 0.49748 0.909078 0.0310001 -0.368897 -0.207014 -0.864148 -0.248509 0.600822 0.363419 -0.701043 -0.336218 -0.0807701 0.217406 0.158051 -0.417949 0.26829 -0.319343 0.0455725 0.0174497 0.568606 -0.362317 -0.178824 -0.0217414 0.23458 -0.749376 1.15435 -0.0972959 -0.433448 0.338953 0.728375 1.32725 0.409711 0.213901 0.516569 -0.791804 1.12693 0.983749 0.715472 -0.30989 -0.0696922 0.426536 0.148608 0.232879 -0.028881 0.0926655 -0.426943 -0.418574 0.261434 -0.428339 0.856197 -0.366251 -0.495613 -0.302154 -0.0596889 0.507205 0.429795 0.0990621 -0.109537 0.115848 0.118769 0.583062 
-1.25514 0.136607 0.388298 -1.14518 -0.578988 -0.812531 -0.897531 -0.876346 0.0613492 1.00108 0.0792476 0.551766 -0.257363 -0.27207 -0.262706 -0.267621 -0.281557 -1.0625 -0.937302 0.296338 -0.785678 1.3 -0.331966 -0.119201 0.246308 -0.422079 -0.0923811 -0.572771 -0.521607 -1.41945 0.0217119 -0.898288 -0.428797 0.303649 1.02346 -0.11717 -0.0635581 -0.707411 -1.22594 -0.398232 1.06867 0.213856 1.31595 0.7542 -0.574785 -0.591629 -0.932498 -0.700545 -0.054547 -0.431958 0.598192 0.17573 -0.438313 1.12558 0.32732 -0.250175 0.140883 -0.739334 -0.425225 2.0795 0.00698407 -0.587268 -0.808686 -0.225513 -0.223806 0.154334 0.57694 -0.442298 0.110649 -0.777442 0.818566 0.424953 -1.61164 -1.16971 0.746141 -0.420079 0.235672 0.260586 0.676833 -0.30888 0.933694 -0.158504 -0.0447735 1.56085 -0.59172 -0.205739 0.317872 0.226598 1.30659 -0.171581 0.490506 -0.45198 -1.09147 -0.327754 0.0865929 0.529425 -0.372606 -0.0614982 0.0165563 -0.191106 0.0740664 
-1.3446 -0.116256 0.327035 -0.189367 -0.311392 0.0170127 -0.468587 -0.416017 -0.298427 0.0727372 -0.0939593 -0.289704 -0.157835 0.165707 -0.106219 0.79145 0.249904 0.186804 -0.528704 -0.0337623 -0.136518 0.148346 0.466835 0.0519056 -0.75089 0.641952 -0.503051 0.309356 0.30378 -0.280723 0.34833 -0.3291 -0.946044 0.0874906 0.0228384 0.0647504 0.598807 0.303658 0.268259 0.0697221 0.166898 -0.395795 -0.421359 -0.429488 -0.0451641 -0.181015 -0.4133 -0.472259 0.0284717 0.168286 0.134855 -0.191985 -0.268873 -0.782731 0.357802 -0.058422 0.255578 -0.204649 -0.606487 -0.632234 -0.334869 0.00135242 0.158911 -0.462173 1.04671 0.362657 0.482551 -0.487814 0.223407 0.224661 -0.507946 0.518062 -0.154702 0.250066 0.548611 0.613188 -0.10029 -0.607755 -0.609552 -0.239526 -0.543906 -0.397486 -0.358872 0.277216 0.200062 0.501947 -0.172217 -0.233563 -0.384165 -0.548178 -0.348245 0.450272 0.513626 -0.0931364 -0.420063 -0.215817 -0.707495 -0.050001 0.255994 0.0706183 0.303769 
0.0623558 0.00640781 -0.0396794 -0.945316 -0.456683 -0.671758 0.85671 -0.148757 -0.705318 -0.0649801 0.0132353 -0.413575 0.0283424 -0.122849 -0.485123 0.150541 -0.262566 -0.94916 -0.672035 -0.151607 -0.017014 0.350209 0.248104 0.124911 -0.0991028 -0.345179 0.794184 0.933857 0.12891 -0.159281 -0.0983529 -0.163067 0.78029 -0.164754 0.095783 -0.506561 0.189057 -0.221714 0.0667268 -1.45293 -0.275335 0.140084 0.701433 0.633216 -0.0186419 -0.670989 0.395889 -0.773479 -0.231161 0.0618457 0.134619 0.0279818 -0.317984 0.200585 -0.121505 -0.0664976 -0.198124 -0.21817 -0.872139 -0.0232456 -0.188506 -0.478999 0.244719 -0.0616885 -0.496141 -0.033403 -0.831647 -0.2944 0.850286 0.418818 -1.06931 1.0429 -0.596245 0.105982 -0.17258 -0.911525 -0.19376 -0.388405 0.839068 -0.811603 -0.53481 -0.610371 0.102456 -0.254266 0.405719 1.2389 -0.622437 0.121944 -0.142809 -0.74832 -0.961146 -0.244487 -0.709604 -1.12505 -0.840549 0.0690107 -0.472574 0.0105416 -0.189589 -0.902382 -0.494557 
-2.60326 0.201372 0.0662156 -1.03108 -0.633665 -0.930706 -1.63383 -0.226224 1.32761 0.440706 0.205231 0.197113 -0.22461 0.506222 -1.10663 -0.528896 -0.151783 -1.12151 -0.278479 0.863724 0.0741293 0.0273051 -0.543933 0.270488 -0.0415631 -0.493953 -0.372797 -0.949899 -0.100926 0.441803 0.286601 0.422738 0.633397 -0.547953 -0.107186 0.476816 0.123894 1.42343 0.136858 -0.187965 1.49421 -0.273953 0.470908 -0.539015 0.768306 0.325002 0.210595 0.22889 -1.02955 -0.365675 0.0497892 0.463439 0.423718 -0.0530537 0.113388 0.895799 0.767605 0.235567 0.719205 0.281901 0.294684 0.105641 -0.0533062 -0.048768 -0.783626 -0.0675342 -0.211127 0.746369 -0.0421578 0.815898 1.33362 -0.0511792 -0.0761459 -1.2311 -0.268817 -0.500616 0.190899 0.011766 0.822692 0.6811 0.838402 0.909707 0.532256 0.286499 -0.390342 -0.514605 0.0577065 -0.0482132 -0.766491 -0.553332 0.448593 -0.0527495 -1.26875 0.0134269 -0.44338 0.301955 -0.439918 0.19384 -0.163177 0.88382 -0.501801 
0.126336 0.311026 -0.886955 -0.550979 -0.169206 -0.436267 -0.953644 -0.732801 -0.083188 -0.407658 -0.386395 0.874661 -0.33997 -0.162285 -0.949359 -1.95131 -0.477816 -1.10036 -1.35748 0.199975 0.195894 0.0590912 0.569595 0.0699213 -0.513063 -1.01621 -0.470833 -0.721278 -0.696096 0.260365 -0.846756 -0.193194 -0.200094 -0.990756 -0.363471 -0.278073 0.321531 -0.155382 -0.112417 -0.115182 0.713332 -0.135386 -0.310871 -0.943791 0.122676 -0.207876 1.04593 0.266805 0.0969506 0.102071 -0.595107 0.486056 -0.193416 -0.92329 -1.63934 0.432921 -0.381924 -0.866346 -0.760277 -0.288566 0.0832534 0.141895 0.714816 0.226635 -0.584484 0.0241818 0.219061 0.0370731 -1.49844 -0.816312 -0.355008 0.473837 -0.800177 -1.17393 0.252484 0.563899 0.679482 0.372527 -0.0188108 0.48907 0.535911 0.399186 1.14541 0.498694 -0.4036 -0.709918 0.398549 -0.361248 1.36242 0.091932 0.458606 0.976949 0.650313 0.261267 -0.651343 0.00246406 -0.568691 0.116559 0.671899 -0.321396 1.12626 
0.670663 0.0952701 0.473792 -0.261147 -0.745327 -0.632512 -0.701941 0.314678 -0.740681 0.453707 0.400608 0.878031 -0.100412 0.130897 -0.136742 1.13741 0.363458 -0.179085 0.162484 -0.249079 -0.33569 -0.495121 0.528984 -0.303328 0.718446 0.2964 -0.487471 -0.431642 -1.00298 0.673355 -0.123134 0.18126 -0.191735 -0.302948 0.308943 0.126047 0.187809 0.333942 1.32282 -0.427077 -0.541314 -1.94684 -0.74794 -0.704148 0.177639 1.22121 -0.0171629 -0.312499 -0.403134 -0.45802 -0.470635 -0.527754 -0.171012 -0.936209 -0.599436 0.671377 -0.535959 0.993654 0.216026 -0.890249 -0.283251 -0.231891 -0.538484 0.461615 -0.921254 -0.479342 -0.133445 -1.08012 -0.947764 -1.48638 -1.07441 0.014602 0.73631 -1.26817 -2.00233 0.117656 0.197892 -0.363745 -1.13909 -0.303789 -1.23212 -0.324 -0.820038 0.19123 -0.177654 -1.27389 -0.435631 0.0802739 -0.256271 -0.558961 -0.565737 -0.208609 -0.819544 -0.0821875 0.193415 0.209183 -0.930044 0.143636 -0.176783 0.170441 0.850248 
0.800538 1.14395 0.0630763 -1.02531 -1.11849 -1.39333 -0.898567 -1.73471 -0.0592799 -0.678221 0.108766 -0.592253 -0.0560451 0.596098 -0.343354 -0.762952 -0.628661 -0.505423 -1.56401 -1.6761 -1.45064 0.164398 -0.640925 0.0637048 -0.0563175 -1.35364 -0.287804 -0.456861 -0.586451 -0.179031 -0.210722 0.300045 0.0314142 -0.569055 -0.975378 0.50671 2.32641 -1.05013 -1.10822 2.01597 -0.715834 -0.185758 -0.0549876 -0.44108 0.15592 -0.108993 -0.519633 -1.91408 0.947328 -1.58328 -0.692058 -0.121733 -0.939613 -1.45369 -0.385957 0.0934367 -0.161595 -0.331908 -0.364881 0.819622 0.451911 -0.821984 -0.164457 -0.0757806 -0.884946 -0.358506 -1.37971 -0.580996 1.25131 1.17196 1.26389 -0.51001 -1.04713 -1.79812 -0.620416 -1.29734 -0.312515 -1.29455 0.315868 0.397731 -0.290803 -0.956609 -0.748394 -0.0239385 -0.0286895 -0.819162 -0.610366 -0.364279 0.388258 -0.435276 -0.779293 -0.827283 -0.0878252 -1.0151 -0.232698 -0.173857 -0.823307 0.101379 0.573028 -0.580181 -0.670326 
-4.08482 -0.341725 0.281857 0.482527 -0.231915 0.789259 0.714212 0.881083 -0.336119 -1.52172 -0.389071 -0.201337 -0.526733 0.119358 0.11357 -1.04557 0.670133 0.161122 -1.07219 -0.0175051 -0.150155 -0.37299 -0.476353 -0.275117 -0.223098 -0.391271 0.496264 0.766119 0.541874 0.514393 -0.671551 0.0490708 -0.365657 0.359609 0.0425539 -0.165081 0.247527 1.2469 0.722652 -0.0178208 -0.0902797 0.572967 -0.546992 -0.665034 -0.0780545 0.255545 -0.235918 0.49325 0.504438 0.388234 0.44358 0.0153232 0.0123043 -0.15111 0.0345787 0.366961 0.149184 -0.0740534 0.631589 -0.155879 -0.368619 0.257725 -0.35088 -0.519926 0.344982 -0.652302 0.154918 0.819746 -0.98886 0.608491 0.726951 0.296909 1.72524 0.890793 -0.151237 0.18812 0.162869 1.01923 0.151948 1.01442 0.407636 1.38967 -0.507087 -0.185241 0.247846 0.0874064 0.0456525 -0.103668 -0.793416 0.440372 0.385559 1.09722 0.974452 -0.155611 0.0983782 0.100079 0.587826 -0.301408 0.0991053 0.1093 0.470459 
-0.749342 -0.0241215 -0.371309 1.025 0.609346 -0.580361 -0.0883432 0.551214 0.767338 -0.337085 -0.215339 -0.692472 -0.088658 -0.0783121 0.222562 -0.442458 0.545918 0.904779 0.0702235 0.453353 -0.183074 0.795926 -0.185375 0.553414 -0.774692 -0.436426 -0.465276 -0.86001 -0.473011 -1.57775 -0.13012 -0.139392 -0.027438 -1.14007 -0.249564 0.530738 -0.793882 -0.131803 -0.969101 -0.781554 -0.798655 0.991667 0.516435 -0.858618 0.0633017 -0.471052 0.0156543 0.383751 -0.0949299 -0.577034 -0.350158 0.0699605 -0.656067 0.0385405 -0.665412 -0.0768473 -0.474907 0.449769 0.0352252 -0.339613 -0.696089 -0.689412 -0.680551 -0.437764 1.05151 -0.307394 -1.00835 0.128766 -0.991107 -0.469548 1.09394 -0.070707 -0.973481 0.123496 -0.065061 -0.14615 -0.427228 -0.284166 -0.619823 -0.129306 -0.0614635 -0.227663 0.10383 0.126047 -0.205602 0.0357258 -0.811145 -0.598187 0.115712 -0.174425 -0.507691 -0.862061 1.4262 1.39006 -0.964574 -0.643831 -0.780218 -0.0683203 0.829358 1.23546 0.772204 
-0.875922 -0.0382624 -0.901591 0.116167 0.509637 0.621346 -0.195514 -0.175287 -0.335833 -0.137602 0.356198 -0.267321 0.132032 0.734542 0.831335 0.889016 -1.03269 0.474313 -0.121313 1.01449 -0.681804 -0.160217 1.04962 0.170393 0.164307 1.59661 -0.36198 -0.555505 -0.840713 -0.457837 1.00248 0.546891 -0.559499 1.02095 -0.621582 0.946048 0.651453 -1.37824 -1.03086 -1.51312 -1.54622 -0.980434 -0.984569 0.567054 -0.242033 -0.073087 0.979754 -1.84894 -1.5953 -0.822238 -0.185988 -0.00360941 0.190416 -0.299388 0.712008 -0.0765279 -0.474259 0.351593 -1.13756 -0.724033 -0.721213 -0.925868 0.567672 -0.617447 -0.00135945 -0.401639 -0.22154 0.537719 -0.356768 -0.805535 0.402083 -0.193852 -1.0268 -0.587202 -0.876605 -0.466829 -0.599744 -0.827518 0.310462 -0.0742653 -0.188248 -0.22895 -0.775382 -0.235904 0.374409 -0.203553 -1.41467 -0.857586 -0.905164 -0.460261 1.03542 -0.283999 -1.06429 1.31658 0.550138 0.149929 -0.794693 -0.0937003 -0.0417674 0.960027 0.784275 
0.286786 -0.044176 -0.163311 -0.953915 -0.693738 -0.935824 -0.639729 0.448212 0.320563 -0.123081 -0.147163 0.0812297 0.935394 -2.09225 0.394404 -0.500175 0.172548 0.0191038 -0.555346 -0.477542 0.00891871 0.239716 -0.0872241 0.231468 -0.719451 -0.673791 0.397952 -0.194971 -0.725291 -0.440763 -0.536156 -0.0918219 -0.938233 -1.40626 0.714613 0.63476 0.00349557 0.0947915 -0.0785988 -1.69368 -1.01531 -1.65621 -1.45529 -0.349462 0.0186676 0.396927 -0.303784 -0.19296 0.0359166 -0.151945 0.0529643 0.0485229 0.154319 -1.06232 -1.06848 0.285831 0.574826 -0.223387 0.137911 0.809631 0.711519 -1.09035 0.174188 -0.0177347 -1.05014 -0.359883 -0.406743 -0.519742 0.197735 -0.190388 0.366057 0.758241 0.0637951 0.685838 0.66159 -0.496789 0.326231 0.0289578 -0.416894 -0.646991 -0.540507 -0.222706 0.163989 -0.665063 0.152658 1.69788 -0.0265466 0.439579 0.345641 -0.384548 -0.965515 -0.774077 -0.370557 -0.326168 -0.915042 -0.259638 -0.561547 0.105265 -0.0245098 0.793983 0.407264 
-0.546214 -0.0671134 0.0957303 0.240334 -0.142005 -0.30643 -1.04774 -0.994428 -0.365818 -0.129872 0.183515 0.193907 0.0336355 -0.700683 -0.204571 0.140455 -0.265064 -0.470391 0.0779967 0.497197 0.0927696 0.207238 0.413646 0.176604 -0.0157691 -0.156081 0.0458939 -0.119455 0.210613 0.124575 0.187548 0.191129 0.406685 0.268785 0.610401 0.0265486 -0.314443 -0.0345664 -0.0723278 -0.665519 -0.625752 0.023811 0.924286 0.197824 -0.281123 -0.761823 -0.239062 -0.22263 -0.402512 0.255742 -0.155567 -0.09486 0.24625 0.266699 0.255496 0.0165153 -0.649447 -0.29203 -0.466441 -0.278554 1.09364 -0.279235 0.0877357 -0.0714056 -0.643926 -0.419378 0.472092 -0.967041 -1.21891 -0.402199 -0.181333 -0.902605 -1.1608 0.705289 -0.504056 -0.90452 -0.128917 -0.271416 0.2459 -0.248404 -0.100561 0.205708 0.473501 0.317552 -0.19727 0.0510261 -0.282912 -0.236721 -1.12822 0.269852 0.406366 0.598267 -0.525682 -0.245451 -0.25315 0.542232 -0.428821 0.0442075 0.424243 0.309656 -0.32676 
-1.23402 0.201202 -0.588179 -0.593071 -1.23167 0.648063 0.333761 -0.917323 -0.21759 -0.136018 0.308576 -0.383713 0.239294 -0.477646 0.475756 -0.166262 -0.26121 0.795053 1.15962 0.0330958 0.51948 -0.385544 -0.203195 -0.246811 -0.261992 0.174076 -0.25572 0.124657 0.414864 0.032857 0.407031 -0.00455053 -0.416646 -0.951819 -0.39285 1.09417 -0.16862 0.387174 0.505495 0.545874 -0.759961 -0.146909 1.49418 0.983942 -0.322435 0.193565 0.133714 -0.697735 0.634439 -0.789558 -0.0159732 -0.409927 0.40349 0.58749 0.506487 -0.55882 -0.507348 -0.299465 0.72738 1.58476 0.22659 0.167215 -0.287141 0.112106 0.708558 0.273241 -0.891901 -2.309 -0.862305 -1.49224 -0.868227 -0.0220508 0.208578 1.66322 0.88473 0.378091 -0.491886 -1.05311 -1.05261 -0.695393 -0.574803 -0.650145 -0.0247359 -0.521056 -0.34216 -0.617671 0.0190707 0.199699 0.176059 0.262543 0.385334 -0.859276 -0.622234 -1.1369 -0.38977 0.0348804 -0.363479 -0.01176 0.426519 0.0360699 0.334211 
-1.03739 0.453137 -0.430411 0.71477 0.629501 -1.53942 -0.557759 0.112427 0.0894619 1.79704 -0.116599 -1.05018 -0.742249 0.0191167 0.740456 0.57809 0.312312 -0.322116 0.251021 0.841616 0.126097 0.227613 0.929788 -0.382887 -0.255567 -0.407447 0.66515 0.78794 0.405452 0.267679 1.11501 0.122917 -0.676252 0.448346 0.558405 -0.24725 -0.397143 -0.170546 -0.375295 0.841325 -0.516069 0.240161 -0.129321 -0.375703 -0.181484 0.298976 0.158521 0.197066 0.615204 0.74778 0.665918 0.525619 0.0377893 -1.21821 -0.33225 0.751179 -0.302694 -0.480422 -0.461976 0.18993 0.0286892 -0.990464 0.0771611 -0.117751 -0.884369 0.0458282 -0.833735 -0.201986 1.50127 -1.42315 -0.14446 -0.224528 0.660316 -0.390814 -0.238408 -0.401291 -0.00811067 -0.314861 -1.05579 -0.346027 -0.912773 -0.834058 -0.481352 0.132535 0.541535 0.133155 -0.496485 0.328116 0.190821 -1.39303 -1.81931 -1.28163 -1.48174 -1.69649 0.141267 0.116642 -0.916625 0.0704487 0.0714344 -0.131594 -0.850367 
0.537044 0.086768 -0.864768 0.131993 0.668792 -0.917057 -0.426256 0.277554 -0.414962 -0.587048 0.283938 -1.24315 0.521116 0.584217 0.396637 0.524783 -0.875646 -0.33829 -1.17886 0.39448 -0.402214 0.186743 0.429394 -0.242998 0.453165 0.689273 0.0701714 -0.824888 -0.296148 -0.996421 0.0642562 -0.17814 -0.0160163 0.565308 -1.23992 -0.274155 -0.619978 -0.553942 -0.0700572 -0.306811 -1.18696 -0.625955 -0.309327 0.401964 0.27435 -0.000316944 0.129959 0.579506 0.25872 0.217268 0.423721 0.00252514 -0.117415 -1.02199 -0.0995877 -0.290877 -1.0801 -0.219485 -0.676003 -0.410514 -1.0829 -0.555514 1.54385 0.403347 -0.600226 -0.375105 -0.826039 -1.65997 -0.369218 -0.0534707 0.238604 -0.559924 -2.345 -1.8354 0.316934 -0.282709 -0.693491 -0.838962 0.452014 0.637864 -0.0898206 0.0196324 -0.350083 0.00650167 0.380633 0.344082 -0.772826 -0.239243 0.635425 0.240053 0.483473 0.312805 0.894648 0.631702 0.221705 -0.339735 -0.522644 0.0625448 0.75017 0.317766 -0.681351 
0.504306 0.198348 -0.566403 0.242575 -0.283693 -0.169637 -0.171967 -0.221526 -0.21148 -0.234588 0.34412 -0.861894 -0.426153 -1.50993 -0.0240567 -0.860036 -0.578776 -0.131614 -0.0957473 -0.787514 -0.462373 -0.200708 -0.688186 -0.27415 -0.128589 -0.194865 -0.159953 0.278272 -0.380538 0.886446 0.26543 -0.644143 -1.17403 0.882226 -0.774201 0.226262 0.175186 -0.608282 -1.3171 0.118604 -0.448377 -0.573836 -0.782041 0.065203 -0.276334 0.496828 -0.399845 -0.758412 -0.37784 -0.224197 -0.655734 0.920926 0.281635 -0.0252139 0.344344 -0.35668 0.253667 0.361173 -0.174255 -0.33325 -0.570626 -0.426438 -0.873636 -0.149817 -0.522113 -0.802346 1.00925 0.0962095 0.0308978 -0.0682222 -1.70072 -1.61696 -0.615098 -0.328815 -0.0731342 -0.0267531 -0.0999144 0.934283 0.511044 -0.104963 -0.0769124 0.14884 0.838219 0.116976 -0.132273 -0.359109 0.207128 -0.699676 -0.104221 -0.626345 -0.47323 0.475162 0.579526 0.41943 -0.190222 -0.0112613 -0.0859148 0.135544 0.745944 0.0899597 -0.0206875 
0.765754 0.585053 -0.107206 0.0135712 -0.729623 0.537336 -0.323055 -0.244053 0.913027 0.476806 0.0030616 0.425707 0.349207 -0.67964 -0.348652 -0.444683 -0.493725 -0.259439 -0.111758 -0.335771 -0.502644 0.470381 0.886465 0.692904 0.798278 -0.227028 0.0483744 -1.2229 -0.770551 -0.506892 -0.100098 1.12565 -0.185783 -0.444473 0.243897 0.254366 -0.373809 -1.94153 -0.592177 1.10258 -0.797601 -0.381291 -0.629148 -0.951088 0.152266 -0.34732 0.436863 -0.235389 -1.15853 -0.0443111 -0.303394 -1.04521 -0.401559 -0.256922 -0.696236 0.0748919 -0.945959 -0.449841 -0.796945 0.0448926 -0.173671 -0.505739 -0.275976 0.204095 0.330693 0.210801 -0.909125 -0.927235 0.285599 0.881948 -0.389994 -1.961 -0.469746 -0.185502 0.553162 0.55371 0.52128 -0.503507 0.411501 -0.697441 -0.567785 -0.843938 -0.674089 -1.52531 0.415609 1.4905 0.849235 0.650438 0.467724 -0.457115 -1.16976 -1.58135 -1.37766 -0.844562 -0.40994 -0.421277 0.775928 0.139656 0.113048 0.023721 0.0258046 
-1.66059 -0.0700981 -0.957869 0.538409 -0.813257 -0.488135 -0.198606 -0.337536 -0.585123 0.363803 -0.0585582 1.21136 -0.432701 -0.615355 -1.15077 -0.410326 -0.343153 -0.0762461 0.238267 1.08808 -0.496499 1.2399 0.987292 -0.0972923 -0.452749 -0.989506 -1.25453 -0.672685 0.353171 -0.260131 -0.455344 -0.260254 -0.910652 -0.494764 1.69848 -1.55801 -1.68419 0.705805 0.958955 1.63017 1.19237 0.560208 -0.564979 -0.296318 0.724436 -0.00158471 -0.18103 0.192733 -0.356139 -0.158254 -0.813294 0.653528 0.0372463 0.160227 -0.399239 -0.418946 -0.617936 1.7369 -0.452634 -1.39504 0.48819 1.09652 0.523934 0.106156 -0.742221 -0.525562 1.5781 -0.770232 -0.802652 0.0595065 -0.636108 -0.946542 -0.644918 1.28616 0.509468 -1.08225 -0.479169 0.0989814 -1.21838 -1.13087 -0.317483 -0.59799 -1.01593 1.46798 0.0963418 -1.13841 -0.183672 0.0136424 -0.487375 -1.42888 -1.68641 -1.14318 -1.29095 0.294192 0.459236 -0.243042 1.11426 -0.0650836 0.00720327 -0.482227 -1.50886 
-1.96434 -0.250228 -0.72661 -1.68325 -0.64296 0.58537 1.436 0.716428 -1.17013 -0.128131 0.0910575 0.788811 0.0201163 0.293639 -0.0177811 -0.691212 -0.883232 0.518253 1.45856 -0.00751593 -0.221636 -0.0516935 -0.411328 -0.219553 0.786833 0.702438 0.660557 0.394238 -0.368422 -0.154661 0.430722 0.106129 0.479108 -0.253402 0.275333 0.731377 1.24166 -0.0891655 -0.51073 -0.139761 -0.11635 0.491295 0.230422 -0.289015 0.01607 0.000963406 -0.149318 -0.0728695 -0.0863624 -0.151901 0.928898 0.101377 -0.144655 -0.704476 -0.919838 -0.386456 -0.310559 -0.485883 -0.0630695 0.675311 0.649864 -0.2372 0.13754 -0.0458022 0.0137744 -0.814763 0.268559 -0.232001 0.6207 -0.370288 -1.75929 -0.122431 -1.35608 -1.42771 -0.0799912 -1.10169 -0.482778 -0.100807 0.627914 -0.39822 -0.0573279 0.284809 0.183448 0.362308 -0.401974 -0.927917 -0.134971 0.309467 -0.2557 -0.985834 0.89101 -0.742499 0.693316 0.343996 -0.518768 0.792321 -0.557803 -0.140422 -0.110872 -0.263031 -0.955828 
-1.80447 -0.0161301 0.63543 -0.252062 -0.575917 0.542916 -0.208169 -0.0285721 -0.33915 1.00752 0.0732942 0.00686724 -0.237706 -0.0875642 0.856685 1.13569 -0.130242 -1.25095 -0.664032 -0.0512236 -0.128889 -0.0463521 -0.565579 -0.149391 -0.263494 0.177867 0.267851 0.641785 -0.394195 -0.48947 -0.573059 -0.224308 -0.0373797 0.380466 0.977634 0.117888 -1.98248 0.55764 0.887305 -0.590736 -0.774733 -1.42432 0.142969 0.881765 -0.384345 -0.159105 0.0275362 -0.168619 1.11076 0.108749 0.501254 -0.322087 0.167043 -0.0340359 0.906867 -0.157722 0.329912 0.397458 -0.112139 0.0714093 -0.102719 -0.285523 0.502295 0.00802436 -0.747405 -0.612906 1.13189 -1.14962 0.937069 0.387694 0.358675 -0.0570982 -0.0341915 -1.85449 -0.690033 -0.820942 0.447104 0.210975 0.64067 0.280085 0.0246337 -0.175235 -0.392746 -0.234794 -0.697501 -0.239422 -0.216639 -0.00784833 -0.704321 -0.0355288 0.61989 -0.613363 0.471 0.459472 1.29547 0.650946 -0.914223 -0.103562 0.333685 0.0403264 -0.126338 
-2.31341 -0.0314987 -0.379632 0.195555 -0.230228 -1.23856 -1.02383 -0.970832 -0.593279 0.163623 0.227959 -0.118306 -0.213038 -0.0783429 0.430209 -0.597958 -0.438366 0.0894992 1.34445 0.409299 0.300948 -0.0504517 0.00144345 0.0140228 -0.270669 0.164998 0.303368 0.0469845 0.132917 0.200555 0.135382 0.128588 -0.16137 -0.64127 0.292714 -0.277476 -0.186108 0.152761 1.01178 -0.351425 0.402314 1.38354 -0.134626 -0.200471 -0.237829 -0.484294 -0.804327 -0.641414 0.498246 0.458726 0.151641 -0.298178 -0.510282 0.766992 0.946092 0.291963 0.360476 -0.0285748 -0.0063915 0.537977 0.648774 -0.682369 -0.28958 0.0144043 0.205352 0.39422 0.0312209 0.568697 -0.894814 -0.0333037 0.812411 -0.180244 -1.61465 0.16471 0.25525 -0.449005 0.207556 0.097317 -0.301081 -0.310139 0.157082 0.306158 0.471508 0.167672 0.417858 0.345532 0.763386 0.86708 0.195083 -0.278788 -0.685753 -0.313181 -0.164853 -0.599809 -0.319661 -0.0593494 -0.0807259 -0.00194496 -0.0929106 0.207386 0.210609 
-1.04823 -0.131397 -0.527942 0.101267 -0.421778 -1.08617 -1.29961 -0.732043 -0.332517 0.35355 -0.0431439 -0.439092 0.684175 -0.164299 -1.43153 -1.13739 -0.924044 -1.33413 1.28506 1.40113 0.57191 -0.208069 0.44941 -0.100422 0.287469 -0.626908 0.279577 2.41247 0.396177 -0.982539 1.41383 0.587454 0.467218 -0.33837 -0.188788 -0.27214 0.540377 0.258214 0.342372 -0.565478 -0.409835 0.581382 -0.573646 0.448954 -0.327189 0.671809 0.0104469 0.248569 -0.284367 0.936852 -0.567202 -0.230501 -0.435528 -1.12836 0.193316 0.517926 -1.10833 0.441298 0.655876 0.0706432 -0.735663 1.66255 -0.579468 0.0361002 -0.476026 0.223533 -0.118743 -0.962729 -0.367754 -0.0806292 1.43836 0.459894 -0.714961 -0.744791 -0.380663 -0.228125 -0.590806 -0.854191 -0.40213 -0.952143 -0.192916 -0.296053 -1.00524 -1.52163 0.0574643 -0.788891 0.418964 0.891017 0.468631 -1.07398 -0.995302 -1.25247 -1.34596 -1.38812 -0.899992 -0.555271 -0.16369 -0.0454159 0.00448262 0.487981 -0.663586 
-1.3138 0.0766762 -0.415671 -0.431358 -0.381762 -0.911137 -1.23021 -1.40651 -0.32099 0.478146 0.113965 -0.139058 -0.345343 -0.661946 -0.649805 -1.5887 -1.26351 -0.627297 0.25298 -0.182885 1.44215 0.100813 0.0526069 -0.0706702 0.696493 0.187015 0.494921 -0.596267 -0.589233 -0.759478 0.410496 0.117883 -0.437131 0.9937 1.56859 0.545147 -0.377465 -0.938538 -0.881929 -0.572156 -0.210794 1.30432 -0.71582 -0.114851 -0.418158 -0.288891 0.585943 -0.669229 -0.957687 0.303207 -0.348343 0.201884 -0.103069 1.7521 0.750172 -0.774031 0.575016 -0.20624 0.300489 -1.33095 0.0351169 0.168264 0.415772 -0.140019 -0.298711 -0.48462 0.998752 0.258544 0.787918 -0.844568 -1.48842 -1.62807 -1.0352 -0.742766 -0.768745 -0.647629 0.303643 0.952913 0.639238 1.04545 1.03881 -0.742532 -0.576312 -0.477731 -0.453291 -0.0746839 -0.205274 -0.378899 0.264989 0.635173 0.435573 -0.811888 1.13704 -0.395896 -1.42032 -0.363094 -0.624131 -0.0325124 -0.32289 -0.3595 0.0255958 
-0.224208 -0.216482 0.682395 1.68168 1.33888 0.714069 -0.0359782 -0.890907 -0.89138 -0.404983 -0.0060198 -0.336796 0.392068 0.318817 0.120818 -1.03275 0.105566 0.8931 0.0746498 -0.455003 0.902571 -0.07461 -0.0934284 -0.127856 0.652914 0.289987 -1.03284 -0.346597 -0.332833 -1.40432 -0.252109 -0.214354 0.858517 -0.154559 -2.53273 -2.79678 -1.48579 -1.37684 -0.591458 -1.5369 -0.243094 0.265149 0.420704 0.0806152 -0.0836165 0.376655 0.0207647 -1.23638 -0.0451048 0.0212065 0.0254357 -0.27709 -0.0445469 -0.642691 0.0454099 -0.714792 0.760793 -0.675383 -0.251694 0.181126 -0.254664 -0.359532 -0.169469 0.53312 -1.18148 -0.980688 -0.00790208 0.787791 1.18368 0.511264 0.126975 0.0704135 -0.566174 -2.02529 -1.72773 -0.675002 -0.212404 0.274133 -0.3844 0.788931 0.790873 -0.374648 -0.58481 0.369603 0.0830398 -0.965653 -0.396333 0.0203827 0.469073 -0.753861 -0.287759 0.864042 -0.685772 -0.683999 -0.95937 -0.539972 -0.199828 0.0626926 0.565636 0.178336 -0.82808 
-2.86617 -0.379949 -0.783424 -1.20141 0.456354 1.0405 -0.350716 1.23343 -0.618246 -0.220647 -0.192248 0.562366 0.55653 -0.834261 -0.55316 0.895964 0.174691 -0.553755 0.603667 1.78241 0.12738 -1.11325 0.664778 0.647419 0.588773 -0.313693 0.077447 0.503105 0.185331 0.348736 -0.0665941 0.802421 0.407151 -0.255376 -0.344253 -0.474508 0.245362 -1.79247 -2.25682 -1.16857 -1.90599 -1.24564 -1.45276 1.23594 -0.690804 -0.33701 -0.414625 0.770416 0.307212 -0.825703 -1.16706 -1.44743 -0.0621614 -1.54444 0.373293 -0.194647 -0.423428 1.07339 0.459567 -0.635477 0.64296 1.51598 -0.38931 -0.344995 -1.1378 0.499195 -0.583473 -0.42387 -0.674672 0.126858 1.14479 1.94506 0.300073 1.5124 0.365461 -0.95262 -1.30454 0.471122 0.00544827 0.943551 -0.266478 -0.0564458 0.620056 0.561979 -0.88893 0.0838249 -0.285062 0.0599568 -0.727447 -0.790194 0.616666 0.50529 0.536297 0.0841395 0.140075 -0.317072 -0.521466 -0.343345 -0.726732 0.419094 0.353907 
-1.83511 0.044559 -0.58944 -1.21397 -1.48179 -0.942226 -0.47617 -1.06564 -0.377579 -0.802428 -0.0102113 0.0179399 0.128419 0.437292 -0.840427 -0.911784 -0.168946 0.223844 0.163723 0.466452 0.00611096 0.311185 -0.226572 0.131572 1.07942 0.189226 0.653158 0.17959 -0.157264 0.966876 0.901031 -0.665262 0.470715 0.481169 -0.617452 0.193159 0.635069 -1.47816 -1.52232 0.348449 -0.811761 0.960725 0.728103 -0.428966 0.397451 -0.134322 -0.687436 -0.772011 -1.07273 -0.338721 -0.181675 -0.210004 0.150546 0.52976 0.713781 0.288856 0.871664 0.0878478 -0.758868 -0.937683 -0.453847 -1.3728 0.0123482 0.0943338 -0.621814 -0.32424 -0.397513 0.606329 -0.581257 -0.501032 -0.561343 1.3292 1.01866 1.0053 1.25246 0.809263 0.426084 0.470966 1.64338 0.0229046 1.2814 -0.565041 0.51511 0.937912 -0.533036 0.205137 -0.169132 -0.757724 -0.316028 0.768651 1.35896 0.93562 0.379998 0.395956 -0.946191 0.342796 -0.625594 0.0341005 -0.0104815 -0.354914 -0.194987 
0.359583 0.264526 -0.173868 -0.298173 0.194878 1.76687 0.765754 0.442307 0.508195 0.243599 -0.348091 0.356918 0.875433 -0.0039132 -0.472198 -0.470693 -0.0213762 -1.87676 -1.65428 -0.155251 -0.0357656 0.46077 0.336682 0.643726 0.116814 0.271226 0.265027 -0.581571 0.224783 -1.01922 0.622264 0.173308 0.997351 0.334257 -0.541815 -0.584724 -1.87481 -0.176255 0.227379 -0.45587 0.647507 0.000522025 -0.359359 0.173301 -0.0218793 -0.665955 -0.841476 -0.535434 0.106021 0.402557 0.484626 1.42873 0.91591 -0.401538 -0.860897 0.00986103 0.292777 0.278324 -0.603174 -1.51309 -0.622369 -1.26348 -1.35148 0.653411 -1.50663 -0.284962 -0.255872 0.366867 -1.01329 -1.12033 -1.19332 0.14321 -0.61228 -1.40601 -1.84855 -0.607443 -0.814563 -1.1455 0.305575 -0.810754 -0.592981 -0.809718 -0.0871179 -0.751611 -0.131436 -0.820883 0.491367 1.12392 0.0887545 -0.723455 -0.19344 0.203788 0.963657 -0.871547 -0.016342 -1.06617 -0.205172 0.0896584 0.759764 0.436323 0.211454 
0.0255016 -0.0631775 -0.298727 0.310699 0.410411 -0.374976 -0.683896 -0.11938 -0.144729 0.765707 -0.0410196 0.125601 0.178726 0.286692 0.220631 -0.365232 -0.221885 -0.652855 -0.571605 -0.90217 -0.494732 -0.614974 1.25694 0.363388 -0.194845 0.0599232 -0.186785 -0.347922 0.282822 -0.142611 -0.0900326 -0.182066 -0.61233 0.0895882 0.579709 0.208373 0.106961 -0.0886546 -0.605844 -0.845571 -0.684435 -0.330318 -0.419454 -0.0557079 0.0582431 -0.67581 -0.338363 -0.57127 0.294149 -0.115827 -0.323498 -0.306332 -0.0347439 -0.712452 -0.305081 0.18071 -0.449609 0.198055 0.925343 0.00645114 -0.0366798 0.254365 -0.00320037 0.381237 0.164438 -0.098105 0.0886181 -0.792029 -0.358518 0.306696 0.295316 0.76219 0.369122 -1.08889 -0.546741 -0.264891 0.369508 -0.270107 -0.277289 -0.557427 -0.27859 -0.504198 -0.298967 -0.194945 -0.134599 -0.523392 -0.194552 0.112695 -0.245171 0.202334 -0.196851 -0.0722141 -0.538587 0.0226088 0.00816382 -0.242485 -0.931006 0.0896691 0.237877 -0.228011 -0.567647 
-1.98071 -0.119838 0.23955 -0.222051 -0.0250934 -1.15071 0.760907 0.204618 0.940136 0.0896458 -0.130931 -0.644768 -0.0383418 -0.458535 0.190631 0.203817 -0.335435 -0.605104 0.360776 1.13751 -0.0964479 -0.829144 0.595247 0.0214467 -0.622166 -0.214068 -0.0955824 0.453991 0.198704 -0.0765411 0.368747 -0.624033 0.931014 -0.0108918 -0.508429 -0.193369 -1.16207 -0.0815708 -0.0615168 0.989507 0.265921 0.311743 0.396321 -0.445193 0.060286 0.0737591 0.262408 0.190282 -0.146833 0.858616 -0.0142158 -0.304493 -0.249424 0.18928 -0.212354 -0.230742 0.869646 -0.0904438 -0.813953 0.159727 -0.599566 -0.761948 0.0670584 0.0201279 0.197042 1.06238 0.441601 0.0455599 0.0909556 0.538163 -0.705261 -0.634554 0.0667231 0.29301 -0.554613 0.210798 0.618544 -0.0351519 -0.236783 -0.760639 -0.294912 -0.0215786 0.126609 -0.73697 -0.0123954 -0.278654 -0.220762 -0.118203 0.0191143 0.579113 -0.0261412 -0.528612 0.312504 -0.210482 0.106148 0.0897985 0.54128 -0.0691477 0.106385 0.0494616 0.240596 
-0.866251 0.0989616 -0.0149727 0.421794 -0.725561 -0.972909 -0.483272 -1.0273 -0.00743539 1.12748 -0.118001 -0.80629 -0.197643 -0.21364 -0.537852 0.209851 -0.00392259 0.321883 -0.404708 1.30947 0.264435 0.391969 -0.895706 -0.110693 -0.0798211 -0.285736 0.322754 -0.536786 -0.80032 0.0187641 -0.284488 0.369942 0.467515 -0.600298 -1.45283 -0.930676 0.293121 0.689562 0.102612 -0.78553 -0.590793 -0.157929 -0.479601 -0.078478 0.227589 0.0913322 -0.0639695 0.714191 -0.016923 -0.256876 -0.362267 -0.195964 0.12011 -0.265666 0.173254 -0.169811 -0.372333 0.103185 -0.231787 -0.612071 -0.0462875 -1.15418 -0.315811 0.385169 -0.687021 0.348842 -0.00784107 0.281244 0.211192 1.3923 -0.307094 -0.882797 -0.575425 -0.28298 -0.434551 0.706329 0.636162 0.0175983 0.260045 -0.417384 -0.0231866 -0.396766 -0.0160462 0.176031 -0.259672 -0.533287 0.251795 -0.0288073 -0.158032 0.279069 0.237127 0.0837114 0.356033 -0.483718 -0.741196 -0.115589 -0.926001 -0.0280711 0.163464 0.178391 -0.105655 
-1.16859 -0.0647574 -0.32744 -0.0707529 -0.363273 -0.391759 -0.614344 -1.24456 -0.316604 0.0483647 -0.187205 0.999348 -0.136248 0.806581 -0.463281 -1.09518 -0.577577 0.332054 0.164873 0.182972 0.715817 0.472742 -0.20748 0.749109 -1.02566 -0.390268 0.277985 -1.4326 -0.319811 -1.08766 0.126936 -0.04218 0.846193 -0.59857 1.67314 -1.65327 -0.474839 1.45899 1.24698 1.07088 0.429566 -0.460299 0.523477 0.336412 0.0565819 0.982913 0.124046 -0.958207 0.453521 -0.232588 0.352874 -0.988199 -0.17867 -1.09608 0.90114 -0.56958 -0.390057 0.770271 -0.359518 1.01898 -0.640718 -0.888096 -0.224135 0.437184 -1.10325 -0.0525671 1.50538 -1.54167 -0.513879 -1.05358 -0.895816 -1.39031 -1.05332 -0.298906 -0.855299 0.912205 0.372282 -0.534426 -0.544158 -0.931075 -0.648799 0.449839 0.828375 0.269781 -0.514021 -1.44164 1.4208 -0.0848038 0.600408 -0.141197 -0.810544 -1.371 -0.397811 0.0231402 -0.544661 -0.956059 -0.973211 -0.0842999 -0.502443 -0.891515 -0.904766 
-0.981273 -0.236773 -0.512303 -0.733132 -0.825437 0.0433855 -1.22687 -1.82768 -0.253053 -0.310963 0.274213 0.21338 0.0950252 -0.683768 -0.248405 -0.240715 0.267506 -0.00567843 -0.388124 -0.320717 0.321352 0.251548 -0.5468 0.286549 0.375584 0.220328 -0.294294 -0.146811 -0.264734 -0.269556 -0.324522 -0.219151 -0.280983 0.722965 0.0486761 -1.05941 -0.680772 0.169645 -0.069638 -0.627217 -0.177741 -0.495217 -0.537914 0.149039 -0.356388 -0.0299904 -0.349605 -0.591064 -0.998117 -0.950789 -0.657271 -0.430879 0.395473 -0.245516 0.926577 -0.112648 0.184081 -0.699328 -0.349225 0.445499 0.133127 0.115061 0.322084 0.200547 -0.189127 -0.0492545 -0.523796 0.0984123 0.451293 0.044196 1.47595 0.41378 -0.839255 -1.75879 0.736701 0.223947 -0.0578432 0.272859 0.788348 0.189554 1.31204 -0.152026 0.673292 0.651881 -0.233453 0.035083 1.04252 -0.0848725 0.368926 0.867167 0.409994 0.465804 0.698322 0.494218 0.047707 -0.0123045 -0.0295217 -0.0527926 1.07502 0.548059 0.634646 
-0.183947 0.00365389 0.336818 -0.0830061 -0.687003 -0.535543 0.717807 -0.43645 -0.383959 -0.186516 -0.0728395 0.879097 -0.771555 -1.42479 0.123224 0.812747 0.172562 -0.629347 -0.382635 0.389603 -0.408754 -0.557017 -0.448383 -0.284622 -0.250114 0.0556267 -0.0742865 1.25318 -0.799067 0.070195 0.0653621 0.661173 0.229891 -1.24449 0.53018 -2.10529 -0.205015 -0.0527819 0.197423 -0.561917 -0.689142 -0.567846 0.0640131 -0.152093 0.286938 -0.479134 0.69108 0.119353 -0.0411355 0.147217 -0.283397 -0.504635 -0.276086 -0.454896 -0.396827 0.0768214 -0.413497 0.00188847 -1.10979 -1.17183 -1.35998 -0.806983 0.024637 -0.173441 -0.737662 1.12521 1.54649 -0.532213 -0.792614 -0.637185 -0.781379 0.0918861 0.465311 0.0800738 -0.373354 0.829079 0.225546 0.0599657 0.192402 0.531487 0.610196 0.0822583 -0.0310306 -0.228026 -0.497054 -0.968832 0.220468 -0.471102 0.231732 0.371338 0.43796 -0.695338 -0.758368 -0.651201 -0.457661 -0.208279 -0.538502 0.00863711 -0.149995 -0.533408 -0.0325496 
3.32011 0.725161 -0.953692 -2.00347 -1.5577 -1.09641 -2.56758 -1.6701 -0.373145 -0.732813 0.229935 -1.57656 -0.157599 -2.83626 -1.90814 -0.46369 -0.348063 -0.51093 -1.04885 0.0365624 -1.37394 -0.345667 -1.49546 0.263901 -0.89615 -2.32027 -0.630298 -0.118351 0.691979 0.466287 -0.40855 -0.255161 -1.229 -0.948691 -1.42956 -1.23641 -0.960719 1.11634 0.800719 -0.138317 0.642106 0.130096 -1.40092 -0.916679 0.497041 -0.546728 -0.324251 0.117311 0.489939 0.116077 -0.48458 0.55465 -0.427883 0.366317 -1.13875 0.692585 -1.05474 -0.0784864 -0.269371 0.372057 -0.594746 0.183091 0.594059 0.605236 -0.404612 -1.60254 -1.35345 -1.08882 -0.683429 -0.145552 0.052064 0.462422 -0.0526194 -0.0650116 -0.92955 -1.65429 -0.135709 -0.234381 -0.067942 0.53406 -0.789843 -0.306196 1.20685 0.155521 0.947065 -1.04798 -0.82099 -0.056813 -0.239532 -0.0107195 -0.368837 0.202887 -0.626731 0.232489 -0.194286 0.14443 -1.46392 0.366527 1.3 -1.17204 -1.29252 
0.67045 -0.168685 -0.708506 -1.02212 -0.829185 -0.358363 0.700448 -0.279377 -0.821369 -0.18603 -0.0125749 -0.765518 0.400284 -1.37511 -0.436941 -0.00187263 -0.940647 -0.471791 -0.132761 -0.662138 0.369542 0.452463 0.236952 0.252141 0.12403 0.269766 -0.207237 -0.401979 -0.455944 -0.905002 0.121262 -1.28805 -0.254049 0.257813 0.12585 0.387676 0.378793 0.3281 0.44094 -1.42202 -1.25238 0.819706 -0.159149 -0.636428 0.369941 0.536184 0.635545 -0.185926 0.553766 0.55352 1.13092 0.0673035 0.430186 -0.521942 -1.19843 -0.0746618 -0.689322 0.663671 -0.303782 -0.522941 0.158946 -0.723137 -0.506703 0.517069 -0.296656 0.0404429 -0.67626 -0.630371 -0.472201 0.55784 -0.888771 -1.82767 -1.58752 0.244773 -0.0618408 0.900491 -0.0686432 -0.644417 -0.210912 -1.08067 0.485633 0.236908 0.214762 -1.21881 -0.130225 1.17611 1.34333 -0.680327 -1.7564 -0.199612 -1.1811 -0.819575 0.386449 -0.119059 -0.00205406 -0.296316 -0.0992242 0.13986 -0.0324893 0.502733 -0.383969 
-1.5439 0.167119 -0.142368 0.126119 -0.329674 0.285965 -0.436317 0.572592 1.24596 1.10828 0.312852 0.588572 -0.0196872 1.12321 -1.25683 -0.945127 -1.153 -1.3194 0.0168433 0.686691 -0.0265876 -0.326602 -0.545218 0.0327644 0.618124 0.523585 0.62092 0.0564982 -1.55377 0.0978423 0.297188 -0.262877 0.477985 -0.0713692 0.609014 -0.110146 -0.0762285 1.6785 1.64371 0.342244 0.351185 0.0222959 -1.16186 0.391118 -0.00864047 -0.532305 -0.120209 0.314845 0.103287 0.332781 -0.373439 -0.135925 0.199668 -0.603193 0.70134 0.249524 0.463561 -0.131394 -0.731213 -0.407747 0.483392 -0.662624 1.26536 0.0970255 -0.762575 -0.191433 0.521881 0.507112 -0.233967 -0.671674 -1.70604 -0.8964 -0.850483 -0.558871 -0.179705 1.06674 -0.0845701 -0.485746 -0.918727 -0.380808 -0.88839 0.58966 0.308252 -0.66089 -0.196762 -0.495486 -0.520717 -0.431352 -0.308971 -0.207899 -0.251977 -0.749453 0.535894 -0.453868 0.568384 -0.0342209 -0.190073 0.0377007 -0.088322 0.0386337 0.0228451 
-1.26863 -0.171708 -1.2413 -0.13798 0.376709 -0.177797 0.873414 0.856619 0.612815 -0.411465 0.00458357 -0.831275 0.218271 0.172447 1.21851 -0.362615 0.0448561 1.5284 -0.05854 0.237202 0.451302 0.869539 -1.20546 -0.658192 0.525312 -0.0313425 -0.885504 -0.0824772 -0.536479 -1.95572 0.131976 1.05375 0.0391006 -0.712972 -0.717254 0.687476 -1.45979 1.10545 -1.36462 -1.14532 -0.428449 -1.16331 0.341799 -0.273213 0.237477 -0.350644 -1.04087 -0.625229 -0.65713 -1.06696 -0.118974 -0.608264 -0.2507 -0.899223 -0.499501 -0.0896541 0.14084 -0.686635 0.457177 1.44194 -0.118969 -0.341223 0.523331 -0.327744 -0.740574 -0.866781 -1.08627 -0.690719 -0.198072 -0.130875 1.05711 -0.939749 0.635404 -0.291807 -0.937996 -1.21255 -0.650656 -0.772701 -0.108329 1.02821 0.266634 0.764189 -0.513993 0.550794 -0.221505 -0.235637 -1.02912 -0.962168 -0.615774 -1.46315 0.654619 0.632898 -0.0551933 0.63161 -1.10097 -0.835744 -0.894341 -0.112583 0.562359 1.19725 1.3491 
-2.89901 0.405085 -0.624583 -0.374287 -0.142235 -1.64705 -0.324673 -0.837836 -0.33521 0.714636 -0.0175599 0.0938097 -0.263127 0.610469 -0.192755 -0.731541 -0.577715 -0.5858 -0.542812 1.18174 -0.0484653 -0.111234 -0.287329 0.503565 1.16905 -1.0545 -0.548501 -0.427605 -0.281273 0.278821 -0.905877 0.505811 -1.09351 -0.842303 0.909955 -1.19715 0.551376 -0.308884 0.640038 0.423043 -0.492589 -0.492891 0.395038 -1.42212 0.0246675 0.591075 -0.0288145 0.479991 0.666735 0.302637 -0.3844 0.686152 0.698422 0.176962 -1.35566 0.577514 0.333387 0.871342 1.65478 0.92476 0.978932 0.489592 0.460518 1.39306 -0.0527323 0.0631612 -0.192539 -0.188645 0.928663 -0.601718 0.605986 0.415562 0.635625 0.0329716 -0.237393 0.445031 0.189085 0.289853 0.27628 0.787923 -0.21775 -0.937085 -0.0912785 -0.817364 -0.19762 0.627451 0.45154 -0.097752 0.69004 0.512343 -0.177809 -0.185844 -0.405527 0.346439 -1.04016 -0.170683 -0.910299 0.335455 0.239124 -0.246455 1.16963 
-2.08358 -0.0460806 -0.0324605 0.383117 -0.346839 -0.903845 -1.0311 -0.446153 -0.511771 0.000168642 -0.216135 -0.172191 0.291554 -0.545193 0.67132 0.788376 0.809474 0.47049 0.141179 -1.32059 -0.176474 -0.470184 -0.886591 -0.352332 -0.633858 -0.511255 0.26233 0.864118 0.455941 -0.417354 -0.0216668 -0.220155 -1.30778 -0.529663 0.443112 0.201785 0.378826 -0.179846 0.717488 -0.739198 -0.880794 -0.736373 0.475268 -0.28919 0.0481095 0.131256 -0.447062 -1.00115 0.400383 -0.0246283 0.0504169 0.0372754 0.761906 0.336191 -0.157037 0.361412 1.14512 0.0482179 0.667634 0.151833 0.326668 -0.0515694 -0.807713 0.215136 -0.551142 0.748183 0.400736 -0.0413564 0.366452 0.0442069 0.393238 -0.0167593 -0.316397 0.23415 0.495069 0.0132717 -0.169234 0.384464 -0.0812457 -0.218967 -0.129913 -0.604136 -0.330477 -0.154003 -0.372372 -0.463845 -0.468361 -0.688442 -0.114702 -0.0382725 0.271558 -0.770372 0.411009 -0.0204634 -0.957669 -0.312072 -0.673242 -0.0882611 0.250518 0.437274 1.17262 
-0.694833 -0.10045 -0.746788 1.10729 0.283052 1.50027 0.700178 0.0436958 -0.372851 -0.0976008 -0.233015 -0.00640994 -0.44706 -0.953916 0.303282 -0.174984 -0.697635 -0.451842 -0.680815 -0.23029 0.137111 -0.330044 -0.111861 -0.220673 -0.311159 -0.863742 -0.65358 -0.660424 0.085897 -1.06341 -0.942935 -0.173313 -1.06634 -0.0844606 -0.816572 -0.163895 0.545242 -0.0610372 0.666171 0.589619 -1.20316 -0.990344 -1.21374 -0.357487 0.0376588 -0.367015 -0.338109 0.119142 -0.556936 -0.16038 -0.0439883 -0.209613 0.220505 -0.360478 -0.504106 0.281792 -0.191984 -0.0185158 -1.17609 -1.04377 -0.0981413 -0.148916 1.20336 -0.42508 0.506619 0.141822 -0.352963 0.925318 0.541655 -0.461353 -0.320748 1.07303 0.753549 1.13037 -0.276974 -0.0230584 0.306483 -0.839338 -0.672458 0.909388 0.0610142 0.431806 -0.41838 0.60553 -0.19316 -1.06437 -0.867955 -0.310358 -0.0999819 -0.87336 0.0513663 -1.02613 -1.14873 -0.551599 0.169249 0.142817 -0.156488 -0.0502764 -0.225954 -0.163267 -0.19415 
-0.652629 0.00508371 0.352602 -0.814058 -0.0545768 0.614048 0.0857985 0.344283 0.131125 0.550378 -0.0686875 -0.0744496 -0.0338979 -0.992018 -0.927989 -0.453643 -0.244275 -0.0463267 0.0824485 0.38466 -0.286086 -0.496092 -0.326963 -0.480476 0.217745 -0.151328 0.0051031 -0.0561585 -0.499311 -0.145225 -0.037469 -0.135676 -1.5045 -0.354589 0.166153 0.632216 1.08794 -1.92791 0.231764 -0.796076 -0.348149 -0.950243 -1.12643 -0.0993876 0.0501147 -0.105152 -0.033914 0.0159074 0.24229 0.767635 -0.662261 -0.465754 0.537222 -0.690528 -0.0928548 0.0266198 0.0363815 -0.427255 -0.988793 -0.519303 0.440712 0.507397 0.671078 0.0636482 -0.54507 0.0444973 0.94178 0.504275 0.98741 0.832366 -0.0641935 -0.128765 0.614045 -0.492837 -0.129977 -0.234512 0.550264 -0.228575 0.134628 -0.201784 0.215262 -0.336813 0.330889 -0.181717 0.156269 0.189749 -0.280507 -0.674158 0.794592 -0.260701 0.436406 0.174001 0.0887532 -1.31209 -0.445701 -0.516342 -0.839602 -0.057553 0.296309 -0.300272 -0.0699573 
0.269715 0.31902 -0.599431 0.0941401 0.0956751 -0.971384 -0.356536 -0.52411 -0.105428 0.0327425 -0.246296 -0.405413 -0.335801 0.0957034 -0.733559 0.0903622 -0.57271 -0.0619678 -0.22567 -0.693559 -0.662901 -0.798639 -0.371282 0.451956 0.332321 -1.54398 0.061077 -0.202221 -0.538374 -0.886661 -0.156242 -1.07582 -1.44894 -0.704446 -2.01793 -2.54664 0.298239 0.153467 0.40677 1.10328 0.614396 -0.654307 -0.239261 -1.55543 0.159399 -0.0646048 -1.41894 -1.3729 -0.0552066 -0.0200997 -0.850385 -0.0884778 -0.911149 -1.31405 -0.976319 0.318415 0.0175007 -0.486238 0.997184 -0.256165 -0.0999116 1.09572 0.845681 -0.317753 -0.646627 0.207369 0.095284 1.15186 0.874054 0.846956 0.970787 0.452078 0.511401 -0.630723 0.757856 -0.15724 0.200947 -0.309725 -0.0954103 0.020336 -0.379187 0.372396 0.0571773 -1.17892 0.0876766 -0.66147 0.317109 -0.261014 -0.436908 -0.385306 -0.937874 -1.27612 -1.26411 0.248063 -0.588185 -0.580704 -0.596686 0.0778678 0.0185787 1.17088 0.454763 
-2.71764 -0.272222 -0.357179 0.923948 1.12412 0.656984 0.284071 0.193025 0.256443 0.264083 -0.16881 0.65042 0.640773 1.37942 0.0577248 0.416577 -0.476201 -0.0459137 0.543279 -0.805667 -0.361621 0.372051 0.301156 0.217518 -0.270115 0.540842 -0.267738 -0.530511 -0.746823 0.857077 0.800585 0.0163374 -0.0909511 -0.428441 -0.606972 -0.116299 -0.0246859 0.710009 -0.318121 -0.0166644 0.36448 0.249319 -0.270834 -0.703164 -0.139633 0.0239929 -1.19724 -0.715751 -0.274372 0.277605 -0.250882 0.0263054 -0.0458718 -0.255475 -0.229921 -0.15214 -1.34968 1.07033 0.279684 0.0837832 0.589934 0.389499 -0.00792556 0.178146 -0.650854 0.952248 0.144398 0.41401 -0.326379 -0.614357 -0.134176 0.682878 0.801805 0.30342 -0.525461 1.21285 0.208181 -0.400281 -0.211408 -1.17712 -0.347459 0.361067 -0.957169 0.413752 -0.0300562 0.0069135 -0.0535902 -0.0634879 -0.924754 -0.480661 -0.611313 -0.0666775 -0.652224 -0.443801 0.306623 0.285326 -0.472443 -0.329759 0.279133 -0.336693 0.191657 
-0.86835 -0.00647776 -0.303791 0.00658613 0.157312 -0.366363 0.238627 -0.227926 0.156483 0.127219 -0.0216716 -0.482205 0.168733 -0.712662 0.404048 -0.56732 -0.726947 -0.77541 -0.326623 -0.0863152 0.543138 1.18027 0.321075 -0.391809 0.49723 -0.524649 -0.591157 -0.773583 -0.637474 -0.207054 -0.266168 0.478589 0.0235693 0.452669 0.668635 -0.21452 -0.71713 0.322608 -0.624506 -0.35983 0.328753 0.164073 -0.282798 0.463362 -0.166487 -0.668597 -0.362531 -0.163549 -0.202048 -0.161361 -0.393125 0.0669202 -0.199861 -0.495106 0.304293 -0.408768 -0.283297 -0.649254 -0.642376 0.190372 -0.113299 -1.16411 -0.471316 0.282023 0.454598 0.453384 -0.942131 -0.709413 1.11918 0.150596 -0.861263 -0.620573 0.165563 0.913022 -0.125084 -0.217617 -0.320994 1.30175 0.0742169 -0.940384 -0.256889 -0.419687 0.182265 0.559139 -0.395524 0.239595 -0.314452 -0.149169 0.425622 0.667578 -1.13285 0.230019 0.08751 -0.151744 0.519546 0.0708281 -0.0521407 -0.0219054 0.0222042 0.139863 -0.16467 
-1.39042 -0.213688 0.258238 -0.981952 -1.90482 -0.41753 -0.332022 -0.384199 0.937952 0.148532 -0.237774 -0.151757 -0.171806 -0.153648 -0.811496 -0.213284 -0.378266 -0.102471 -0.75169 -0.252215 0.0982766 0.911847 -0.913646 0.0237091 -0.344113 0.0255526 0.185386 -0.0847557 -0.952507 -0.968368 -0.361511 0.222462 0.848479 0.0146661 1.12791 0.886394 -0.243328 -0.258744 -1.41969 -2.31025 -1.19568 -0.767083 0.357872 -0.410424 0.0105211 -0.39023 0.00435712 -0.25948 -1.62589 0.0798027 -0.467892 -0.167326 -0.20592 -0.17659 0.841853 -0.449531 0.631402 -0.2041 0.786159 -0.900001 -0.225542 0.492975 -0.435352 0.591643 0.229864 0.355195 0.382709 0.616038 1.58487 0.703298 -0.887539 -0.0749197 -0.814708 -0.673335 -0.666897 0.233951 -1.37625 1.01077 0.630542 0.0619877 -0.492763 0.716146 0.0658443 0.231658 -0.321072 0.671192 1.5392 0.400878 0.534094 0.254917 -0.107777 0.366507 0.0386106 0.178596 0.729681 0.990651 0.677322 -0.191731 -0.279483 0.633441 0.0542681 
-0.8806 -0.107365 0.330945 -0.0192303 0.0460485 -0.868111 -1.07362 -0.368184 -0.548126 -0.235638 -0.0410899 0.562939 -0.163765 -1.20662 -0.648914 -0.781274 0.0951047 -0.0466611 0.75973 -0.138202 -0.0382768 0.537191 -0.315116 0.105269 -0.283776 -0.152952 0.349009 0.0107926 -0.0683629 0.0233507 0.283702 0.351193 0.154007 0.129486 0.840084 -0.996575 -0.184696 0.841028 -0.478192 -1.00023 -0.369188 0.193771 0.241585 -0.319269 0.219246 -0.186705 0.050275 -0.292456 0.0385408 -0.362542 -0.512094 -0.140911 -0.200568 -0.160592 0.690274 0.0316843 0.209244 -0.709163 -0.397874 0.0203269 0.0515659 -0.210752 0.188901 0.321655 -0.110748 -0.0064538 -0.830212 -0.0925067 -0.0981204 -0.612499 0.300862 0.66724 0.252458 0.0892869 0.153423 0.238918 0.153245 0.711217 0.79749 0.22319 0.81207 0.578989 -0.116525 0.362665 -0.362945 0.146509 0.998178 -0.555394 -0.685232 -0.661077 0.223568 -0.259567 -0.71202 -0.0354913 -0.399375 -0.250495 -0.569411 -0.0539772 0.0468494 -0.0112617 0.0199002 
0.769295 0.15911 0.450267 0.974173 0.820194 0.237964 -0.915396 -0.922702 -0.357636 0.672979 0.277279 0.0473131 0.144093 -0.903278 0.00480309 -0.403241 0.0647607 -0.249326 -0.643835 -0.455165 -0.406502 -0.602311 -0.0481275 0.201776 -0.21267 -0.116481 -0.0296727 -0.377493 -0.0548829 -0.29385 -0.117506 -0.16756 -1.07371 -1.19178 -1.62042 -1.09396 -0.61092 -0.203 0.343871 -0.249509 -0.18219 -0.411704 -1.70416 -0.131938 0.658724 -0.581924 0.0556859 0.604763 -0.536232 0.488151 -0.799412 -0.777031 0.290358 -0.949418 -0.256129 0.0256769 0.65597 0.60147 0.500093 -0.379749 0.382056 0.332308 0.610946 0.249717 -0.500778 -0.511593 -1.5687 -0.681521 0.0760865 0.0328859 0.321659 -0.528261 -0.150433 -0.410306 -0.228501 -0.366072 -0.109476 -0.165507 -0.750797 -0.380934 -0.21408 0.160967 0.306732 0.189342 -0.44105 -0.997511 -0.43649 0.0953516 -0.363673 0.564444 -0.0443462 0.553103 0.485505 -0.0969675 -0.352702 0.255725 -0.398173 0.125166 0.458688 0.0418576 -0.422458 
-3.41909 -0.261501 -0.705592 1.20961 -0.182188 -2.10835 -0.0444181 -0.596431 -0.6867 -0.539199 0.112045 1.51283 -0.0400772 -0.06986 -0.744153 -0.947269 0.743347 0.737648 0.848132 -0.0906335 0.0691845 -0.596198 1.00333 0.372091 0.128573 1.0394 0.33725 0.027503 -0.340075 -0.24235 0.0754329 -0.316815 0.622761 0.694931 -0.514413 1.10706 1.4251 -1.03879 -0.0489944 0.545401 -0.625312 -1.15275 0.510585 -0.169235 -0.109773 -0.0731361 -0.286411 0.516714 -0.101784 -0.426258 -0.680832 -0.445284 0.478978 -0.0741506 -1.41254 0.0221004 -0.112141 -0.398024 -0.143649 0.760749 -0.732667 0.375672 0.644923 0.0264017 -1.15412 -0.463693 -0.546209 0.226325 -0.636593 0.915827 0.180403 0.873458 1.12921 -0.21533 0.826429 -0.339603 1.22658 0.3967 0.542209 0.402669 1.49042 0.467981 1.01193 0.360636 -0.341548 -0.841515 -0.329927 0.794406 0.399982 -0.482559 -1.82635 -0.646397 -0.116643 0.144155 0.00362166 0.254496 -0.0396247 -0.109462 0.293848 0.783947 0.218579 
-1.5685 0.013686 -0.603825 0.357779 -1.00538 -0.476688 2.0247 0.492467 0.299624 -0.208984 -0.00250186 0.0779977 -0.0646149 0.377312 0.418826 1.07174 0.504071 0.822497 0.906081 0.0680013 0.0334231 -0.256514 -0.90173 -0.284071 1.58895 0.435189 -0.381986 0.0715017 0.111445 -0.356524 0.323697 0.0943173 -1.02067 0.0488727 0.883215 0.301953 -1.28055 -2.08441 -1.68436 -1.23394 -0.693823 -0.634826 -0.0635582 -0.291791 -0.0310178 0.110772 -1.11672 -0.452837 -0.501573 0.147459 0.381666 -0.137758 0.885372 -0.741151 0.313622 -0.104926 0.304445 -0.829977 0.181822 -0.516976 -1.21213 -0.42269 -0.460913 0.147185 -0.456279 0.725977 -0.0350172 0.257251 -0.719722 -1.06654 -1.11674 -0.546023 -0.244363 1.68993 0.729705 0.103981 -0.552881 -0.0409662 -0.0405829 0.414434 0.416955 -0.381696 -0.442408 0.171823 -0.0677927 0.397727 -0.421351 -0.113128 -0.415583 -0.724158 0.282528 0.300252 0.0379961 -0.564147 -0.825525 0.247518 -0.453232 -0.103023 0.154755 -0.492006 -0.0869714 
-1.5501 -0.260788 0.273875 0.888611 -0.216153 -0.440481 0.683362 0.500326 0.255782 -0.187945 -0.0797936 -0.427943 0.512803 -0.447877 0.195678 -0.308112 0.386792 0.0968004 -0.400386 -0.663435 0.4408 -0.863769 0.506124 0.269993 -0.339923 0.462448 -0.582203 -0.919163 -0.193474 0.262204 -0.322206 -0.54525 0.576151 0.123005 -0.540584 0.222637 -0.364712 -0.811746 0.484892 1.00877 0.237679 -1.11694 0.536451 -0.726516 0.0296062 0.498921 -0.506021 -0.723932 -0.122539 -0.377262 -0.573928 -0.268607 0.170503 -1.16762 -0.0397065 -0.479194 0.907236 0.760457 -1.04106 -1.63958 -0.550445 0.851459 0.375423 0.810817 -0.159407 0.916307 -0.101948 -0.871342 -0.708767 -0.325982 0.447542 0.115366 0.646288 0.7907 -0.783265 0.976475 -0.347652 0.352512 0.0136704 -0.118518 -0.252908 0.192003 0.0871773 -0.516357 -0.440072 -0.971852 0.444276 -0.166864 0.113623 -0.178079 0.209948 -0.218273 -0.0234067 0.563773 0.751463 -0.0503029 0.553616 -0.179196 -0.371468 -0.578144 -0.875389 
-1.08866 -0.171792 -0.527067 -0.399652 -0.162087 0.0478122 -0.785654 0.134095 0.886023 0.0452963 0.570398 -1.01549 -0.0300893 0.450835 -0.265501 -0.178858 -1.2379 -1.0417 -1.12252 0.697888 0.854913 0.212285 -0.266834 -0.412436 0.088642 -0.33659 -0.508503 0.326656 0.150988 0.824765 0.0660518 -0.283604 -0.163258 0.868353 0.125638 0.0874179 -0.356082 -0.543735 -0.29363 0.67155 -0.104396 -0.724083 -0.554256 0.620233 0.29139 0.00192294 0.185815 -0.452111 -0.611636 0.105643 -0.689506 -0.362743 -0.129566 -1.37679 0.836461 -0.622891 -0.0723716 -0.19261 -0.795188 -0.177758 -0.511729 -0.830317 -0.0634814 0.286342 -0.130134 0.455807 -0.222821 -1.20219 -0.380676 0.392152 -0.136304 0.451633 0.429289 -0.742086 0.218508 0.0550227 0.968214 -0.376219 0.0723808 -0.673736 -0.33861 -0.36748 -0.897388 -0.872772 -0.491915 -1.17094 0.0141424 -0.63858 -0.742098 2.06587 1.25358 1.46422 -0.0423267 -0.620818 -0.225651 -0.0348911 -0.517183 -0.0209562 0.0805374 0.440781 1.20465 
-1.79834 -0.168187 0.550746 1.30583 0.626022 0.207065 -0.875786 0.912127 -0.0514807 0.797655 -0.148618 -0.116597 -0.197347 -0.509648 -0.0798877 0.571206 1.22149 0.068191 0.0773636 -0.988453 0.155711 -0.0601384 0.817495 -0.318151 -0.743729 0.479865 -0.552572 0.070391 1.10576 -0.409977 -0.838199 -0.626544 0.11939 -0.678495 -0.98985 0.456218 -0.390897 -0.282063 -0.334031 0.500803 0.678827 0.451276 -0.326979 -0.710436 0.0431381 -1.12817 -0.341524 -1.11447 0.748315 -1.37041 0.644268 0.16997 -0.407057 -0.508605 -0.942718 0.234037 -0.159796 -0.739132 -0.28841 -0.166322 -0.0081105 -0.862571 -0.618757 -0.205597 -0.993608 -1.45389 -1.86587 -0.722279 0.241271 0.206533 0.971778 1.52212 2.20835 2.10462 -1.72002 -1.15517 -0.972219 -0.250888 -0.61795 1.10472 0.426927 1.41529 0.117719 0.849989 -0.556713 -1.03876 -1.16611 -0.0981903 -0.328446 -0.775232 -0.302835 -0.75957 0.496613 -0.286187 0.386502 0.11382 -0.635603 -0.174346 -0.793884 -0.706627 -1.21471 
-1.08438 0.0817232 -0.488192 -0.241963 0.023281 -0.434602 -0.516426 -0.408016 0.0178399 -0.164468 -0.19458 -0.0095436 0.807109 -0.899521 0.177924 0.483595 -0.207012 -0.0667906 -0.213216 -0.0566618 0.208632 0.599519 0.131141 -0.111885 0.199619 -0.513303 -0.453123 0.180415 0.824947 -0.00162988 0.442287 0.00603956 -0.274953 -0.618244 -0.931002 -0.91348 -0.740668 -1.31095 -0.138314 -0.859467 1.40691 0.970586 -0.517354 -0.633824 0.0961841 -0.592588 -0.594533 0.221362 -0.993587 -0.264306 0.431867 0.204776 0.272445 0.00322638 -0.0184606 0.185969 0.129459 0.202387 0.291116 -0.49531 0.291646 -0.0368643 0.674367 0.737683 -0.550662 0.622257 0.522257 -0.569102 -1.16785 -1.6557 0.12128 0.54106 1.21881 1.30609 0.609959 0.180942 -0.00742181 0.217402 -0.644139 -0.300312 -0.593702 -0.429047 -0.961231 -0.0747479 0.562791 0.370052 -0.189742 0.288101 -0.533561 -0.18243 0.123277 -0.82546 0.384831 0.84702 0.190639 -0.0508701 -0.247048 -0.0312032 0.056701 0.240381 -0.339951 
0.466935 0.0464971 -0.952643 -0.524414 -0.531777 -0.362107 -0.166094 -0.642504 -0.477999 -0.0696919 -0.159975 -0.269093 0.265659 -0.384736 0.296526 -0.4618 -0.569869 -0.537928 -0.0950631 -0.524515 -0.228949 -0.20043 -0.572032 0.00958607 -0.365531 -0.00178633 -0.0931856 0.0035965 -0.334443 -0.504686 -0.0870814 0.00917557 -0.0526851 0.0209425 -0.291969 0.0213574 1.10803 1.23246 -0.561046 0.19043 -0.129153 -0.226527 -0.825483 -0.162587 0.151804 0.0868357 -0.146776 -0.335349 -0.398827 0.254239 -0.0530628 -0.0894106 0.130604 -0.4783 0.144019 0.237327 0.107064 0.36529 -0.226437 -0.696992 -0.130938 -0.494777 -0.521548 0.188714 -0.984457 -0.344213 -0.654829 0.245522 0.203486 0.197036 -0.46881 -1.37401 -0.81093 0.160998 0.170718 -0.109822 0.191187 0.339608 -0.577652 -0.229213 0.560328 -0.403005 0.0164258 -0.0398057 -0.373965 0.114773 0.517958 -0.191235 -0.306736 0.206899 -0.248941 0.0926937 -0.371054 -0.864277 -0.650663 -0.197929 -0.613976 0.110768 0.708041 0.16548 -0.914537 
-0.986372 -0.00154545 0.0415714 -0.383004 0.532654 -0.129299 -0.408684 -0.744839 -0.269365 0.513033 0.226174 0.45399 0.276943 0.0298959 -0.142685 0.909638 0.693199 1.10501 0.130579 -1.1693 0.240307 0.21983 0.111714 0.32925 -0.249889 -0.131344 0.187512 0.142163 0.444322 0.4984 -0.411909 -0.120286 -0.398626 -0.96929 -1.48384 -1.07967 -0.349814 0.373986 0.438868 -0.235612 0.0182281 -0.0858551 0.835155 -0.675129 -0.327073 0.250164 -0.739792 -0.443838 0.680254 0.130112 0.00245113 -0.384264 0.547469 0.243478 -0.454876 0.0537289 -0.316413 0.412321 0.42585 -0.659733 -0.0124504 -0.119755 0.249158 0.615305 -0.406533 0.235454 -0.373382 -0.727686 0.174995 -0.938622 0.874394 -0.724513 -0.824302 -1.23824 -0.992554 -0.0519974 0.0304215 -0.499363 0.124544 0.284994 0.449345 -0.374662 0.079434 -0.47732 -0.290164 -0.395307 0.179873 0.356202 -0.0352729 -0.127295 0.0429069 -0.202946 0.0186135 -0.0180185 -1.0141 -0.0781535 -0.394037 -0.0739601 -0.0605473 -0.373192 0.609054 
-1.72358 -0.427288 -0.290687 0.270303 0.825045 -0.0334837 0.0936531 -0.941205 0.226346 0.932984 -0.18699 1.14009 0.142246 0.362158 -0.31506 0.623267 -0.638296 -1.7586 -0.695008 -0.877267 0.809995 1.20603 0.672317 -0.136148 -0.168035 0.641189 -1.207 -0.817665 1.20221 -0.551868 0.567743 -0.288127 -0.282821 -0.487233 -1.42217 0.966808 1.07218 0.0399349 1.98865 0.0315195 -0.349711 0.143719 0.0663006 0.171555 -0.59232 -0.234489 1.03466 -0.739594 -0.525985 -0.536785 1.09253 -0.0820954 -0.367794 0.838554 0.717173 -0.539602 -1.24083 0.378872 0.654074 -0.117445 0.805286 1.01609 0.00234714 0.513525 -1.70344 0.238305 -1.29775 0.683779 -0.498765 0.287535 0.822743 -0.216932 0.161656 -0.58577 0.502248 -0.082806 -0.503015 -0.290127 0.172905 -0.0863939 0.453573 0.17168 0.142643 -0.103658 -0.568216 -1.54023 0.11496 0.891099 -2.03072 -0.781359 -0.433059 -1.22976 -1.01639 -0.0210535 0.659387 -0.0203177 -0.132834 -0.126987 -0.889435 0.0175938 -0.998656 
-1.91719 0.0582171 0.232925 -0.711602 -1.17148 -1.5876 -0.812017 0.522022 1.19074 -0.202542 -0.205605 -1.88307 -0.592525 -2.12376 -1.65536 0.849731 0.304175 0.019069 -1.47119 -1.11618 -1.08807 -1.43081 -0.841744 -0.316907 -0.559699 -0.564023 1.77876 1.89035 1.39724 -1.4005 -0.930258 -0.063549 -0.0530064 -0.587354 -0.982394 -0.88204 0.69687 1.47421 1.18818 0.467646 -2.37213 -1.96119 -0.864155 -0.72682 -0.203857 0.00715958 0.0363192 -0.144513 -0.481274 -0.101832 0.679944 -0.348041 -0.208865 -0.661189 -1.03277 -0.0346693 0.141819 1.46617 -1.0695 -1.20406 -0.388259 -0.515077 0.404607 -0.0774077 0.610661 -1.00232 -1.04115 2.42589 -0.372469 -0.540831 -1.2831 1.31161 2.39903 -2.10216 -0.901623 0.954061 -0.0240916 -0.00928767 0.773794 -0.149376 -0.888665 -0.514848 -0.240975 1.6696 1.2081 -0.450739 1.23008 1.89577 -0.165084 -0.724716 -1.98995 -1.37283 -1.29307 -0.97115 0.305373 0.527072 1.11411 -0.112696 0.537377 -0.256906 -0.531792 
1.01824 0.459579 -0.137125 -0.793754 -0.104207 -0.256696 0.669971 1.43883 1.21521 1.02216 -0.0141336 -0.514393 0.625195 -1.31408 -0.119031 -0.237002 -0.329561 1.1258 0.608078 -0.512502 -0.551732 -0.573687 -0.865256 -0.53113 -0.780809 -0.546343 0.918668 -0.0494438 -0.166169 -0.0399797 0.048948 0.898307 -1.51211 -0.728436 -1.65459 -1.00016 0.0773245 -0.121269 -0.0822993 -0.949159 -1.72087 -1.63535 -1.65296 -0.0357449 1.42475 0.207461 0.13302 0.663035 0.153441 -0.477546 -0.181223 -0.0854377 0.27498 -1.66824 -0.14191 0.245748 -0.162972 0.774614 -0.0285287 0.0759939 0.610537 0.0654293 1.67099 0.1272 -0.624994 0.384686 -1.35617 -0.705685 0.360825 0.786196 0.427646 0.745721 -0.0921094 -0.197051 -1.00954 -2.09579 -0.853833 -0.997858 -0.790599 0.082304 -1.41786 0.178983 -0.568618 -0.787205 0.374414 0.316999 -0.136377 -0.452444 -0.903304 -1.01875 -1.04398 -0.843567 0.456724 -0.611134 -1.20663 -0.31395 0.0163515 0.196227 -0.16455 -0.606259 -0.483987 
-3.2842 -0.00511114 -0.837437 0.846401 0.0136032 1.39167 0.52534 -0.869832 0.188206 -0.361932 -0.214841 -0.589003 -0.289905 0.438636 0.283145 0.866835 -0.00509325 -0.0115938 0.120962 0.119175 -0.162951 0.0733544 -0.0662421 -0.309818 0.990763 0.662153 -0.0572851 -0.620832 0.0285841 1.0598 -0.859784 -0.238902 -0.437101 1.1091 0.0621557 1.19427 -0.308108 0.51418 0.821823 0.178699 0.359889 0.538055 -0.452518 0.630125 0.145534 0.0622257 -0.523205 0.719555 1.06705 0.862773 0.557971 0.519846 0.242851 0.786631 0.0470835 -0.323551 -0.395948 -0.634395 0.244503 -0.72554 -0.817129 -0.939652 -0.456077 0.201142 0.194986 0.71256 -0.0809016 0.622352 -0.136262 -0.595238 -0.75052 -1.16688 1.08264 -0.189956 -0.0867663 1.05182 0.508108 -0.443732 -0.416451 0.508221 0.423246 -0.412318 0.0614848 -0.355519 0.803679 0.0868648 -0.200199 -0.957087 -0.662062 1.10753 0.591709 0.706835 -0.315031 -0.368643 -0.651024 -0.304379 -0.622266 -0.0225083 0.167545 -0.266812 -0.412988 
-1.34242 -0.0974136 0.101894 0.359229 -0.513373 -0.863276 -0.658161 -0.126085 0.653885 0.78307 -0.302334 0.269501 -1.49877 0.383705 0.40953 -0.738862 -0.765602 0.0502882 0.54116 1.35328 0.598486 0.453986 0.635016 0.145303 0.118145 -0.100966 -0.306597 0.244684 -0.0992126 1.10571 0.291579 0.538269 -0.0348844 0.324875 0.518871 -0.197276 0.449136 0.202727 1.55371 -0.0509039 -0.645132 -0.75756 0.0526408 -0.318633 -0.240122 -0.195349 0.719181 0.303688 0.0691222 0.161399 0.0946008 -0.56151 -0.339631 -0.931042 -0.360015 0.230511 -1.13451 -0.00569341 -0.0994152 -1.06424 0.350809 -0.391011 -0.441392 0.334471 -0.771768 -0.507585 -0.393071 0.722345 0.360021 -0.949453 -0.734518 -0.484118 0.447606 0.199231 -1.65173 -0.915095 -0.087829 0.479999 0.942774 0.337411 0.0257867 -1.21408 -1.25024 -0.968286 0.0713943 -0.969737 1.27559 -0.101383 -0.0234427 0.568811 0.00352028 0.346447 -0.141971 -1.00654 -0.367777 -0.356869 -0.795334 -0.0168623 0.265318 -0.507689 0.30898 
-1.89775 -0.0795182 1.2391 0.982866 1.32394 -0.915436 -0.875196 0.307413 -0.65743 0.248811 -0.104691 0.0370461 0.104519 0.754472 0.795084 0.539797 0.0892034 0.992647 0.558633 -1.87918 0.138519 -0.41792 -1.09572 -0.0366895 -0.368651 1.45424 0.828278 1.52194 0.850124 0.229567 1.05752 0.894422 -1.16013 -0.378512 -0.561451 -1.14259 -0.476784 0.410178 0.545179 0.62179 -0.543912 -0.762806 -0.281887 0.425392 -0.225766 -0.0141897 -0.977831 -0.478281 -1.03727 -0.346841 0.102919 0.410127 -0.401232 0.463102 -0.029062 -0.125333 -0.448076 -0.627043 -0.587185 -0.343967 0.182716 0.370707 0.686178 -0.321305 0.625105 0.260073 -0.384831 0.0840414 -0.469963 -0.691123 0.600284 0.23295 0.582861 1.04134 0.252561 1.15906 -0.889932 -0.127771 -1.02365 0.072672 -0.521992 -0.450523 -0.131119 -0.689807 -0.117811 0.432872 -0.0431333 0.866528 0.757764 -1.56506 -0.626458 -0.543544 -1.67413 -0.428726 -0.181589 -0.205545 0.489018 -0.222166 0.104522 -0.536058 -0.0826455 
-1.16324 0.0462125 -0.605656 -0.65572 -0.790508 -0.358436 0.205014 0.494602 -0.101342 -0.309459 -0.0661706 -0.196683 -0.631825 -0.036599 0.035647 0.374102 0.164097 0.453676 0.513806 -0.367599 -0.34172 0.629523 0.029176 0.266079 -0.117171 0.0699772 0.160956 -0.512045 0.447341 -0.480689 -0.278992 -0.32091 0.520653 0.0462687 0.279603 0.197089 -1.25889 -1.40494 -1.84901 -1.49295 0.219462 0.96705 -0.113483 -0.230209 -0.270883 -0.135675 -0.32121 -0.275045 0.0645421 0.713318 0.274883 0.826574 -0.0312422 0.496311 0.0811786 -0.174606 -0.329616 -0.466519 1.20423 1.22907 0.712271 -0.988507 -0.574184 0.0259312 -0.208042 -0.504254 -1.02866 -0.883118 0.0873503 1.26791 0.452425 0.294752 -0.101439 -0.803509 0.124034 -0.311378 -0.469176 -0.825433 -0.0265733 -0.252932 -0.265766 -0.0790154 0.510607 -0.556067 -0.394903 -0.34721 -0.0964974 0.32663 0.101432 0.275833 0.382017 0.24464 0.654447 1.32806 -0.595923 -0.0349983 0.341108 -0.0661159 0.580792 0.389993 -0.564519 
-0.0351012 -0.0554163 0.673146 -0.43919 -0.499636 0.182998 -0.82671 -0.446812 1.25002 1.66958 0.203815 0.875589 -0.0203331 -0.38887 -1.47321 0.091826 0.626141 -0.663888 0.212051 1.19246 -0.0732491 -0.446304 -0.180949 -0.174599 -0.122671 -0.962556 -0.404441 -0.67992 -1.82638 -0.805581 0.405814 0.189945 0.0513173 0.553385 1.49414 -0.2926 0.930281 -1.8993 -1.35189 -0.78821 0.697892 0.434671 0.105505 0.360777 0.00887652 0.183754 0.169811 0.486894 -0.802311 0.361423 -0.68006 -0.212597 -0.704246 -0.446359 0.973539 -0.0576819 0.00708034 -0.388349 -0.14672 0.322596 0.448917 0.760083 0.505527 -0.0613328 -1.49827 0.938444 0.995953 0.560301 -1.04574 -1.95253 -1.83569 -1.5494 -1.23114 -0.774622 -0.405074 -0.113895 -0.31883 -0.598265 -1.31283 -0.13422 -0.0591615 -0.827305 -0.625704 -0.854544 -0.0597414 -0.662914 -0.192068 -0.170373 0.311186 -0.642358 -0.278303 -0.520585 -0.727682 -1.44155 -0.63938 0.0438267 -0.114394 0.0425353 -0.419809 -0.222513 -0.637906 
-1.10389 0.0629641 -0.188132 1.48607 0.780126 -0.451269 -1.96127 -1.45151 0.292479 0.162948 -0.212545 0.25023 0.690764 -0.535071 0.398133 0.171019 -0.750242 -0.402126 0.417735 0.614266 -0.157324 0.29591 1.17654 -0.201407 0.480029 -0.311104 0.344395 0.188988 -0.835588 -0.539682 0.810467 -0.10263 0.639295 0.812569 -0.579634 -0.667312 -0.517182 -0.2962 0.328138 0.400595 0.370914 0.170596 -0.285889 1.0209 -0.478733 -0.245576 -0.0255542 -0.540106 0.395868 0.283574 -0.0607439 0.497906 0.270613 0.972744 0.804543 0.190915 -0.466268 -1.04766 -0.617109 0.208992 0.373601 -0.38282 -0.6809 -0.213066 -1.15667 -0.0300358 -0.62654 -0.498924 -0.058938 -0.798677 0.263926 -0.494023 -0.244086 -1.12692 -1.09435 -0.147188 -0.143597 -0.0962255 0.359053 0.364375 0.753537 -1.08299 -0.276481 -1.07484 -0.227203 0.270491 -0.832526 -0.427102 0.256152 -0.285963 0.128357 0.499533 0.107077 -0.75724 -0.558507 0.231992 -0.278043 -0.0672973 0.529375 0.317868 0.105051 
0.0428152 -0.212806 -0.400847 -0.688714 -0.731375 -0.997779 -0.63608 -0.927075 0.455102 -0.457681 0.367183 -0.270106 -0.0860356 -1.07271 0.115732 -0.319609 0.0734207 0.444508 -0.731097 -1.52229 -0.444914 -0.733221 -0.460079 0.0700715 -0.239693 -0.945463 -0.524816 0.0936147 0.479253 0.427395 -0.386203 -0.564425 0.252245 -0.672427 -0.404972 -0.471202 0.584453 -1.39139 -1.07303 -0.193507 -0.445692 -0.359805 -0.791862 -0.0573259 0.0300312 0.678456 -0.0340642 0.294608 -0.0790741 0.0469543 0.386906 0.551385 0.127634 0.720589 -0.798771 -0.0431824 -0.612617 0.295113 0.200913 0.245491 0.390725 -0.0216584 0.677166 -0.482648 0.63578 0.27814 -0.00345547 -0.985018 -0.0579495 -0.642412 -1.77543 -0.569217 1.02519 0.751326 0.840331 -1.25031 0.110436 0.470012 -0.706331 -0.4252 -0.352498 0.0696274 0.181371 -0.154321 0.253706 0.977945 -0.599351 0.0272362 0.219201 0.931103 -0.0346136 -0.137907 0.0538861 0.0614373 -0.88119 0.299937 -0.172393 0.0754182 0.0778984 0.926655 0.853344 
-2.77841 0.119379 -0.122806 1.16509 1.45675 -0.86048 -1.68816 -0.947606 -0.0849443 0.249213 0.131687 0.783506 0.0366535 0.814627 0.112888 -0.488607 0.597561 -0.577937 0.485729 -0.0728523 -0.153704 -0.302335 0.15433 -0.335937 -0.617305 -0.689367 -0.251383 0.453006 0.721597 0.576611 0.288645 0.512181 0.286658 0.29118 -0.10086 0.599583 0.741043 0.0102395 -0.127595 -1.32409 -0.979779 -0.473273 -1.44895 -0.227325 0.34055 0.193766 0.524962 1.29882 -0.23636 -0.451522 0.198882 0.274829 -0.388928 -0.923682 -0.878184 0.163806 -0.659049 -0.12364 -0.464228 -0.655356 0.120362 1.52467 0.537341 0.879055 -0.555958 -0.241257 -0.300376 -0.526342 -0.337573 -0.0839792 0.133381 -0.431517 0.196724 0.90479 -0.011585 0.155451 -0.00913773 0.41928 -0.139354 -0.22918 0.193871 0.414918 -0.140822 -0.161194 0.119589 0.344713 0.382041 -0.0163794 -0.929043 -0.0658963 0.178751 0.445705 -0.172231 0.519952 0.145116 0.619554 0.257831 -0.0102536 0.446726 0.752718 0.484379 
-0.688879 0.0612961 0.564852 -0.119731 1.12818 -1.03913 -1.55427 -0.851791 1.01072 1.24329 0.130649 0.346647 -0.985281 0.994744 -0.181652 0.112075 0.235694 0.0355061 -0.113023 0.190726 0.417686 0.491571 0.698965 -0.640984 -0.719048 -0.711427 -0.236265 -0.700183 0.545677 0.348988 0.697117 -0.468576 0.314348 0.623246 0.165969 -0.874199 -0.440086 -1.30435 -1.86146 0.756655 0.0626493 0.765376 1.35379 -0.053204 -0.362568 0.643368 1.13423 -0.273816 0.019145 0.508323 -0.268838 0.195365 -0.48558 0.387522 0.0791992 -0.153818 -0.278702 0.299554 1.34301 -0.499981 0.51932 -0.286367 0.616327 -0.0499056 0.391111 -0.780325 -1.81727 -1.56739 -1.27019 -0.508302 -1.0277 0.629568 -0.453614 0.13516 -0.644654 -0.588777 -0.355895 -0.8044 0.00976887 -0.185087 -0.227301 -0.444778 -0.61799 0.250553 0.0152858 -0.762364 -0.889774 -0.435924 -0.361189 -0.0145356 0.122676 -0.382032 -0.509229 -0.446507 -0.207117 -0.0738461 -0.806604 -0.038079 -0.463068 -0.375663 0.555032 
0.107811 0.0101779 -0.327802 -0.368576 0.19553 -0.289642 -0.14072 0.428127 -0.28068 0.558645 0.273792 -0.193314 -0.202978 0.674984 0.87788 0.071145 -0.0215238 -0.522569 -0.0770825 0.0316146 0.364423 0.126263 -0.108243 0.0663796 0.150007 0.050815 -0.557027 -0.92574 0.435076 0.631604 0.289548 -0.180808 0.127876 0.731103 0.0239478 0.572973 -0.633503 -0.919976 -1.13174 -0.978987 0.0794617 -0.190395 -0.956561 0.225752 -0.104397 0.109306 0.422762 -0.0704187 -0.274569 -0.31621 0.313581 -0.204656 -0.118987 -0.411653 -0.109879 -0.0145539 -0.107939 -0.473006 -0.312008 0.0660655 0.102183 -0.303445 -0.582248 0.542117 -0.425801 -0.340974 0.723451 -0.600939 -0.28524 -0.634493 -0.366586 0.0938757 -0.356571 0.465631 0.115996 0.0105489 0.112883 -0.267922 -0.681404 -0.613901 -0.629917 -0.793791 -0.375023 -1.01041 0.0875742 -0.273442 0.302582 0.0844545 -0.719535 -0.528566 -0.259024 0.375865 -0.268272 -0.517848 -0.705061 0.0370871 -0.027332 0.0820544 0.0736901 -0.0187407 -0.164649 
-1.02619 -0.259574 -0.18256 -0.270481 -0.572462 -0.62336 -0.467793 -0.729366 -0.421669 -0.234191 -0.0451972 0.542726 -0.554832 0.086185 -0.341469 -0.121913 -0.410312 -0.439321 -0.286554 -0.331139 -0.452739 0.172308 -0.008313 -0.44001 -0.0389139 -0.729386 -0.354564 -0.517228 -0.335824 -0.388924 -0.501389 -0.197402 0.0302104 0.443805 0.614341 -1.18441 -0.772362 -0.572648 0.1416 -0.81913 0.17599 0.218095 -0.141764 0.539383 0.0891319 -0.674356 -0.579568 -0.326991 -0.223456 0.261041 0.433463 0.0359273 -0.00866666 0.253256 0.647751 -0.0994066 -0.215683 0.314964 0.590133 0.917854 0.790598 0.181488 -0.187871 0.0173558 0.64919 0.584303 0.229255 -0.0712366 -0.278064 -0.00257981 0.295366 0.549773 -0.574978 0.147164 0.496935 -0.687123 -0.381381 0.753318 -0.256736 -1.11256 -1.27649 -1.76746 -1.12661 -0.323715 0.294221 -0.389518 -0.0105046 0.840965 1.26776 0.439678 -0.28776 -0.384767 0.639843 -0.238217 0.632025 0.106596 0.66935 -0.0820255 -0.0209571 0.0761995 0.419256 
0.467041 -0.055336 -0.465797 -0.726072 -1.39824 -2.62438 -2.23436 -0.638213 -0.356775 0.067324 0.393413 -0.393867 -0.52714 -0.126583 -0.970725 -1.16659 -0.556218 -1.14615 -0.27407 -0.229068 -0.323309 -0.161956 -0.162862 0.0841466 0.128244 -0.328158 0.0107302 -0.261892 -0.521052 0.578464 -0.541903 0.064541 -0.812784 0.614553 0.370119 0.66404 -0.619499 -1.16266 0.194988 -0.595171 0.0464681 0.615941 -0.228472 0.678249 -0.246291 0.286071 0.222606 0.176967 -0.497713 0.162385 0.171257 0.496826 -0.457512 -0.544353 0.244804 0.124026 -0.540894 -0.342876 -0.229734 -0.222104 -0.249023 0.5203 0.287856 0.253026 0.0245602 0.284356 -0.243739 -0.127736 0.31265 0.910495 -0.889151 0.042001 -0.0616809 0.924793 0.35237 -0.581037 -0.306569 0.54785 0.363711 0.529304 0.0316467 -0.427655 -0.00790724 -0.0478026 -0.0894761 -0.933962 0.301071 0.331356 0.160998 -0.249557 -0.826585 0.399985 0.258707 -0.203188 -0.0275597 -0.160176 -0.118154 0.0938228 0.431932 -0.112583 -0.194905 
-3.54672 -0.449024 -0.354632 1.24204 0.190458 0.787019 0.720576 0.424564 -0.217186 -0.341866 -0.475382 -0.348796 0.164901 0.0150638 0.250887 1.31735 0.869348 0.767521 1.54984 0.42368 0.258633 0.110569 -0.967908 -0.530922 0.730337 -0.0154947 0.0344253 1.15572 -0.182453 -1.11311 1.22225 0.204874 -0.0776576 -0.910091 1.03203 0.725837 0.337854 0.818736 1.11984 0.285136 -0.0597427 0.238319 0.870228 0.0308675 0.161257 0.282706 0.296503 0.447417 0.629915 0.0216663 0.0367761 0.370772 -0.506877 1.44753 -0.258973 0.274036 0.0992801 0.580764 -1.37155 -0.184194 -0.0277433 0.566953 0.807326 -0.763627 -0.310424 -0.0953761 1.09676 0.472257 0.948406 0.313457 -1.65693 -1.71704 -1.64596 -0.763406 0.234064 -1.05808 -1.24118 -0.250118 0.464081 -0.268755 0.250506 0.262514 -0.43797 0.116901 0.259854 -0.696309 -0.587404 0.362355 -1.24764 -1.49747 0.252059 -1.3304 -0.972745 -0.430948 -0.615207 0.0145589 -0.350907 -0.467204 -0.842616 -0.839646 -1.71416 
-2.08071 -0.374018 0.319501 -0.296765 0.509935 0.207561 -0.337445 -0.602304 0.0634185 -0.0615008 -0.23345 0.228071 0.0590496 0.986987 -0.124299 -0.227216 0.507639 0.435766 -0.0882191 -1.05514 -0.0166634 -1.167 -0.630081 0.0839875 0.558299 -0.249569 -0.0653985 -0.37682 -0.508056 -0.0298388 0.439048 0.0954012 -0.665685 0.257306 0.426128 0.993426 0.721191 0.285378 -0.251813 0.534701 0.81628 0.598274 0.277089 -0.62259 -0.0341769 0.35311 0.175975 0.0516154 -0.0257411 0.14862 -0.423402 0.476979 -0.118771 0.115193 0.0538917 -0.356455 0.424238 -0.397664 0.158582 -0.163284 0.269789 0.40629 -0.00586674 -0.490556 1.1594 -0.427237 -0.760814 0.294975 0.377335 0.358715 -1.16795 1.03561 -0.723497 -0.0107384 -0.0129184 -0.237028 -0.671932 0.282837 0.202068 0.166323 -0.642478 0.317411 0.677008 -0.0683252 -0.541075 -1.75294 0.898322 -0.614337 1.16201 0.527353 0.701358 -0.202178 -0.273486 0.545797 -0.904127 -0.108763 0.344458 -0.236321 -0.0188125 0.176611 0.151037 
-1.18746 0.0103671 -0.50136 0.335197 1.11924 0.473429 0.474471 0.124736 -0.450523 0.262993 -0.371849 -0.515444 0.0656236 0.646536 0.358531 0.246672 -0.276567 -0.268887 -0.555129 -0.263137 -0.325182 -0.541421 0.0743538 0.213569 0.287785 0.33173 0.238659 -0.220247 -0.591117 -0.754222 -0.596089 0.270623 0.322246 0.269377 2.13028 1.14342 0.578795 -0.263544 0.344353 0.226058 -0.471759 -0.3491 0.448381 -0.357875 0.165193 -1.35752 0.62511 -0.497579 -0.578699 -0.456894 0.194684 0.30909 -0.308608 -0.415158 -0.497295 0.274288 0.0439068 0.667257 -1.56151 -0.58477 -1.56849 -0.284711 0.41237 0.233869 -1.56639 -0.885679 -0.101449 0.144781 1.41402 0.20017 -0.125458 0.0861559 -0.62993 -0.717113 -0.0918465 -1.00276 -0.703682 -0.327737 -0.515451 0.226029 0.103632 -0.188624 -0.498159 -0.431013 0.561143 -0.24207 -0.491309 0.400952 -0.716438 -1.37781 -0.388092 0.0969077 0.254656 -0.518931 -0.899362 0.144407 -0.115577 -0.100707 -0.367488 -0.502695 -1.17538 
-0.896629 0.0402993 0.868215 0.277059 0.630192 0.223989 -0.114721 0.949112 -0.211988 -0.481936 -0.311454 -0.514549 -0.150934 -0.166686 0.0120174 -0.0688659 -0.0960546 0.201204 -0.678197 0.187524 -0.49075 0.0678309 0.199031 0.270072 -0.391769 -0.249709 -0.17239 -0.563771 -0.294393 -0.737838 0.505429 0.14089 -0.395495 -0.147588 0.395754 -0.531452 -0.186707 0.41582 0.167261 -0.588796 0.184973 -0.244573 -1.14157 -0.429041 0.174906 -0.223524 -0.31859 -0.905045 0.0736945 0.0843713 -0.173382 0.291515 0.247225 -0.595437 -0.703511 0.00470059 -0.0273392 -0.238739 -0.425959 0.132362 -0.155503 0.306703 0.131841 0.152933 -0.857535 -0.0210875 0.555904 0.318157 -0.0831004 -0.43608 -0.972663 0.594563 -0.910975 0.983964 -0.76784 -0.124311 -0.249404 -0.26607 0.613447 0.483971 -0.0127732 -0.443428 -0.35215 0.0100996 0.309641 -0.862987 -0.66985 -0.267333 -0.531102 0.360771 -0.224598 -0.254845 0.288971 0.259581 0.805905 -0.255038 0.176337 -0.0432692 0.107348 0.153915 -0.361427 
-1.46357 0.374218 0.123222 0.871788 0.699968 0.597201 -1.24903 0.0582868 -0.236942 -0.0721756 -0.0374111 -0.268603 -0.430888 -1.24863 -1.36986 -0.820548 -0.0656062 -0.458001 -0.460799 -0.597013 -1.16762 -0.226615 -0.32593 0.259171 0.722518 -0.243144 0.104466 -0.470218 -0.0299251 -0.0652371 0.166823 -0.437777 -0.179119 -0.465949 -0.632533 1.23643 0.363524 -1.10868 -0.491299 0.59558 0.828106 -0.621475 -0.741461 -0.708879 -0.135223 0.00134356 -0.0362022 -0.0890341 1.17646 -0.25875 -0.455458 0.597478 0.25709 -0.20603 -1.09626 0.0216526 0.336616 -0.188177 0.0347051 0.67338 -0.547287 -0.88493 0.203335 0.381719 0.335968 0.479503 -0.889475 0.792892 1.34682 -0.126525 0.159307 0.153902 0.0972478 0.046473 0.0702756 -0.221715 1.1363 0.148202 -0.823893 -0.574461 -0.819439 -0.529714 -0.993527 0.495955 -0.358616 1.13373 -0.652559 0.1476 -0.0703198 1.15051 1.10081 -0.259081 -0.48361 0.289118 -0.680933 -0.240803 -1.10587 0.0418882 0.403471 -0.0120745 0.0659849 
-0.379386 0.056921 -1.20064 -0.977267 -1.04627 -0.66826 -0.316379 0.49269 0.0943877 -0.195289 -0.263825 -0.0891677 -0.0603487 -1.3755 -0.137432 -0.0853415 0.183468 -0.0119117 -1.03607 0.591261 -0.554035 0.18718 0.221493 0.281709 -0.914806 -0.628012 -0.397318 -0.509739 -0.886858 -0.918559 -0.0610436 -0.285033 1.2133 -0.531425 -0.716574 -1.20914 -0.261327 -1.09386 -0.284334 0.338001 -0.64096 -0.315013 -0.855783 0.305575 0.134317 0.934773 -0.122549 -0.233121 -0.837335 0.564006 -0.054147 0.500955 0.0855123 0.417077 0.319745 0.507136 0.685539 0.228788 0.27567 0.454949 -0.139761 1.07946 0.102105 -0.0989856 -0.31736 0.207194 0.344215 -0.565054 -0.134436 0.212101 1.01464 0.0185214 -0.44651 -0.364565 -0.201286 -0.0879847 0.505595 -0.0707861 0.0425164 -0.222674 0.892691 -0.620586 0.474393 0.73879 0.381031 -0.174697 -0.481101 0.211568 -0.0341885 0.399164 -0.448359 0.171328 0.316586 -0.53822 0.467951 0.854712 0.0815392 0.0244032 -0.0257325 -0.31143 -0.136101 
-1.51601 0.0994593 -0.327775 -0.639757 1.53494 0.110389 -0.487485 -1.15308 -0.453243 0.106437 0.515208 -0.671792 -0.553239 0.0634243 -0.376251 0.777408 0.342373 0.396199 -0.121704 0.4637 -0.64047 -0.00192931 0.682936 -0.202055 0.423973 0.680727 0.18566 0.675092 0.987123 0.884247 -0.539227 -0.59825 -0.31181 0.637027 0.46425 -1.24496 -1.77489 -1.92209 0.496635 1.06255 1.0159 -0.403168 -1.4641 1.3782 0.142029 -0.103227 1.04633 -0.43895 -0.576178 0.0472006 -0.38382 0.00610021 0.566841 -1.29278 0.691264 -0.198496 -0.706298 -0.617825 -0.309696 -0.626517 -0.654841 0.433232 0.0074912 1.08515 -1.24204 -0.454887 1.40133 0.0573163 0.57607 -0.911561 -1.31037 -0.748407 -0.527165 -0.600069 0.307553 0.0999259 0.435154 0.000728546 -0.248935 0.71789 0.157001 0.0554693 0.126762 1.18799 -0.501466 -0.720197 -0.588925 -0.349344 -0.836545 -0.0452014 1.14096 -1.1349 1.06036 0.412585 -0.0763839 0.632469 0.00479843 -0.0498292 -0.087204 -0.94777 -0.142769 
-3.04229 -0.0275259 -0.624588 0.324277 0.247862 0.606208 0.736776 1.21373 0.640685 0.797985 -0.170444 -0.305055 0.62674 -0.191186 0.403373 0.442165 -0.0692588 -0.163217 0.500335 0.511743 0.297871 -0.105386 0.743741 -0.638699 0.321742 1.32809 0.375378 -1.02739 0.633663 -0.0628862 -0.102088 -0.031362 0.873067 -0.539078 0.622235 1.26744 0.264974 -0.334529 0.605864 1.01525 0.930482 0.774023 -0.117938 0.0825575 -0.0538096 0.08204 -0.187842 -0.407094 0.0246081 -0.710728 0.419076 0.28619 -0.307735 -0.258111 0.234007 0.14582 -0.276736 -0.454654 0.0327449 0.821777 0.495861 0.499686 0.0061196 0.570894 -0.542597 -0.239438 -0.0308823 1.05453 -0.305318 -0.844309 -0.210985 0.582307 0.228334 0.0876586 -0.369502 0.00330079 -0.397918 -1.02246 -1.12344 -0.838374 -0.274415 -1.1752 -0.739985 -0.00183605 0.424439 -0.24737 -0.291327 -0.350646 -0.890939 -0.724493 -0.242539 -0.545088 0.268942 -0.148922 -0.502845 -0.226269 0.441953 -0.171074 -0.00661631 -0.161287 -0.781618 
-0.830205 0.0209149 -0.551096 0.0233193 0.69198 0.90847 0.89762 0.480418 0.2511 0.308928 -0.145253 -0.195617 -0.0919746 -0.130641 0.338085 0.173952 0.288358 0.886693 -1.0959 -0.526759 -0.451489 -0.523297 -0.611533 -0.235689 -0.143437 0.553166 -0.0535322 -0.309106 -0.0913668 -0.791922 -0.113213 -0.0150856 -0.668057 -0.330907 0.324963 1.46897 -0.313951 -0.194262 0.00133855 -0.418637 -0.470236 -1.66602 -0.4573 -1.35077 -0.0608674 0.0322343 0.577378 0.44109 -0.0293503 -0.167382 -0.363389 -0.0706594 -0.330534 -0.530293 -1.19912 0.321901 0.176369 0.442714 -0.217568 0.613835 -0.257608 -0.849545 0.33536 -0.249927 -0.737531 0.0655299 0.959337 0.704145 0.572275 0.458311 -0.448248 -1.18941 -1.41418 -1.05119 -0.836899 0.362 -0.286316 0.0255402 0.736884 0.228281 -0.778073 0.40627 0.343151 -0.399079 0.454413 -0.833367 -0.484273 0.496965 0.4039 -0.35845 -0.633829 -0.0522434 -0.202988 0.514968 1.43586 0.519022 -0.347144 -0.0611506 -0.366862 -0.596325 -0.535749 
-0.796399 0.420484 -0.508443 -0.496795 -0.414664 -0.201385 -1.35591 -1.02508 -0.26831 -0.0743987 0.0192968 -0.170448 -0.0459082 -0.276026 -1.24841 -2.00733 2.18502 0.312557 -1.38716 -1.1601 -0.590387 -1.04817 -1.0893 -0.52004 -0.258272 0.464304 -0.288565 -0.0414663 0.0245472 0.24202 -0.940499 -0.616477 -1.0675 0.847561 -2.02627 -2.10384 -2.44385 0.454169 -1.28262 1.0263 0.953334 0.174704 -0.120081 -0.449343 0.0626307 0.545824 0.231433 1.45444 -0.654279 0.461851 -1.25468 -0.138624 0.411794 -0.71845 -0.124002 0.452156 0.110341 0.890062 0.160369 0.053353 -0.392119 -0.576686 0.152928 -0.883039 0.566364 -1.40168 0.59546 -0.219097 0.872192 0.678161 -0.73098 -0.668704 0.0162637 -0.361158 0.842833 1.52959 0.584039 1.05939 -0.839096 -0.301625 0.108022 0.584245 0.80071 1.88455 1.09127 0.567033 0.615404 -0.0757644 -0.0838887 -0.369751 -0.632419 -1.08214 -1.15155 -0.539687 -0.666701 0.721922 0.602179 0.0912427 0.227872 0.411818 -0.296859 
-2.50773 0.0845281 0.186378 0.180308 -0.193157 0.240984 0.905022 -1.01585 -0.579448 -0.420142 0.115622 -0.0537813 0.446529 -0.0418124 0.183102 0.311913 0.0581001 0.204903 -0.353293 0.110536 0.208175 -0.513778 -0.323784 0.285629 -0.49704 0.107196 -0.402723 -0.133054 -0.20742 0.263594 -0.804059 -0.528015 -0.826897 -0.46684 -0.378136 -0.878323 0.893932 0.509624 0.400312 0.368527 0.0613476 0.14234 0.99404 0.870414 0.267854 0.273493 0.281137 0.775067 0.322338 0.0613079 -0.093842 0.445025 -0.669403 -0.328561 0.192928 -0.613079 0.162128 0.900098 1.0632 0.201608 -0.792757 -0.374571 -0.0216153 0.770529 -0.0271286 0.494597 -0.0760124 -0.0130344 -1.49228 0.577926 -0.609407 -0.858481 -0.510268 0.131093 -0.146055 0.527628 -0.616187 -0.177047 -0.697187 -0.433415 0.935175 0.144432 0.675762 0.165078 0.302159 1.30913 0.842123 0.36732 -0.642119 -1.18434 -0.703451 0.600774 -0.137371 0.919807 0.989167 -0.0124209 0.369251 0.045267 -0.168283 -0.0289058 -0.795678 
-1.4171 -0.148672 0.0375392 -0.635842 -0.537657 -0.614298 0.0706725 0.473129 -0.348932 -0.485489 0.0494089 0.893926 -0.0153569 1.10689 0.695164 0.97371 0.349405 1.45967 0.234972 0.0992553 -0.193853 -0.572118 -0.978935 0.122547 0.216342 1.09975 -0.484322 -0.242097 1.00957 0.17147 -0.715947 -0.204202 0.103515 -0.632983 -0.866094 0.389777 0.562052 -0.295264 -1.13715 -1.57552 0.376134 0.746707 1.09243 -1.30167 0.158127 1.15875 1.0769 0.64804 0.0374517 0.909426 1.0256 0.403442 0.209978 0.513872 -1.0451 0.319517 -0.601754 -0.359423 1.0339 -0.0462331 1.08237 0.848897 0.0898946 0.270595 -1.48021 -0.850819 -1.68117 0.316853 -0.999487 -0.758202 -1.34576 -0.576249 -1.39745 -1.37183 -0.530353 -1.10026 -0.795253 0.289559 0.201789 -0.306256 -0.248062 -0.916853 0.115228 -0.315994 0.00388065 -0.730184 0.434432 0.438443 -0.600917 0.190571 -0.279079 -0.464345 0.163597 -0.774819 0.382325 0.160301 -0.612164 -0.0482559 0.247033 0.0849819 -0.00743711 
-2.07387 -0.286601 0.181989 0.750257 0.60439 0.108795 0.344358 1.3152 -0.207276 0.350037 -0.599364 0.114126 0.39836 0.90114 0.166024 0.482383 0.34901 0.442859 0.804014 0.123388 0.173185 0.438486 -0.460521 0.441223 -0.120572 0.309806 0.0477428 0.21564 0.311564 0.263389 0.513221 -0.0252532 0.765311 -0.610332 -1.87918 -0.436324 -0.541683 0.718806 0.0867113 -0.252404 -0.321085 0.427981 0.304382 -0.781555 -0.572949 -0.952592 -0.235839 -1.05837 -0.267169 0.182508 0.0273131 -0.317947 -0.278229 0.151286 -0.480259 -0.42864 -0.35099 -0.498532 0.0471755 0.181785 0.742512 -0.00101159 -0.0798555 -0.579205 -1.08353 -0.787829 -0.471865 -0.170469 0.296781 -1.40525 -0.0821182 -0.532678 0.210601 0.454982 -1.21029 -0.620642 -0.449363 0.310931 0.226468 -0.233801 -0.602345 1.0286 -0.195048 -0.80371 -0.0328932 -0.06396 0.577807 -0.154369 -0.564954 0.326104 0.501492 0.344418 1.56474 1.41496 0.799661 0.304308 0.0779581 -0.426553 0.210125 0.269279 -0.0939049 
