-0.263705 -0.0173705 0.10347 0.165046 0.122623 0.126648 0.107058 0.134182 0.0680379 0.0879067 -0.00737048 -0.136419 0.0759003 -0.130363 0.0375776 0.253238 0.247818 0.22179 0.112705 0.221058 0.0724457 0.00172433 -0.0102868 -0.0269979 -0.0198836 0.0226295 0.0963067 -0.00260487 -0.00737048 0.0579921 0.0906537 0.0208084 -0.111056 0.228994 0.0975209 -0.0870617 0.00184175 -0.126163 0.00211288 -0.0363041 -0.201337 -0.0989962 0.22191 0.332016 0.0373951 -0.138503 0.0857868 0.171677 0.0789036 -0.028789 -0.00961446 -0.36457 -0.00379094 0.121507 0.0891582 -0.248487 0.0559281 0.0547825 0.126868 0.0701279 0.107804 0.000393367 -0.0769286 0.0626295 -0.0273705 0.0426295 0.13437 0.094418 -0.0867821 0.0788014 0.227515 -0.145356 -0.031646 -0.123984 0.0456806 0.0318551 0.0126295 0.0356816 0.177218 0.0236424 0.0257175 -0.110306 -0.183583 0.0526295 -0.0209947 -0.0153448 0.129381 0.116307 0.0540093 -0.0209316 -0.029648 -0.193431 -0.0850695 -0.0142601 -0.00972962 0.0229862 0.0993773 -0.00737048 0.0326295 -0.0491486 0.0272281 
-0.294378 -0.000437777 0.149541 0.234464 0.115657 0.181013 0.191529 0.170014 0.121723 0.0646186 0.0495622 -0.119276 0.010529 -0.0187375 0.0827827 0.220514 0.355037 0.27843 0.0556499 0.146286 0.119124 0.0424929 0.00524045 0.00272912 -0.000627756 0.0195622 0.0922195 -0.0380591 -0.0204378 0.0904409 0.0900845 0.0260212 -0.0297998 0.108383 0.0198544 -0.115239 -0.073643 -0.200852 -0.126163 -0.0417592 -0.231592 -0.142324 0.319566 0.273411 0.0319409 -0.0605221 0.111874 0.267516 -0.0345933 0.0377478 0.0671797 -0.436409 0.00631138 0.143878 0.0713872 -0.0790586 0.0931595 0.00828864 0.219814 -0.0047881 0.117889 0.0454261 -0.0774147 0.0495622 -0.0104378 0.0195622 0.215714 0.0429329 -0.116398 0.138393 0.255373 -0.142367 -0.0664976 -0.00334353 -0.0204953 -0.0286648 -0.000437777 0.00503876 0.140267 0.0382583 0.033939 -0.139173 -0.175119 0.0395622 -0.00436103 0.137419 0.200002 0.11222 0.116005 -0.0592678 0.0115359 -0.206562 -0.0962953 -0.0592098 -0.0927959 0.0838394 0.0697102 -0.000437777 -0.0104378 -0.073899 0.0741223 
-0.227813 0.0162187 0.13001 0.13327 0.113978 0.0492809 0.106625 0.0872696 0.0454467 0.0170547 0.0262187 -0.0902544 0.0622032 -0.0443126 0.0493457 0.209765 0.191106 0.158715 0.0508182 0.13687 0.0906019 0.0426841 -0.0479941 0.0139079 -0.0395771 0.0162187 0.0406407 -0.0299434 -0.0037813 0.0355483 0.0977974 -0.0248358 -0.127456 0.160774 0.0378188 -0.0480772 -0.0320189 -0.0518184 -0.00361705 0.0118263 -0.145813 -0.0961186 0.0882644 0.289183 -0.0199434 -0.0185332 0.0591531 0.169041 0.0664283 0.000827178 0.0161895 -0.295224 0.0710533 0.0820889 0.0338902 -0.143497 0.0979497 0.0485278 0.0569524 0.0891898 0.0219207 0.00035952 -0.0585376 -0.0237813 0.0362187 0.0362187 0.126693 0.108877 0.0151746 0.0796518 0.160976 -0.153864 -0.0108631 9.97437e-05 0.0631754 0.00898534 0.0562187 -0.0220083 0.126545 0.00725197 0.0639763 -0.0637811 -0.163722 0.0462187 -0.037493 0.0617893 0.0749208 0.0706407 0.0313222 -0.0325597 0.0126843 -0.0898855 -0.0119509 -0.044093 -0.000641185 0.0407271 0.0535484 0.0462187 0.0462187 -0.0580414 0.0315772 
-0.0373202 0.055268 -0.164219 -0.162544 -0.029425 0.0598065 0.0553595 0.18509 0.0357725 0.151556 0.015268 -0.024233 -0.0148472 -0.111522 -0.0812922 0.139575 -0.237033 -0.121507 0.251066 0.198112 -0.035919 0.0426076 0.00626059 -0.00942293 0.0442066 0.055268 -0.051236 0.0392944 0.075268 0.00325746 0.0595685 -0.0784403 -0.188539 0.266972 -0.117561 0.0795342 0.0913117 0.165846 0.157281 0.20409 0.112029 0.13986 -0.534586 0.30515 0.0192944 -0.101197 -0.0104744 -0.210726 0.0911184 -0.0648956 -0.153758 0.136293 0.0109142 -0.175412 0.145234 -0.236296 0.00921219 0.0990053 -0.345095 0.0188277 -0.13647 -0.0548614 0.0638183 0.025268 0.065268 0.015268 -0.0386883 0.0910271 0.0214296 -0.229637 -0.245281 0.0926063 0.0236045 -0.169076 0.164077 0.00882041 0.085268 0.0134196 -0.0838783 0.0548231 0.0833386 -0.023273 0.057996 0.025268 0.0320927 -0.163954 -0.13282 0.028764 -0.136652 0.0396419 0.13275 0.177127 0.0924452 0.0569887 0.137538 -0.0392826 -0.0770405 0.00526798 0.00526798 0.0326974 -0.194263 
-0.336213 -0.00462131 -0.121072 -0.119653 0.241226 0.66016 0.613719 0.394536 0.106303 0.199194 0.0553787 -0.276758 -0.100638 -0.259565 0.0291376 0.67873 -0.1445 0.174571 0.400214 0.503701 0.0285746 -0.00509871 -6.5511e-05 -0.0898429 0.0302379 0.00537869 -0.0259575 -0.0410054 0.0553787 -0.0379572 0.0498584 -0.0406033 -0.365175 0.695459 -0.46402 -0.151005 0.0107373 -0.00686354 0.00463037 0.0718287 -0.186986 -0.424074 -1.21479 0.91534 0.00899459 -0.45421 -0.2642 -0.324579 0.0139015 -0.555155 -0.616447 -0.245841 0.0366941 -0.142247 0.214097 -0.752488 -0.115422 -0.115507 -0.581551 -0.0562375 -0.324162 -0.295996 -0.0718458 -0.00462131 -0.00462131 -0.0246213 0.248989 0.407526 -0.313973 -0.443924 -0.203922 -0.408601 -0.271765 -0.499712 0.105113 -0.0285434 0.0553787 0.0345776 0.199957 -0.00255288 0.160927 -0.0111216 -0.160981 -0.0146213 -0.0462467 -0.292223 -0.0753831 0.0340425 -0.297735 0.23191 0.139201 -0.0120207 0.0518503 0.0572939 0.177753 -0.144723 -0.042189 0.0453787 0.0153787 -0.178872 -0.386119 
-0.223686 0.0466314 -0.00690362 0.0518542 -0.03519 0.118515 0.0802755 0.197435 0.0447139 0.0471216 0.0666314 -0.0977311 -0.0491668 -0.190459 -0.0932246 0.278296 -0.0370919 0.0744049 0.136367 0.229094 0.0194654 0.00391808 -0.0259416 -0.0639207 0.0103614 -0.00336864 0.0419702 -0.0245536 0.0566314 0.0417115 0.0840331 -0.0236137 -0.22842 0.245536 -0.0160803 -0.0589974 0.0857403 0.0912418 0.0793904 0.153314 -0.113433 0.00720284 -0.282337 0.394145 0.0254464 -0.191407 0.0579107 0.0372102 0.0933568 -0.0204175 -0.080088 -0.152148 0.0785333 -0.00566395 0.067618 -0.341666 0.0156076 0.0911097 -0.0815212 0.0776881 -0.0254608 -0.108105 -0.00469914 0.0666314 -0.0133686 -0.0233686 0.0698899 0.144814 -0.040166 -0.0937215 0.0130176 -0.101596 0.00700893 -0.143811 0.122459 0.0180958 0.0466314 0.0443189 0.0564376 0.0712589 0.0776022 -0.00767751 -0.106112 0.0666314 0.0407777 -0.156937 -0.00570944 -0.00802977 -0.06725 -0.0124213 0.055406 0.0182362 0.0639679 -0.0826569 0.0927158 -0.0330278 -0.0142016 0.00663136 0.0166314 -0.0688988 -0.120681 
0.00718063 0.0497181 -0.09489 -0.141494 -0.0411749 0.0408125 0.0178542 0.0805812 -0.0237659 0.13159 0.0497181 0.00420811 -0.0771804 -0.0218834 -0.183712 0.156132 -0.375348 -0.0996658 0.237931 0.194418 -0.105205 0.0717024 0.0565963 0.0105216 0.0736716 0.0297181 0.00269348 0.0676855 0.0197181 -0.012953 -0.00984761 -0.127856 -0.104739 0.234423 -0.0173485 0.0660352 0.12777 0.184221 0.17671 0.221435 0.141218 0.123612 -0.577701 0.209256 0.00768551 -0.0476888 -0.0372921 -0.238794 0.131529 -0.00132218 -0.0743502 0.159391 0.107061 -0.171133 0.0530723 -0.216969 0.0155356 0.159115 -0.331794 0.025738 -0.129728 -0.0582051 0.0683006 0.0597181 0.00971806 -0.000281937 -0.116461 0.0792251 0.0992645 -0.251012 -0.220861 0.116918 0.0679787 -0.197838 0.162774 0.0642526 0.0797181 0.0765673 -0.114538 -0.000526475 0.0369333 0.0203941 0.0804278 0.0297181 0.0755986 -0.241582 -0.14235 -0.0173065 -0.138849 0.0989294 0.0416262 0.234015 0.0438524 0.0587532 0.111969 -0.110405 -0.100623 -0.000281937 0.0197181 0.0040501 -0.19721 
-0.1645 0.01255 0.00116647 6.42722e-05 -0.00747495 0.08123 0.06357 0.133764 0.100483 0.134107 0.07255 -0.10745 -0.0234724 -0.130704 -0.0325747 0.187602 -0.106766 0.0615518 0.146895 0.225826 0.0611726 0.0408925 -0.0189379 0.0417844 0.0611842 0.07255 0.0683212 0.0169462 0.03255 0.0399524 0.0357086 -0.0696345 -0.130554 0.205855 -0.0445822 -0.0163452 0.106913 0.078093 0.064418 0.114115 -0.0829897 -0.00412346 -0.251202 0.337844 0.0169462 -0.138363 0.0233113 -0.0855747 0.130629 -0.0442895 -0.0865318 -0.0724748 0.0678235 -0.0436138 0.0811423 -0.28708 0.00862245 0.133015 -0.174165 0.0229391 -0.020405 -0.0896806 0.0200292 -0.01745 0.05255 0.01255 -0.0225867 0.0687369 0.0330442 -0.1408 -0.0055429 0.00179427 0.0592002 -0.0911182 0.0513959 -0.01357 -0.00744998 -0.00152277 -0.0206756 -0.0178417 0.114946 -0.0349229 -0.0761076 0.00255002 0.0559413 -0.0943523 -0.0686975 -0.00167879 -0.0795809 0.00616355 0.0135131 0.113286 -0.0163263 -0.0218512 0.0897425 -0.0339487 -0.0435074 -0.01745 0.04255 -0.0808972 -0.100501 
-0.18252 0.060748 -0.0266082 0.0451082 0.0122878 0.0387106 0.0742843 0.138411 0.082084 0.0360796 0.040748 -0.0680619 0.0348288 -0.0994916 -0.0474995 0.221938 -0.0124582 0.0725145 0.175237 0.181777 0.0115576 0.0599108 0.0105578 -0.0352667 0.0159612 0.060748 -0.00301375 0.040664 -0.009252 -0.0251272 0.0102192 0.00564129 -0.151005 0.213671 0.00809422 0.0266923 0.115921 0.0602186 0.0924945 0.141737 -0.0400926 -0.0136927 -0.194534 0.340311 -0.00933602 -0.163223 -0.0230176 0.00945234 0.0740803 -0.0613381 -0.0537809 -0.156696 0.0415723 -0.00339667 0.0539949 -0.234132 -0.00170431 0.0931889 -0.150131 0.0770763 -0.0188072 -0.0527402 -0.0442924 0.000748003 0.070748 0.010748 0.0585611 0.0480734 0.0246351 -0.0433246 0.0126564 -0.0959607 0.0412679 -0.157985 0.0977596 -0.0178824 0.010748 0.0267477 0.0674666 0.0337452 0.123915 -0.0166089 -0.121822 -0.019252 0.0284598 -0.0787665 -0.0391314 -0.00301375 -0.0567572 0.00580805 0.00355746 -0.00602711 0.00398299 -0.0317116 0.0844695 0.0251861 0.00774303 0.010748 0.040748 -0.00315608 -0.158934 
-0.0614197 0.042858 -0.058545 -0.140293 -0.0191769 -0.0592135 -0.131131 0.00870707 0.0311115 0.0416419 0.00285803 0.0345465 0.00231768 0.0409712 -0.143601 -0.0401785 -0.265182 -0.107542 0.0554716 -0.0442163 -0.0168887 0.0597939 0.0200174 0.0138306 0.0409654 0.012858 0.00376201 0.0826908 0.032858 0.018971 0.00509075 -0.0732221 -0.0790436 0.0487265 -0.0146006 0.125343 0.0390555 0.105508 0.138203 0.0674251 0.148706 0.145522 -0.23493 0.0126059 0.0826908 0.0709235 0.0145797 -0.138617 0.0122705 -0.0404877 -0.0209765 0.0796365 0.0534114 -0.0576927 0.064818 0.0241297 0.00952769 0.0875805 -0.188158 0.0770497 -0.0600373 -0.0446696 0.0314741 -0.00714197 0.052858 0.082858 -0.109152 0.0762027 0.0706727 -0.111789 -0.22612 0.0931796 0.0297218 -0.0449426 0.0508319 0.0430137 0.062858 0.0710376 -0.103518 0.00478298 -0.00771524 0.0109125 0.0737766 0.052858 0.0214707 -0.115489 -0.0742916 0.023762 -0.0486977 0.0340209 0.0357334 0.133795 -0.0265489 0.0248165 0.101632 -0.0592267 -0.0840439 0.032858 0.082858 0.0550683 -0.0538243 
-0.147949 0.0242051 -0.0430827 0.0803072 0.00560496 0.0274027 0.0160658 0.0623187 0.0106134 0.0656839 -0.0157949 -0.0671694 0.035778 -0.0562551 0.0131826 0.187021 -0.00170485 0.0207924 0.143173 0.158062 0.0289188 -0.0364811 -0.00515579 0.0318724 0.0594131 0.0442051 0.0724869 0.0446346 0.00420512 0.0505209 0.0748558 -0.0626366 -0.144049 0.149965 -0.00232087 0.0148598 -0.019889 0.0379724 0.00858141 0.0417402 -0.0831087 0.0188144 -0.110946 0.206365 -0.0353654 -0.110793 0.0308777 0.0114196 -0.000765822 0.00517957 0.022249 -0.0929249 0.0186453 -0.0487324 0.092738 -0.162162 -0.0144571 0.00292037 -0.0501813 0.0656538 -0.0690968 -0.0143168 0.00690743 0.0642051 0.0742051 0.0442051 0.00392295 0.0496761 0.0294207 -0.0614704 0.00976732 -0.0253372 0.0110199 -0.097259 0.0556909 -0.0140079 0.0342051 0.0282739 0.00645868 0.0388647 0.0288061 -0.0165508 -0.0310583 0.00420512 0.000700998 -0.0293237 -0.0237101 0.0124869 -0.0251552 0.0460325 0.0529318 0.02722 -0.0169551 -0.0419378 0.0706001 0.0199377 0.0311704 -0.0157949 0.0342051 -0.01012 -0.091796 
-0.197921 0.0192079 0.0954472 0.109813 0.131597 -0.0152041 -0.00998777 -0.0294854 0.00490102 0.0256219 -0.0207921 0.0739879 -0.00217543 0.0966345 -0.0181681 -0.0408431 0.158944 0.0803024 -0.0574692 -0.049792 0.0556356 0.0108831 0.0424819 0.0428982 -0.0507954 0.0692079 0.0531209 0.0519731 0.0292079 0.00135285 -0.0186431 -0.0137023 0.0701383 -0.0519133 0.000411803 -0.000597524 -0.0701696 -0.11672 -0.0307608 -0.0866459 -0.117718 -0.0502687 0.349417 -0.019835 -0.00802689 0.0620148 -0.00898721 0.142168 -0.0772004 0.0556815 0.137154 -0.255002 -0.0180833 0.154661 0.0552513 0.129802 0.0544124 -0.0418982 0.129268 0.000532883 0.121492 0.0282768 -0.00553901 -0.000792092 0.0592079 0.0592079 -0.0189551 -0.0439629 0.000150863 0.0232824 0.0550263 -0.0742446 -0.00831103 0.11964 0.0155966 -0.02481 -0.0107921 0.0254146 0.0627308 -0.0137542 -0.00706297 -0.0766767 -0.025305 0.0292079 -0.00441687 0.116388 0.113525 0.0531209 0.0792409 -0.0277139 -0.076626 -0.117751 -0.073337 -0.121739 -0.0303148 0.0614982 0.0322064 0.0592079 0.0592079 0.0644645 0.158418 
-0.248017 0.0141983 -0.0235694 -0.00171221 -0.0273142 0.172824 0.147572 0.209739 0.0946925 0.0657453 -0.0158017 -0.140056 -0.0090315 -0.170426 -0.107904 0.335756 -0.0782225 0.130669 0.197219 0.294497 0.0316309 -0.0185824 -0.0582117 -0.0793003 0.00118707 -0.0158017 0.0661523 -0.0479558 -0.0258017 -0.0343203 0.0489809 -0.0493816 -0.263163 0.410279 -0.113006 -0.0684906 0.111245 0.0410295 0.052883 0.0819832 -0.179122 -0.0409495 -0.402391 0.485527 0.0120442 -0.205627 0.00593297 -0.0832064 0.0847063 -0.111934 -0.156761 -0.180292 0.0350157 -0.0992608 0.133091 -0.391694 0.0362085 0.0870982 -0.166502 0.027036 -0.0693592 -0.145026 -0.00181116 -0.0258017 0.0641983 0.0641983 0.0675259 0.113377 -0.00217129 -0.0825359 -0.0279429 -0.141436 0.0219585 -0.25041 0.106561 -0.00899443 0.00419832 -0.00994161 0.0257139 -0.0289093 0.100997 -0.0611863 -0.127218 0.0641983 -0.00901148 -0.216692 -0.031288 0.0661523 -0.0825531 0.0076074 0.0982193 -0.00450531 0.0238331 -0.000626128 0.115391 -0.0165422 -0.038657 0.0141983 0.0241983 -0.107965 -0.23665 
-0.151821 0.0238179 -0.0197641 -0.0266458 -0.0173238 0.0235266 0.042413 0.146128 0.0400881 0.0894832 0.0738179 -0.088223 -0.010178 -0.110014 -0.0387694 0.17285 -0.0774955 0.0616046 0.182211 0.230249 0.0538043 0.0400936 0.0194668 0.0200414 0.011963 0.0138179 0.0484211 0.0338945 0.0338179 -0.0351826 -0.0081087 -0.0344863 -0.17272 0.217094 -0.0407757 0.0157522 0.112469 0.10039 0.147254 0.158017 -0.0398571 0.0223872 -0.279174 0.363316 -0.0261055 -0.148884 0.0310731 -0.0392837 0.114859 -0.0154788 -0.0910044 -0.0908903 0.0393648 -0.117716 0.106828 -0.311218 0.0127542 0.0933062 -0.179895 0.0324571 -0.0555439 -0.123187 -0.0484049 0.0638179 0.0638179 -0.0161821 0.0457323 0.136079 0.0630416 -0.0979099 -0.0380643 -0.0595633 0.0792059 -0.211501 0.078789 -0.0140756 0.0738179 0.0386007 -0.0213304 0.0711685 0.0648335 -0.0388994 -0.0663951 -0.0161821 -0.0363296 -0.136153 -0.0848448 -0.0115789 -0.0482539 0.0129637 0.0204985 0.0532273 0.0178993 0.0113157 0.0725035 -0.0680282 0.0226028 -0.0161821 0.0638179 0.0013732 -0.140961 
-0.0891891 0.0200811 -0.149737 -0.0610512 0.00997961 0.0758823 0.024146 0.22961 0.0424934 0.139086 0.0800811 -0.0411931 -0.0549309 -0.182394 -0.113068 0.320163 -0.274978 -0.0100791 0.282231 0.259448 -0.0389759 0.0752612 0.0370018 -0.00984613 0.0595136 0.0100811 0.034884 0.0341511 -0.00991891 -0.00720344 0.054043 -0.0791895 -0.224499 0.304088 -0.0787841 0.0735065 0.100671 0.226912 0.193955 0.17989 0.0220458 0.139392 -0.62639 0.42043 -0.0358489 -0.145879 0.0156638 -0.138162 0.113909 -0.106432 -0.117718 0.105585 0.0210708 -0.105082 0.141341 -0.336667 0.00191741 0.186893 -0.292879 0.0156741 -0.178001 -0.128417 -0.00132247 0.0100811 8.10866e-05 0.0800811 -0.00680082 0.158861 0.0269342 -0.164461 -0.176808 0.0067902 0.026488 -0.204911 0.148062 0.0102973 0.0200811 0.0598011 0.0213881 0.0463276 0.127044 -0.0241075 -0.00338553 0.0700811 -0.0286911 -0.260706 -0.106022 0.034884 -0.108123 0.0319314 0.11397 0.161097 0.0489658 0.0632104 0.145693 -0.0685846 -0.102452 0.0100811 8.10866e-05 -0.102582 -0.225332 
-0.0727599 0.031724 -0.123475 -0.121111 -0.0246088 0.125451 0.0350988 0.266401 0.034833 0.10823 0.00172401 -0.116827 -0.0690544 -0.208297 -0.146468 0.35692 -0.254335 0.0158524 0.310136 0.254388 -0.0231699 0.0873349 0.0303865 -0.049128 0.132292 0.011724 0.0221999 -0.0114002 -0.00827599 0.014219 -0.000653389 -0.0864366 -0.238697 0.395304 -0.102134 0.0793044 0.133309 0.222716 0.15573 0.245518 0.000536116 0.146613 -0.665946 0.474332 -0.00140024 -0.177883 -0.00749495 -0.130122 0.170669 -0.0877854 -0.120058 0.0797089 0.107942 -0.117677 0.107804 -0.462067 -0.0384692 0.155245 -0.368435 0.0932524 -0.0941856 -0.164659 -0.0291973 0.011724 0.011724 0.061724 0.0221487 0.130116 0.0313392 -0.167805 -0.155249 0.0185893 0.083987 -0.312958 0.140628 0.0722544 0.051724 -0.00629885 -0.0266295 0.0771796 0.0879883 -0.0265456 -0.045444 0.071724 0.0292771 -0.268559 -0.0956706 -0.0378001 -0.14836 0.0559014 0.0711709 0.26282 0.0565183 0.0352061 0.185249 -0.047764 -0.0373247 0.061724 0.051724 -0.0214745 -0.327286 
-0.0872593 0.0102741 -0.129247 -0.0707847 -0.00966084 0.19506 0.0913297 0.208628 0.04517 0.132163 0.0702741 -0.0937381 -0.0792778 -0.186622 -0.150275 0.366728 -0.261693 0.0265247 0.345691 0.274872 -0.0132035 0.024725 0.0054632 -0.0260686 0.122033 0.0402741 -0.0158085 0.0253395 -0.00972593 0.00175287 0.0358203 -0.0724318 -0.220376 0.40107 -0.15858 0.0328933 0.202574 0.242719 0.213694 0.185177 0.045281 0.077034 -0.724051 0.554671 0.0253395 -0.164948 -0.0614629 -0.205285 0.144518 -0.101665 -0.250007 0.070106 0.102206 -0.159926 0.122043 -0.485667 -0.0229477 0.126152 -0.339773 -0.0118717 -0.191601 -0.181409 0.0321999 0.0502741 0.0202741 0.0802741 0.0333028 0.196539 0.0234323 -0.278001 -0.119101 -0.00286929 0.0471628 -0.264641 0.206321 -0.000929886 0.000274067 0.0514867 0.00575499 -0.00813694 0.130482 -0.0313069 -0.00720653 -0.00972593 0.0205029 -0.301055 -0.179864 -0.0358085 -0.201319 0.065749 0.114812 0.219463 0.102977 0.0784007 0.140873 -0.128388 -0.0899234 0.0602741 0.0802741 -0.120027 -0.341389 
-0.220426 -0.0130426 0.0671399 0.150865 0.134168 0.0788286 0.116347 0.0392592 0.0176382 0.00593201 0.0269574 -0.0427473 -0.00905041 -0.0107687 0.0199761 0.13817 0.200013 0.148847 0.0138179 0.0889443 0.0126324 -0.0287008 -0.055482 -0.00973946 0.029411 0.00695738 0.0261705 0.0412565 0.0169574 0.0213623 0.0332254 0.0206359 -0.0293031 0.100349 0.069501 -0.035539 -0.0230052 -0.160204 -0.045874 -0.0567563 -0.101439 -0.113455 0.202601 0.134896 0.0312565 -0.026362 0.0782485 0.183864 0.0380256 0.0602122 0.0403787 -0.33092 -0.012594 0.113131 0.078044 -0.0467604 0.0123555 0.0386688 0.107831 0.0705567 0.0736325 -0.00985043 0.00861328 0.0469574 0.0369574 0.0569574 0.129714 0.0686838 -0.0534737 0.0527461 0.138018 -0.130981 -0.0134961 -0.0497151 0.0370016 0.00930329 0.0569574 0.0572523 0.0647071 0.0350463 0.0838941 -0.0979822 -0.0860462 0.0469574 -0.0235694 0.0444118 0.12211 0.0261705 0.0521375 -0.00847246 -0.0005089 -0.122792 -0.0501836 -0.080864 0.0264128 0.0488618 0.0361714 0.0469574 -0.0230426 0.0232312 0.0121023 
-0.402538 -0.0312538 0.231936 0.285775 0.236978 0.0678405 0.0987859 0.0418836 0.0951893 -0.0485441 -0.0112538 -0.0288781 0.122213 0.0458003 0.108076 0.0234898 0.442792 0.30426 -0.135413 -0.0632408 0.0850448 0.00167164 -0.0570254 -0.0367095 -0.0975972 -0.0212538 0.104791 -0.0539932 -0.0312538 0.0590326 0.0492074 0.072746 0.0659854 -0.112916 0.0777923 -0.133443 -0.193664 -0.323323 -0.198922 -0.231033 -0.251096 -0.27737 0.714542 -0.0345692 -0.0139932 -0.0247497 0.0821054 0.293159 -0.124341 0.0662855 0.106381 -0.562173 -0.060582 0.237512 0.0610583 0.105507 0.0879919 -0.11587 0.367192 0.0781292 0.151518 0.08941 -0.0577675 0.0287462 0.0387462 0.0487462 0.112434 -0.0326394 -0.0932173 0.221434 0.327816 -0.214148 -0.0594491 0.137101 -0.108907 0.0426762 0.0387462 -0.015501 0.189013 0.0202675 -0.00116137 -0.177456 -0.190731 0.0387462 -0.00919209 0.266378 0.239654 0.0947908 0.250991 -0.0881069 -0.0960792 -0.296825 -0.175148 -0.168763 -0.138751 0.123001 0.120181 -0.0212538 0.0387462 0.0203308 0.262332 
-0.127026 0.0762974 0.00528194 -0.0358744 -0.0237216 0.0329405 0.0863938 0.144947 0.0506048 0.0290287 0.0762974 -0.0761296 -0.0117397 -0.0423554 -0.0574388 0.175059 -0.066399 0.0727681 0.104779 0.158675 -0.0306254 0.0316493 0.000174518 0.0140252 0.0510966 0.0662974 -0.0178137 0.0471574 0.0262974 -0.0316963 0.027792 -0.0626912 -0.178974 0.193467 -0.0619785 0.0405392 0.0914996 0.0617196 0.100916 0.0960361 -0.0475172 0.0667473 -0.245441 0.234154 -0.0228426 -0.0629284 0.0422255 -0.0081989 0.030322 -0.0159491 -0.0084061 -0.0137142 0.0456933 -0.0106982 0.116361 -0.166913 0.048178 0.0556518 -0.166441 0.0282765 -0.0116361 -0.0831954 0.051274 0.0262974 -0.0137026 -0.00370261 0.0167072 0.0491271 -0.0182127 -0.0469087 -0.0663568 -0.0619858 0.065253 -0.0879353 0.106378 -0.00158668 0.0662974 0.0490229 -0.00333764 -0.0284727 0.0381773 0.00295741 -0.0464816 0.0362974 0.0232477 -0.0676695 -0.0607152 0.0521863 -0.101778 0.0019627 0.0301906 0.0790262 0.0287161 0.0144967 0.0348727 -0.0643586 0.00909039 0.0362974 0.0162974 0.0207465 -0.157462 
-0.146972 0.0543028 0.026193 0.0587909 -0.0141825 -0.0296095 0.0238652 0.0423424 0.0155279 0.069558 -0.0156972 -0.0530421 -0.0331646 -0.0322137 -0.0328974 0.0929279 -0.0631628 -0.0302451 0.109972 0.0743531 0.0172046 -0.00488324 0.0421977 -0.0291767 0.0503555 0.0643028 0.0454615 0.0258308 0.0243028 -0.0282446 -0.0153025 -0.0714071 -0.0839552 0.0844957 0.0490515 0.0697183 -0.0453599 0.0580648 0.0519309 0.0681747 -0.0617767 0.0139495 -0.00438508 0.104225 -0.0141692 -0.00128977 0.0180746 0.00308868 -0.0354748 -0.00698723 -0.0333201 -0.0581348 0.0544582 -0.0484131 0.0269597 -0.0512521 -0.0121576 0.0555752 -0.0455128 0.0122167 0.0660985 -0.00513498 0.0400082 -0.0156972 0.0543028 -0.0156972 -0.00467174 0.0047579 0.049081 -0.0618268 -0.00423076 -0.0172539 0.00126981 -0.00645893 0.0441792 0.0106089 -0.0156972 0.00844911 0.0644295 0.0190964 0.0512766 -0.0513112 -0.0341158 0.0643028 0.00665078 -0.0050169 -0.0215121 -0.0045385 -0.051798 -0.00300444 0.0164829 -0.0135344 -0.0606659 -0.0326237 0.0619531 0.0574066 -0.00844586 -0.0156972 -0.0156972 0.0121334 0.0129049 
-0.186318 0.0203682 0.104109 0.131946 0.100249 -0.0248092 -0.0319646 0.0231521 0.061749 -0.0202559 0.0403682 -0.00795699 0.0121712 0.000468521 0.02935 0.061975 0.122292 0.101953 0.00888025 0.0281371 0.0504635 -0.0419464 0.040206 0.035768 0.0290679 0.000368234 0.0378654 0.0237329 -0.0196318 0.057272 0.0708901 -0.0191222 -0.0106126 -0.0315389 0.0615595 0.038036 -0.0974207 -0.123933 -0.0256643 -0.0235323 -0.0915171 -0.0311628 0.19671 0.00150479 0.0537329 0.0526889 0.0488912 0.0889397 -0.0512476 0.0664597 0.0645972 -0.18389 0.0191409 0.0988565 0.0736515 -0.00230745 0.0228105 -0.00473177 0.0830461 0.0838497 0.0909214 0.0804127 -0.00613881 0.0103682 0.0603682 -0.00963177 0.0320507 0.0259815 -0.00618933 0.0314736 0.0994907 -0.0129842 0.0266012 0.0897097 -0.0115605 0.0373666 0.0703682 -0.0016976 0.107171 0.0405096 0.0231853 -0.0690973 -0.0974071 0.0603682 -0.0178719 0.0922936 0.0950367 0.0178654 0.0872084 -0.0140364 0.00159837 -0.13601 -0.00732992 -0.0418664 -0.0591725 0.0516193 0.0129745 0.0303682 0.000368234 -0.0255835 0.0704976 
-0.354547 0.0435453 0.28841 0.326676 0.273084 0.15946 0.2456 0.123719 0.103308 -0.0106971 0.0235453 -0.158873 0.122079 -0.00378243 0.13014 0.166677 0.514901 0.410844 -0.0300904 0.0625715 0.136004 -0.0703138 -0.0302405 -0.0242631 -0.106324 0.0135453 0.136585 0.0209076 -0.0264547 0.0732798 0.0898436 0.055385 0.00973484 0.0259452 0.1139 -0.169202 -0.0923564 -0.351125 -0.181365 -0.190223 -0.365357 -0.28122 0.568328 0.243838 0.0109076 -0.0226257 0.0451758 0.384019 -0.0417781 0.0450225 0.0777093 -0.539509 0.0441569 0.228077 0.0785247 -0.0123214 0.100819 -0.0778792 0.313497 0.077906 0.145891 -0.000659387 -0.0242256 -0.0264547 -0.0364547 0.0435453 0.277712 0.0220625 -0.092103 0.222502 0.334008 -0.229893 -0.0438732 0.0491645 -0.120707 0.0127136 -0.0264547 -0.0290902 0.213722 -0.00984352 0.0539723 -0.127446 -0.270576 0.0235453 -0.00802667 0.146578 0.275157 0.146585 0.259174 -0.0489363 -0.0876972 -0.376636 -0.132566 -0.0986518 -0.0826421 0.142507 0.103356 0.0135453 -0.00645468 0.00258784 0.156652 
-0.234268 0.0655732 0.124451 0.202752 0.126635 0.0557668 0.0993596 0.0558847 0.0263393 -0.0136812 0.0355732 -0.0443826 0.0699119 -0.0511243 0.0324502 0.167366 0.260333 0.19448 0.00263129 0.069085 0.0838167 -0.00964835 -0.0225523 -0.00556134 0.0280508 -0.0144268 0.0415959 -0.0209737 0.0355732 0.0172795 0.0782224 0.0430626 -0.0287481 0.0470384 0.0757646 -0.0889639 -0.0145333 -0.113922 -0.0506482 -0.0813191 -0.157654 -0.137745 0.254981 0.103777 0.0490263 -0.036235 0.0886142 0.223369 0.0301822 0.00793285 0.0493946 -0.314242 -0.0293239 0.145751 0.0617 -0.0564108 0.0756858 -0.0106606 0.10528 0.0622038 0.0400483 0.0285706 -0.061698 0.0655732 0.0655732 0.0455732 0.0766184 -0.0056532 -0.000798677 0.0979949 0.191968 -0.0951332 0.0120849 0.0361529 -0.0340623 -0.00155393 0.0355732 -0.00318453 0.102403 -0.0133147 0.0602456 -0.124035 -0.0806602 0.0355732 0.0365327 0.0684624 0.132348 0.0215959 0.0923836 -0.0138852 -0.0694198 -0.119875 -0.0312771 -0.0661834 -0.0338012 0.0580888 0.0800235 0.0355732 0.0555732 -0.04074 0.108361 
-0.335427 -0.00454273 0.216702 0.291548 0.207389 0.12639 0.205374 0.0578951 0.122842 0.0242363 -0.0345427 -0.1668 0.0717149 -0.0639057 0.157412 0.180328 0.458426 0.294357 -0.0884131 0.0333601 0.108727 0.0125148 -0.0860355 -0.021911 -0.0406086 0.0454573 0.0842132 0.0275071 0.0354573 0.0748936 0.0176363 0.0805208 0.027093 0.018604 0.0382215 -0.0945573 -0.105542 -0.226238 -0.153964 -0.115098 -0.278958 -0.21504 0.563868 0.147853 -0.0124929 -0.0812082 0.0556927 0.303539 -0.018887 -0.0081515 0.0699218 -0.542366 -0.0121087 0.230053 0.0246513 0.0267217 0.0865101 -0.0606356 0.265981 0.091461 0.201636 0.0362835 -0.0313202 0.0454573 -0.0245427 -0.00454273 0.219539 -0.0257529 -0.0627891 0.216245 0.243986 -0.182822 -0.0116907 0.0336035 -0.0780985 -0.0227406 0.0554573 0.0215689 0.145127 0.0214636 0.0260647 -0.0969672 -0.23397 0.0354573 -0.0306824 0.160188 0.204937 0.144213 0.185308 -0.0624284 -0.0666908 -0.27703 -0.109627 -0.0863836 -0.128551 0.163308 0.0662857 0.0354573 -0.00454273 -0.0170044 0.12986 
-0.165964 0.0624036 0.0698608 0.0544303 0.0461209 0.0414644 0.0446738 0.0258121 0.0757817 -0.00329019 -0.0175964 -0.0401089 0.0268612 -0.00535785 0.0256126 0.0707137 0.0616661 0.107679 0.0750488 0.0535347 0.00128796 -0.00870836 -0.0426352 0.00975558 0.0327247 -0.0175964 0.0804314 -0.0102574 0.0624036 0.0251122 0.00748283 -0.0581299 -0.0281176 0.0623364 0.0397735 -0.017518 -0.0568381 -0.00942369 -0.0126299 -0.0364236 -0.0933753 -0.0104388 0.0553512 0.158855 0.0597426 0.0288077 0.00090675 0.0515548 -0.028002 -0.0130856 0.0113978 -0.176593 0.0340502 0.0683808 0.0319346 -0.0559827 0.0270497 -0.0446806 0.00638385 0.0657031 0.0791954 -0.0370266 0.00105217 0.0324036 -0.0175964 0.0724036 0.019852 0.0578153 -0.0355616 0.022498 0.0649391 -0.0058367 -0.0243564 0.034098 0.0716379 0.046738 0.0224036 -0.0116195 0.0856447 0.035162 -0.0224487 -0.0655221 -0.0284701 -0.00759638 0.0634024 0.0138416 0.0451788 0.0404314 -0.00665771 0.0051524 -0.00859836 -0.0528483 -0.0366084 -0.0315313 -0.0212294 -0.00228317 0.00101338 0.0624036 0.0324036 -0.0329213 0.0430083 
-0.218642 -0.00286421 0.19552 0.195701 0.0512427 -0.0509963 -0.122525 -0.0975215 -0.048182 -0.0596173 0.0171358 0.118485 0.120731 0.202853 -0.0220269 -0.292491 0.221792 0.0264699 -0.208177 -0.216032 0.00865325 -0.0693617 0.0451323 0.0856626 0.0017535 0.0571358 0.0239461 0.0135369 -0.0228642 0.0424658 2.10203e-05 0.048404 0.188643 -0.32308 0.0796105 -0.0635908 -0.208173 -0.187983 -0.127338 -0.162281 -0.00276433 -0.0860614 0.67893 -0.377091 -0.00646307 0.202562 0.0452796 0.146309 -0.228183 0.103125 0.208688 -0.272591 -0.0129484 0.134717 -0.0480963 0.416061 0.0504112 -0.108314 0.304635 0.107495 0.176366 0.188185 0.00613854 0.0371358 0.0571358 -0.0228642 -0.110724 -0.0832325 0.0413098 0.102493 0.104564 0.045183 0.00736259 0.262042 -0.0321697 0.0487084 0.0671358 -0.0081041 0.0336364 -0.0216174 -0.10845 -0.101808 -0.00208387 0.00713579 0.0626178 0.253559 0.153256 0.0639461 0.19227 -0.0157709 -0.10798 -0.194171 -0.123119 -0.16125 -0.0891196 0.0930989 -0.0101444 -0.0128642 0.0271358 0.0620844 0.265514 
-0.278346 -0.00883461 0.170152 0.209178 0.111242 0.0715506 0.176267 0.110307 0.106091 0.027085 0.0611654 -0.10117 0.032666 -0.0560446 0.104237 0.202548 0.308614 0.293816 0.064762 0.149338 0.0755909 0.00873897 -0.0744837 -0.0379735 0.028162 0.0311654 0.117339 -0.00451287 -0.00883461 0.0869545 0.0753584 0.00562014 -0.0922967 0.147593 0.0788012 -0.108311 0.019386 -0.128495 -0.0847044 -0.0994631 -0.201073 -0.10755 0.322764 0.259333 -0.0145129 -0.0966054 0.0981287 0.255575 0.0539529 0.0440925 0.0486066 -0.408278 0.0492123 0.115278 0.0572084 -0.122559 0.0317759 0.0193182 0.146252 0.00933972 0.155635 0.0446983 -0.00261079 0.0111654 0.0211654 0.0211654 0.200427 0.00545092 -0.105024 0.0993931 0.25393 -0.122014 0.0302118 -0.0121831 -0.0493528 -0.0155004 0.0111654 0.0168836 0.127283 0.0183909 0.010468 -0.0467847 -0.143772 -0.0188346 -0.0216693 0.0993193 0.172341 0.047339 0.133898 0.000177975 -0.0589909 -0.163262 -0.0136532 -0.136539 -0.0247188 0.0542207 0.108158 -0.00883461 -0.0188346 -0.066119 0.0835206 
-0.149511 -0.0159511 -0.0609691 -0.0391752 -0.00247875 0.0864611 0.0510961 0.151818 0.048851 0.0559371 0.0340489 -0.0280587 -0.0676359 -0.131106 -0.0754718 0.18886 -0.167009 0.0117016 0.150563 0.164157 -0.0467547 0.00504036 0.033082 0.0427907 0.0144037 0.0340489 0.0343263 0.0060899 0.0140489 0.000707705 0.0667443 -0.0217455 -0.147315 0.235703 -0.00806483 0.0174683 0.0496947 0.120057 0.143054 0.181273 0.00619479 0.0498136 -0.361903 0.348833 0.0260899 -0.158389 -0.042668 -0.0765218 0.0587 -0.05774 -0.126898 -0.0330638 0.0537897 -0.0909666 0.0574744 -0.277935 -0.0266072 0.0528447 -0.170539 0.0236177 -0.0765641 -0.0719514 0.0470009 -0.00595111 0.0740489 0.0340489 -0.000513997 0.118373 0.00688817 -0.130912 -0.0945307 -0.058048 0.0815362 -0.195171 0.124155 0.0461442 0.0340489 0.036767 0.00556524 -0.00929241 0.0430218 0.00320255 -0.0398065 0.0440489 0.0590178 -0.153194 -0.019324 -0.00567374 -0.133052 0.0803255 0.0622745 0.083961 0.0644795 0.00122965 0.143077 -0.00909209 -0.076377 0.0440489 0.0440489 -0.0124737 -0.143551 
-0.212968 -0.0222968 0.0581756 0.150116 0.0964355 0.107925 0.0556958 0.118037 0.0916042 0.00750071 0.0177032 -0.0833815 0.0339453 -0.0956209 0.00536695 0.187342 0.163677 0.183233 0.113961 0.128209 0.0241768 -0.00620878 0.0145276 -0.0439286 0.000992795 0.0277032 0.109023 -0.00845486 -0.00229685 0.0151805 0.0505579 0.0211635 -0.12958 0.178892 0.0112554 -0.0102626 -0.0056036 -0.0313013 0.0459098 -0.00892833 -0.144388 -0.000603782 0.111978 0.258895 -0.00845486 -0.0690658 0.0601219 0.102918 0.11146 0.0094988 -0.00773922 -0.299455 0.0116489 0.0696551 0.0407578 -0.161632 0.0699569 0.0689465 0.125287 0.0557408 0.0198973 0.00484444 -0.00288008 0.0177032 0.0577032 -0.0122968 0.109665 0.0615594 -0.036151 0.0710082 0.17185 -0.111593 0.000654292 -0.0370998 0.0695766 0.0613421 -0.0122968 -0.0107199 0.0541452 0.0193829 0.0140761 -0.0419361 -0.137849 0.0477032 0.00403847 -0.00183797 0.140572 0.0390226 0.0549846 0.000140592 0.0296005 -0.0704557 -0.0114068 -0.102349 -0.0117505 0.00799661 0.0419548 0.0577032 0.0377032 -0.0775394 -0.00135884 
-0.378411 -0.0388411 0.182707 0.24804 0.143215 0.0296548 0.0720909 0.00203063 0.0678889 -0.024075 0.0111589 -0.0722286 0.116351 0.0235253 0.12028 0.0174541 0.365234 0.24286 -0.098749 -0.0307574 0.126797 -0.0518136 -0.0487739 -0.0209427 -0.0962524 0.0511589 0.0503446 -0.00950339 0.0411589 0.135525 0.00735622 0.0851717 -0.0152936 -0.0138206 0.0728417 -0.118732 -0.162381 -0.27159 -0.121076 -0.120864 -0.26508 -0.182367 0.619302 0.0494143 0.0204966 0.00594456 0.0980387 0.304285 -0.12167 0.050964 0.147059 -0.532767 -0.0466564 0.264537 0.0434012 0.122939 0.0775495 -0.0954467 0.365496 0.0592725 0.145526 0.120102 -0.0568847 -0.0188411 0.0211589 0.0311589 0.132567 -0.000830935 -0.0662667 0.22071 0.252017 -0.168606 0.00262946 0.0914443 -0.0477438 -0.0340023 0.0211589 0.0261211 0.171458 -0.0541459 -0.0600052 -0.144001 -0.149089 -0.0188411 0.00938891 0.207793 0.238316 0.120345 0.209533 -0.0214492 -0.118036 -0.32077 -0.0930926 -0.147132 -0.134544 0.105036 0.0336265 -0.00884106 0.0311589 -0.0350201 0.190304 
-0.238723 0.00512765 0.134453 0.194232 0.123243 0.104919 0.126187 0.0421513 0.0884787 0.0649345 0.0451277 -0.0702402 0.0899044 -0.0187917 0.0147053 0.129351 0.211953 0.195848 -0.0244939 0.0456503 0.0588302 0.0350349 0.000358837 0.00699163 0.00980001 -0.0248723 0.0790344 0.0526568 0.0551277 0.107078 0.0761101 0.00703713 -0.0283705 0.0574063 0.0928417 -0.0069499 -0.0235642 -0.165105 -0.0540963 -0.0857859 -0.159414 -0.158962 0.269092 0.122963 0.0326568 -0.0113553 0.0951302 0.129875 0.000119046 0.045966 0.0471943 -0.256114 0.0311706 0.167191 0.0792628 -0.0449472 0.0556622 -0.0611153 0.156761 0.0892502 0.0869838 0.0323177 -0.0357273 -0.0248723 -0.0148723 -0.00487235 0.112297 0.029412 -0.0160025 0.121221 0.138883 -0.113055 -0.0342488 -0.0104785 -0.0060935 0.0291059 0.0651277 -0.0030131 0.101318 -0.0312908 0.014828 -0.12027 -0.141203 0.0251277 0.00819184 0.094763 0.130704 0.0290344 0.0855289 -0.0316615 0.00965516 -0.16524 -0.0222146 -0.0544106 -0.0317307 0.129088 0.011947 -0.0248723 -0.00487235 -0.0246367 0.0855033 
-0.173904 0.0216096 0.0332143 0.0633112 0.0739946 0.0218609 0.09465 0.0797282 0.0491931 0.0942587 0.0316096 -0.0562762 0.0182131 -0.0527086 0.0243487 0.115733 0.00708207 0.0523215 0.02235 0.0605958 0.0365987 -0.000703511 0.0129219 -0.0375168 -0.0248911 -0.0083904 0.0290276 0.0320856 0.0416096 0.0558286 0.0204528 -0.0529415 -0.108413 0.0800386 -0.00523691 0.0194144 0.00227192 -0.0505798 0.0735961 0.0818568 -0.0342135 0.00816514 -0.0486554 0.169324 0.00208558 -0.0636539 0.0299295 0.016743 -0.013284 -0.0461964 -0.0469932 -0.162593 0.0368821 0.0507479 0.0734826 -0.0412835 0.0168026 0.0518286 0.0200551 0.0671239 0.0573176 0.0233457 0.0486723 0.0016096 -0.0183904 0.0616096 0.0389638 0.0182868 -0.0148905 0.0277081 -0.023895 -0.0901228 -0.0101965 -0.0521849 0.0636386 -0.00248498 0.0216096 0.038259 0.0508473 -0.0166414 0.0463665 -0.0732627 -0.101871 0.0316096 -0.0104133 -0.0293615 0.0490417 -0.000972393 0.0621952 0.0421727 0.0195514 0.0263161 -0.0137161 -0.090937 0.0372372 0.0408333 -0.0406152 0.0116096 -0.0183904 -0.0393556 -0.0285007 
-0.200022 0.0389978 0.0753346 0.102366 0.124723 0.0758814 0.0287532 0.0912037 0.00670045 0.0620393 0.00899783 -0.057672 0.0775119 -0.0596308 0.0242117 0.0893734 0.178504 0.166759 0.0120974 0.127845 0.0753396 -0.0241707 0.00775721 -0.0387942 -0.033976 0.00899783 0.0502022 0.0353863 -0.0110022 0.0261399 -0.00283786 -0.0435532 -0.0914969 0.108011 0.0765344 0.00412406 -0.0333703 -0.0777422 -0.01909 0.0109084 -0.0875924 -0.0921688 0.123961 0.1899 0.0553863 -0.0265884 0.0541835 0.123228 0.06318 0.0542804 0.0132279 -0.261239 0.00125926 0.0974745 0.084031 -0.0950517 0.0705537 -0.00533942 0.0514118 0.0526773 0.0500063 0.0243201 0.00188967 -0.00100217 -0.00100217 0.0289978 0.126401 0.0605184 0.000420306 0.0507037 0.0998936 -0.130822 -0.00991723 -0.0167111 0.0513514 0.0430717 0.0389978 0.0388274 0.0903624 -0.00314022 0.0518614 -0.0990337 -0.0561631 -0.0110022 -0.0377145 0.0466054 0.0445154 0.0402022 0.0396808 -0.0151835 0.0380542 -0.074948 -0.0311045 -0.10271 0.0312155 0.0637988 0.0455565 -0.00100217 0.0389978 -0.00802329 0.0260259 
-0.149694 0.0740306 0.0497347 0.0171058 0.0125479 0.0187937 0.11449 0.147796 0.041932 0.00934059 0.00403059 0.00832133 0.0492949 -0.0441984 0.0191122 0.141065 -0.016274 0.0953756 0.0630611 0.101102 -0.040945 0.019598 0.0314786 0.0303551 -0.0279854 0.0440306 0.0547588 0.0323633 0.0640306 0.0412452 0.0408506 0.0209938 -0.0847415 0.148045 -0.0491432 -0.00910206 -0.0156326 0.00470731 -0.00758674 0.0945049 -0.0887068 0.0193409 -0.0953656 0.197995 -0.0176367 -0.112229 0.015882 0.0262658 0.0226851 -0.0533755 -0.00429742 -0.112382 0.0415475 -0.0239764 0.0921489 -0.112847 0.0146787 0.00160427 -0.0305576 0.0326198 0.0154958 -0.0565453 -0.0381969 0.0140306 0.0640306 0.0540306 0.0430423 0.087916 -0.0392974 -0.0648752 0.0227317 -0.0618124 0.017486 -0.0480402 0.0271379 0.0652815 -0.0159694 0.0578657 0.0717124 0.0409029 0.0107559 -0.0634487 -0.028576 0.0640306 0.0601252 -0.0527426 -0.0203104 0.0147588 0.0263418 0.00184377 -0.0252361 -0.000812519 -0.0109574 -0.019393 -0.0109625 -0.0301595 0.0132618 -0.00596941 0.0440306 -0.0491681 -0.0522077 
-0.262784 0.0627216 0.126121 0.2202 0.127882 0.18019 0.181077 0.163877 0.132463 0.0550288 0.0327216 -0.101596 0.0380667 -0.106194 0.112587 0.250766 0.340146 0.267786 -0.000258871 0.16474 0.142948 -0.0370668 -0.0238545 -0.0269627 -0.053689 0.0227216 0.0946683 -0.0244639 0.0227216 0.0446632 0.0700688 0.0340954 -0.133179 0.170228 0.0752322 -0.0595885 -0.0613943 -0.155547 -0.0975885 -0.0496728 -0.236233 -0.156516 0.270498 0.310933 -0.0344639 -0.111081 0.0768537 0.19884 0.0655379 -0.0162538 0.0271654 -0.391806 -0.0126442 0.149769 0.0467023 -0.199286 0.0888756 0.00710245 0.19331 0.0744863 0.117962 -0.0573086 -0.0190599 0.0527216 0.0227216 0.0627216 0.218097 0.0511945 -0.0973249 0.172426 0.267607 -0.19253 -0.00267622 -0.0580104 -0.0137659 0.0110686 0.0127216 0.0365804 0.166563 -0.035225 0.0554705 -0.158795 -0.155645 0.0627216 -0.00835118 0.114556 0.142036 0.0446683 0.100086 0.0212707 0.00921365 -0.216282 -0.0962461 -0.0499375 -0.0459144 0.106281 0.10234 0.00272162 0.0327216 -0.0461526 0.0113275 
-0.0589962 0.0331004 -0.0714044 -0.111461 -0.0673908 0.0183934 -0.00314163 0.0832492 0.0087176 0.116089 0.0131004 0.0297796 -0.0549153 -0.0392502 -0.0712302 0.0255486 -0.196302 -0.0410969 0.123151 0.0728191 0.00727172 0.0474314 0.0783683 -0.0111948 0.0697021 0.0631004 0.0346575 -0.0054373 0.00310038 0.0144564 -0.0328053 -0.0293837 -0.0853665 0.152441 -0.0622196 0.0230298 0.0799407 0.147179 0.0752602 0.133277 0.0545935 0.126571 -0.321847 0.135798 0.0645627 -0.021114 -0.0168309 -0.164744 0.00138719 -0.0335237 -0.0385437 0.12186 0.0845482 -0.0893016 0.030992 -0.100105 -0.0452046 0.0920717 -0.214467 0.0204278 -0.112155 -0.0921383 0.0409267 0.0131004 0.0531004 0.0531004 -0.0578661 0.0844779 0.0526314 -0.122566 -0.122416 0.0368371 0.0522601 -0.115274 0.126723 0.0300866 0.0231004 0.0324959 -0.0639817 -0.0135228 0.0885262 -0.0212278 0.0449247 0.00310038 0.0846973 -0.0817399 -0.0946463 -0.00534253 -0.0943426 0.0337836 0.0521429 0.173989 0.0139279 -0.0259353 0.113346 -0.0803618 -0.0627403 0.0431004 -0.00689962 -0.0165665 -0.124525 
-0.298938 0.00910617 0.204212 0.197624 0.0967875 0.0454947 -0.0192857 -0.0671962 0.0402185 -0.0894082 0.0391062 0.00531026 0.0589885 0.127956 0.0964572 -0.0433742 0.300515 0.110726 -0.123996 -0.155062 0.0185081 -0.0113375 -0.011605 -0.0128609 -0.0403601 -0.0208938 0.0545696 0.0357073 -0.0308938 0.0807604 -0.0222914 -0.01647 0.0928864 -0.177083 0.0405109 -0.0990075 -0.220647 -0.228247 -0.131751 -0.143249 -0.166721 -0.123569 0.56644 -0.132565 0.0257073 0.120414 0.0755955 0.25331 -0.177284 0.0413475 0.185108 -0.433276 0.00378035 0.209042 0.0405555 0.210936 0.0119152 -0.162579 0.371516 0.0838908 0.170206 0.103518 0.013568 -0.0208938 -0.0308938 0.0591062 0.0172544 -0.00942442 -0.0574773 0.140968 0.147096 -0.113506 -0.0537421 0.140665 -0.122757 0.026358 -0.0308938 0.0594812 0.143721 -0.0489499 -0.0533693 -0.0775872 -0.089552 -0.0208938 0.053649 0.195644 0.21382 0.0145696 0.17406 -0.0789992 -0.124111 -0.220071 -0.160327 -0.155164 -0.122525 0.117526 0.0822565 -0.000893828 -0.0308938 0.0778307 0.192741 
-0.199089 0.0090911 0.0760792 0.0941637 0.129555 0.0403918 0.00601626 -0.00214818 0.0761795 0.0149187 0.0290911 -0.0191419 0.0667448 0.0176023 0.0314208 -0.000931608 0.205047 0.147964 -0.0254631 0.000651175 0.0617661 0.0287989 -0.0427329 0.00526546 0.0349405 0.0390911 0.0453813 0.0504126 -0.000908899 0.00473376 0.00743869 0.0437366 -0.0506845 -0.0507648 0.0162218 -0.0662348 -0.0374452 -0.143876 -0.0495564 -0.0887944 -0.0873622 -0.0749245 0.238288 0.0248589 0.0404126 0.0222339 0.00829184 0.131996 -0.0488851 0.0685669 0.112854 -0.289821 0.0556871 0.0824478 0.0755172 0.00226045 0.0261076 -0.0172469 0.124515 0.0109399 0.106512 0.0551862 0.0124048 -0.0209089 -0.000908899 0.0290911 0.0593889 0.0441703 -0.0443576 0.0274767 0.147612 -0.114032 -0.00477455 0.0440696 -0.00420944 0.0347254 0.0490911 0.067723 0.102716 -0.0303698 -0.00513148 -0.056075 -0.113843 -0.0109089 0.0289462 0.0980329 0.112483 0.0353813 0.0914817 -0.0544419 -0.0505259 -0.0611875 -0.08474 -0.0876984 -0.0508553 0.0550783 0.0137045 0.0090911 0.0190911 0.056903 0.0841463 
-0.212723 -0.00227232 -0.1342 -0.11754 0.0640912 0.180775 0.188307 0.222482 0.0608424 0.101649 0.0577277 -0.178685 -0.0697683 -0.252582 -0.0847913 0.420502 -0.139977 0.0830807 0.250746 0.371778 0.0125782 0.0248785 0.0080089 -0.0200885 0.0218388 0.0477277 -0.00927598 -0.0592514 0.00772768 0.0226094 0.0296373 -0.0191613 -0.281717 0.448595 -0.201648 -0.0155562 0.0568526 0.0785229 0.136189 0.150532 -0.109924 -0.0944675 -0.663964 0.538049 -0.0492514 -0.247789 -0.0388794 -0.110961 0.136581 -0.127242 -0.23285 -0.0992225 0.0623455 -0.133675 0.145494 -0.505159 -0.0335087 0.0848734 -0.380407 -0.0228569 -0.193086 -0.154182 -0.00586167 0.0377277 0.0277277 -0.0122723 0.0694768 0.216455 -0.0803116 -0.210784 -0.0727304 -0.132369 -0.0551754 -0.307467 0.133851 0.0118468 0.0377277 -0.0102873 -0.0145967 -0.0430059 0.0854813 0.00257424 -0.0801283 0.00772768 0.0264425 -0.234501 -0.0448338 0.030724 -0.135061 0.12247 0.133621 0.085411 0.0164274 0.0492251 0.108878 -0.0378363 -0.0186203 -0.0122723 0.0677277 -0.162061 -0.301925 
-0.180388 -0.00903884 0.0681508 0.112971 0.100265 0.0252807 0.0435903 0.109363 0.0792141 0.0459525 -0.0190388 -0.0489735 -0.0198645 -0.079147 -0.033179 0.167982 0.0310295 0.0900977 0.0466443 0.131089 0.0157482 0.0153248 0.0303541 0.0115014 -0.024942 0.0309612 0.0415211 0.0414381 0.0409612 0.0411275 0.0615375 -0.014168 -0.0688265 0.10545 0.0395619 -0.0405379 -0.0251115 -0.0794093 0.00874379 0.0508942 -0.123789 0.0232334 0.0525816 0.169937 0.0114381 -0.046454 0.0775146 0.0674401 0.100998 -0.00447224 0.0120142 -0.210958 0.0276094 0.0607194 0.0832068 -0.164037 0.0668324 -0.0210793 -0.0317599 0.0598965 0.029182 -0.0100898 -0.0637598 -0.00903884 0.0609612 0.0609612 0.0340775 0.0136568 -0.0220906 0.00199897 0.0592292 -0.0986298 0.0511745 -0.0586964 0.000701785 0.00217654 0.0509612 0.0582498 0.0215113 0.0163269 0.0641032 -0.0953324 -0.120293 -0.0190388 -0.0313086 -0.00594714 0.0744497 0.00152115 0.0137579 0.0432815 0.0572052 -0.0709078 -0.0352245 -0.0537652 0.0405655 0.0521832 -0.0252296 0.0709612 0.0709612 -0.00623005 -0.0329927 
-0.266341 0.0623659 0.136366 0.153719 0.161314 -0.0236984 0.0266485 -0.00916157 0.0178152 -0.0516259 0.0423659 -0.0199354 0.0813945 -0.0102425 0.0590612 0.0428628 0.277311 0.129486 -0.0749091 0.0368009 0.0631721 -0.0504021 -0.0189189 -0.0169718 -0.00943966 0.0123659 0.0781628 0.0421834 0.0423659 0.108389 0.0135282 0.0695609 -0.02413 -0.0414058 0.0994865 -0.00584584 -0.052381 -0.138775 -0.0864636 -0.11539 -0.179367 -0.161101 0.419548 0.0300054 -0.0378166 0.0343926 0.00475257 0.23389 -0.0668948 0.0620153 0.145106 -0.365433 -0.0237137 0.140372 0.0154385 0.078131 0.0419389 -0.0309403 0.266898 0.0832149 0.142118 0.0702834 -0.0541376 0.0623659 -0.00763407 -0.0176341 0.0771319 -0.0150956 -0.0815348 0.123643 0.175125 -0.161994 0.0212427 0.119824 -0.0729016 -0.0326872 -0.00763407 0.013186 0.0696966 -0.0393603 0.0232185 -0.108144 -0.0692315 0.0223659 0.0469085 0.126285 0.196556 0.0981628 0.0903702 -0.0844225 -0.0157259 -0.160756 -0.0734837 -0.0824937 -0.0209692 0.142115 0.0359723 0.0223659 -0.00763407 0.0294042 0.154726 
-0.17641 0.041359 0.104231 0.124289 0.101143 -0.0325254 -0.0920874 -0.0706991 0.00947883 -0.0524863 -0.018641 0.0785784 0.0460237 0.0795242 0.0269264 -0.142328 0.111362 -0.00917537 -0.0956518 -0.126288 -0.0285293 -0.0057249 0.0239782 0.0370097 -0.0324148 0.061359 -0.00641214 -0.0204527 0.061359 -0.00507384 0.0273294 -0.0431941 0.0580148 -0.172577 0.0393009 0.0333428 -0.18444 -0.0923362 -0.0791856 -0.0421216 0.000696354 -0.0137929 0.357356 -0.203699 0.0295473 0.0996515 0.0567203 0.148127 -0.159099 0.0761176 0.141905 -0.195652 0.0246901 0.0956619 -0.00373628 0.257257 0.00226358 -0.10841 0.185723 0.0507113 0.132387 0.0551327 -0.00468442 0.061359 0.011359 0.071359 -0.00587096 -0.0832712 0.000883468 0.0852441 0.0449377 -0.0624472 0.0243239 0.145311 -0.0334156 0.0493293 0.071359 0.0453376 0.0636235 0.00389522 -0.0141477 -0.0762109 -0.0142302 -0.018641 0.00467596 0.116249 0.101524 0.0335879 0.093848 -0.0418156 -0.0849236 -0.0698822 -0.0718774 -0.145166 -0.0852198 0.0792881 0.0363661 0.071359 0.071359 0.00784807 0.164347 
-0.200324 0.0289676 -0.0954453 -0.0379771 0.0144735 0.108584 0.129019 0.191821 0.0806649 0.140346 0.00896759 -0.13842 -0.0150271 -0.230398 -0.108821 0.352081 -0.143686 0.137092 0.267249 0.311062 0.0521507 -0.0233367 -0.0579124 0.00663343 0.0542938 0.0489676 -0.00469762 -0.0404275 0.0589676 0.0166094 0.0206535 -0.0348376 -0.304616 0.347666 -0.0321426 0.0174459 0.18927 0.112229 0.13166 0.223541 -0.0705588 0.051051 -0.479445 0.513523 -0.0304275 -0.194689 0.0286368 -0.0778066 0.146586 -0.0355218 -0.202664 -0.0286119 0.0193903 -0.0641813 0.100281 -0.478985 0.0147493 0.146007 -0.30491 -0.00680187 -0.125808 -0.179189 0.00994979 0.0189676 0.0689676 0.0489676 0.0669299 0.147236 -0.0405399 -0.145125 -0.032278 -0.045056 0.0172777 -0.317478 0.165624 0.037801 -0.0210324 -0.0258773 0.0341283 0.0672877 0.0824281 -0.0166634 -0.058267 0.0689676 0.0331526 -0.171021 -0.10292 -0.0246976 -0.171239 0.040585 0.0919254 0.120229 0.0916394 -0.066952 0.117681 -0.0827231 -0.0265232 0.0289676 0.0189676 -0.126476 -0.310186 
-0.205877 0.0184123 -0.0165616 0.0840578 0.014205 0.0745912 0.113404 0.174369 0.0957904 0.099545 0.0584123 -0.139173 0.00210158 -0.0784646 -0.0345313 0.212098 0.0355338 0.136793 0.0877334 0.200594 0.043818 -0.0260076 -0.0376626 -0.0321633 -0.0149865 0.0584123 0.0455407 0.0311046 -0.00158767 -0.00241152 0.0549505 -0.0114303 -0.0939918 0.224766 -0.032484 -0.0154497 0.0771537 0.0296585 0.0627451 0.0510716 -0.0477019 -0.0083834 -0.109982 0.274972 -0.0288954 -0.148416 0.0615053 0.043944 0.048782 -0.0293827 -0.0592757 -0.18641 0.0709016 0.0026257 0.0433022 -0.166428 -0.0120419 0.0426919 -0.0464218 0.0223218 -0.0216105 -0.0112215 -0.0311645 0.0684123 -0.00158767 -0.0115877 0.0787696 0.0563956 -0.00845924 -0.0731623 -0.00143126 -0.0932212 0.0548587 -0.152934 0.0520138 -0.0193134 -0.0115877 -0.0235132 0.0307647 -0.0188742 0.0327796 -0.0249225 -0.114505 0.0384123 -0.0437332 -0.0143887 0.0708474 0.00554072 -0.0480742 -0.00609213 0.0282192 0.0610989 -0.0249272 -0.0273243 0.0444393 -0.0406005 -0.00709643 0.0484123 -0.0215877 -0.0296935 -0.0930015 
-0.241753 -0.0151753 0.178516 0.175424 0.175939 0.0045382 0.0744083 0.0198706 0.0358257 0.0363169 0.0648247 -0.0385262 0.094441 0.00665516 0.0542728 0.0736127 0.257522 0.186624 -0.0487927 0.0105494 0.0726396 -0.00663535 -0.011704 0.0398584 -0.0143962 -0.0251753 0.109058 0.0275292 -0.0251753 0.103092 0.0260375 0.027728 0.00308573 0.00450825 0.0594003 -0.042387 -0.120243 -0.135853 -0.114524 -0.112372 -0.174043 -0.112001 0.335011 0.0957294 0.0375292 -0.0346597 0.0728731 0.209154 -0.0910645 0.063209 0.0915032 -0.349571 -0.0440539 0.145851 0.106247 0.0501616 -0.00376433 -0.0995365 0.177243 0.0730963 0.0508322 0.0575824 -0.00232996 -0.00517526 0.0348247 -0.0151753 0.13206 0.0261793 -0.079126 0.106458 0.149687 -0.11238 -0.0373663 0.046208 -0.0650834 -0.0338946 0.0148247 0.0347662 0.144158 -0.0171649 0.00389257 -0.083238 -0.154309 0.0548247 -0.02292 0.107674 0.133998 0.069058 0.11278 -0.0166952 -0.0669314 -0.21505 -0.117471 -0.128734 -0.0540024 0.148011 0.0710111 0.0148247 -0.00517526 -0.0357083 0.0921037 
-0.232589 -0.00425892 0.0329777 0.0875596 0.0657293 0.0320741 0.0463073 0.132833 0.110964 0.126168 0.0457411 -0.173175 -0.0163943 -0.114554 -0.034285 0.262734 0.0560631 0.1504 0.11326 0.24034 0.0241554 -0.0310118 0.0207469 0.0152799 0.00841004 0.0657411 0.0117415 -0.00405635 -0.0242589 0.0444614 0.0501376 -0.0592014 -0.159076 0.269739 -0.0270959 -0.00416207 0.112488 -0.0406183 0.0573185 0.100222 -0.150582 -0.0564025 -0.101357 0.400303 0.00594365 -0.15852 0.0833384 0.0157587 0.10778 -0.0554156 -0.101851 -0.188773 0.0925806 0.024289 0.108505 -0.289427 0.0760744 0.115095 -0.0622259 0.0265012 0.0138459 -0.0387174 -0.0489656 0.0357411 0.0157411 0.0457411 0.0651283 0.0831091 0.000709339 -0.0414956 -0.00235437 -0.102746 -0.00114323 -0.158696 0.0649774 0.0282652 0.0557411 0.0149486 0.104982 0.0485695 0.0444488 -0.0226749 -0.120412 0.0457411 0.0204035 -0.115826 0.0641122 0.0217415 0.0192802 0.037754 -0.0202173 -0.0193765 -0.0431213 -0.0244701 0.0441405 -0.0033552 0.0012626 0.00574108 -0.0142589 -0.0901089 -0.10554 
-0.331556 0.0458444 0.228996 0.292069 0.163563 0.0527542 0.0683175 0.062814 0.000386679 -0.0723111 0.0458444 -0.106676 0.0348524 0.00634886 0.125941 0.0589065 0.426998 0.243482 -0.0945584 0.0331707 0.126916 -0.0291042 -0.0258575 -0.00850861 -0.00978631 0.0158444 0.119824 -0.0166679 0.00584443 0.0438053 0.0872237 0.0345557 0.0471738 -0.0944696 0.0744939 -0.12845 -0.120263 -0.300792 -0.179567 -0.179206 -0.194705 -0.193298 0.638444 0.00273705 -0.0466679 0.0527282 0.0125663 0.251535 -0.119966 0.00190847 0.137185 -0.451732 -0.00750833 0.208612 0.021764 0.0747561 0.0493269 -0.119433 0.345573 0.059608 0.199984 0.0520258 -0.073574 0.0358444 0.0158444 -0.00415557 0.105507 -0.0681394 -0.114777 0.186729 0.245869 -0.217092 -0.029404 0.158587 -0.0721005 0.00979646 0.0158444 -0.0305598 0.199532 -0.0385288 0.00640271 -0.167615 -0.196114 0.0458444 -0.00152378 0.244632 0.190663 0.0598239 0.197782 -0.0407448 -0.125755 -0.276589 -0.0937606 -0.105403 -0.086884 0.142573 0.0871531 0.0158444 -0.0241556 0.031852 0.166717 
-0.168097 0.00219035 0.00974357 0.0343435 0.0787076 0.0537313 -0.0116797 0.0297995 0.0468213 -0.0233408 0.0421903 -0.018141 -0.0121764 0.014344 0.0313538 0.0580415 0.0536052 -0.00315808 0.0448491 0.0281879 0.0600172 -0.041724 0.0189489 0.0233672 0.0202342 0.0421903 -0.00149787 0.0556341 0.0421903 0.00628081 0.049771 -0.0473678 0.00749874 -0.0253893 0.0375182 -0.0390783 -0.00637862 -0.00921654 -0.00728871 -0.02688 -0.0341864 0.016465 0.16837 0.0867037 0.0256341 0.0621847 0.05443 0.063166 -0.0639074 0.0439166 0.0979191 -0.207567 0.00238763 0.100653 0.0461186 0.0342238 -0.00544128 -0.0407091 0.122858 0.0416049 0.0604051 0.00632682 0.0152942 -0.00780965 0.0221903 0.0721903 0.00861104 0.0341748 -0.0103621 0.0360513 -0.00859594 -0.0884929 0.018658 0.0632966 0.0600368 0.0388463 0.00219035 0.0181915 0.00994319 -0.00543857 0.0225122 -0.0753508 -0.0500543 0.0321903 0.0343725 0.0730739 0.0128525 0.0485021 0.0862013 -0.0222822 0.0185264 -0.0493844 -0.0370175 -0.0493936 0.0202871 0.0275228 0.0152262 -0.00780965 0.0221903 -0.00725731 0.0591224 
-0.241722 0.00482779 0.0989551 0.155127 0.153557 0.123435 0.106674 0.129014 0.104894 0.00589632 -0.0251722 -0.0962096 0.0145401 -0.0386192 0.0983009 0.123941 0.290162 0.19886 0.0264028 0.0643541 0.0761425 -0.0568525 -0.0540528 -0.0361834 -0.00491047 0.00482779 0.114803 0.0190327 -0.0151722 0.0816164 0.0191988 -0.0164728 -0.0330804 0.10295 0.0842221 -0.0702878 -0.0747528 -0.116952 -0.0896682 -0.0107491 -0.202046 -0.11719 0.305801 0.132794 0.0490327 -0.0671827 0.0957421 0.186319 -0.0583783 0.0623966 0.0270285 -0.290519 -0.0302488 0.101454 0.0921944 -0.0374925 0.0789994 -0.0354878 0.194842 0.0186304 0.104861 0.0120506 0.0165964 0.00482779 -0.00517221 0.0548278 0.139047 -0.0186149 -0.0517129 0.141272 0.213361 -0.172825 0.00382184 0.0383634 -0.0498906 0.0381053 0.0448278 0.057174 0.133152 0.0385028 -0.0119882 -0.107067 -0.175971 0.0348278 -0.024946 0.0474731 0.125564 0.0948029 0.135125 0.0280814 0.00768244 -0.167714 -0.0662561 -0.119043 -0.0889036 0.105534 0.047736 0.0248278 -0.0151722 0.018185 0.0665133 
-0.0996443 0.0590356 -0.0325833 -0.0455352 0.0108182 0.0461653 -0.0207208 0.0844705 0.0307398 0.0132275 0.0590356 -0.0308174 -0.00333413 -0.0654813 -0.0785516 0.0824561 -0.11145 0.0205536 0.0575022 0.118481 -0.0555649 -0.0315732 0.0563933 -0.0279519 0.0510221 0.0190356 -0.0137529 0.01249 0.0790356 -0.0265592 0.0110792 -0.0338067 -0.148601 0.142914 0.000285564 -0.0187772 0.0324922 0.102973 0.0277434 0.118258 -0.034516 0.0620169 -0.168155 0.172072 -0.01751 -0.0432931 0.0373392 -0.082089 0.035704 0.00940462 -0.0390837 0.000951925 0.00612122 -0.0805568 0.0331189 -0.0748232 -0.00437468 0.0847368 -0.159761 0.0827879 -0.00643922 -0.0118552 0.00765651 0.00903557 0.0590356 0.0290356 0.0339246 0.0463445 0.0134234 -0.100699 -0.0129202 -0.0107028 0.0208028 -0.0539331 0.0810852 0.0726724 0.0390356 0.0706066 -0.00396353 0.00374191 0.0865373 0.0147892 0.0249982 0.0190356 0.0102936 -0.0329678 -0.0225262 -0.0237529 -0.0269757 0.0565037 0.0123355 0.0393538 0.0138807 -0.00133642 0.0194143 -0.0060247 0.00351195 -0.0109644 0.0490356 0.0227587 -0.113775 
-0.374297 0.0515703 0.297885 0.321395 0.325569 0.285493 0.309883 0.227003 0.0986647 -0.0239871 0.0415703 -0.212825 0.0903279 -0.0448155 0.236543 0.386682 0.693707 0.497928 -0.0426748 0.188109 0.214716 -0.0334628 -0.0616027 -0.0465275 -0.0408475 0.0215703 0.0938571 -0.036915 -0.00842973 0.111717 0.170258 0.107998 -0.075099 0.209277 0.118496 -0.162535 -0.0784655 -0.387807 -0.203789 -0.184138 -0.417299 -0.346665 0.693978 0.360817 0.013085 -0.122406 0.0981446 0.385031 -0.00285282 -0.0155692 0.0586136 -0.708485 -0.0273994 0.344629 0.123839 -0.17049 0.113717 -0.10365 0.340957 0.0657815 0.222585 0.0268346 -0.091157 -0.0284297 -0.0184297 0.0515703 0.420288 0.114452 -0.16935 0.261017 0.460048 -0.323707 -0.0309592 -0.0266886 -0.0642823 0.0375144 -0.0184297 0.0638751 0.234354 0.0435583 0.0438617 -0.19561 -0.287449 0.0215703 0.0116902 0.188506 0.293757 0.0938571 0.307418 0.0355604 -0.05291 -0.346369 -0.049633 -0.085578 -0.165772 0.152508 0.0775643 -0.0284297 0.0115703 -0.0614103 0.139716 
-0.0557064 0.0634294 -0.0582354 -0.148341 -0.0757672 -0.0786081 -0.07215 -0.00592638 -0.00108958 0.0435612 0.0734294 0.10916 -0.0249 0.0649351 -0.11348 -0.0940458 -0.285105 -0.188383 0.087171 -0.0865999 -0.0734746 0.0066402 0.0312938 0.0956381 0.0683188 0.0434294 -0.0345583 0.0274283 0.0334294 -0.0374927 -0.0393111 -0.102932 -0.0399288 -0.0702745 -0.0341121 0.0775072 -0.0237454 0.0775203 0.149827 0.0941079 0.171779 0.116453 -0.280585 -0.0564136 0.0874283 0.0204999 -0.0133828 -0.13027 -0.0378758 -0.0446042 0.00539842 0.126991 0.0500263 -0.0786794 0.0371765 0.0898243 -0.0253309 0.00172295 -0.0852621 -0.00709217 -0.049938 0.0224868 0.0453943 0.0734294 0.0134294 0.00342936 -0.202027 0.0392172 0.0488515 -0.205362 -0.170101 0.0515149 0.0325551 0.0564639 0.074962 0.044927 0.0734294 -0.0200814 -0.0718354 0.0274231 0.0453052 0.0560604 0.0611724 0.0534294 0.058103 -0.0323834 -0.141102 -0.0645583 -0.0945714 0.0475225 0.0375153 0.153118 -0.0164779 -0.0725809 0.0727874 -0.0786103 -0.106432 0.0134294 0.0434294 0.0196438 -0.0199472 
-0.271691 0.0418309 -0.037567 0.0292215 -0.00589103 0.190213 0.110891 0.245262 0.0781302 0.130265 0.0218309 -0.185266 -0.024437 -0.254277 -0.0446014 0.324924 -0.0729473 0.144345 0.212405 0.326775 -0.00467499 -0.0109189 0.00799928 0.00544982 0.0649407 -0.0281691 -0.00787095 -0.0410831 -0.0281691 -0.00854699 0.0383122 -0.0841999 -0.213573 0.419184 -0.0613723 -0.0957941 0.0935799 0.057244 0.0920116 0.183466 -0.101633 -0.0666013 -0.438444 0.563163 -0.0610831 -0.236909 -0.0339864 -0.0175286 0.109251 -0.108747 -0.153121 -0.116933 0.0479676 -0.0784721 0.153483 -0.412008 -0.0333338 0.123001 -0.237177 0.0603461 -0.131092 -0.167056 -0.0604167 0.0218309 0.0418309 0.0118309 0.109243 0.192992 -0.0250785 -0.142388 -0.0162067 -0.0678822 -0.048464 -0.265473 0.116906 0.0283449 0.0518309 0.0579644 0.0947619 -0.0356537 0.0648879 -0.0423275 -0.159658 -0.00816905 0.030488 -0.216807 -0.0612035 -0.00787095 -0.0934856 0.049643 0.083081 0.0898626 -0.0139477 -0.0516812 0.0385629 -0.0948976 -0.0402725 0.0218309 -0.0281691 -0.0708116 -0.263078 
-0.169049 -0.00790491 -0.0361406 -0.0235421 0.00521713 0.0428349 0.0642748 0.0864753 0.060838 0.0475078 0.0520951 -0.092247 -0.0652874 -0.155781 -0.0230425 0.215179 -0.073883 0.078446 0.168671 0.22327 0.015383 -0.0329456 0.0450611 -0.0321285 0.0524018 -0.0179049 0.00860874 0.031891 0.0720951 0.00632844 0.0628352 -0.0498761 -0.131449 0.19686 -0.0447433 -0.0242228 0.0237174 0.108687 0.107512 0.10609 -0.0693614 0.0397947 -0.263957 0.311369 0.041891 -0.152238 -0.0235786 -0.0805378 0.0554052 -0.0290075 -0.0649006 -0.102411 0.0207085 -0.012123 0.0859892 -0.232388 0.0139 0.101357 -0.158965 0.0306501 -0.0299407 -0.0550187 0.0046641 -0.0179049 0.0120951 0.0520951 -0.00922691 0.0530714 -0.0216945 -0.0835856 0.00286844 -0.0499575 0.03875 -0.162671 0.0367742 0.014336 -0.0179049 -0.00387069 0.0394721 -0.000797145 0.0724569 -0.041967 -0.0276358 0.00209509 0.0532217 -0.0749162 -0.0704959 -0.00139126 -0.0406009 0.0461321 0.071021 0.0336305 0.0279949 -0.0532223 0.11926 0.00224255 0.00939944 0.0520951 0.0120951 -0.0809088 -0.153538 
-0.322319 -0.0132319 0.210601 0.233562 0.251135 0.145891 0.178442 0.106355 0.112854 3.8561e-05 0.0567681 -0.0883944 0.0275057 -0.00599128 0.134102 0.168476 0.408444 0.358358 0.00257909 0.0848546 0.144368 -0.0551783 -0.0646651 -0.0117298 -0.0758322 -0.00323193 0.140086 -0.0440549 -0.0232319 0.119102 0.0554027 0.0185351 -0.0648198 0.0509725 0.0914776 -0.129962 -0.130316 -0.293027 -0.138667 -0.138848 -0.290266 -0.24226 0.549964 0.220251 0.00594514 -0.0750092 0.0301503 0.298764 -0.0227967 -0.00514838 0.0649085 -0.474975 -0.0199121 0.217885 0.0880421 -0.0264313 0.117692 -0.0275628 0.247698 0.0154539 0.14583 0.0643524 -0.104555 0.0267681 -0.00323193 0.0267681 0.1587 0.0730725 -0.109935 0.200672 0.23259 -0.162416 -0.0446164 -0.0049962 -0.00911715 0.0375247 0.0367681 0.0427607 0.214087 -0.0175589 0.014134 -0.129828 -0.228601 0.0167681 0.0300932 0.135662 0.222953 0.0600862 0.223113 0.00390674 -0.0600341 -0.202865 -0.0705112 -0.0728174 -0.096244 0.176621 0.058528 0.0567681 0.0467681 -0.0231419 0.178583 
-0.230467 0.0359533 0.098142 0.126251 0.153759 0.0909336 0.147245 0.115988 0.0526964 0.0518656 0.0559533 -0.0430901 0.0103548 -0.00250392 0.0931114 0.174664 0.24628 0.20963 -0.0077895 0.079574 0.0494034 0.0333668 0.0181825 -0.00527602 0.0108498 -0.0140467 0.0415697 -0.000754246 -0.0140467 0.0880261 0.0823048 -0.0103874 -0.00964331 0.056358 0.0437582 -0.0357585 -0.0102643 -0.163201 -0.00596634 -0.07656 -0.192432 -0.0704237 0.276525 0.182851 0.0492458 -0.035281 0.0357431 0.156474 -0.0203482 0.0482345 0.0206655 -0.322135 -0.0278676 0.0803226 0.0358225 -0.0868858 0.0670649 0.0253275 0.143252 0.0416099 0.0733812 0.0173983 0.0104472 -0.00404667 0.0459533 0.0259533 0.0872708 0.0673288 -0.0857129 0.0687411 0.168635 -0.0903691 -0.0465578 0.00749794 0.00848154 0.00867022 -0.00404667 -0.002828 0.135129 -0.0409358 -0.00667996 -0.127453 -0.164908 0.00595333 -0.0437078 0.0812563 0.164139 0.0815697 0.125985 -0.0551478 -0.0382465 -0.153735 -0.0205997 -0.101681 -0.0482324 0.0662977 0.0765396 0.00595333 0.0459533 0.0243814 0.0423713 
-0.173789 0.0316211 -0.0387334 -0.000424938 0.0356718 0.0436742 0.0222205 0.0925889 0.092264 0.104215 0.0116211 -0.0440135 -0.0505559 -0.0736908 -0.080435 0.207852 -0.0460764 0.04204 0.129324 0.211806 -0.0112075 -0.0131284 0.0162504 -0.021169 0.0408926 0.0616211 0.0476219 -0.0356049 0.0016211 0.057724 0.0229181 -0.0618768 -0.118356 0.216366 -0.00323421 0.0002181 0.0947347 0.0733991 0.069275 0.147566 -0.0589015 0.00851002 -0.231062 0.332945 -0.0256049 -0.0617799 -0.0175363 -0.0370381 0.108805 -0.0463562 -0.114177 -0.131449 0.0900641 -0.0802632 0.0880571 -0.249235 -0.0228884 0.102152 -0.118325 0.0393916 -0.0738943 -0.0517922 0.0390889 0.0616211 -0.0083789 0.0716211 -0.00845674 0.0456391 -0.0395826 -0.0539103 -0.0566794 -0.041865 0.0265997 -0.113603 0.124959 0.00468389 0.0716211 0.0366047 0.0695011 0.0522238 0.0846653 -0.0162695 -0.0450334 0.0316211 0.0352933 -0.0814262 0.00914302 -0.0123781 -0.0615903 0.0377375 0.0391611 0.0689793 0.00381483 -0.017015 0.0789435 -0.0666781 -0.0645852 -0.0183789 -0.0083789 -0.0286184 -0.109053 
0.00518168 0.0395182 -0.137949 -0.180574 -0.10136 0.0574381 -0.0351399 0.0283329 0.0104493 0.109523 -0.000481832 0.0720252 -0.0469903 -0.0376979 -0.126299 0.00217627 -0.291023 -0.202546 0.101698 0.0511067 -0.0928902 0.0559736 0.0564618 0.00531533 0.0274692 0.0195182 0.0154899 0.0432168 0.0495182 -0.0461134 -0.0393434 -0.0974343 -0.102152 0.0914802 -0.0699911 0.0475599 0.075025 0.226673 0.193194 0.136587 0.0851241 0.110542 -0.402325 0.121445 0.0832168 -0.0100743 0.00762129 -0.217966 0.00628572 -0.0707117 -0.0652413 0.162851 -0.00380861 -0.10505 0.0499389 -0.0628523 -0.0378064 0.112788 -0.257014 0.0201533 -0.0924155 -0.0816805 0.101447 0.0295182 0.00951817 0.00951817 -0.143379 0.11795 0.0582775 -0.198831 -0.256073 0.137082 0.0124129 -0.0503387 0.0752477 -0.00306247 0.00951817 0.00484357 -0.110036 -0.0214021 0.0794542 0.052618 0.0492816 0.0595182 0.0475141 -0.177207 -0.164854 -0.0345101 -0.130194 0.0611952 0.0649995 0.221094 0.0322764 0.0352839 0.102907 -0.0847585 -0.0968857 0.0295182 -0.000481832 0.0792566 -0.10045 
-0.171561 0.0418439 0.0135632 0.0576775 0.0422565 0.0433125 0.0564719 0.120017 0.00997817 0.0287588 0.0118439 -0.0608044 -0.0355164 -0.139688 -0.0698089 0.151918 -0.00684148 0.0550836 0.151491 0.197514 -0.0024851 0.0106455 0.0224105 0.00727648 -0.0158932 0.0618439 0.0718171 0.041488 0.0218439 0.0196627 0.058748 -0.0771416 -0.107725 0.157893 -0.0315587 -0.0342925 0.020505 -0.00839931 0.0857371 0.0427483 -0.116527 0.0112545 -0.234604 0.297631 0.011488 -0.0762941 0.034098 -0.0342115 0.0909594 -0.0430993 -0.0756142 -0.15145 0.0455939 -0.0276959 0.0639578 -0.230498 0.0445808 0.10768 -0.123702 0.0921908 -0.0105101 -0.0979173 0.0363892 0.0118439 0.0618439 -0.0181561 0.0564609 0.0858568 -0.0026415 -0.042478 -0.045329 -0.00466943 0.00835253 -0.101428 0.0761715 0.00354677 0.0718439 0.0565384 0.0275724 0.00523737 0.0631056 -0.015851 -0.0601342 0.0718439 0.0536402 -0.129626 -0.0532699 0.0718171 -0.0136444 -0.0222995 0.0732378 0.0467966 0.0155337 0.0140022 0.0343546 -0.0442055 -0.0510919 0.0718439 0.0118439 -0.00207899 -0.140837 
-0.364996 0.0225004 0.00700801 0.0339513 0.0325123 0.212456 0.208209 0.286667 0.134259 0.161205 0.0425004 -0.228295 -0.0166481 -0.2666 -0.0314872 0.381649 -0.0244379 0.133744 0.208854 0.295179 0.0826501 -6.07454e-05 -0.0301226 -0.0320474 -0.00841389 -0.00749959 0.0547654 -0.0218525 0.0225004 -0.014973 0.0959676 -0.0659658 -0.220792 0.461923 -0.0571372 -0.201434 0.0427866 0.0152656 0.0311971 0.0762568 -0.162465 -0.180611 -0.448925 0.620825 -0.0318525 -0.291124 0.00724107 -0.0202004 0.175699 -0.131057 -0.210604 -0.264028 0.0321514 -0.0378109 0.164178 -0.45361 0.0570447 0.0768002 -0.201815 0.0480144 -0.128453 -0.173047 -0.0703219 -0.00749959 0.0525004 -0.0174996 0.204767 0.157721 -0.123149 -0.159799 -0.0208979 -0.17691 -0.0309666 -0.286546 0.0315128 -0.0313859 -0.0274996 0.0309819 0.0646007 -0.0189108 0.119633 -0.108459 -0.235459 -0.00749959 -0.03621 -0.214022 0.0247772 0.0447654 -0.0240159 0.085886 0.0319595 -0.0198216 -0.0496187 -0.0394705 0.0325469 -0.0835755 -0.0123474 -0.0274996 0.0525004 -0.121849 -0.258084 
-0.218186 0.0471814 0.0619433 0.0938503 0.00618913 0.0648753 0.0609074 0.154653 0.0547136 0.0980422 0.0471814 -0.147842 0.0034685 -0.116721 -0.0460734 0.258738 0.0806573 0.161277 0.202913 0.249858 0.00652988 -0.0138739 0.0134315 -0.0217982 -0.0138544 -0.0128186 0.0101862 -0.0397764 0.00718143 0.016222 0.00924432 -0.0359039 -0.182853 0.253237 -0.000734711 -0.0323027 0.0482769 0.0352194 0.103344 0.0676063 -0.168568 -0.0352498 -0.139273 0.380279 0.0102236 -0.192405 0.0875742 0.0828037 0.135108 -0.0268774 -0.0709564 -0.138936 0.0317687 0.0376124 0.133943 -0.27972 0.0674196 0.0680546 -0.132734 0.0968694 -0.0235582 -0.123541 -0.0403666 0.0271814 0.0471814 -0.0128186 0.0631754 0.111444 -0.0304663 -0.0354928 0.081982 -0.0624578 -0.0111273 -0.210294 0.110638 -0.00358452 0.0671814 -0.0247646 0.0234774 -0.0222694 0.131434 -0.0897897 -0.0854285 -0.0228186 -0.0403866 -0.0506467 -0.0209745 0.0301862 -0.0247818 0.0240619 0.0591913 0.0421224 0.00380198 -0.0554703 0.0587434 -0.00449347 -0.0210824 0.0371814 0.0471814 -0.0938338 -0.138861 
-0.0672333 0.00227667 -0.109762 -0.0820248 -0.0992282 0.0579548 0.0602718 0.19218 0.0163763 0.0719104 0.0222767 -0.0998405 -0.0656023 -0.125706 -0.106451 0.270975 -0.239509 -0.0683076 0.210003 0.171289 0.0462816 0.0703606 0.0121802 -0.00328796 0.117187 0.0722767 0.0059978 0.0660806 0.0322767 -0.0189893 0.0434431 -0.075522 -0.198088 0.294064 -0.0775811 0.0137507 0.0824288 0.164135 0.164592 0.184373 0.067531 0.135891 -0.50786 0.397896 0.00608056 -0.127787 -0.00124022 -0.193311 0.141132 -0.0797917 -0.102021 0.0294427 0.0529911 -0.139064 0.0577112 -0.273829 -0.0122875 0.102726 -0.318172 -0.00534946 -0.145323 -0.141764 -0.000663002 0.0322767 0.00227667 0.0422767 -0.0297747 0.120923 0.0422804 -0.194109 -0.11752 0.0273425 0.0654423 -0.158824 0.0883129 -0.0146725 0.0722767 0.0132268 -0.0588301 0.0610935 0.0591744 -0.0377363 0.0261225 0.0522767 0.0390218 -0.179512 -0.106467 -0.0140022 -0.183947 0.0879558 0.120535 0.155596 0.0969296 0.0332306 0.191546 -0.0993013 -0.0624551 0.0122767 0.0622767 -0.0704181 -0.199021 
-0.128041 0.00619588 -0.0285509 -0.0229157 0.0345551 0.0269496 -0.0388922 -0.0173338 -0.00852326 0.0470801 0.0361959 0.0181565 0.0100554 0.0548926 -0.0184441 -0.0614068 -0.0702782 -0.0387731 -0.0251379 -0.0131896 -0.0492648 0.0316138 -0.0102606 0.0532061 -0.0211623 0.0461959 -0.0348369 0.00190963 0.00619588 0.052139 0.00739465 -0.0557455 -0.0374151 -0.0754165 -0.00511477 0.0743434 -0.0583762 0.0156726 -0.0153309 -0.00977649 0.0145764 -0.0322565 0.0637729 -0.0583618 0.0519096 0.0750863 -0.019046 0.055777 -0.0292417 0.0627636 0.0456682 -0.0862993 -0.0371391 0.000623718 0.0617055 0.0966176 -0.000494792 -0.066436 0.0179885 0.0466073 0.0862012 0.00820072 0.0729303 0.0561959 -0.00380412 -0.0138041 -0.0354256 0.0250983 0.0266747 -0.0605085 -0.0577516 -0.0343163 -0.0287791 0.0939888 -0.0201337 0.0338413 0.0561959 0.00791304 0.0279722 0.000120684 -0.019571 -0.0065388 -0.0185653 -0.0138041 0.051041 0.0173633 0.0166077 0.0251631 0.0657828 0.0342998 -0.0645469 -0.0442206 -0.0234007 -0.0214647 0.0370593 0.0486132 0.016117 0.0261959 0.0761959 0.057606 0.0788048 
-0.0653579 0.0224642 -0.117796 -0.131874 -0.07507 0.0360968 -0.0960717 -0.00299014 -0.0110513 0.0525944 -0.00753579 0.122053 -0.0305815 -0.00296756 -0.16009 -0.0308482 -0.231942 -0.140076 0.0593174 0.0151588 -0.108512 0.0408287 0.0603597 0.0540633 0.0558553 0.0524642 -0.0202014 -0.00960678 0.0524642 -0.00600979 -0.0115978 -0.0692521 0.00653876 0.0724825 -0.0567568 0.0694103 0.00586066 0.0888428 0.111526 0.150348 0.0769673 0.106476 -0.294497 -0.00762265 0.0703932 0.0314172 -0.0175961 -0.181035 -0.0193615 -0.0085487 -0.0269705 0.0722905 0.0316193 -0.0769727 0.0809648 0.038712 0.0169244 0.0752792 -0.153936 0.054211 -0.0820301 0.0431414 0.0278138 0.0824642 0.0824642 0.0524642 -0.160488 0.0350702 0.00242471 -0.209967 -0.223763 0.106532 0.0210214 -0.0213149 0.130438 -0.00859111 0.0424642 0.0595829 -0.058095 0.0327835 0.0446625 0.00942497 0.0397512 0.00246421 0.0318547 -0.0695837 -0.135366 -0.0102014 -0.0648779 -0.00871437 0.0512444 0.147693 -0.048429 -0.0209194 0.115513 -0.0817228 -0.0975455 0.0724642 0.0324642 0.0694138 -0.0200061 
-0.354541 -0.0264541 0.180116 0.278338 0.172735 0.0588145 0.126595 0.0606493 0.0815935 -0.0459745 0.0135459 -0.0923323 0.0797796 -0.00259093 0.0971317 0.037114 0.437136 0.291405 -0.125401 -0.0096338 0.0669071 -0.0424305 -0.0702067 -0.0335858 -0.0207761 0.0235459 0.0930396 0.0208489 -0.0164541 0.0756017 0.024659 0.0355793 -0.0339842 0.020994 0.0879682 -0.0634519 -0.140532 -0.233352 -0.16616 -0.153918 -0.274256 -0.221728 0.597408 0.0418551 0.0208489 0.0175731 0.00984495 0.309993 -0.0385398 0.0109014 0.116534 -0.490956 -0.0334565 0.234715 0.070033 0.0805241 0.0880155 -0.0942173 0.345946 0.0450552 0.130567 0.0790021 -0.0345044 0.0535459 -0.0364541 -0.0164541 0.158662 -0.0596395 -0.0461097 0.235032 0.256784 -0.208464 -0.0660428 0.135636 -0.0806347 -0.0322948 -0.0364541 -0.0211382 0.204604 0.00463866 -0.046014 -0.139267 -0.136827 0.0235459 0.00205786 0.150876 0.235757 0.10304 0.228831 -0.104053 -0.0427161 -0.261583 -0.111387 -0.123823 -0.147981 0.128906 0.0438915 -0.00645414 -0.00645414 -0.00677211 0.162888 
-0.203193 -0.0113193 0.095704 0.171522 0.109521 0.0866466 0.0285 0.0343359 0.0496696 0.0602741 -0.0113193 -0.106609 0.0828515 -0.0275011 0.0366573 0.18542 0.224723 0.204571 0.0334558 0.0915852 0.0383991 -0.0339693 0.0319333 -0.0335281 -0.0139475 0.00868073 0.0888801 0.0315004 -0.0213193 0.0332592 0.0208282 0.0518403 -0.0832761 0.0945345 0.0110926 0.00165135 0.00713401 -0.0941007 -0.0214203 0.0101891 -0.138141 -0.0795092 0.214369 0.193257 -0.0284996 -0.0800314 0.0996745 0.134119 0.0584096 -0.0108212 0.0879317 -0.272053 0.00971245 0.133908 0.0951747 -0.0553452 0.00531041 0.0462644 0.101306 0.0376219 0.11192 0.0139736 -0.00636632 0.0486807 0.0486807 -0.00131927 0.0658927 0.0377095 -0.0647795 0.0608055 0.122203 -0.110008 0.0247946 -0.0317013 0.00547355 -0.00866516 0.00868073 -0.0207407 0.0948508 0.0237907 -0.00597036 -0.0534161 -0.150069 0.0686807 -0.00238653 0.0169238 0.152803 0.0788801 0.0531963 0.0181366 -0.0578894 -0.133741 -0.0126733 -0.0448042 -0.0320782 0.0628175 0.0636366 0.0586807 0.0486807 -0.0461642 0.00267766 
-0.254173 0.0635827 0.0467876 0.0124542 -0.00721658 0.112184 0.106403 0.224457 0.0441124 0.0945837 0.0135827 -0.148559 0.00560583 -0.156612 -0.0284989 0.240609 0.00353818 0.127601 0.203952 0.269995 0.00613367 0.00993662 -0.0161104 -0.075741 -0.00227827 0.00358271 0.0528445 -0.0300345 -0.0264173 0.0310104 0.0428197 -0.0538004 -0.207801 0.347364 0.0178469 -0.0280401 0.144646 0.0894225 0.0903678 0.128984 -0.100212 -0.0107275 -0.252769 0.483656 0.0299655 -0.204737 0.0170887 0.000316718 0.181885 -0.0751474 -0.112927 -0.150047 0.0693859 -0.0687715 0.122307 -0.341631 0.0575244 0.131881 -0.123062 0.0840509 -0.0760739 -0.140533 -0.0155885 -0.0164173 0.0435827 0.0135827 0.0983502 0.0814139 0.0231108 -0.115193 -0.0159462 -0.0839905 -0.00668675 -0.162252 0.117266 0.0246829 0.0635827 0.00226916 0.0887964 -0.0128333 0.109477 -0.0464148 -0.0913423 0.0135827 -0.0144644 -0.143656 0.0260416 0.0128445 -0.0731829 0.0163775 0.0103726 0.0419555 0.0319994 -0.0155006 0.052879 -0.0621384 0.0132147 0.0335827 0.0335827 -0.121267 -0.196639 
-0.0963968 0.0593603 -0.0069576 -0.0264875 -0.0103966 0.0376345 0.019436 0.0294345 0.0263248 0.0347063 0.0293603 -0.0275224 0.016054 -0.0605403 -0.0671371 0.0527289 -0.173128 -0.0638179 0.0952741 0.0918645 -0.0393318 -0.0171963 0.0577204 0.0413925 0.045658 0.0793603 -0.03763 0.0376788 0.0293603 0.0319477 0.0211727 -0.0743713 -0.0596518 0.0822553 -0.0337784 0.00516489 0.0139568 0.116522 0.136274 0.144106 0.0442539 0.0695445 -0.260582 0.157479 0.00767877 -0.0295835 -0.0483068 -0.0945684 -0.0122183 -0.000296658 -0.0777199 0.0296932 0.0764258 -0.0688959 0.0803968 -0.142302 -0.0412886 0.0871467 -0.0992299 0.020619 -0.0410066 -0.0710215 0.0192487 -0.000639676 0.00936032 -0.000639676 -0.0455416 0.0143194 -0.0279105 -0.149786 -0.0944629 0.0540506 -0.00187927 -0.116896 0.0779138 0.0745798 -0.0106397 -0.000526354 0.00384456 -0.042399 0.0329498 -0.0276399 0.0574215 -0.0106397 0.0574704 -0.0656107 -0.0607387 0.03237 -0.0476039 0.0467693 0.0179556 0.0563283 0.0242379 0.0226685 0.0795016 -0.00188264 -0.0785139 0.0793603 0.0193603 0.034011 -0.0853697 
-0.460263 0.0129737 0.316968 0.330663 0.247515 0.0815062 0.134817 0.0135811 0.0838008 -0.0637261 0.0329737 -0.132095 0.11644 -0.017183 0.141279 0.168994 0.68164 0.436174 -0.172781 0.0462025 0.104965 -0.0623784 -0.0196726 -0.0172839 -0.082325 -0.0270263 0.121843 -0.0133503 -0.0270263 0.139149 0.0638557 0.0984313 0.0195891 0.00924562 0.114459 -0.135267 -0.154024 -0.449879 -0.184346 -0.267996 -0.418679 -0.378398 0.862177 0.142578 0.0266497 0.0113923 0.0582638 0.442053 -0.0949981 0.0820398 0.1725 -0.652795 -0.031424 0.305354 0.0462408 0.0842535 0.0737292 -0.117685 0.491758 0.0570271 0.268513 0.0787418 -0.112333 0.0329737 0.0429737 0.0229737 0.167272 -0.0298183 -0.158741 0.287938 0.379505 -0.273412 -0.0789666 0.118291 -0.0796876 -0.0451695 -0.0470263 -0.0277467 0.204071 0.0296252 -0.0239445 -0.191199 -0.29736 -0.0270263 -0.0784691 0.289189 0.349996 0.091843 0.321679 -0.115727 -0.12473 -0.439456 -0.107008 -0.107718 -0.177718 0.219936 0.10929 -0.0370263 -0.0270263 -0.0712983 0.262492 
-0.239375 -0.0149375 0.0815723 0.153303 0.104803 0.120046 0.0951799 0.129227 0.0622844 0.0607011 0.0150625 -0.112988 0.0300322 0.00501918 0.039203 0.0838571 0.206314 0.225771 0.00974756 0.103035 0.0893804 -0.0131459 -0.0144523 0.0319876 -0.0108973 -0.00493746 0.110053 -0.0169323 0.00506254 0.0708217 0.0987001 -0.0165998 -0.0798679 0.0596829 0.0197192 -0.00761391 -0.0128221 -0.178938 -0.0805113 -0.0524393 -0.168497 -0.0826949 0.314271 0.188579 -0.0169323 -0.0682981 0.0111728 0.193113 -0.0235907 -0.0165711 0.105401 -0.315063 -0.0136503 0.127729 0.0282571 0.0144968 0.0331923 -0.0357062 0.118091 0.0315611 0.158805 -0.0149041 -0.0186838 0.0450625 0.00506254 0.0250625 0.0973068 -0.00528995 -0.01396 0.105664 0.106641 -0.151966 -0.012121 0.0173573 -0.0137777 -0.000544497 0.0450625 0.0471948 0.0627583 -0.00865584 0.0771899 -0.0879577 -0.123392 0.0450625 -0.0225817 0.118793 0.145315 0.0200526 0.0699873 -0.0154347 -0.00572186 -0.0682541 -0.0227042 -0.0584978 0.0075066 0.0384154 0.0449358 0.0450625 0.0450625 -0.0601032 0.114736 
-0.245408 0.0644592 0.155002 0.184723 0.0997906 0.062506 0.0801077 0.122846 0.0693904 0.0758835 0.0344592 -0.0947045 0.0115108 -0.046644 0.0105327 0.203187 0.264458 0.261075 0.0542679 0.16116 0.1261 -0.0438207 -0.00478316 -0.0297345 0.00846721 0.0144592 0.0830045 0.00777338 -0.00554084 0.0917972 0.0433605 -0.0191797 -0.0505577 0.131799 0.0627713 -0.0555188 0.032705 -0.0958532 -0.0641423 0.010856 -0.199664 -0.089067 0.218902 0.255916 -0.0422266 -0.0628338 0.0422234 0.23835 0.0419954 -0.0198539 0.0822676 -0.365233 0.0459168 0.101635 0.0358892 -0.128993 0.0196623 0.0540895 0.117695 0.108037 0.104533 -0.0282428 -0.0233747 0.0144592 -0.0255408 -0.0155408 0.148029 0.0147828 -0.0500798 0.132182 0.144675 -0.157057 -0.0233468 -0.012299 0.0250365 -0.00287732 0.0644592 -0.0222352 0.161779 0.0262066 0.0164993 -0.10535 -0.182465 -0.0255408 -0.041223 0.0413137 0.116991 0.113005 0.0786539 0.000438939 -0.0320088 -0.120547 -0.062553 -0.0880599 -0.0602188 0.0955571 0.0368532 0.0544592 0.0244592 -0.0406214 0.0842111 
-0.24556 0.034444 0.0824097 0.178587 0.127898 0.156555 0.153366 0.16767 0.119113 0.0613597 0.044444 -0.165934 0.041498 -0.114584 0.0857409 0.27815 0.286891 0.256036 0.11471 0.205148 0.131712 -0.00450989 -0.0411622 -0.0575806 -0.0295994 0.034444 0.0383675 -0.00512193 0.064444 0.0656364 0.11278 0.0640697 -0.0907477 0.183144 0.015851 -0.0303642 0.044574 -0.153596 -0.0115911 -0.0298107 -0.217229 -0.126381 0.197972 0.369004 -0.0451219 -0.11493 0.0682403 0.219029 0.0516974 0.0193032 0.0608398 -0.332731 0.0389802 0.148818 0.13698 -0.205983 0.0951081 0.0304599 0.124488 0.0479317 0.0637834 -0.0876678 -0.0718132 0.064444 0.00444402 0.054444 0.207162 0.110193 -0.0233732 0.114854 0.152579 -0.133935 -0.0291979 -0.0818744 -0.0320639 -0.0281521 0.00444402 0.0469632 0.127453 -0.0383134 0.0569794 -0.0763204 -0.206974 0.054444 -0.0578306 0.00888999 0.149232 0.128367 0.0576324 -0.0398074 0.00347185 -0.164015 0.00969186 -0.0247527 -0.0148121 0.0949037 0.0833906 0.064444 0.014444 -0.116346 -0.0248844 
-0.161444 -0.0171444 -0.0228133 -0.0326036 -0.0344999 0.0801557 0.0588944 0.155685 0.0285376 0.0552988 0.0328556 -0.0984762 -0.000912923 -0.107153 -0.102252 0.270617 -0.0526817 0.0451457 0.189051 0.232046 -0.0373897 -0.0385178 -0.0499561 -0.010192 0.0670415 0.00285556 -0.0227718 -0.0225569 0.0128556 0.0409898 0.0624141 -0.0745221 -0.212408 0.305338 -0.0496013 -0.017968 0.141778 0.0546417 0.125144 0.0993081 -0.0826112 0.0514761 -0.382573 0.339534 0.0274431 -0.143446 -0.034244 -0.042436 0.13628 -0.0408406 -0.0994887 -0.0711835 0.0190862 -0.111715 0.0996498 -0.291683 0.0396283 0.104767 -0.181514 0.0657003 -0.0446492 -0.131325 0.0183873 0.0528556 0.0628556 0.0528556 0.0512634 0.0779874 -0.0301706 -0.142503 -0.0558988 -0.0737277 0.00647244 -0.246217 0.0535369 -0.0276808 0.0728556 0.046713 0.066544 0.0512892 0.120604 0.00208611 -0.104804 0.0528556 -0.00145942 -0.186057 -0.0584846 0.0472282 -0.0772682 -0.00523642 0.00967297 0.102396 0.0389295 0.0424121 0.123597 -0.0359401 -0.0242656 0.0628556 0.0428556 -0.0799191 -0.194697 
-0.0294304 0.056057 -0.0610978 -0.157088 -0.0814497 -0.0140257 -0.106233 0.0130096 -0.038929 0.0893273 -0.00394304 0.0502769 -0.0721582 -0.0503837 -0.130734 0.0533933 -0.248389 -0.087965 0.126338 0.0970366 -0.0350067 -0.0273437 0.0784851 0.00746039 0.0161923 0.00605696 -0.0652747 0.0501858 0.016057 -0.0341312 0.0394628 -0.0270627 -0.0425221 0.115226 -0.0650729 0.068889 0.0784854 0.152416 0.176792 0.174147 0.139069 0.104609 -0.417026 0.076135 0.0101858 -0.0379329 0.00265219 -0.19019 0.0747657 -0.0460224 -0.112016 0.11335 0.0590449 -0.16397 0.075348 -0.0937196 0.0311408 0.101037 -0.216959 0.00840457 -0.112689 -0.0519375 0.0625441 0.076057 0.016057 0.086057 -0.113511 0.0786022 0.0677081 -0.187466 -0.166175 0.116559 0.0528163 -0.0507824 0.159563 0.0141011 0.086057 0.0133481 -0.0766411 0.0328442 0.0218592 -0.0027402 0.0443604 0.00605696 0.0892402 -0.168574 -0.119663 -0.0652747 -0.11285 0.0916045 0.0359559 0.211058 0.012343 0.0259629 0.170709 -0.0148802 -0.0920323 0.036057 0.086057 0.0522424 -0.0782084 
0.0381505 -0.157964 -0.139017 -0.115471 0.0567624 -0.192876 -0.0924581 0.0436526 -0.0484285 -0.0429977 0.0612713 0.00143701 -0.0209279 -0.104903 -0.0155123 0.0132017 -0.0170958 -0.0688636 -0.1079 -0.0938076 -0.0471956 0.0487471 -0.037492 -0.114701 -0.0957889 -0.0927406 -0.00309797 0.0937141 -0.12772 -0.0345691 -0.0941405 -0.0440406 -0.0751446 0.0299289 -0.0947462 -0.00529804 -0.105643 0.045463 0.0108055 0.0106701 -0.0583575 0.00122181 -0.0369186 0.0485733 -0.0319833 -0.104558 -0.0991862 -0.062922 -0.0589646 0.0398612 -0.0899889 0.0405897 -0.201598 0.146378 -0.124792 -0.0288376 -0.112619 -0.0517281 -0.0079072 0.0933421 -0.0319675 -0.169198 -0.118916 0.0124223 0.0893726 0.0585082 -0.0998627 -0.0213991 -0.0813075 0.0203794 -0.159144 -0.0169167 -0.0764808 -0.0738262 -0.060045 0.0484972 
-0.17772 -0.0304422 -0.0487826 -0.0827078 -0.114046 -0.175939 -0.126576 -0.0506199 -0.0632027 -0.0835293 -0.0730538 -0.0578437 -0.052618 -0.132907 -0.0704722 -0.0483905 -0.111994 -0.0744044 -0.0731723 0.0243981 -0.0665916 -0.0897777 -0.00484479 -0.0459434 0.000274346 -0.079668 0.00527421 0.0923941 -0.107948 -0.0695673 -0.105375 -0.0347857 -0.0460887 -0.0391105 -0.0277096 -0.0622053 -0.0206324 -0.0210623 0.0473634 -0.00870195 -0.0878098 -0.0275365 -0.0293162 -0.00435141 -0.140932 -0.109289 -0.0577009 -0.135483 -0.0567462 -0.0529487 0.00506699 -0.0850264 -0.112921 0.0232427 -0.148842 -0.0594741 -0.0284462 -0.0749394 -0.0427934 -0.0400474 -0.0633613 -0.12618 -0.0411331 -0.129631 -0.0275477 -0.0467173 0.0217997 -0.0276053 -0.119311 -0.0300896 -0.0300701 0.000743087 -0.0324455 -0.060954 -0.0801808 -0.0914084 
-0.317159 0.143652 0.313352 0.0731259 -0.730416 -1.53071 -0.353017 -0.657619 -0.399574 -0.278214 -0.206934 -0.150317 0.456482 -0.561392 -0.395507 -0.758931 -0.833711 -1.0014 0.239366 0.806637 -0.29992 -0.00942277 0.335207 0.678236 0.307163 0.605441 0.12194 0.922507 0.339068 -0.522966 0.10276 0.760794 0.276398 -0.0523805 0.169261 -0.0992016 0.218844 -0.398797 0.790546 0.326995 -0.88222 0.0588525 0.585889 0.559766 -0.703246 -0.221434 0.405386 -0.264927 0.742205 0.22298 0.365548 -0.180611 0.644998 -0.191698 -0.641823 -0.328842 0.544982 0.255409 -0.333071 -0.482744 -0.276021 -0.660924 -0.284329 -0.688143 0.171252 -0.274026 0.688309 0.265294 -0.400093 -0.29675 0.992095 0.259925 0.242896 0.132561 -0.508421 -0.417064 
-0.241214 -0.057846 0.0939737 0.017144 -0.146749 -0.377942 -0.118939 -0.171379 -0.0982957 -0.0539288 -0.080626 -0.0157893 0.106799 -0.180342 -0.146191 -0.170674 -0.199757 -0.268202 0.000192736 0.206219 -0.0852388 -0.0409202 0.0367621 0.142724 0.00936405 0.146645 -0.00176202 0.218039 -0.0199671 -0.13381 0.0209962 0.159874 0.0135272 -0.0421422 -0.0154181 -0.0393691 0.0452619 -0.0991937 0.210252 0.0819822 -0.195696 -0.0548257 0.0908685 0.115301 -0.196403 -0.0542913 0.105785 -0.0502036 0.193211 0.0292262 0.0428371 -0.115916 0.104209 -0.00636446 -0.178102 -0.124834 0.128975 0.0117895 -0.0634587 -0.129179 -0.118646 -0.211536 -0.130288 -0.202059 0.0260022 -0.0572813 0.0990986 0.017802 -0.101482 -0.106335 0.222847 0.0263052 0.0168079 0.0028261 -0.143596 -0.1654 
0.253427 -0.154979 -0.204255 -0.0704968 0.122871 -0.159441 -0.0742886 0.170462 0.0586264 -0.0571429 0.199529 0.0318229 0.0191695 -0.0436461 -0.0340327 0.0363749 0.0703479 0.0528718 -0.108536 -0.19204 0.0321122 0.0242791 0.0254779 -0.275008 -0.0751449 -0.228509 0.0340583 0.0918584 -0.177617 0.0270794 -0.0497004 -0.172977 -0.0623525 0.0169779 -0.0403165 -0.0309052 -0.139973 0.123806 -0.0744564 -0.0180983 -0.0366671 -0.0405649 -0.0440079 0.11265 -0.0714891 -0.0494936 -0.0821922 -0.049408 -0.184347 0.0347724 -0.113385 0.117309 -0.370796 0.246041 -0.0753507 0.0344357 -0.211639 -0.138338 0.0499453 0.207835 0.0139637 -0.130923 -0.00508151 0.0365426 0.154066 0.173516 -0.194069 -0.078281 -0.032746 0.129842 -0.312677 -0.126235 -0.0687415 -0.186116 -0.00152703 0.209559 
-0.114347 -0.0427088 -0.0898072 -0.0768819 -0.081705 -0.158565 -0.106424 -0.0708917 -0.0964709 -0.101897 0.0404822 -0.0260592 -0.0530328 -0.12315 -0.0737584 -0.0415775 -0.0738625 -0.0845191 -0.0198915 -0.0360347 -0.000809823 0.00502859 0.0180324 -0.12157 -0.0979064 -0.0772174 -0.0597274 0.0923882 -0.0633174 -0.0893392 -0.058954 -0.00886239 -0.0645124 -0.0196628 -0.0880935 -0.0844342 -0.049751 0.0274335 0.0137497 -0.0511561 -0.0891134 -0.0754678 -0.0383768 0.0106684 -0.0550499 -0.0836424 -0.031411 -0.0601144 -0.0610015 -0.0468915 -0.0684236 -0.067147 -0.080203 -0.0101681 -0.0499399 -0.0344089 -0.0255472 -0.0856363 -0.0367534 -0.0218661 -0.0919405 -0.145466 -0.126969 -0.0889947 -0.00198123 0.0275158 -0.0624803 -0.0639131 -0.110679 0.0130841 -0.0440768 -0.0175335 -0.10221 -0.115709 -0.0446567 0.0352315 
-0.21091 -0.116139 0.00633399 -0.0564835 -0.0803384 -0.237584 -0.143546 -0.121737 -0.0421634 -0.131265 -0.0372827 -0.077894 -0.0285659 -0.143861 -0.131248 -0.127142 -0.0920988 -0.0959876 -0.0567938 0.0340976 -0.0573054 -0.0563134 -0.0222381 -0.00693457 -0.0167218 -0.00377086 -0.037028 0.0735288 -0.0482908 -0.0421671 -0.0415941 0.0129762 -0.0491295 -0.0878892 -0.00393659 -0.0995903 -0.0230638 -0.0575055 0.0628747 -0.0123094 -0.155331 -0.0398846 0.0207444 0.00784855 -0.0873572 -0.100889 0.0294091 -0.129248 0.050239 0.0214403 -0.0749156 -0.0856659 -0.0158771 0.00167295 -0.0996448 -0.0891452 -0.071739 -0.0265102 -0.100939 -0.019669 -0.118819 -0.112748 -0.120282 -0.0858822 0.018081 -0.0506266 -0.0306887 -0.0148947 -0.0946368 -0.0632557 -0.0242978 -0.0507945 -0.016331 -0.0858819 -0.0626302 -0.110369 
-0.0633991 -0.139991 -0.0726094 -0.088176 0.00597574 -0.196318 -0.103433 -0.0152796 -0.0678607 -0.025331 0.0181453 -0.044923 0.025491 -0.132323 -0.0652151 -0.0683085 -0.021474 -0.0325531 -0.0404079 -0.0262715 -0.0400102 -0.0110821 -0.0115046 -0.131043 -0.0471512 -0.029483 -0.0424861 0.028694 -0.101055 -0.0480019 -0.120258 -0.0573627 -0.0846947 -0.0714282 -0.0958766 -0.0576485 -0.131176 0.0374245 0.0154046 -0.0576352 -0.134858 -0.0806006 0.0146379 0.055285 -0.0812002 -0.0717661 0.00621552 -0.118218 -0.0289199 -0.0475374 -0.0238249 -0.0330682 -0.120699 0.0894368 -0.13183 -0.0763017 -0.0801542 -0.0593826 -0.0274788 0.0747214 -0.0348283 -0.0943938 -0.0947306 -0.02395 0.0558446 0.0746052 -0.0210851 -0.0635386 -0.0901291 0.0206053 -0.104371 -0.00990441 -0.0667022 -0.136294 -0.106778 0.0319604 
-0.220863 -0.0186762 0.0616881 -0.0259364 -0.151335 -0.290213 -0.125581 -0.0847362 -0.0648886 -0.136224 -0.0310047 -0.082212 0.0684769 -0.165268 -0.139463 -0.151347 -0.163621 -0.234162 0.0417362 0.156594 -0.0847799 -0.0058865 0.00737039 0.103774 -0.0309787 0.0931673 -0.00462295 0.161813 0.0271 -0.152783 -0.0271622 0.0986069 0.0394065 0.0168616 -0.00623975 -0.0101259 -0.0349755 -0.119843 0.0781937 -0.0217717 -0.200144 -0.0582355 0.0232783 0.0955918 -0.177908 -0.0261014 0.0744986 -0.0862334 0.0427178 0.0319868 0.0650084 -0.079309 0.0703345 -0.0507034 -0.168922 -0.100368 0.048495 0.0290006 -0.101456 -0.0519655 -0.122417 -0.156013 -0.130994 -0.177708 -0.0196436 -0.0451969 0.0284678 -0.0371714 -0.167224 -0.0336051 0.123867 0.0335109 0.000914805 0.00018403 -0.161634 -0.0895867 
0.0780631 -0.0946967 -0.152572 -0.111355 0.050298 -0.110842 -0.0549521 0.111489 -0.0511639 -0.0558943 0.0901495 0.00807684 0.000663285 -0.0656543 -0.0251324 -0.0275279 0.00350385 -0.0474817 -0.0343393 -0.0873867 0.0320091 0.0400502 0.0155774 -0.193976 -0.100398 -0.101551 -0.0445965 0.0336817 -0.14719 0.00641963 -0.0573425 -0.103453 -0.0542659 0.00558673 -0.089005 -0.0206605 -0.0839263 0.0987768 -0.0489916 0.00223776 -0.0821375 -0.00836784 -0.0317897 0.0208471 -0.0534672 -0.0631081 -0.00859766 -0.0414765 -0.0812156 0.0334308 -0.0705411 0.017694 -0.176028 0.0717138 -0.0825252 -0.00178101 -0.121325 -0.101978 -0.0413123 0.137576 0.00129002 -0.140561 -0.0702779 -0.0023188 0.0479717 0.0762066 -0.110598 -0.0159486 -0.0756527 0.008577 -0.158684 -0.0872163 -0.0927573 -0.157604 -0.0397982 0.12247 
-0.0675977 -0.0938314 -0.0762444 -0.122267 -0.0110479 -0.13956 -0.0532466 0.0148006 -0.0772956 -0.0369418 0.00402935 -0.0682832 0.0382545 -0.13089 -0.0455355 -0.00721606 -0.0488342 -0.038827 -0.065969 -0.0460161 -0.0806111 0.0156346 -0.029391 -0.0975809 -0.0142494 -0.0460552 -0.0259266 0.0873704 -0.105368 -0.0880074 -0.123998 -0.0153988 -0.0806817 -0.0639651 -0.0396709 0.0107922 -0.115067 -0.0133567 -0.023535 0.0171219 -0.13198 -0.0756266 -0.0837177 -0.00296548 -0.109431 -0.062088 -0.0611452 -0.0391806 -0.0462642 0.0270345 -0.0887139 -0.0353557 -0.126659 0.0864637 -0.109498 -0.0262482 -0.0952502 -0.0634292 -0.0280727 0.0345159 -0.0762691 -0.141475 -0.0371002 -0.0211568 0.020997 0.082302 -0.108642 -0.029655 -0.0788426 -0.00115536 -0.0741779 -0.0831177 -0.0905732 -0.0987484 -0.0470033 -0.00998325 
-0.244184 0.0435374 0.140202 0.0565308 -0.219853 -0.645868 -0.159385 -0.288835 -0.128162 -0.158855 -0.104677 -0.0861539 0.116311 -0.283416 -0.139949 -0.348135 -0.362412 -0.352259 0.0349896 0.33714 -0.0800666 -0.0672117 0.0999238 0.224912 0.143502 0.189924 0.0617986 0.340842 0.112124 -0.171349 0.0149833 0.224362 0.155277 -0.0592493 0.0064938 -0.0482138 0.0756364 -0.169332 0.288507 0.165206 -0.325233 -0.0487543 0.187782 0.239617 -0.287569 -0.0862793 0.198446 -0.0848437 0.316288 0.0400279 0.0774623 -0.0993504 0.255458 -0.0195387 -0.313163 -0.143431 0.15143 0.147164 -0.175882 -0.190017 -0.0913988 -0.235339 -0.168015 -0.32272 0.0880871 -0.0634044 0.278042 0.0255668 -0.190012 -0.0923819 0.365013 0.101341 0.085123 0.0655026 -0.169901 -0.1648 
0.29988 -0.205619 -0.236066 -0.112689 0.0977211 -0.194837 -0.0212695 0.220779 0.0348365 -0.03314 0.252462 -0.002101 0.0436808 -0.0762956 0.00407844 0.0683566 0.0835443 0.10257 -0.0308892 -0.207596 0.0407469 0.072577 0.0508425 -0.294981 -0.088259 -0.224447 -0.00250852 0.08001 -0.183153 0.0845664 -0.0794764 -0.14119 -0.096442 -0.00720841 -0.0579799 -0.00898687 -0.232992 0.130336 0.0027361 -0.0659523 -0.0758911 -0.0302419 -0.0370734 0.0735493 -0.00501683 -0.058326 -0.0576629 -0.108316 -0.178042 0.0105435 -0.159408 0.0865458 -0.377334 0.219113 -0.0276587 -0.00109871 -0.226515 -0.073619 0.0375748 0.227919 -0.0416666 -0.119374 -0.0442448 0.10953 0.0862167 0.242973 -0.145583 -0.0502888 -0.0419371 0.0712193 -0.326065 -0.0590429 -0.161444 -0.215395 -0.0272925 0.230837 
0.202645 -0.148187 -0.183392 -0.0558286 0.0475468 -0.164895 -0.0147968 0.0947032 -0.0201387 -0.000719881 0.127493 0.00201723 0.00918376 -0.105294 0.0483315 0.00855837 -0.00983171 -0.0156321 -0.0967185 -0.121013 0.000488931 0.0699579 0.0353362 -0.184394 -0.103406 -0.19855 -0.0282717 0.0962239 -0.113772 0.0635907 -0.0877983 -0.123784 -0.0798334 0.0455029 -0.0315417 -0.0361844 -0.195341 0.0795231 -0.0494983 -0.0193298 -0.0832045 -0.0309772 -0.0832676 0.105728 -0.0366747 -0.0169866 -0.0974098 -0.0268958 -0.13954 0.0443866 -0.0444221 0.0409579 -0.310523 0.232996 -0.113576 0.0167825 -0.188445 -0.112229 0.0529009 0.142081 -0.0512437 -0.0990675 -0.0947688 0.0877008 0.0485907 0.179845 -0.166827 -0.0883839 -0.0611188 0.108656 -0.226818 -0.0624498 -0.0812492 -0.182396 0.0380239 0.137052 
0.0078695 -0.0852496 -0.0732707 -0.057866 0.0694889 -0.136092 -0.0985278 0.0158379 -0.0178996 -0.0231145 0.0213766 0.0148733 -0.015421 -0.0241378 -0.0258371 -0.0336648 -0.00324256 0.0299018 -0.102152 -0.110084 0.0219026 0.0179807 -0.0541441 -0.0789611 -0.0630469 -0.0724436 0.021359 0.024942 -0.13775 -0.00366666 -0.0961601 -0.100162 -0.0209604 0.0340249 -0.0395363 0.0261818 -0.100221 -0.00167062 -0.0237975 -0.0383877 -0.0368358 -0.0142998 -0.0105211 0.0561607 -0.0739821 -0.00133483 -0.0949892 -0.0225192 -0.104021 0.00947179 -0.101054 -0.0141672 -0.22977 0.0867658 -0.0692671 -0.0271362 -0.148914 -0.102084 0.0204467 0.103234 0.00817655 -0.068467 -0.0675933 0.05523 0.0123114 0.0533659 -0.0845568 -0.0978732 -0.0424055 0.0333545 -0.171496 -0.0293158 -0.109364 -0.0668195 -0.0474745 0.0243568 
-0.207668 -0.0842313 -0.0741904 -0.0479998 -0.0766939 -0.195079 -0.129667 -0.0394217 -0.0495732 -0.0881404 -0.0186419 -0.0243674 0.019725 -0.0867904 -0.1171 -0.0804861 -0.0745344 -0.148432 -0.067605 0.0509301 -0.0925332 -0.0762072 -0.00552875 0.00423179 -0.00562833 -0.0441683 0.00418122 0.0143476 -0.0370409 -0.108383 -0.100741 -0.0289348 -0.0405443 -0.0601978 -0.0546994 -0.0450006 -0.0101657 -0.0138044 0.0167535 -0.0650624 -0.167181 -0.0380163 -0.0137797 0.0549753 -0.0777143 -0.0786467 0.000301757 -0.116776 -0.0334321 -0.0626031 0.0145634 -0.0128658 -0.0254852 -0.0224143 -0.111318 -0.0856987 -0.0219022 -0.03699 -0.0488155 -0.0479742 -0.116876 -0.0640925 -0.13339 -0.121911 -0.00419516 -0.0624137 0.0167876 -0.0940133 -0.0904134 -0.0810034 -0.0167893 -0.0814886 -0.0554329 -0.111643 -0.127557 -0.0992637 
-0.595031 0.206154 0.344387 0.154016 -0.494486 -0.506825 -0.146082 -0.542074 -0.172493 -0.120882 -0.294722 -0.131544 0.211926 -0.239164 -0.266702 -0.481805 -0.497878 -0.536555 0.154861 0.602882 -0.206662 -0.0602644 0.110259 0.568235 0.233189 0.481405 -0.021793 0.319513 0.247775 -0.28121 0.0430176 0.49827 0.245649 -0.00366192 0.0973031 -0.0618849 0.282585 -0.325374 0.419332 0.137437 -0.411038 -0.0282511 0.31244 0.154026 -0.37664 -0.1099 0.290538 -0.0306789 0.520983 0.0739021 0.235354 -0.18322 0.662844 -0.343565 -0.233142 -0.205924 0.428689 0.198024 -0.193795 -0.456089 -0.0989872 -0.169323 -0.0969918 -0.372582 -0.0394926 -0.372542 0.51535 0.0924554 -0.199722 -0.210542 0.725412 0.190467 0.200568 0.22054 -0.261665 -0.424646 
0.0642301 -0.161186 -0.0809983 -0.0432575 0.0883321 -0.132891 -0.0810817 0.0333073 0.0140777 -0.00378147 0.0839975 -0.0225184 -0.0421068 -0.0838383 0.007293 0.0016793 -0.037227 -0.0272915 -0.0579564 -0.0681449 0.0348154 -0.0251713 0.000829658 -0.155674 -0.109272 -0.132989 -0.0587531 0.0564017 -0.0690096 -0.0210215 -0.0909315 -0.111771 -0.10792 0.0174384 -0.000647296 0.0121868 -0.0798482 0.0511036 0.0235339 0.00158651 -0.0228603 -0.0274789 -0.0738211 0.00801861 -0.0759611 -0.0452909 -0.0545895 -0.106231 -0.0402464 -0.0260608 -0.0421521 0.000359561 -0.234211 0.121532 -0.120652 -0.0276342 -0.129778 -0.0225644 -0.0459093 0.071589 -0.0325995 -0.10712 -0.0832653 0.0534963 0.0847636 0.0927939 -0.0994733 -0.0337413 -0.0590363 0.0616771 -0.208566 -0.105792 -0.0661416 -0.163212 -0.0693544 0.074496 
-0.0623202 -0.128306 -0.100961 -0.0954801 0.0130594 -0.109772 -0.0915888 0.049012 -0.0669476 -0.0756142 0.0732736 -0.0298705 0.0129583 -0.10743 -0.0532612 0.00976148 -0.0921351 -0.0319261 -0.0786786 -0.0760249 -0.049445 0.0222968 -0.0553675 -0.124282 -0.0887088 -0.124742 0.0203447 0.0651413 -0.0703509 -0.075253 -0.0655912 -0.0427745 -0.0763233 -0.0474278 -0.0733528 -0.0593128 -0.0493901 0.00862726 -0.033049 -0.0282367 -0.0368636 -0.00611986 -0.0124021 0.0497866 -0.0430248 -0.0318783 -0.0251237 -0.0414836 -0.0572679 0.0338826 -0.0732501 0.0253919 -0.173472 0.0544727 -0.0632231 -0.045692 -0.0527188 -0.0684102 -0.0880893 0.0661781 -0.0655589 -0.115881 -0.0257496 0.00333267 -0.0148434 0.071179 -0.107482 -0.0934443 -0.0867062 -0.00138143 -0.0769531 -0.0592424 -0.125795 -0.101155 -0.0243683 0.0607039 
-0.0815149 -0.0879996 -0.0359587 -0.0395452 -0.0468643 -0.165075 -0.082767 0.0116082 -0.0400012 -0.0793861 -0.0107483 -0.0733289 -0.055266 -0.11994 -0.0384212 -0.102944 -0.0940323 -0.0532083 -0.0439794 -0.00973906 -0.0137799 0.0195163 -0.0745635 -0.114 -0.0334063 -0.116721 0.0131001 0.0591206 -0.127408 -0.0528621 -0.0308815 -0.077958 -0.0690654 -0.0458403 -0.0378962 -0.000341563 -0.0463299 -0.0525676 0.0164625 -0.063318 -0.113109 -0.0185949 -0.0345272 0.0106107 -0.129113 -0.0600421 0.000667994 -0.0573427 -0.0801802 -0.0067118 -0.0937824 -0.0613116 -0.0863195 0.0312302 -0.126556 -0.0982338 -0.0331352 -0.0989216 -0.0402514 0.0111967 -0.0579255 -0.104411 -0.066982 -0.0166119 -0.00702591 0.00825606 -0.0514522 -0.0590109 -0.0853275 0.000997539 -0.120974 -0.0781235 -0.0349848 -0.0993813 -0.0604071 0.00672106 
-0.0944031 -0.137893 -0.0348922 -0.0497361 -0.0737021 -0.1795 -0.045843 -0.0548776 -0.0736959 -0.102313 0.0444449 -0.0868536 0.00395285 -0.0734957 -0.0421477 -0.0284976 -0.0697118 -0.0696413 -0.0140775 -0.0767358 -0.0583334 0.0166808 -0.0652213 -0.061441 -0.0138423 -0.0649676 -0.0696444 0.0792492 -0.0773745 -0.0572457 -0.0515361 -0.086175 -0.0689668 -0.0181831 -0.0292272 -0.0641717 -0.0658876 -0.0383023 -0.0120035 -0.0637613 -0.13793 -0.0195997 -0.0535975 0.0291082 -0.0638385 -0.0925151 -0.00874054 -0.0596399 -0.00807387 -0.00776441 -0.0331766 0.00449535 -0.0820178 0.00605281 -0.120414 -0.0422658 -0.101779 -0.0991398 -0.0541846 0.0146807 -0.101125 -0.127365 -0.099702 -0.0726778 -7.3616e-05 0.0428702 -0.0994896 -0.0991111 -0.0687233 -0.0438478 -0.0465952 -0.0587195 -0.105305 -0.0799834 -0.0842026 0.0306053 
-0.0841055 -0.0822093 -0.0505334 -0.110751 -0.00874588 -0.122157 -0.0512149 0.0209798 -0.0667129 -0.0770656 0.0170414 -0.072192 0.00515518 -0.117906 -0.0852269 -0.0767315 -0.0980577 -0.0270021 -0.0351847 -0.0861795 -0.0807041 -0.0677205 -0.004141 -0.122341 -0.0267938 -0.0438797 -0.0467293 0.0199035 -0.0821159 -0.0682323 -0.0418789 -0.0133417 -0.021386 -0.0534793 -0.0688151 -0.0188276 -0.0919319 0.0136977 -0.0555041 -0.0235569 -0.0898886 -0.00755555 -0.00671346 -0.0291248 -0.0469408 -0.0486543 -0.0718769 -0.107723 -0.0455919 -0.0036886 -0.0463934 0.0231852 -0.167441 0.0905178 -0.0541451 -0.0454759 -0.0600465 -0.0811329 -0.0076883 0.070086 -0.064704 -0.123908 -0.0974903 0.0102593 0.0255917 0.0766772 -0.0768497 -0.101042 -0.0836267 0.0258665 -0.111981 -0.0306968 -0.0392504 -0.134526 -0.0767904 -0.025895 
-0.126216 -0.0492169 -0.0341944 -0.103747 -0.00406473 -0.169412 -0.130451 -0.0115603 -0.112342 -0.0847641 0.00467135 -0.0375963 -0.0393963 -0.128694 -0.118602 -0.080023 -0.0737006 -0.125911 -0.0356179 0.0259562 -0.0860099 -0.0176136 -0.027303 -0.0311427 -0.0819364 -0.0583311 -0.0205538 0.0986767 -0.117958 -0.0459813 -0.0465742 0.0107177 0.000442891 -0.061591 -0.0165216 0.00225734 -0.104674 -0.0504119 0.00177789 -0.0180871 -0.0772696 -0.0834351 -0.0713691 -0.0059841 -0.131374 -0.0665134 0.015269 -0.0921235 -0.0624207 0.0243514 -0.0236326 0.00811093 -0.136788 0.0322374 -0.136328 -0.109975 -0.108458 -0.0523457 -0.0615405 -0.0126245 -0.10543 -0.160509 -0.127643 -0.109809 -0.0136248 0.0294169 -0.0134608 -0.0291067 -0.105942 0.0168511 -0.00874332 -0.0852703 -0.0281836 -0.132518 -0.0698768 -0.00303689 
-0.0294387 -0.110829 -0.128443 -0.0582562 0.0120048 -0.172008 -0.0645904 0.00313759 -0.0881936 -0.016539 0.0709526 -0.00625906 0.025912 -0.122355 -0.0737483 -0.0409358 -0.0429068 -0.0842007 -0.0601886 -0.058975 0.0215689 -0.0538478 -0.0207755 -0.151048 -0.0166801 -0.058096 0.00220523 0.0924043 -0.132964 -0.0360488 -0.0375557 -0.0655085 -0.0666149 0.0217389 -0.0641348 -0.00936967 -0.143483 0.0621853 0.0368671 -0.0588398 -0.0910732 0.00428188 -0.0203289 -0.0133237 -0.125222 -0.0154236 -0.0660957 -0.102321 -0.0497818 -0.0362612 -0.0768896 0.0276683 -0.205089 0.0503331 -0.130902 -0.0465437 -0.0783041 -0.0417632 0.00204872 0.0808746 -0.0571307 -0.156458 -0.0452667 -0.0182238 0.0112243 0.0265764 -0.0801055 -0.0124989 -0.0613701 0.0421815 -0.141203 -0.091487 -0.0868266 -0.0656299 -0.0753349 0.00774318 
-0.630367 0.136883 0.3064 0.115698 -0.477834 -0.686518 -0.22531 -0.568559 -0.259391 -0.131944 -0.331589 -0.0958896 0.209482 -0.200406 -0.225539 -0.489748 -0.552597 -0.529786 0.145008 0.638331 -0.258976 -0.112726 0.118441 0.577574 0.235077 0.516869 0.0194013 0.390937 0.286625 -0.282145 0.0729764 0.546683 0.250785 0.00279338 0.120659 -0.0347213 0.327736 -0.358952 0.485812 0.216177 -0.421099 0.0116008 0.313756 0.217332 -0.358161 -0.0873847 0.285037 -0.0503362 0.469277 0.0583898 0.232189 -0.255395 0.645736 -0.328376 -0.269776 -0.193232 0.460411 0.189882 -0.187784 -0.442322 -0.207401 -0.136796 -0.0811385 -0.438289 -0.0592416 -0.313587 0.551547 0.151618 -0.151941 -0.317765 0.80289 0.231023 0.205461 0.145695 -0.293885 -0.42003 
-0.254641 -0.0226068 0.0291898 -0.0317043 -0.10537 -0.255007 -0.158887 -0.167263 -0.10189 -0.101509 -0.10923 -0.0398782 0.0722191 -0.0998093 -0.126246 -0.175258 -0.187566 -0.170759 0.0474023 0.135383 -0.0799701 -0.073474 -0.0153484 0.0580097 0.0132453 0.0707484 -0.0551669 0.124228 0.0302211 -0.0728419 -0.0418192 0.117996 0.054813 -0.0653912 -0.0227544 -0.0917323 -0.0425447 -0.122657 0.149301 0.0732137 -0.192196 -0.0495156 0.0183885 0.0860136 -0.134796 -0.0348053 0.00457285 -0.128393 0.107861 0.0318824 0.0664747 -0.0976555 0.111909 -0.0189275 -0.160799 -0.127389 0.0882535 0.0386567 -0.0985622 -0.0918547 -0.0568786 -0.163171 -0.0832573 -0.181066 -0.0171465 -0.0234881 0.11594 -0.013753 -0.088267 -0.105976 0.140008 0.0534874 -0.0205246 -0.0676408 -0.170535 -0.0706229 
0.0642678 -0.119608 -0.0822211 -0.0615328 0.0216121 -0.151958 -0.0190483 0.0406107 -0.0626799 0.00988812 0.0818826 -0.0285576 0.0324154 -0.0207393 0.000311291 0.0259866 -0.023217 0.0356752 -0.0253935 -0.0963189 0.0175986 -0.00974265 -0.00436569 -0.147541 -0.07704 -0.153223 0.0333977 0.0228554 -0.120776 0.00345061 -0.029706 -0.132003 -0.055389 0.00013943 -0.0798549 0.00479274 -0.169688 0.0458024 0.00717579 -0.0659895 -0.0899471 0.00839146 -0.0398986 0.0325708 -0.0947865 -0.083575 -0.0211986 -0.0551055 -0.0689391 0.038561 -0.0909329 0.015139 -0.26913 0.14914 -0.108975 -0.00483514 -0.122002 -0.0716195 -0.0538001 0.058642 0.0205517 -0.136756 -0.0508309 0.0368701 0.0697576 0.140715 -0.0688584 -0.110784 -0.098476 0.0267421 -0.199954 -0.0658586 -0.136759 -0.0948497 0.00520765 0.130695 
-0.200655 -0.106514 -0.0396484 -0.0875355 -0.0816296 -0.208105 -0.0801668 -0.0695055 -0.117176 -0.126481 0.00326638 -0.0232123 0.0131739 -0.07838 -0.0757308 -0.0983171 -0.163052 -0.106857 -0.0275071 -0.0216583 -0.0823141 -0.0407204 1.15482e-05 -0.00451553 -0.0773207 -0.00948976 -0.0547774 0.0548582 -0.102511 -0.0650949 -0.0518128 -0.012657 -0.0101081 -0.0254607 -0.0444487 -0.0458339 -0.0659987 -0.0391265 0.0199028 -0.0528228 -0.167942 -0.0761306 1.05217e-05 -0.0300522 -0.0919119 -0.0892659 -0.00131802 -0.126664 0.0354733 -0.0665015 -0.0374409 -0.0887022 -0.0279556 -0.0188091 -0.135322 -0.104082 -0.0780325 -0.0184272 -0.0864438 -0.0583914 -0.0842113 -0.160418 -0.0568263 -0.0679674 0.0227876 0.00949948 0.0341606 -0.0242247 -0.0917172 -0.0353926 -0.0239222 -0.0535054 -0.0590595 -0.0492083 -0.125746 -0.0397498 
0.0137542 -0.138959 -0.13787 -0.0584113 0.0380684 -0.183036 -0.0894945 0.0348943 -0.0698845 -0.0300635 0.0531192 -0.0474051 -0.028926 -0.12092 0.00565731 0.0230068 -0.0587724 -0.0710108 -0.030615 -0.0809485 0.0016782 -0.0146889 -0.0142613 -0.0882156 -0.0567095 -0.100986 0.00704514 0.0705184 -0.0477502 -0.0258432 -0.0969328 -0.0328272 -0.0683923 0.00844221 -0.0809342 -0.014583 -0.154044 0.0400508 0.00562607 0.0142402 -0.0955531 -0.0528688 -0.0415664 0.0871456 -0.0270753 -0.0124383 -0.0295236 -0.110437 -0.0907949 -0.0192801 -0.101654 -0.00164635 -0.228806 0.104084 -0.0890437 -0.0295127 -0.111628 -0.0755765 -0.0588637 0.0824437 -0.0411364 -0.140428 -0.071972 -0.00274958 0.0837588 0.107347 -0.089867 -0.0430009 -0.098934 0.0254069 -0.111603 -0.103386 -0.059031 -0.132791 -0.0486935 0.0500421 
