-0.759057 -0.0475249 -0.0818369 -0.0808095 -0.0834956 0.0431398 -0.646399 -0.156076 0.125273 -0.206183 0.178275 0.373852 -0.162374 -0.0583151 0.0185871 0.504037 0.0479725 0.422361 0.0681125 -0.338199 0.0126139 0.0170279 0.104353 -0.0597798 0.109833 -0.773621 -0.18457 0.261424 0.334214 -0.194621 -0.221513 -0.0350897 -0.0541 0.0755977 0.354376 -0.220793 -0.576893 -0.169991 0.0157657 -0.022451 -0.22186 -0.198617 0.331164 -0.0305525 -0.104998 -0.0262209 -0.248006 0.0793815 -0.477391 -0.162911 0.0511064 -0.355345 -0.0692633 0.0359635 0.240401 0.321494 0.0537737 0.0389168 0.225098 0.0317371 0.109244 0.471459 0.00672278 0.0537933 -0.118175 -0.0409583 0.130789 0.256996 0.0719805 -0.2122 0.156335 0.0773227 0.302417 -0.230889 -0.0302444 -0.0969657 0.05386 0.211595 0.0676455 0.133461 -0.0696606 -0.159992 0.159329 -0.0914029 0.12874 -0.22702 -0.213467 0.254843 -0.103557 0.222453 -0.158679 -0.459036 -0.305053 -0.37058 0.272678 0.584981 -0.128932 0.0476169 -0.13893 0.113821 -0.35243 
-0.664618 0.0209709 0.128306 -0.0794121 -0.00578524 -0.230468 0.428192 0.216245 0.154223 -0.10822 -0.0247905 -0.152502 -0.175626 0.0308995 -0.347742 -0.358433 -0.20474 -0.16026 -0.170357 -0.103246 -0.190884 -0.059098 -0.0356775 0.163096 -0.0205307 -0.326937 0.226468 0.0241363 0.00727784 0.128023 -0.14908 0.121791 0.569668 0.192026 -0.658829 -0.367574 0.193282 -0.062415 0.0575933 0.308641 0.426138 -0.102687 0.509013 -0.010355 -0.138426 -0.386098 -0.374609 -0.191249 0.178894 0.0496943 0.179944 0.172948 -0.113696 0.305388 0.244163 -0.0261156 0.080376 -0.230976 0.252782 0.390679 0.118723 0.137068 -0.0097605 -0.102911 -0.279523 -0.166876 -0.265188 0.244415 0.18035 -0.081174 -0.0170849 0.174462 -0.125538 -0.435865 -0.440516 -0.419937 -0.0750143 -0.189655 -0.125923 -0.129259 -0.172087 -0.258935 -0.0551379 0.441916 0.160789 -0.0791306 -0.415492 0.184588 -0.151006 -0.507385 0.0798521 -0.186568 -0.241098 -0.175345 -0.0856735 0.297465 -0.623339 -0.0331423 -0.00617164 -0.137516 -0.496463 
-0.802927 -0.0335269 -0.139661 -0.510482 -0.446004 -0.572176 -0.284486 0.237028 -0.163244 -0.108856 -0.10085 0.3845 -0.406262 -0.140673 -0.234671 -0.14608 -0.104373 -0.0919365 -0.0177242 -0.322244 -0.0245348 0.105532 -0.0383761 -0.0610752 0.229412 -0.504745 -0.166885 0.239342 -0.37109 -0.331403 -0.133217 -0.0809874 0.0595924 -0.0597948 0.0995791 -0.111537 -0.149668 -0.0590159 -0.00427985 -0.48506 -0.426257 0.0210988 0.0118293 -0.110991 0.0380146 -0.0226993 -0.126586 0.219751 0.103528 0.00786585 -0.0719487 -0.140181 -0.14827 -0.12783 -0.013162 0.00823313 -0.0685009 0.127404 -0.0289012 -0.0330315 -0.0759656 0.164537 0.301436 0.0308477 -0.140775 -0.00618763 0.215881 0.137658 0.286844 -0.021818 -0.119025 0.159259 0.0911044 0.490998 -0.0302395 0.0493096 0.299824 -0.048836 0.0598304 -0.102574 -0.134747 -0.241165 -0.00298487 0.252134 0.305337 0.103127 0.0430304 0.289767 -0.0707946 0.0209988 -0.0605041 -0.0692624 -0.145221 -0.026599 0.261903 0.618593 -0.0328757 -0.0347427 -0.346894 -0.0700655 -0.261939 
-1.0112 -0.103449 -0.145013 -0.0348215 -0.00228338 0.0563228 -0.069559 -0.237254 0.488991 -0.0794585 0.0720243 0.0586311 0.00775937 -0.0142354 0.17693 0.485503 -0.0182783 0.557399 0.197838 0.0155004 0.0937316 0.235943 -0.240398 -0.226482 0.0649844 -0.0973131 -0.0556512 0.106119 0.651498 -0.00402763 -0.0486714 0.0650236 0.20279 0.1584 0.064315 0.212729 -0.0636167 0.131226 -0.20846 -0.0871689 -0.146845 -0.169579 -0.0173277 0.49798 -0.0699329 -0.230914 -0.272737 0.234911 -0.0813114 -0.172209 -0.0834231 -0.609636 0.090974 -0.276695 0.298536 -0.000563787 0.150605 -0.119051 -0.122716 -0.0137904 0.174152 0.0231967 0.210631 -0.0157659 -0.437653 0.158948 0.00588784 -0.137586 0.125508 0.0917759 0.163078 0.280804 0.063046 0.142346 0.315204 0.0222703 -0.0308753 0.374552 -0.13511 0.0483302 -0.0495023 -0.165101 -0.0250782 -0.138479 0.0131697 0.205962 -0.067354 0.147062 -0.294101 0.200447 0.134415 -0.158534 -0.110364 -0.124089 0.0406149 0.240352 0.14478 -0.13292 -0.25753 0.357352 0.35401 
-0.671765 0.00340813 0.265469 0.131201 0.0504061 -0.178188 -0.143686 0.136328 0.19373 -0.0413287 0.0442371 0.000864105 0.245748 0.0435743 -0.111623 -0.0180377 0.275317 0.0447503 -0.0579325 0.00506547 -0.127557 -0.135649 0.162132 0.0850219 -0.136382 -0.48113 -0.125028 0.0514312 -0.106063 -0.0393136 -0.110062 -0.138707 0.0363856 -0.5597 -0.273054 -0.061795 -0.0891264 -0.337696 -0.13587 0.0439885 0.313202 0.226965 -0.2707 -0.23958 0.0481993 -0.0769997 -0.289028 -0.015071 -0.0811687 -0.00519457 -0.115482 -0.159555 -0.0239082 -0.153872 -0.139432 0.0310431 0.320347 -0.0892235 -0.146766 -0.333137 0.125144 0.0357228 0.193501 -0.0530045 0.191202 0.0602532 -0.109614 -0.00151223 0.0274968 -0.274392 -0.10998 -0.274955 0.168967 0.0962489 0.510837 -0.182519 0.0162442 -0.0811068 0.165439 -0.276131 -0.020699 -0.115675 -0.0397569 0.00798163 0.0351432 0.194877 -0.352584 0.0922257 0.151184 0.165107 0.106585 -0.294406 -0.0953582 0.0181727 -0.454363 -0.111364 -0.503049 -0.0511965 -0.14008 -0.0194003 0.265849 
-0.727023 -0.0570167 0.221592 0.219993 0.301836 -0.434885 0.0866143 0.667466 0.0309877 -0.358799 -0.0963366 -0.106268 0.0111279 0.0287364 -0.0719514 -0.049246 0.061279 -0.424306 0.334975 0.234794 0.110756 -0.345893 0.0725437 0.371252 -0.327401 0.432692 -0.0878796 -0.0605017 -0.209074 -0.223101 0.0313437 -0.0341885 0.470372 -0.329425 0.0638684 -0.120809 -0.271401 0.253885 0.114824 -0.123648 -0.0729884 0.0575226 0.420076 -0.72119 0.122878 0.167472 -0.11229 -0.279288 -0.0204558 -0.00224483 0.163735 0.36823 -0.169803 -0.073902 -0.649502 -0.152873 0.363745 -0.235735 0.286182 0.0962537 -0.183721 0.104814 -0.234161 -0.0381174 0.0571123 0.0194142 0.0482131 0.0389934 0.211453 0.293449 -0.382512 -0.718334 -0.5478 -0.298894 0.113293 0.0290936 -0.30197 -0.0755254 -0.10558 0.0492884 0.00367653 0.215921 0.133563 -0.10134 -0.113877 -0.136111 0.111859 -0.289696 -0.256107 -0.0087073 -0.0322085 0.049167 0.0344196 0.161893 -0.0689685 -0.500885 0.143424 -0.066587 -0.376492 -0.0617136 -0.535826 
-0.336531 0.0302059 -0.210009 -0.189508 -0.197054 -0.00756644 0.0729434 -0.102057 -0.0451331 0.206903 0.000171169 0.171942 0.25902 -0.0583279 0.0436876 0.128626 -0.222178 -0.160273 0.00907624 -0.0244524 0.0165648 -0.243866 -0.144738 -0.195082 0.207292 0.498474 -0.0132538 -0.463093 -0.0901104 -0.0631986 -0.00145013 0.310659 -0.0906709 -0.13705 -0.0873747 0.353905 0.135492 -0.135468 -0.261644 -0.102755 -0.381786 -0.362662 -0.288362 -0.220129 0.00946306 -0.232941 -0.0301839 -0.126958 -0.17656 -0.118479 -0.0707247 -0.629682 0.0733616 -0.492517 -0.302728 -0.0805652 -0.458578 0.00836271 0.0154889 -0.037587 -0.184703 -0.39859 -0.153458 0.134135 -0.167351 -0.0289191 0.0232396 -0.586945 -0.305585 0.0373631 0.0249237 -0.269933 -0.519796 -0.332103 -0.482563 0.315869 0.189216 0.0353483 -0.0786865 -0.12468 0.14638 -0.234869 -0.166972 -0.153043 -0.00145588 -0.276708 0.0338227 -0.175783 -0.00423493 0.131992 0.0416155 0.460468 -0.0654205 0.171217 -0.0318002 -0.217682 -0.0468522 0.0620341 0.626127 0.158136 0.137984 
-0.4271 0.0451695 0.120344 -0.0496901 -0.209797 -0.0970052 0.0228728 0.0195954 -0.123422 0.251211 -0.0184005 -0.168223 -0.0786017 0.0771837 -0.173448 0.30675 0.0622205 0.163251 -0.199643 0.0393552 0.0249286 -0.210909 -0.102816 -0.178765 -0.0241151 -0.411208 0.0657565 0.409507 -0.372422 0.0148398 -0.155614 0.151711 -0.403555 -0.284476 -0.165409 -0.339973 0.000975429 0.309058 0.17281 0.181916 -0.208709 -0.350366 -0.701464 -0.221419 -0.0147492 -0.0573807 -0.171563 -0.215589 -0.140193 -0.2734 -0.233012 -0.0881677 -0.0312289 -0.350443 -0.368416 0.0313344 0.0548365 -0.00652197 -0.0475198 -0.333724 0.141356 -0.386312 0.0253261 0.0950094 0.0281861 -0.308477 0.203378 0.193714 0.19421 -0.0792591 -0.350283 -0.399916 -0.193451 -0.219308 0.00497264 -0.237701 -0.0796616 -0.167802 -0.226463 0.0699018 -0.0824429 -0.052851 -0.146257 0.216377 -0.0609853 0.17184 -0.353685 0.176508 -0.00825006 -0.155899 -0.0625336 -0.126521 0.125358 0.0124661 -0.0407466 0.133865 -0.882924 0.0347446 0.110186 0.00433537 0.157814 
-0.854459 -0.0151356 -0.0605009 -0.0738015 -0.0401468 -0.249511 0.190476 0.282187 -0.09806 -0.199045 -0.0101609 0.0591238 -0.0404369 -0.0988123 -0.0453742 -0.19356 -0.162277 -0.163022 0.25453 -0.153673 -0.158674 0.0966264 0.121531 0.0555764 0.0552615 -0.186307 -0.225047 0.231806 -0.0347691 -0.293701 -0.304158 -0.19453 0.126433 0.0600575 -0.0999498 -0.109656 -0.0789374 -0.32928 -0.0583996 -0.220802 0.0216464 0.00737637 -0.406523 0.0488326 -0.181718 -0.0329401 -0.244668 -0.103296 0.215546 -0.0745578 -0.0754825 0.367162 -0.104513 0.00651607 0.0405507 -0.259609 -0.252955 -0.0764743 0.073065 0.0183313 0.104821 0.0440352 0.1985 -0.221481 0.474566 -0.0614548 0.30014 0.142639 -0.163792 -0.463196 -0.376096 -0.100709 0.3544 0.35647 0.433179 -0.296227 0.173464 -0.138909 0.0908513 -0.0240045 0.0323321 -0.176543 0.234107 0.278479 0.240794 0.168197 -0.025787 0.169806 -0.0717961 0.0852665 0.0966415 0.0377016 0.0252253 0.0774989 0.065762 0.136341 -0.164434 -0.0188497 -0.238227 -0.0493815 0.00163308 
-0.76687 0.0404941 -0.147457 -0.273999 -0.294003 -0.16004 -0.0839165 -0.098356 0.0392557 0.168192 -0.0650113 0.279408 -0.252542 0.0660799 0.126444 0.103837 -0.209326 0.109854 0.0396479 -0.0647293 -0.0939022 -0.0622326 0.0450362 -0.0544237 0.301058 -0.374032 -0.028588 0.251309 -0.16179 0.155652 -0.114236 0.184614 -0.10065 -0.0551169 0.181605 0.0972123 0.0750799 -0.330591 0.00931309 0.0103143 -0.218746 -0.221222 -0.297089 -0.38025 -0.0116931 -0.10179 0.089304 0.0566276 -0.0831383 -0.0816768 0.174536 -0.147378 -0.0386131 -0.238168 -0.218859 0.131301 -0.350817 0.129893 0.256101 -0.0833835 0.0624168 -0.104573 0.0432225 0.137108 -0.380846 -0.156687 0.074791 0.0133096 -0.0689101 -0.229948 -0.195458 -0.0986321 0.0289564 -0.140275 -0.394423 -0.054142 0.237581 0.0124751 -0.143382 -0.0989864 -0.0199665 -0.384395 -0.257751 -0.171971 0.125402 -0.125919 -0.240801 -0.0333037 0.052518 -0.0127193 -0.0718689 0.0183868 -0.0896887 -0.116125 -0.0441744 0.150617 -0.068746 0.0328087 -0.117566 0.0571466 0.149048 
-0.683368 -0.0329727 0.128322 -0.198417 -0.356995 -0.0524145 0.0337529 -0.0532061 -0.0404253 0.0454591 0.0774517 0.00712133 -0.371048 -0.120062 -0.109615 0.0100238 -0.063297 -0.288191 0.0968118 -0.0393802 -0.0681964 0.0718897 0.0915547 0.0530784 0.012436 -0.0361156 -0.0242909 -0.327251 0.178337 -0.232588 -0.157968 -0.0318601 0.0238278 0.171835 -0.0191884 -0.150795 -0.272882 -0.316383 -0.403638 -0.107434 0.0613011 -0.0810627 -0.0761006 0.11351 -0.225581 0.078078 -0.0717883 -0.0838845 -0.316233 0.202342 -0.0246963 0.464207 -0.185686 -0.0415443 0.152502 -0.0833726 -0.294048 -0.0487918 0.148597 0.105771 -0.0189769 0.53242 -0.193009 -0.0822248 0.0672141 -0.0246313 0.0229582 -0.265552 0.145903 -0.00948388 -0.0891002 -0.0153292 -0.288014 -0.0906049 -0.051344 -0.0723917 -0.163814 -0.146485 0.106864 0.0624524 0.0712762 0.143145 0.391328 0.00666825 0.117671 -0.195672 -0.139498 -0.0748906 -0.248535 0.12491 0.114863 0.0413231 -0.0568956 -0.0630015 -0.0229971 -0.0541345 -0.312413 -0.0206604 -0.377424 -0.202699 -0.162356 
-0.780712 0.0136018 -0.205263 0.0349125 0.163134 -0.015659 -0.0953655 0.221053 0.146553 0.0227542 0.0906666 0.0522609 0.286367 0.0873939 0.141318 -0.0379535 -0.437514 -0.110026 0.177552 0.0849152 -0.156999 0.124894 0.142199 0.164338 0.0755933 -0.114919 0.178512 -0.0701724 0.282242 0.378549 -0.158682 -0.00164608 0.13827 0.0350448 0.0755137 -0.350953 -0.149363 -0.120993 0.21126 0.358911 0.0910034 -0.0993518 -0.0124407 0.112265 -0.20623 -0.190288 -0.0869325 -0.171571 0.0568024 -0.0317391 0.157842 0.0260565 0.0983777 0.0493036 0.199508 -0.0500793 -0.387385 -0.377672 -0.242723 -0.0103639 -0.0805524 -0.0368557 -0.0891639 -0.0288608 -0.3242 -0.281881 -0.412662 0.03615 -0.0327606 -0.0545223 0.226928 -0.102616 0.354387 -0.200131 -0.192468 -0.470705 -0.0447523 0.29243 0.115991 0.0493587 0.0419775 -0.151813 0.0516828 0.222576 -0.00742683 -0.0375545 -0.340134 0.0894252 0.18241 0.0362083 0.207558 -0.123308 -0.145424 -0.138356 0.00334434 -0.184517 0.263502 -0.00660403 0.408522 0.00232921 -0.153309 
-0.424724 -0.0320293 -0.132544 -0.0405405 -0.17025 -0.332122 -0.114328 0.0968815 0.144185 0.00535821 -0.0516647 0.053008 0.0386062 -0.0325748 -0.0681813 -0.154732 -0.0433608 -0.0908991 0.0863069 0.174126 -0.0517356 -0.0892132 -0.0918979 0.00239455 0.0113948 0.254585 -0.119253 -0.32088 -0.121708 -0.0408896 0.0881809 0.0462667 0.220171 -0.0403902 -0.0113989 0.407433 0.158134 -0.161024 -0.186191 -0.338683 -0.285338 -0.0620015 -0.0890372 -0.260516 0.0884226 -0.0427142 0.0913354 -0.09158 -0.0518482 -0.0457869 -0.0768266 -0.286804 0.00307815 -0.252265 -0.229627 -0.138178 -0.0632723 0.0954185 -0.0249493 -0.193742 -0.273296 -0.246895 -0.21763 -0.000976941 -0.105732 -0.0301146 -0.118965 -0.275497 -0.23867 -0.158955 -0.20213 -0.239833 -0.464184 -0.420953 -0.416623 0.221964 0.135778 -0.119152 -0.101972 -0.12376 -0.0337783 -0.0634059 -0.0996603 -0.0355916 -0.0242683 -0.451582 -0.0360901 -0.120454 -0.147126 -0.0463445 -0.10481 0.030759 -0.206582 0.024151 -0.181777 -0.13296 -0.0208489 -0.00778039 -0.0588512 0.199925 0.277482 
-0.772203 -0.0164673 0.0215265 -0.186723 0.0845207 0.218582 0.00796738 0.0346072 0.11488 0.00359456 0.0169961 0.0435596 -0.0866466 -0.139175 0.105387 0.147502 -0.153425 0.371578 0.106475 0.101236 -0.183055 -0.0338434 0.229287 -0.0637755 0.101885 -0.10055 -0.146585 0.155128 0.0167653 -0.230183 -0.108779 -0.0507106 -0.0453828 -0.168527 0.132798 -0.106054 -0.207083 -0.186661 -0.200392 0.142218 0.175495 0.0835767 -0.145137 -0.120692 -0.0980567 -0.0906937 -0.169299 0.00235271 -0.243121 -0.0351448 0.0202209 0.17586 -0.014621 -0.225899 -0.269225 0.0656807 -0.194969 -0.0077386 0.0401127 -0.18263 0.181081 -0.0950197 0.0465575 0.00826697 -0.0896792 0.495408 0.153451 0.232852 -0.278506 -0.430954 -0.562973 -0.223839 0.0923396 0.302593 0.361834 0.106613 -0.0259125 0.0162824 -0.1793 -0.156367 -0.0482524 -0.186005 0.0762679 -0.126304 0.125026 0.0646089 0.121019 -0.054603 -0.055728 -0.0978749 -0.145123 -0.264141 0.181869 -0.0856602 0.0715635 0.0169484 -0.024108 0.0127782 -0.156414 -0.0351969 -0.09952 
-1.10955 -0.0798943 0.0282774 0.185017 0.352473 0.213255 0.424918 0.343595 0.350652 -0.122969 -0.100602 -0.00936789 -0.0399497 -0.0587663 0.23194 -0.106157 -0.152042 0.201315 0.032914 0.270684 -0.0703597 0.0879396 0.101748 0.0648001 -3.91528e-05 -0.318541 0.0315363 0.234211 0.0530807 0.0797357 -0.021104 0.0452546 0.0622248 0.108753 -0.0408266 -0.174336 -0.0441461 0.0845702 -0.059754 0.261596 -0.0192758 -0.254895 -0.193266 -0.0675078 0.0143884 0.0592403 -0.0627494 -0.00368204 0.0922288 -0.190334 -0.109217 0.0416375 -0.123987 -0.329274 -0.279739 -0.228365 0.335611 -0.0576227 -0.0493446 0.160729 -0.0331602 -0.017097 -0.18518 -0.0118687 -0.13536 -0.00288683 -0.00479564 0.237331 0.22026 0.113404 -0.144157 0.166232 0.0117193 -0.0402533 0.10645 -0.0612363 -0.183145 0.0688273 -0.172904 0.264223 -0.136368 0.22565 0.132348 0.123723 -0.0345383 0.223861 -0.205141 0.129905 -0.313021 0.126312 0.149365 -0.0694174 0.319062 0.189088 0.195563 0.0924676 -0.0389159 -0.155302 -0.325702 -0.0532629 -0.245167 
-0.726006 -0.0123034 -0.17378 -0.107753 -0.0413716 0.0419959 -0.0631945 -0.123552 -0.0244214 -0.0803264 -0.0871204 0.0101006 0.012711 -0.0124752 0.0592006 -0.112457 -0.1797 -0.13298 0.0416009 -0.126903 0.0598933 -0.0613676 -0.131013 -0.0570384 0.0619883 0.126748 0.0344379 -0.194975 -0.153053 -0.0906937 0.100916 0.0391792 -0.0489525 -0.133099 -0.0828477 0.210427 -0.0139459 -0.140645 -0.0456908 -0.198417 -0.124248 -0.143726 0.19262 -0.242015 0.00992814 -0.118999 0.0775882 0.0695393 0.12301 -0.0119647 0.159651 -0.409187 0.0296811 -0.164268 0.00574577 0.114903 -0.0607004 -0.0404076 0.0798778 0.0830719 -0.013647 -0.086862 0.0764562 0.0592353 -0.335183 -0.247369 -0.132366 -0.139407 -0.0834689 0.0339987 0.0470321 -0.0972326 -0.0384731 -0.091985 -0.296058 -0.00314445 0.0165276 0.0193306 -0.0873171 -0.104758 0.0061756 -0.0850136 -0.192443 -0.102619 -0.0728051 0.102068 0.0215131 -0.156504 -0.0820365 -0.0322658 -0.123992 0.0391189 -0.116775 -0.0685389 -0.0516236 -0.0344492 0.0450187 -0.0321391 0.221847 0.020536 -0.187479 
-0.317739 0.0395743 -0.0484191 -0.115557 -0.103119 0.00464501 0.0267518 -0.0993894 -0.279725 0.046411 -0.10289 -0.349151 -0.144634 -0.00468345 -0.259034 0.0469338 -0.174302 0.0856844 -0.192002 -0.412087 -0.181635 -0.299712 0.0300213 -0.048723 -0.00481746 -0.353957 0.151525 0.432906 -0.337272 -0.0540961 -0.376426 0.0291998 -0.196886 -0.0453891 -0.494157 -0.485689 0.124696 0.189431 0.294399 0.441558 -0.0224259 -0.468307 -0.336277 -0.304335 -0.125105 -0.299707 -0.203402 -0.281682 0.224743 0.00929369 -0.0375798 0.0432345 0.05363 0.125923 -0.218182 0.105449 -0.371346 -0.18691 -0.106648 -0.0821696 0.0657518 0.156786 0.105481 0.0316116 0.0916077 -0.403284 -0.170068 0.212637 0.151363 -0.248945 0.0492843 0.0845679 0.382774 -0.429627 -0.156135 -0.281633 0.0738552 -0.168812 -0.0264933 -0.0828477 -0.0833511 -0.263484 -0.115834 0.107012 -0.0689008 -0.0491447 -0.318308 0.106104 0.11908 -0.554803 -0.253695 -0.340259 -0.123593 -0.274633 -0.0789856 0.0668321 -0.520169 0.0280025 0.274312 -0.0948614 -0.402264 
-0.522133 0.0312887 0.265906 -0.0723917 -0.406006 -0.33405 -0.319759 -0.0658021 0.580205 0.218388 0.109326 -0.182976 -0.202201 -0.062943 0.00433813 -0.236306 0.0204819 0.219318 -0.180257 -0.0620992 -0.084747 -0.0877084 -0.124122 0.0489865 -0.118403 -0.146885 0.165922 0.129601 0.428708 0.697613 0.171689 0.146543 0.184098 -0.105732 -0.156014 -0.265524 0.169435 -0.331741 0.124177 0.845007 0.260313 -0.100304 -0.527586 -0.0924451 -0.0314897 -0.164978 -0.181202 -0.164466 -0.122375 -0.130991 -0.0833567 -0.450176 -0.0480183 -0.0287898 -0.192921 0.0143794 -0.0818746 -0.30089 0.161413 -0.175602 -0.0178414 -0.545118 -0.160817 -0.0528306 0.0405648 -0.000168137 -0.558439 0.13551 0.491149 0.1929 -0.0580757 -0.325658 -0.0773101 -0.348869 0.0633853 -0.365558 -0.0923675 0.31468 0.11346 0.168692 -0.109952 -0.172996 -0.0194432 0.057443 0.0083132 -0.143356 -0.380414 -0.128215 -0.0890836 0.235295 0.120176 -0.425437 -0.374389 -0.44121 -0.488756 -0.266894 -0.0251317 -0.0467983 -0.123442 0.0818861 0.388947 
-0.869282 -0.0903177 0.104607 0.262265 0.0143365 0.161069 0.373989 0.216876 0.0591026 -0.112958 -0.151293 -0.217975 -0.0146248 0.0753633 0.0456344 -0.21598 0.22294 0.0147301 -0.209837 -0.0110272 -0.103468 -0.135617 -0.0710454 -0.044219 -0.18486 -0.0750145 -0.00298975 0.0518267 -0.222664 0.0306645 0.143612 -0.04007 0.160316 0.269626 0.0144158 -0.0292752 0.0455476 0.106592 -0.180522 -0.19896 0.104527 0.0778777 0.0718677 -0.179012 0.0543448 0.0688451 0.174404 -0.175757 -0.00854594 -0.0490308 0.0800404 -0.0491798 -0.116896 0.281722 -0.0424912 -0.177952 0.336978 0.0545106 0.117552 -0.156678 -0.0522557 -0.0430937 -0.343615 -0.127436 0.42485 -0.241551 0.044927 0.0103004 -0.181353 -0.130995 -0.270378 -0.25922 -0.374617 -0.248452 -0.229515 0.17957 -0.010932 -0.260728 -0.0499239 0.14617 -0.156827 0.0161403 -0.0843261 0.120776 -0.19392 -0.233592 -0.245131 0.0272366 -0.10919 -0.14942 -0.180943 0.0695461 0.262867 0.221874 -0.0104441 0.0487099 -0.517007 -0.0405862 -0.122603 0.0862796 0.000677541 
-0.813903 0.018764 -0.219472 -0.332935 -0.168343 -0.446549 -0.299934 -0.0691533 0.258439 0.0573134 0.00547327 0.230218 -0.118977 0.08849 0.0345839 -0.34533 -0.149407 0.0868503 0.0624235 0.0319091 -0.226373 0.250685 -0.0106166 0.0199443 0.0537844 -0.301262 0.0418918 0.0243986 0.241268 0.228728 -0.0575024 -0.170347 0.397045 0.0378887 -0.189817 0.185001 0.0485954 -0.187894 0.151315 -0.0338203 -0.0866951 0.202112 -0.00131078 0.141085 -0.0653579 -0.0416247 0.10863 0.0352902 -0.0422893 -0.0212655 0.102157 -0.164421 0.0607907 0.00934991 0.123173 -0.0925614 -0.134317 -0.0497777 -0.128453 0.0146001 -0.10855 -0.0383177 -0.118777 -0.105027 -0.144436 0.156613 -0.109192 0.0877547 0.0533188 -0.0680643 -0.0842472 0.124715 0.028378 -0.0337026 -0.00869609 -0.0549739 0.340654 0.172594 0.000742671 -0.218519 -0.0770242 -0.145958 -0.0256404 0.268411 -0.030535 -0.20299 -0.223882 0.209929 0.0677468 0.0343226 0.191036 -0.12527 -0.336042 -0.0521088 -0.00346721 0.188099 -0.0274319 -0.0171447 -0.204822 0.134296 0.431038 
-0.859599 0.0857368 -0.167961 -0.428005 -0.575135 -0.504348 -0.477144 -0.252222 0.291157 -0.0119492 -0.0423795 0.406186 -0.293114 0.0918933 -0.20052 -0.562894 -0.126668 0.323367 -0.206631 0.29076 -0.0473266 0.297406 -0.0336573 -0.182643 0.193774 -0.813034 -0.0789894 0.00173833 -0.172403 0.159739 -0.122222 0.0419854 0.0345324 -0.189729 0.070744 0.250439 0.0592074 -0.0269431 0.00903982 -0.302342 -0.328955 -0.00793258 -0.273848 -0.154512 0.133684 0.0650865 0.191822 0.228818 0.0938602 -0.248388 0.0587598 -0.444644 0.00911264 -0.180043 -0.415574 0.0290993 -0.0109125 0.294904 0.0409279 0.0287512 -0.0152863 0.0149232 0.149027 0.137192 -0.115275 0.0824999 -0.163003 0.158713 0.147543 -0.058499 0.0897487 0.31776 0.131037 0.0178241 -0.0272755 0.260695 0.647964 0.226503 -0.0820559 -0.176448 -0.0775168 -0.083218 -0.160156 0.385507 -0.0483931 -0.239089 -0.106776 0.371322 0.116162 0.0689816 -0.078734 0.0364413 -0.227342 0.145921 0.128617 0.465431 0.0558916 0.0173841 0.222934 0.306383 0.527014 
-1.22474 -0.0380968 0.542245 0.225483 -0.0307652 0.204077 0.110461 -0.380609 0.0874238 0.354345 0.0299475 -0.0158297 -0.197988 0.0663148 0.177951 0.346342 0.352504 0.0109148 0.105995 -0.0411679 -0.281233 0.290314 -0.0122536 -0.0776668 -0.0765694 0.293275 0.400552 -0.237123 0.333303 0.224826 0.173452 0.108653 -0.0389 0.362747 -0.000751905 -0.0433891 0.127274 0.0598097 -0.194738 0.262935 0.508247 0.598467 0.827377 0.348195 -0.403648 -0.0818878 -0.0506747 0.103387 -0.0201939 0.338578 0.0670061 0.342332 -0.0082865 0.740109 0.684678 -0.0111543 -0.313138 -0.155538 -0.0472356 0.281739 0.123481 0.0103972 -0.43408 -0.119598 0.149682 0.197335 0.0570152 -0.0205208 0.299796 0.377279 0.117115 0.361531 -0.281087 -0.0709383 -0.143168 0.19609 -0.0259561 -0.00607314 0.0648902 0.106816 -0.0811366 -0.295817 0.144624 0.280976 -0.276219 -0.103659 -0.0655355 0.0375293 0.18941 0.0713922 0.148249 0.0848634 -0.0741023 -0.10263 0.141398 0.305418 -0.178994 -0.114057 -0.0528031 -0.15987 0.159402 
-0.671009 0.0142603 0.203166 -0.0217098 -0.260088 -0.0356726 0.0962074 -0.135874 -0.0479361 0.00551338 -0.059305 -0.0508511 0.0248665 -0.0958418 -0.0183658 0.355168 0.0975195 0.0649351 -0.0475763 -0.284778 -0.0934852 -0.00505581 0.035696 -0.0690852 0.00804435 -0.00204203 0.00238697 -0.215763 0.000223038 -0.208221 -0.0203249 -0.0804192 -0.0510588 0.118103 0.117751 -0.152449 -0.2896 -0.272288 -0.452321 -0.364975 -0.134276 -0.0707881 0.226236 0.00979397 -0.09862 -0.222578 -0.36035 0.0229654 -0.168976 -5.26244e-05 -0.0258172 -0.279197 -0.0409475 0.105794 0.12978 -0.0170948 -0.00898232 -0.108243 -0.127098 -0.146792 0.109987 0.000350375 0.0793285 -0.0285212 0.147368 0.0363246 0.494836 -0.286847 -0.0621674 -0.2614 -0.228089 -0.442928 -0.386973 0.296169 0.102252 0.105693 0.0257138 -0.131782 -0.0189333 -0.0485569 -0.0741959 -0.323728 -0.0876721 0.0484757 0.0807141 0.199765 -0.0867088 0.0497771 -0.0536023 -0.134641 -0.138547 -0.164537 -0.128032 -0.207351 -0.0916381 0.22841 -0.450284 -0.0159597 -0.0424361 -0.0479439 -0.103188 
-0.611978 0.0734222 -0.0339644 -0.1689 -0.207925 -0.172695 0.274213 0.215392 0.109767 -0.0375621 -0.186349 -0.0023941 -0.147865 0.0036201 -0.138567 -0.599292 -0.202516 -0.103441 -0.366315 0.180865 -0.187881 0.141508 0.0278882 0.00753023 0.0792039 -0.321065 0.0847029 0.0143382 -0.492826 -0.0713371 0.162858 0.00909194 0.328921 -0.0415841 -0.0842812 -0.216931 0.050666 -0.175066 0.19915 -0.231385 -0.0476809 -0.281049 0.0787383 -0.106144 0.0431215 0.0804808 0.0998938 -0.0293369 0.11202 -0.166952 -0.132703 -0.0263651 0.00941281 -0.0534238 -0.161387 -0.047284 0.446096 -0.0163329 -0.121476 -0.0565022 -0.0212662 -0.143009 0.00151171 0.0781668 -0.256021 -0.0290613 -0.211719 0.00929608 0.172738 0.067584 -0.121645 0.103423 -0.210088 -0.196853 -0.316473 0.0336994 0.0870474 -0.162217 -0.195757 -0.0171817 -0.141172 -0.0693076 -0.119184 0.415826 0.0862498 0.20381 -0.27452 0.276423 -0.0160904 -0.233255 -0.0615015 -0.173574 -0.0983846 0.067247 -0.0400957 0.414468 -0.316217 -0.0598521 -0.307772 -0.0823654 -0.0747567 
-1.02433 -0.00190767 0.438221 -0.259026 0.132844 0.0955611 0.00371928 -0.120794 0.299383 -0.0724188 -0.0492935 0.120449 -0.0760556 0.0987301 -0.127623 -0.333988 0.347314 -0.0189429 -0.287306 -0.0727845 0.207563 0.0734343 -0.211694 0.137874 -0.191024 -0.921657 -0.187744 -0.320602 0.14991 0.133732 0.0518816 0.0965389 0.0219315 -0.571136 0.330686 -0.107211 -0.374924 -0.0574615 -0.597945 0.0691464 0.337813 0.188569 0.236055 -0.344895 0.284001 0.0637239 -0.199749 0.15791 -0.293844 -0.0047673 0.286464 -0.137629 -0.23156 0.0642859 -0.244132 0.244426 0.488008 0.0898965 0.353107 -0.142311 0.163236 0.0494714 -0.0904803 0.0208304 0.106976 0.246627 0.163773 0.160001 0.514549 0.14764 0.12544 -0.112897 0.121136 -0.085264 0.463811 -0.270404 -0.171764 0.338857 0.112738 -0.332657 -0.0635388 0.229219 0.174159 0.105566 -0.0433046 0.16424 -0.022801 -0.00303811 -0.0984358 0.119062 0.0260947 -0.172159 -0.245531 0.236237 -0.370917 -0.258278 0.0422999 -0.022237 0.0647768 0.11393 0.0811622 
-1.0645 0.0858305 0.00458962 0.0404311 0.0378964 -0.124336 -0.102043 -0.0450773 -0.0918618 0.102729 -0.153095 0.199533 0.0910304 0.0786514 -0.0339326 -0.371244 -0.161082 -0.0219836 -0.293358 0.271469 -0.279108 0.19212 0.322907 -0.00187838 0.0972243 -0.399017 -0.11702 0.0884017 -0.539786 -0.087511 -0.0338658 0.119916 -0.1204 -0.334838 0.0470071 0.0959837 0.380756 -0.0257528 0.236789 -0.15063 0.156951 0.121292 -0.137266 -0.389405 0.126153 0.193121 0.285427 0.0259713 0.1166 -0.0801936 0.0748406 0.618287 0.0434773 -0.16618 -0.457542 0.125489 0.0583991 0.341167 -0.0211272 -0.118204 0.0465411 -0.409485 0.0472336 0.166133 -0.0138121 0.0988232 -0.21925 0.057241 -0.0327415 -0.208111 -0.100331 0.0664429 0.145886 -0.0539835 0.245908 0.165977 0.252292 -0.0951032 -0.240513 -0.132044 0.00175429 0.0234693 -0.0137135 0.222338 -0.0735179 0.119945 -0.137914 0.0761314 0.321042 -0.15368 -0.108576 -0.0121548 0.135882 0.206974 -0.0281745 0.156748 -0.167737 0.0292338 0.152687 0.0162144 0.349557 
-0.819769 0.0429508 0.0992487 0.237225 0.317889 0.179791 -0.110457 0.145258 0.192072 0.37344 -0.086344 0.354834 0.167257 0.235573 0.262898 0.0986134 0.0488639 -0.00204636 -0.0563379 0.624914 -0.205685 0.0499819 0.496639 -0.104387 0.315761 -0.0727803 0.129897 -0.371469 -0.447831 0.135877 0.031646 0.353779 0.04227 0.0721632 0.326407 -0.0274485 0.308343 -0.436604 0.00862384 -0.449937 -0.0950761 -0.475441 -0.000873604 -0.0937456 -0.0449008 0.00241924 0.292996 0.342513 -0.125798 -0.0547848 -0.123942 -0.326684 0.124664 -0.224629 -0.189032 0.296424 -0.13976 0.222538 -0.165134 -0.0803062 0.0255278 -0.0679695 -0.202309 0.151688 -0.540077 0.276749 -0.138432 0.062577 -0.25452 -0.407917 -0.0298089 0.350464 -0.12614 -0.754372 -0.685377 0.472681 0.202559 -0.148784 -0.0933405 -0.0914947 -0.180538 -0.462835 -0.20106 0.00706328 -0.058265 -0.319906 -0.0744228 0.113737 0.691432 -0.314879 -0.118638 0.0696645 -0.151782 -0.081793 -0.173997 0.112527 -0.133589 0.0406303 0.055932 -0.148007 0.311578 
-0.633271 0.00450609 0.059131 -0.110419 -0.0758102 -0.0168237 0.121227 0.00908994 0.240573 0.219101 0.0525268 -0.0345513 -0.14293 -0.0757619 0.078405 0.111237 -0.0598202 0.315736 -0.122971 0.216439 -0.348897 0.145877 0.146171 -0.166448 0.123848 -0.170821 0.0945865 -0.0617655 0.0855405 0.072281 -0.0479633 0.13938 0.130011 0.193241 -0.352919 -0.339291 0.0300777 -0.103275 -0.0872544 0.293495 0.0309516 -0.0262549 -0.311245 0.0357769 -0.244331 -0.14419 -0.13417 -0.191365 -0.0739592 -0.17364 -0.277124 -0.328643 -0.109206 -0.138478 -0.0206111 -0.269645 -0.246426 -0.11825 -0.167308 0.12468 0.00535329 -0.356721 -0.265747 -0.0578798 0.292223 0.174419 -0.215229 0.061981 -0.0459376 -0.0901198 -0.185542 -0.132204 -0.329053 -0.0250194 0.0551055 -0.0968388 0.0404331 -0.139415 -0.143044 0.242688 -0.122913 -0.237744 0.132013 0.624526 0.0787275 -0.196251 -0.266632 0.395396 0.013953 0.0856508 0.0857405 -0.116594 0.115993 0.0341895 0.27819 0.462514 -0.622261 -0.0808261 0.357438 -0.116657 -0.0592485 
-0.81969 -0.0879264 0.0594326 0.11933 0.364938 -0.0673812 0.103788 0.196141 -0.0140314 -0.317454 -0.031683 -0.163013 0.242827 -0.0629236 0.070156 0.0622051 0.163105 -0.0183232 -0.0412801 -0.227655 0.102046 0.0922668 0.158769 0.0804073 -0.183492 -0.0601097 -0.143874 -0.017842 0.0558302 -0.195732 -0.0607315 -0.105135 -0.0448205 -0.455884 -0.0511888 -0.141464 -0.35437 -0.182409 -0.04317 0.00261741 -0.00206948 -0.102605 0.0729904 -0.232595 0.107636 -0.00941017 -0.323169 0.0790437 -0.108099 -0.208419 0.0606544 -0.326402 0.0079424 0.0380467 -0.328219 0.20313 0.0854407 -0.140151 -0.0523834 -0.101898 -0.0501682 0.258379 0.0635297 -0.0794642 0.256263 0.138574 0.0881095 -0.0976545 -0.112157 0.12764 0.283258 0.0144374 0.546065 0.643081 0.535571 -0.290941 -0.0207234 0.362994 0.22382 -0.141594 0.0028173 -0.192443 0.00115214 -0.0512732 -0.0327924 0.419832 0.300103 -0.0937759 0.0787857 0.0287531 0.0908387 -0.0644416 0.0882347 0.0928364 -0.223966 -0.320918 0.601455 0.0181805 0.0116388 0.155738 0.0426179 
-0.55401 -0.055301 -0.00116 0.139896 -0.290787 -0.440549 -0.372887 -0.177657 0.557609 -0.0837569 -0.0103877 -0.0553859 0.22311 0.018789 0.0181815 -0.445248 -0.00728258 0.222559 0.0605941 0.247086 -0.136573 0.0738358 -0.0677581 0.00938704 -0.173832 0.150569 -0.0493125 -0.397261 0.0315466 0.227484 0.30811 -0.00736535 0.266567 -0.275281 -0.234823 0.213999 0.218018 -0.472199 0.0131087 -0.0744748 -0.114084 0.0760045 -0.102175 -0.269037 0.0721851 -0.158892 -0.00154637 -0.122667 -0.0915434 -0.121488 -0.0662621 -0.186859 0.0576065 0.176055 -0.267817 0.0324839 -0.00310197 -0.0585929 -0.0394483 -0.103367 -0.200777 -0.453 -0.0859389 -0.0059677 0.032021 -0.0392029 -0.562541 -0.305381 -0.3491 -0.10407 -0.0607999 -0.267999 -0.271104 -0.124953 -0.104137 0.00804698 0.0968993 0.175676 -0.000388379 -0.192305 0.0564662 -0.160919 -0.188433 -0.0160429 -0.0718564 -0.192443 -0.047398 -0.0653267 -0.146572 -0.117089 -0.215441 -0.108147 -0.114926 0.12178 -0.296757 -0.329495 0.45227 -0.0568756 0.140659 0.278492 0.583347 
-0.577953 -0.063707 -0.260323 0.215784 -0.259615 -0.146823 -0.170246 -0.207413 0.111564 0.0494678 0.077544 0.0542861 0.046189 -0.0530021 -0.22626 0.0986945 -0.0476833 0.886991 -0.202119 -0.167082 -0.137314 -0.132425 -0.079612 -0.190606 0.0421967 -0.448743 -0.0832866 0.848954 0.346957 0.0248377 -0.185069 -0.051234 -0.0114959 0.399748 -0.660142 -0.153997 0.0461126 0.48135 0.308592 0.370964 -0.748244 -0.565378 -0.646265 0.192903 -0.074516 0.0746519 0.0522741 -0.0114578 -0.222804 -0.298731 -0.19712 -0.361339 0.0574654 -0.109758 0.0779361 -0.081561 -0.192185 0.0423106 -0.425109 -0.428587 -0.169473 -0.155668 -0.155568 -0.162056 0.369916 0.0269291 -0.579857 0.738277 -0.488203 -0.735724 -0.548873 -0.0728199 0.449741 -0.444506 0.0142788 -0.153445 0.181423 -0.119849 -0.108816 0.208844 -0.213931 -0.0905813 -0.264316 0.0604892 -0.0748702 -0.499331 -0.230556 0.229296 -0.211653 -0.127578 -0.172291 -0.35321 -0.0635686 -0.242403 0.179379 0.312845 -0.391021 -0.0436196 -0.212773 0.305501 0.348647 
-0.170963 -0.0468597 -0.297438 -0.0950118 -0.30647 -0.379808 -0.83717 0.0441708 0.210178 -0.0701826 0.0222702 0.0869871 0.415518 -0.0208039 0.517514 0.0953424 -0.46385 -0.0742573 0.742039 0.244142 -0.0777378 -0.203009 -0.127149 -0.142449 -0.0263767 1.18864 -0.129562 -0.291173 -0.0728766 -0.213776 0.319291 0.0777803 0.295528 -0.274462 -0.276466 0.480439 0.306597 -0.45175 0.341239 -0.422394 -0.489356 -0.521585 -0.346578 -0.264041 0.0118129 -0.140713 -0.144776 -0.0499354 0.380086 -0.547485 -0.478155 -0.818199 0.0859552 -0.52803 -0.138691 0.039142 0.113736 -0.100632 -0.24069 0.230726 0.0390642 -0.256191 0.447156 -0.0235197 -0.0306135 -0.190781 -0.336342 -0.100222 -0.411401 -0.323464 -0.141455 -0.500502 0.0574067 0.302462 0.154911 0.0357461 -0.0461006 0.0435192 -0.0289234 -0.0817108 0.0576311 -0.257637 -0.199069 -0.298921 0.178698 0.202296 0.273839 -0.256593 -0.322228 0.0479666 -0.437676 -0.443963 -0.186535 -0.196015 -0.354179 -0.234591 0.821203 0.0810396 0.0181892 0.162626 0.138465 
-0.491105 -0.0244268 -0.376466 -0.384172 -0.495473 0.06411 0.298824 -0.149729 -0.205739 0.0129712 -0.0600022 -0.0604737 0.0523522 -0.0884688 -0.0364541 -0.132596 -0.295427 -0.192695 -0.01602 0.0183303 0.000157914 -0.0482486 -0.129912 -0.257448 0.247221 -0.0120223 -0.241423 -0.273043 -0.223307 -0.258729 -0.0553707 0.00342007 -0.171084 0.143354 -0.218345 0.131285 0.0551276 -0.396197 -0.361066 -0.69962 -0.443075 -0.212747 -0.448725 0.151483 -0.0695245 -0.0241654 0.0808198 -0.109192 -0.138937 -0.100488 -0.211585 0.0959076 0.0959348 -0.184887 -0.0144772 -0.194805 -0.183201 0.14362 0.0724612 0.0310662 0.0150883 -0.0191625 0.24902 0.0546107 0.065634 -0.0702018 0.114419 -0.101069 -0.334539 -0.309531 -0.0799589 -0.193353 -0.143148 0.233233 -0.214795 -0.05753 0.17163 -0.140638 0.0356193 -0.198517 0.0615044 0.0096642 -0.052414 -0.0978224 0.242367 0.0714975 -0.0782388 -0.0533523 -0.0398388 -0.0436304 0.0702954 0.225861 -0.0461865 0.157314 -0.0638627 0.199954 -0.157933 0.0594699 0.0748418 0.0965226 0.360046 
-0.804865 0.0677119 0.0827764 0.0684299 -0.219418 0.292746 -0.0455706 -0.426211 -0.0782598 0.40935 0.111991 -0.120464 -0.001253 -0.000532163 0.211197 -0.0845421 -0.288031 -0.197877 0.0394075 0.385109 -0.0956688 0.000360056 0.162268 -0.178848 0.0254898 0.350679 0.0789472 -0.488771 -0.0102234 0.174733 0.183882 -0.0443831 -0.5121 -0.0246995 0.0291756 -0.253949 0.0225313 -0.175905 -0.119444 0.218739 -0.00529226 -0.270293 -0.388502 0.178942 -0.144215 0.15893 0.0714889 -0.0867855 -0.0214055 -0.0825259 -0.348469 0.169999 0.137229 -0.0886142 0.249053 0.0141258 0.15722 0.107343 -0.124697 0.0627512 0.22651 -0.198076 0.113057 0.0918171 0.109622 -0.103942 -0.0661452 -0.235533 0.137652 -0.0928812 0.0508754 0.052665 -0.164498 -0.0756893 0.119266 0.0263767 -0.304452 -0.0902574 0.119233 0.117082 0.0546748 0.0938212 0.180799 -0.0528493 -0.0279348 0.238381 0.0987949 -0.155846 0.174456 0.118066 -0.126668 -0.196564 0.0184563 -0.287932 -0.144852 -0.0782947 -0.242331 -0.000770941 0.329019 -0.123973 0.146049 
-0.894016 0.0339341 -0.143192 0.0622837 0.0372514 0.264118 0.016913 0.191529 0.187563 0.309091 -0.0780382 0.0123554 -0.375523 0.00334723 0.237377 0.261614 -0.0146488 0.301909 0.180794 0.165052 -0.0120045 0.0380726 -0.0432896 -0.206932 0.100438 -0.0451658 0.145996 0.102274 0.127579 0.284185 0.110094 0.225529 -0.183348 0.1298 0.234746 0.00512364 -0.112167 0.281541 -0.0762299 0.417927 -0.0447046 -0.221115 -0.41272 -0.12063 -0.11484 -0.0325816 0.0027375 -0.102827 0.0099221 0.137928 -0.206598 -0.186378 -0.0768334 -0.192604 -0.176581 -0.19234 -0.0938319 0.036043 0.0383833 -0.0391462 0.00704518 -0.028822 -0.284917 0.00356154 -0.0875474 0.136218 -0.123392 0.136507 0.198437 0.216355 -0.0669933 0.226882 -0.196183 -0.0580204 -0.303312 0.188081 -0.125879 0.228884 -0.19295 0.280145 -0.0857502 -0.0515182 -0.0130497 0.101224 -0.0131701 -0.372906 -0.119483 -0.0557328 -0.114142 0.0763235 -0.0595384 0.031281 0.20858 0.067458 0.179909 0.073936 0.0817659 -0.0167939 0.00823593 0.125861 -0.279333 
-0.476506 0.00418719 -0.289545 0.106011 -0.210687 -0.0525658 -0.228449 -0.202933 0.0371266 -0.33818 0.000712123 -0.0877879 0.371514 0.0493972 0.170922 -0.0500615 -0.139535 0.0950786 0.14173 -0.0561284 -0.0476401 -0.0617076 -0.0990992 -0.0701215 -0.0843085 0.135244 -0.0792869 -0.220181 0.0369351 -0.104754 0.0848517 -0.103151 0.218088 -0.0449743 -0.361171 0.269379 -0.21655 -0.175198 -0.353152 -0.456315 -0.456249 -0.254312 0.224754 0.00949963 -0.0919355 -0.205871 -0.183673 -0.0328169 0.0546313 -0.0523051 0.10805 -0.293673 0.180109 0.0255279 0.121655 0.0493842 -0.125773 -0.165117 -0.294337 -0.00206036 -0.0408062 0.103905 0.163171 0.0559767 -0.393939 -0.431321 -0.352507 -0.429707 -0.298335 -0.148272 0.118761 0.0660319 -0.0143802 -0.213862 -0.152309 0.0267589 0.0494864 0.031331 0.0102062 0.0183729 0.0104307 -0.137299 -0.0891995 0.0454168 -0.112328 0.196581 -0.113317 -0.0492402 -0.0610113 0.0542499 -0.0964764 0.0470998 0.00171355 0.0313696 -0.0321161 0.0797899 0.0565795 -0.0404079 0.263666 0.275559 0.0415352 
-0.633302 -0.0442625 -0.162188 -0.0516871 -0.0705649 0.265098 0.211853 -0.191192 -0.245939 0.294381 0.153256 -0.198415 -0.16326 -0.11091 -0.107129 0.368722 -0.0603852 0.100792 0.0092539 0.0879038 0.250622 -0.0993367 -0.140281 -0.15287 0.135413 -0.100542 -0.0758243 0.177635 0.379631 0.181715 -0.230424 -0.217099 -0.490989 0.427272 -0.0264076 -0.187001 -0.183971 0.0544277 0.162301 -0.0541043 -0.107928 -0.140217 -0.669773 0.657016 -0.167502 0.116151 0.0134507 -0.240067 -0.326383 0.00988615 -0.34164 0.0926479 -0.0153557 -0.206567 0.269696 -0.328038 -0.0415061 0.0527688 -0.0904828 -0.444564 -0.167873 0.0732039 -0.167145 -0.106601 0.191967 -0.202348 0.121934 -0.0294365 -0.13969 -0.203739 -0.212339 -0.268175 -0.0367249 -0.20957 0.204389 -0.00662771 -0.106603 0.0455011 0.171495 0.156638 0.0478063 0.245659 0.216475 -0.264688 0.0750319 -0.123445 -0.233174 -0.0457361 -0.265547 0.342957 0.22528 -0.0648011 -0.142989 -0.166844 0.00848162 -0.0503758 -0.62289 0.0181727 -0.252775 -0.0517605 -0.00855355 
-0.581535 -0.0604969 -0.147696 0.0739481 -0.0243376 -0.230431 -0.230737 0.244357 0.130432 -0.164331 0.01769 -0.108004 0.0116475 -0.130525 0.0752723 0.0326616 -0.173318 -0.0597983 0.132629 0.0166458 -0.0632109 0.0132836 0.0747968 0.101924 -0.0655384 0.242688 -0.192721 -0.0901774 0.189733 0.122823 0.0139801 -0.128154 0.079573 -0.0137198 0.0772982 -0.0111502 -0.13249 -0.28274 0.221859 0.250163 -0.134904 0.100444 -0.156576 -0.223149 -0.104795 -0.115282 -0.103366 -0.27622 -0.231158 0.00202554 0.0112595 -0.263128 -0.0694007 0.0495918 -0.145477 -0.0758217 -0.312759 -0.0514047 -0.0010787 -0.0240592 -0.199386 -0.0965604 -0.23595 -0.0259741 0.472782 0.00794756 -0.0765162 -0.131879 -0.434096 -0.0164803 -0.242769 -0.416241 -0.0454599 0.120456 -0.0230414 -0.100125 0.0619124 0.193872 0.170332 -0.104787 0.00413269 -0.210471 -0.0231391 -0.224415 -0.0505889 -0.294225 0.0906513 -0.156919 -0.0519059 0.0117279 -0.0836162 -0.172165 -0.0717123 -0.046493 -0.192823 -0.375705 0.43204 0.00422204 -0.0133128 0.133432 0.0896701 
-0.343068 0.00548743 -0.133763 -0.116806 0.148001 0.0747567 -0.261589 -0.227288 -0.250042 0.142763 -0.0147083 0.0176739 -0.0513408 -0.113814 -0.0837505 -0.11876 -0.174322 -0.269215 -0.200391 -0.06341 -0.0497103 -0.0103619 0.114202 -0.117553 0.0465605 -0.040903 -0.0617789 -0.360339 -0.165808 0.00398169 -0.207669 -0.0280956 -0.406821 -0.328617 -0.0513993 -0.193412 -0.314277 -0.176333 -0.128884 0.192445 0.0199047 -0.0675675 -0.455353 -0.10864 -0.0473811 -0.225489 -0.139091 -0.137194 -0.256052 0.0595835 -0.0476812 -0.15481 -0.019929 -0.332158 -0.304434 0.054856 -0.353141 -0.00361809 0.0153177 -0.247842 -0.0224796 -0.0246767 0.0735132 0.135663 -0.272832 0.114658 -0.155886 -0.343398 -0.12936 -0.0789653 0.0661983 -0.156606 -0.141098 0.0086612 -0.0473206 -0.0160843 -0.0660019 0.0614925 -0.082787 -0.2276 0.0242671 -0.146442 -0.00323292 -0.167826 -0.014307 -0.0139082 0.0548129 -0.167655 0.20921 -0.120859 0.0826024 0.158663 -0.132113 -0.139264 -0.0878871 -0.22283 -0.0965041 0.0377692 0.331823 -0.124337 -0.147228 
-0.90562 -0.0441659 -0.0138558 -0.12446 -0.159232 -0.392585 -0.441594 -0.110301 -0.157129 0.0639224 0.00788362 0.24484 -0.213891 0.0339391 -0.102469 -0.072378 -0.107184 -0.254444 0.150429 -0.260878 -0.156126 0.0871245 -0.0336258 0.160561 0.0286422 0.13927 -0.0446256 -0.110359 -0.183348 -0.0407505 -0.0299823 0.248864 -0.00985382 -0.225795 0.189421 0.198073 0.0827993 -0.0322155 0.0813816 0.0653478 0.213614 0.385875 0.193351 -0.268476 -0.0930642 0.0624089 0.00581399 -0.136919 0.0796157 0.00640521 0.193635 1.12145 -0.132013 0.0611369 -0.0586885 0.101485 -0.344808 0.0795764 0.212894 -0.0685045 -0.0284886 -0.121456 0.00284378 -0.0745071 -0.377104 -0.00311727 -0.336407 0.0936606 0.336801 0.0932028 0.014202 0.0369944 0.182508 -0.215059 -0.174905 -0.346588 -0.148059 -0.149536 -0.208147 -0.0583725 -0.0116102 0.0853341 0.181563 -0.184092 -0.0655169 -0.066158 -0.137928 -0.185025 -0.145856 -0.244734 -0.0358193 -0.0489238 0.322956 -0.0537585 -0.0975006 -0.286882 0.0562159 -0.040567 -0.209186 -0.0468113 -0.258003 
-0.545401 0.00399821 -0.0945823 -0.41974 -0.500361 -0.37261 -0.231632 -0.22478 0.130921 0.0641551 0.0712713 -0.290569 0.170787 0.0778807 0.0251567 0.0631409 -0.0820607 0.128889 -0.135609 -0.0897657 0.279217 0.0706135 -0.534968 -0.128188 0.0163979 -0.188031 0.212113 -0.0856997 0.27196 0.229429 0.110196 0.094645 -0.0445818 0.176768 -0.428061 0.059554 -0.0497223 0.194529 0.0716548 0.238533 -0.189307 -0.31927 -0.196129 0.691396 -0.0168272 -0.297563 -0.395503 -0.229725 0.0958411 -0.25012 0.0469078 -0.556869 0.127355 -0.118182 0.217226 -0.0721754 0.0360404 -0.19426 -0.145782 -0.0434781 -0.0052569 -0.665845 0.158287 0.0366565 -0.545809 -0.541367 0.0493554 -0.432944 0.152415 0.249718 0.0143755 -0.506216 -0.383376 -0.587626 -0.0145583 -0.114906 0.0247365 0.27151 0.0351896 0.10128 0.145497 -0.0523533 -0.105647 0.197327 -0.120803 0.0734197 -0.187788 0.191608 -0.0520819 0.225254 0.193804 0.257491 -0.0807038 0.0302195 0.0244981 0.118247 -0.517623 -0.0290346 0.895991 0.296784 0.346427 
-0.845247 0.0163761 -0.0944608 -0.118637 -0.123109 0.0800211 -0.164042 -0.0420774 0.212929 -0.00725986 -0.000500115 0.0489213 -0.0225031 0.0148048 0.252019 0.0709927 -0.189856 0.19538 0.130366 0.112745 -0.136101 0.0977073 -0.0965235 -0.149121 0.00266742 0.231652 0.106606 0.0516648 0.0791983 0.0755751 0.198064 0.0305083 0.0429729 0.0673276 -0.0247781 -0.0829689 0.0408708 0.0346634 0.0412226 0.189243 -0.14515 -0.230218 -0.00895034 -0.0158172 -0.025846 -0.10194 -0.083565 0.027484 0.28829 -0.256226 -0.151315 -0.464379 -0.0757844 0.0663651 0.104102 -0.031921 0.151328 -0.133897 -0.0314751 0.212995 0.220928 -0.348334 0.0777461 -0.00537813 0.0179342 -0.0643835 -0.0132295 0.114787 0.193109 0.0528936 -0.13311 -0.0999431 -0.139668 0.0447211 0.0892829 -0.0420348 -0.0918096 0.0745604 -0.154275 0.19872 -0.0884357 -0.229182 -0.0587444 0.31086 0.0470584 0.14455 0.0299638 0.118659 -0.00851944 0.00312267 -0.215185 -0.312967 0.0313231 -0.174247 0.214347 0.31692 -0.122458 -0.0365675 0.217176 0.0435242 -0.307534 
-0.614721 0.0423967 -0.157739 -0.29063 -0.369899 -0.246639 -0.285102 -0.269287 -0.0952564 0.113491 -0.0111845 0.16583 -0.144967 0.0951342 -0.129725 -0.161053 -0.383789 -0.204697 0.0866281 0.1004 -0.0425569 -0.0161011 -0.120466 -0.0972907 0.145794 -0.220245 -0.00286135 -0.111054 -0.0496527 -0.00317008 -0.14558 -0.0277844 -0.0634067 -0.159686 0.0890646 0.147075 -0.119818 -0.251382 -0.167418 -0.134953 -0.0197949 0.061329 -0.491845 -0.0939078 -0.0446962 -0.102933 -0.0941732 0.0516063 0.151826 0.205102 -0.158202 -0.0030029 0.0255434 -0.312149 -0.0149258 0.0785957 -0.163613 0.0111193 -0.0538794 -0.0884517 0.132438 0.206779 0.502676 0.0721081 -0.355959 0.0413053 0.126997 -0.100622 0.170877 -0.0591324 0.153109 0.243341 0.25283 0.263765 0.0779185 -0.15666 0.0225527 -0.0863381 -0.105515 -0.151812 0.0565518 -0.120075 -0.0425354 -0.167516 0.175126 0.192909 -0.217308 0.00919958 -0.0579316 -0.04832 -0.0872481 -0.170497 -0.189366 -0.128037 -0.121632 0.00757958 -0.183982 -0.0154082 -0.171171 0.0376731 -0.00174079 
-0.413007 -0.000514922 -0.12555 -0.0190129 0.21141 0.0850455 0.120729 -0.25278 0.0474606 0.0614265 0.0944835 -0.337292 0.634731 -0.0735621 -0.0816279 0.330338 0.109473 0.0886629 0.212497 -0.149819 -0.110778 -0.0223792 0.105954 -0.0577086 -0.137369 0.663284 -0.0590495 -0.482875 0.0669279 -0.166034 -0.0323888 -0.22189 -0.0036185 -0.141438 -0.429877 0.0154421 -0.16175 -0.467718 -0.329365 -0.194969 0.297402 0.366884 -0.224119 0.00604362 -0.18164 -0.131642 -0.326607 -0.554616 -0.265756 -0.238678 -0.438595 -0.0684606 0.144254 -0.0559925 0.0180857 -0.160033 -0.0808518 -0.21226 -0.489813 -0.221322 -0.0693835 -0.307504 -0.101728 -0.0210714 0.18192 0.0656906 -0.25998 -0.460875 -0.496259 -0.587006 -0.327887 -0.438111 -0.259551 0.506077 0.460473 0.100073 -0.126084 -0.154665 0.282055 -0.174545 0.0930769 -0.034681 0.0988507 -0.0546815 -0.0892835 0.0791201 0.241958 -0.0228908 0.173351 0.132238 -0.115181 -0.207308 0.0758875 -0.0855169 -0.28001 -0.192442 -0.121255 0.0470401 0.481008 0.0103095 0.306869 
-0.191592 -0.0278944 -0.265633 -0.00657264 0.225404 0.146051 0.403557 0.341474 -0.296898 -0.141228 -0.0053813 -0.276895 0.223071 -0.00879527 0.046822 0.531901 -0.0430638 0.374629 0.161367 -0.0417556 0.0323945 -0.100868 -0.0985649 -0.133011 0.2393 -0.235631 -0.106782 0.418558 -0.153701 -0.307397 -0.259113 0.0604429 0.184115 -0.0241125 -0.562013 -0.356052 -0.210444 0.138518 0.132033 -0.147521 -0.755722 -0.548877 -0.0566035 0.361431 -0.147266 -0.527263 -0.367194 -0.405297 -0.0178403 -0.166072 0.0953419 -0.138848 0.20684 0.121891 0.0973575 -0.188218 -0.518186 -0.277916 -0.324942 -0.55483 -0.159053 -0.184833 -0.0270633 -0.0450052 -0.320793 -0.371815 0.171791 0.356104 -0.647553 -0.590602 -0.322352 -0.581656 0.359949 -0.77827 -0.510169 -0.342238 0.0463603 -0.0656926 0.0556761 -0.100996 -0.0655398 -0.385155 -0.255239 0.0503551 0.0438102 -0.14416 -0.297127 0.147215 0.0638236 -0.262528 0.111669 0.0676918 0.150572 0.0992055 0.113968 0.0123586 -0.265554 0.0644985 0.449247 0.0807434 -0.179424 
-0.900692 -0.115495 0.246187 0.0929623 0.18569 0.257155 -0.0384718 -0.045036 -0.0534309 0.044776 0.0116942 0.000711696 -0.242434 -0.0375242 0.0530209 0.437795 0.222112 0.20912 0.15351 -0.255742 0.133624 -0.0221372 -0.0284176 -0.0217125 -0.186726 -0.319748 -0.0698876 0.562195 0.508183 -0.112331 -0.312227 0.00137717 -0.299258 -0.424254 -0.117163 -0.172923 -0.265765 0.241448 -0.0174333 0.0446931 -0.142298 -0.149038 -0.338923 -0.0975237 -0.0310368 0.0463814 -0.324027 0.22172 -0.126273 0.0630578 -0.124091 -0.324405 -0.16391 -0.199002 0.119177 0.21403 0.0309947 -0.10689 0.00794771 -0.162793 0.2014 0.447306 0.0654975 -0.153194 0.13742 0.0546767 -0.158201 0.064226 0.169319 0.30264 0.171112 0.243378 0.505364 0.392292 0.45501 -0.327102 -0.129206 0.118991 0.0310446 0.277573 -0.0232329 -0.0327498 0.079021 -0.368063 -0.108511 0.418957 0.0278649 -0.0526676 -0.262581 0.464908 0.189569 -0.0492328 0.0551265 -0.291682 -0.0335545 -0.130678 -0.162778 -0.0827728 -0.683205 -0.0705835 -0.064108 
-0.960494 -0.0194829 0.257053 -0.0664327 -0.0185154 0.226427 -0.0889575 -0.211518 -0.0805039 0.154896 0.0680565 -0.10145 0.083057 0.282449 0.109166 0.0481018 0.187265 -0.0510248 -0.0495954 -0.128192 -0.0103767 -0.107726 0.0473554 -0.109077 -0.0937492 0.254646 0.022845 -0.255948 -0.0987193 0.2702 0.0968688 -0.00790067 -0.200043 0.0712055 0.160811 0.0740597 0.233494 -0.172917 -0.109332 0.0639982 0.20787 0.178178 -0.102036 -0.19275 -0.00933574 0.123671 0.131001 0.0263391 0.0703846 -0.0187126 -0.119045 -0.177213 -0.0286726 0.222233 0.209401 0.139336 0.0547074 0.175042 0.194146 -0.151595 0.0243098 -0.117011 -0.0538342 -0.141095 0.618989 -0.0159578 0.218544 0.0558044 0.00211946 -0.28677 -0.0501774 -0.0992058 0.111232 -0.0171103 0.143548 0.00555057 0.0680297 0.0030764 0.320519 -0.218008 -0.0398101 -0.265231 -0.069524 -0.157749 -0.0919028 -0.135081 0.222164 -0.172506 0.252045 0.0632637 -0.157714 -0.108074 -0.113781 -0.00868223 -0.329066 -0.28993 -0.0582702 -0.0378775 0.102265 -0.121599 0.166049 
-0.596788 -0.0139982 -0.106296 -0.0948082 0.0229785 -0.0134099 0.0157853 0.240479 -0.144783 -0.261132 -0.073202 -0.2899 0.0230181 -0.192673 -0.130197 -0.353005 -0.0303265 -0.319618 -0.252517 0.0572748 0.0302996 -0.0837963 -0.117477 0.0921152 -0.190127 -0.271306 -0.0657155 -0.117565 -0.259313 -0.292685 0.133975 -0.17816 0.237277 -0.254333 -0.101169 -0.123529 -0.416714 0.361412 -0.118596 -0.358397 -0.0856047 -0.0500795 0.619456 0.0669876 0.160583 0.108123 -0.0188341 -0.167993 -0.148559 0.127133 0.200412 0.152935 0.125259 0.140337 -0.0496418 -0.0941447 0.567658 -0.00894662 -0.0884054 -0.15402 -0.174813 0.200528 -0.144117 0.143698 -0.371316 -0.177877 0.0461561 -0.166258 -0.141792 0.23328 -0.049773 -0.296374 -0.383304 -0.401396 -0.340877 0.309366 -0.126687 -0.104253 -0.100165 -0.123247 -0.0908447 0.229275 0.0313891 0.0990232 -0.151574 -0.0450356 0.0611572 0.0929787 -0.0514922 -0.263685 -0.0442594 -0.0746883 0.00437237 0.180417 0.0269604 0.063418 -0.2161 -0.00448119 0.0780605 0.165889 -0.25551 
-0.665737 -0.0319281 -0.218043 -0.133237 -0.0405994 0.0385534 -0.309094 -0.0503979 -0.210352 -0.0571683 0.0221539 0.148506 -0.182792 -0.220157 -0.125714 -0.117007 -0.179857 -0.207398 -0.180885 0.0418356 0.00763696 0.0870727 0.154946 -0.150666 0.214401 -0.529758 -0.305214 -0.19387 -0.175564 -0.464365 -0.18939 -0.222359 -0.448228 0.0403203 0.12841 -0.0738163 -0.367044 0.0524923 -0.193117 -0.490255 -0.484448 -0.198424 -0.147597 0.111702 0.0369663 0.0719017 -0.0814801 0.144322 -0.272237 0.0582996 -0.188158 -0.181507 -0.0498462 -0.410926 -0.0538885 -0.0273487 0.0878422 0.214795 -0.201396 0.137934 -0.0234351 0.308411 -0.0755106 0.159549 -0.163292 0.121007 -0.0706532 -0.0465199 0.264056 0.144882 0.186687 0.116677 -0.0145413 0.0320278 0.0172819 0.278758 0.0636076 -0.116825 0.14249 0.0607927 0.0171894 0.250117 0.24556 0.213947 0.103511 0.0160429 -0.0329068 0.232873 0.0638769 0.130839 -0.186614 -0.0051118 -0.144607 -0.0121838 0.333554 0.498721 -0.233636 0.0615969 0.165655 -0.00624653 -0.117222 
-0.813999 -0.110437 0.0815607 0.14038 0.326368 -0.159542 -0.245149 -0.112373 -0.0115254 -0.0982129 -0.013611 -0.329558 0.222542 0.00218097 0.19258 0.0146342 0.00410095 -0.094104 -0.00326705 0.118173 -0.119268 -0.0353281 0.0339353 -0.0252172 -0.245233 0.694095 0.134234 -0.246958 0.265976 -0.0323157 0.0621217 -0.334239 0.179415 0.0638125 -0.176837 0.123819 -0.0633056 -0.028764 0.189262 0.160121 0.313617 0.191397 0.421804 0.0496207 -0.11129 0.109159 0.0455458 -0.142151 0.111056 0.120972 0.0017312 -0.101679 0.117233 0.139228 0.25743 -0.0728403 0.155543 -0.183914 -0.188619 0.0133859 -0.119411 0.118024 -0.199418 -0.168759 0.0462424 0.0876236 0.143335 -0.208661 -0.142675 -0.132871 -0.119516 -0.0997968 -0.0558329 -0.0315907 0.234779 0.160612 -0.0747368 -0.14988 0.325721 -0.156943 -0.0261317 -0.049092 0.0282135 -0.153526 -0.220199 0.0351432 0.162226 -0.191808 0.117227 -0.0449926 0.0972057 -0.328779 -0.248113 -0.15742 -0.111008 -0.288621 0.125996 -0.0322129 -0.22735 -0.163358 -0.0636714 
-1.00376 0.0233755 0.0452027 0.175715 -0.053408 0.0593044 -0.23462 0.0719115 -0.0527512 0.128219 -0.0770664 -0.000572267 -0.12034 -0.0114549 0.0874241 -0.255492 0.0991226 0.198086 -0.215032 0.263759 0.00194953 0.0102367 -0.0119009 -0.10243 -0.119423 -0.0883058 0.214557 0.0914212 -0.0900154 0.407616 0.305822 0.178047 -0.188483 -0.045105 0.142755 -0.251078 -0.0750149 0.0958063 0.266775 0.122032 0.0163943 -0.042177 0.081854 0.112701 0.042949 0.146283 0.207121 0.102275 0.00627151 -0.0627388 0.181551 0.155183 0.08802 0.347637 -0.191283 0.00086448 0.162197 0.046861 0.0624232 -0.0619191 0.161024 -0.137127 0.0245004 0.173734 -0.274211 -0.136043 -7.66468e-05 0.186544 -0.117694 0.169924 0.0280361 -0.141489 -0.112147 -0.163761 -0.463555 0.0887453 -0.231553 0.0573071 -0.204292 -0.0192586 -0.126249 0.050019 -0.290498 -0.0908614 -0.140734 -0.103739 -0.0861827 -0.053332 0.279678 -0.142762 -0.144454 -0.0647223 0.147744 -0.0638771 -0.0271543 -0.0228671 0.224804 -0.0378912 -0.043023 -0.00468688 -0.00611017 
-0.763586 -0.0323092 0.00811642 0.214002 0.0825301 -0.126152 0.139843 0.363386 -0.165573 -0.189769 0.0219803 -0.129946 0.0350533 -0.0166283 -0.0683342 -0.283849 -0.0528146 -0.382402 -0.120297 -0.0499147 0.11306 -0.184447 0.0795478 0.139678 -0.00341867 0.26317 -0.0106301 -0.254811 0.0219125 -0.0278462 0.0591215 -0.0998376 0.0328743 0.336699 -0.0998569 -0.147993 -0.141094 -0.185697 0.288571 -0.0676237 -0.0285128 -0.275991 0.409651 0.048308 -0.0549218 0.117965 0.251917 0.03326 -0.0784963 0.0983534 0.296632 -0.236689 -0.130138 0.199166 0.0911317 -0.207743 -0.133343 -0.111576 0.182256 0.303743 -0.0131645 0.303271 -0.415446 -0.0461052 0.215038 -0.397856 0.104503 -0.057228 -0.326718 0.0835447 -0.0273698 -0.627397 -0.296121 -0.286661 -0.452312 0.0853383 -0.179796 -0.0355997 0.123432 0.187985 0.0473885 0.0762094 0.0600038 -0.102232 -0.0292486 -0.376662 0.191865 -0.236 -0.0572982 0.196461 -0.0143248 0.186719 -0.088836 -0.00789346 0.104076 -0.159976 0.152171 -0.0603517 -0.00986277 -0.081746 -0.282088 
0.0574143 0.0208008 -0.383813 -0.282783 -0.610106 -0.466443 -1.01672 -0.636053 -0.599874 -0.34501 0.195232 -0.367635 -0.221087 -0.596319 -0.74071 -0.10977 -0.42956 -0.319661 -0.186708 -0.828257 0.27342 0.0267533 -0.339304 -0.136484 -0.048521 -0.0742906 -0.257222 -0.00150055 0.26153 -0.193741 -0.277801 0.20361 -0.262814 -0.121011 -0.789307 -0.638409 -0.13597 1.04937 -0.000546809 -0.736097 -0.0282894 -0.190005 -0.603877 0.170734 -0.0485693 -0.0938067 -0.282955 -0.415768 -0.357309 -0.10738 -0.257413 0.402566 -0.134284 -0.464374 -0.173634 -0.046599 -0.316365 0.0338994 -0.134466 -0.0242373 -0.356506 0.184739 0.0901504 -0.105496 -0.237795 -0.561436 -1.17897 -0.355597 0.155548 0.511467 0.537983 0.08574 0.297917 -0.59113 0.23819 -0.138309 -0.210086 0.124138 0.301241 0.398729 0.328422 0.535128 0.583447 0.0801862 0.000140057 -0.297691 0.125352 -0.0910604 -0.523708 0.551533 0.39529 0.85203 0.315581 0.351248 0.17682 -0.183896 -0.163514 0.0644773 0.890011 0.107768 -0.565568 
-0.613339 0.00225907 0.00740175 0.0211579 0.117179 -0.148654 -0.143095 -0.097543 -0.27046 0.0563738 0.00171166 0.0327741 0.0351813 0.105128 -0.00433549 0.0803095 -0.0560448 -0.25793 0.00214935 0.0510451 0.0599247 -0.286993 0.233805 0.0363656 0.060833 0.183792 -0.0414017 -0.144297 -0.116295 0.0605213 -0.105651 -0.0211305 -0.0894895 -0.159051 0.144739 0.079737 0.0610648 -0.0867188 -0.0175159 -0.0561243 -0.175534 -0.182354 -0.261798 -0.375239 -0.0257597 -0.0453147 0.026126 -0.178182 -0.287786 0.122438 -0.0279491 -0.230384 -0.0457673 -0.277182 -0.289345 0.0900494 -0.112416 0.062635 0.0672455 -0.194835 -0.271531 0.222079 -0.140422 0.0470382 0.101777 0.0619013 0.11076 -0.212263 -0.0354467 -0.10917 0.0760287 0.175023 0.0859885 -0.14104 -0.0862947 0.0209667 0.0113604 -0.0111183 0.160653 -0.160341 0.0143116 -0.057848 -0.126524 -0.435647 -0.0752143 -0.179174 -0.00606563 -0.217179 0.130748 -0.107528 -0.0654875 -0.0627028 -0.207472 -0.129714 -0.292969 -0.348975 0.0464484 -0.0190456 -0.338677 -0.131133 0.0319393 
-0.765357 -0.013182 0.0882067 -0.268639 -0.610612 -0.336448 -0.146829 -0.101643 -0.435554 0.314548 -0.0426551 0.0587493 -0.662222 -0.122679 -0.346349 -0.326503 0.183994 -0.596516 -0.29361 -0.00234361 -0.175774 0.127797 0.114153 -0.0371252 -0.0936828 -0.314569 -0.0423267 -0.0812152 -0.308985 0.161909 -0.241148 0.0821802 -0.188912 -0.105176 0.00396013 0.0431251 0.151906 0.0915087 -0.304584 -0.0221372 0.216002 0.0582708 -0.474724 -0.161574 -0.0773971 0.316902 0.175741 0.00746286 0.152099 0.46707 -0.220946 0.941789 -0.194808 -0.231369 -0.203693 -0.164275 -0.3723 0.151092 0.0658606 0.0761241 -0.121329 0.459171 -0.233308 -0.203965 0.356775 0.139868 -0.0799262 -0.101754 0.338806 0.225988 0.220554 0.498008 -0.09545 -0.258147 -0.147254 0.0528525 0.00398835 -0.456335 0.124802 0.00683023 -0.0505394 0.284713 0.244993 0.163379 0.0341274 -0.418843 -0.230059 -0.00902414 0.035015 -0.265227 -0.0316115 0.30089 0.141809 0.0201265 -0.110627 0.0552916 -0.343053 -0.0720471 -0.284355 -0.202216 0.119563 
-0.695004 -0.0420882 0.0843458 -0.0598974 0.195969 -0.111627 -0.0439779 0.0187102 -0.348352 -0.0459526 -0.0794239 -0.0286519 0.000963404 0.0287076 0.00220933 0.0347802 -0.181638 -0.297018 -0.0407359 -0.179715 -0.0778784 -0.222811 0.287185 0.0483085 -0.0326738 0.334442 -0.0214053 -0.145805 -0.365303 -0.300903 -0.141501 0.00776188 -0.15109 -0.310356 -0.0161161 0.0500886 -0.0927065 -0.263603 0.145903 -0.189074 -0.0379491 -0.230941 0.132015 -0.423511 -0.0189287 0.106461 0.00691609 -0.00922283 -0.0236488 -0.0778313 0.0161711 0.213235 0.0101407 -0.228499 -0.290477 0.160429 -0.0855826 -0.0363208 0.00688871 -0.11763 0.0223291 -0.176994 0.144336 0.0466411 -0.120157 0.123456 0.0384487 -0.244808 -0.162346 -0.289738 -0.345072 -0.402254 -0.102904 0.152066 0.404253 0.079492 -0.0431034 -0.00963771 -0.0979274 -0.0286679 0.0410629 -0.132588 -0.0399008 -0.227951 -0.0644637 0.474359 0.22268 -0.188724 0.0398407 0.0121866 -0.0545882 0.00488067 0.057074 -0.0782911 -0.0953185 -0.24331 -0.127574 0.0258589 -0.264404 -0.195308 -0.229855 
-0.515597 -0.00835745 -0.325702 -0.255027 0.0151761 0.114067 0.0447269 -0.00690789 -0.242055 0.203444 -0.035849 -0.0521893 0.0882812 -0.018345 0.0741491 0.264625 -0.239661 -0.280626 -0.00806012 0.279021 0.138402 -0.0895907 -0.072306 -0.226825 0.157062 0.322795 -0.0917159 -0.36205 -0.190822 0.0623651 0.0349671 -0.103165 -0.350595 -0.0847855 0.226377 -0.0964731 0.0612518 0.0924687 0.000464979 -0.126669 -0.140073 -0.124714 -0.252013 0.21353 0.0445528 -0.0846105 -0.0727451 -0.165684 -0.0991379 0.084244 -0.211301 -0.175702 0.112004 -0.340647 0.115042 -0.118169 0.220566 0.237379 -0.118283 -0.326056 -0.1353 -0.0364709 0.162253 0.0750528 -0.222679 0.0124742 0.194661 -0.00391171 -0.219233 -0.133752 0.0961684 -0.165976 -0.122096 0.0369906 -0.22281 0.131037 -0.229005 -0.0316735 0.0314693 -0.288388 -0.00673708 0.00746752 -0.0580599 -0.46501 0.0983946 -0.100799 0.163593 -0.205496 0.0441056 -0.356922 -0.0892576 -0.239843 -0.224481 -0.125211 -0.190402 -0.21463 0.0616855 0.0585593 0.045269 -0.0258974 -0.197281 
-0.894461 -0.0325966 -0.24652 -0.343791 -0.202319 -0.100999 0.320804 0.141996 0.182347 -0.188495 0.0835632 -0.0810068 -0.0262507 -0.0293369 -0.198254 -0.183727 -0.237589 0.068606 0.0443524 -0.165279 0.218026 0.0619007 -0.250574 0.149639 0.129786 -0.257535 -0.107067 -0.00298734 0.261011 0.103282 -0.078334 0.100792 0.249688 0.0884844 0.108118 0.139891 -0.0547995 -0.0181678 0.114981 0.237009 0.115241 0.20682 0.0921996 0.0172464 0.0259545 -0.0543938 0.0180979 -0.0438248 -0.131325 -0.0501639 0.411256 -0.12857 -0.101571 0.0768981 -0.0695827 -0.130264 -0.398779 -0.024204 0.413072 0.0551727 0.078051 -0.179731 0.0398489 -0.0264332 -0.0941232 -0.107511 0.0182867 0.0861666 -0.148304 0.168403 -0.120296 -0.343911 -0.0183652 0.20478 -0.119515 -0.314255 0.103222 0.364703 -0.11472 -0.0563041 0.138249 -0.0236032 0.0170465 0.0336584 0.207625 0.0170547 0.0408885 -0.100961 -0.172708 0.058598 0.168474 0.275551 -0.022146 0.220053 -0.0465429 -0.245662 0.19283 -0.0700459 0.270166 0.322685 -0.0227063 
-0.559428 0.0928902 0.1456 0.0601742 -0.242228 0.0289165 -0.095957 -0.346305 -0.405934 0.319485 -0.119783 0.0876964 -0.191287 0.133828 -0.128389 0.0863531 0.168647 0.0110549 -0.16801 0.364794 0.0300149 -0.313548 0.22122 -0.162686 0.152365 -0.506991 0.00236944 0.0632389 -0.448683 0.109576 -0.192982 0.320199 -0.682995 -0.614285 0.0291245 0.270608 0.164234 -0.193577 -0.0485712 -0.533473 -0.462103 -0.366282 -0.194036 -0.943568 0.115185 0.0632165 0.319701 0.312461 -0.480071 0.11008 0.305669 0.0449392 0.185257 -0.472469 -0.824097 0.492327 -0.318368 0.148566 -0.0153616 -0.231643 0.108656 0.0224676 0.35538 0.401383 -0.740575 0.108964 0.101624 -0.581509 -0.138991 -0.146811 0.17682 0.441435 -0.0176867 -0.689406 0.0416536 0.286004 0.176886 -0.00744518 -0.123176 -0.190058 -6.9684e-06 -0.229483 -0.288749 -0.543525 -0.244662 0.359512 -0.108913 -0.114301 0.714088 0.000447542 -0.197466 0.223041 -0.0347838 -0.178273 -0.416666 -0.171728 -0.281905 0.126474 -0.165235 -0.109787 0.748118 
-0.809178 0.0684104 0.487966 -0.168784 -0.0621657 0.0352017 0.13521 -0.24466 -0.0948501 0.0382249 -0.0885512 -0.132201 -0.0441489 0.0394396 0.0113669 -0.000864001 0.255012 0.0574733 -0.401961 -0.376035 -0.0689887 0.0114809 -0.150252 -0.0685431 -0.156608 -0.403178 0.205071 0.00662627 -0.27465 0.00475007 0.0405641 0.124448 -0.210807 -0.396556 -0.371114 -0.0274147 -0.0398784 -0.0407592 -0.193107 0.0492241 -0.0565729 0.0305723 0.399885 -0.251654 0.0995177 -0.159193 -0.230008 0.260201 -0.00492685 -0.086927 0.269639 -0.377115 -0.0635923 0.19247 -0.11656 0.370295 0.0363006 -0.179995 -0.0677309 0.0279406 0.280236 -0.186363 0.113419 0.0587758 -0.211778 -0.231554 0.205668 -0.280256 0.250719 0.126941 0.15418 -0.158635 -0.283817 0.0369345 0.174148 -0.149323 0.065712 -0.100168 -0.128383 -0.0280982 -0.153919 -0.306731 -0.263828 0.358686 -0.184597 0.478179 -0.187973 0.190199 0.156952 0.0635728 0.0634795 -0.00346389 -0.0865272 -0.0662302 -0.0967443 0.352593 -0.663457 0.00158114 0.304567 -0.0814724 0.153549 
-0.788529 -0.0188346 -0.143314 -0.0369324 -0.102809 0.266504 0.204914 -0.207772 -0.121614 0.0838107 0.0710182 -0.11228 0.202079 0.101862 0.110057 -0.0325978 -0.164295 -0.143898 -0.163406 0.1067 0.119603 -0.278432 0.0210461 -0.0952924 0.152088 0.20056 -0.0451166 -0.15683 0.170233 0.223185 -0.02391 -0.0647771 -0.237102 0.355472 0.0014395 -0.0629754 0.212774 -0.207076 0.0358884 -0.086506 -0.0855156 -0.136497 -0.270188 0.127412 -0.0321041 0.0837628 0.214671 0.143425 -0.116152 0.0237234 -0.0629783 -0.421416 -0.0516103 0.0210584 0.401225 0.0388042 -0.019246 0.150939 0.0176583 -0.131122 -0.117686 0.342468 0.0441206 -0.0904886 0.303209 -0.174824 0.0976225 -0.0432615 -0.333841 -0.0904975 0.366946 0.0419697 0.388426 0.00934901 -0.22214 -0.107797 -0.0532287 -0.0958071 0.231345 -0.0913641 0.0160041 -0.0580053 -0.100361 -0.47514 0.111567 -0.0952918 0.0957791 -0.305344 -0.0951556 -0.0164956 0.0412206 -0.0548042 -0.213642 -0.180118 -0.302711 -0.249751 0.0463779 -0.0367344 -0.249271 -0.0850244 0.174818 
-0.0965456 0.062366 -0.108428 0.0517663 0.10933 -0.0152721 -0.38312 0.105585 -0.396062 0.326982 -0.000871367 0.0738522 -0.247494 -0.072064 -0.0682894 0.196644 -0.19218 -0.373434 -0.0617384 0.454755 0.0128353 -0.205302 0.140049 -0.275081 0.232699 -0.216331 -0.0441595 -0.129968 -0.251292 0.0321181 -0.150422 -0.0562314 -0.679438 -0.302485 0.162824 -0.350796 -0.218182 0.0648249 -0.0620246 -0.138211 -0.254553 -0.384415 -0.777283 -0.113617 -0.096916 -0.0602172 0.0255856 -7.71078e-05 -0.130377 0.331309 -0.33696 0.056191 0.102974 -0.748545 -0.310482 -0.0405893 -0.24368 -0.0453702 -0.32154 -0.454548 -0.103134 0.0677733 0.132202 0.135997 -0.663096 0.14491 -0.241842 -0.197121 -0.116151 -0.033374 -0.0181161 -0.00943809 -0.240923 -0.378889 -0.495654 0.270807 -0.196329 -0.057302 -0.117007 -0.126562 0.0741056 0.0199734 0.0916726 -0.183942 0.100647 -0.153355 -0.0191922 -0.0602681 0.437692 -0.220732 -0.0109784 0.231343 -0.0912139 -0.201323 -0.060159 -0.0431072 -0.290193 0.00153724 0.207191 -0.158681 -0.1492 
-0.356778 0.044377 0.0259854 -0.514007 -0.274263 -0.48527 -0.0427323 0.131049 -0.0560094 0.0134796 -0.104664 0.023863 -0.337689 0.149432 -0.253226 -0.25601 -0.271597 -0.0876069 -0.276681 -0.219904 0.00419533 -0.028972 -0.0333228 0.0405545 0.0219146 -0.43404 0.072709 0.225644 -0.251983 -0.0122989 -0.175172 0.0647883 -0.0666181 -0.29936 -0.426036 -0.10099 -0.0128725 0.0919709 0.192766 0.183903 -0.182018 -0.612398 -0.266421 -0.500046 0.052189 -0.140386 -0.296227 -0.163521 -0.0285674 -0.247902 -0.0285807 -0.335815 -0.106257 -0.328116 -0.451153 0.0400869 0.0513011 -0.0938573 0.162511 0.0380413 0.101708 -0.0838528 0.0723646 0.0201255 -0.467314 -0.223012 -0.0514081 0.205601 0.561392 0.136369 -0.0158439 -0.0873947 0.128511 -0.118464 -0.0722838 -0.249497 0.106087 0.0905202 -0.057315 -0.116745 -0.119808 -0.104979 -0.140266 0.286344 0.041928 0.235011 -0.161564 0.145171 0.0530539 -0.121847 -0.115111 -0.232786 -0.364765 -0.168552 -0.026886 0.157312 -0.406509 0.0296375 0.067354 -0.105866 -0.238157 
-0.551008 -0.00471898 -0.0467647 0.200175 0.00432532 0.0519368 -0.296475 -0.162813 -0.054284 0.225104 -0.0284003 0.452495 0.32486 0.30645 0.135348 0.436707 -0.200072 -0.131905 0.170976 0.337792 -0.199909 -0.271885 0.3187 -0.098135 0.130602 0.237987 -0.00499096 -0.0793586 -0.310606 -0.0782917 -0.143788 0.197293 -0.141979 -0.347512 0.410617 -0.102994 0.0338974 -0.396472 -0.0785742 -0.398987 -0.314189 -0.43565 -0.534434 -0.37523 -0.0468586 -0.118756 -0.0786783 0.213125 0.0314962 -0.0645846 -0.253194 -0.185757 0.0436868 -0.36071 -0.181814 0.243263 -0.146871 -0.0394665 -0.266241 -0.224985 0.013502 -0.286322 0.355413 0.138262 -0.352102 0.15072 0.143101 -0.020926 -0.270729 -0.537031 -0.408562 0.029567 0.183075 -0.168265 0.217664 0.103238 0.00509252 -0.175146 -0.155079 -0.114541 0.0113383 -0.399683 -0.110149 -0.252115 -0.0115507 0.142025 -0.187997 -0.133388 0.367547 -0.115969 -0.347644 -0.109087 -0.0905171 -0.28993 -0.167349 -0.0211195 -0.38014 -0.0142167 0.0398469 -0.155511 0.232999 
-0.693438 -0.0668384 -0.0223044 0.262391 -0.132463 -0.295807 -0.00562475 -0.0953811 0.279341 -0.141747 0.0686092 -0.0182802 -0.0362634 0.03121 -0.146015 0.12809 -0.00554533 0.367116 0.00121788 -0.137923 -0.0193073 -0.0270709 -0.0877 0.09221 -0.156973 -0.397071 -0.0224394 0.393725 0.558823 0.126712 -0.215842 0.0459193 0.418941 0.0930062 -0.286052 -0.259105 -0.0761191 0.0207507 0.0128919 0.121431 -0.0438633 0.121308 -0.001472 0.027513 -0.118066 -0.283334 -0.140975 -0.0287275 -0.24953 -0.00550082 0.127407 -0.276887 -0.0759688 0.17152 0.167359 0.0103328 -0.209464 -0.218398 -0.044236 -0.0802213 -0.141001 0.0838784 -0.171743 -0.194255 -0.169177 -0.0308151 -0.316964 0.0136839 -0.156791 -0.013572 -0.118353 0.00302289 0.023313 -0.089031 -0.0785154 -0.242952 0.074398 0.0522602 -0.0802615 0.115977 -0.161068 -0.246665 -0.0507357 -0.0167362 -0.139359 -0.140353 -0.396108 0.0810373 -0.43308 -0.0443686 0.179323 0.0278517 -0.0619161 -0.215582 0.0174334 0.160495 -0.248776 -0.0528906 -0.424464 0.139979 0.231423 
-1.09143 -0.0783721 0.185769 0.0867674 0.112747 0.163357 0.3711 -0.0271789 -0.0578091 -0.170369 -0.201309 -0.205607 0.263149 0.0835473 0.153359 0.0259309 0.287358 0.0863583 -0.179678 -0.350101 0.0517823 -0.0522745 -0.277093 0.0133702 -0.228657 -0.039997 -0.0608529 0.0258408 -0.233102 -0.278706 0.0447905 0.254308 -0.0148549 -0.419345 -0.0105338 0.444806 -0.0740816 0.351569 -0.476273 -0.295866 -0.0886215 0.153501 0.357615 -0.448706 0.218894 -0.0550204 -0.109912 0.0485713 -0.088816 -0.150141 0.302802 -0.0474303 0.0200382 -0.0037892 -0.312089 0.275701 0.165664 -0.0460127 0.0551468 0.0301782 0.129448 -0.139828 -0.0395812 0.0190139 0.0244715 -0.217858 -0.0415706 -0.278435 0.216204 0.244194 0.142564 0.306919 0.00113293 0.0538225 0.197054 0.082949 -0.0496988 -0.0348931 -0.134269 0.0855295 -0.00712659 -0.0613656 -0.145504 0.0147082 -0.440856 0.450996 0.0239857 -0.0383743 0.0429537 0.137937 -0.16182 0.274424 0.388204 0.360651 0.0732455 -0.0772621 0.00387977 -0.0505888 0.240435 0.203453 0.289029 
-0.749904 -0.111711 0.0544978 0.359334 -0.210132 0.363315 -0.135334 -0.114064 0.0529247 -0.0845589 0.0196855 -0.160654 0.168907 -0.0494427 0.288536 0.112497 -0.0701121 0.177022 0.0175909 -0.147898 -0.0478233 -0.213394 0.0411023 -0.104681 -0.184945 0.434121 0.0119093 0.0816793 0.299741 0.0524009 0.103078 0.118793 -0.109161 0.0159719 0.0646239 -0.0739921 -0.112377 -0.0736312 -0.0113314 -0.153907 -0.0318598 0.155987 0.179052 -0.108147 -0.0724059 -0.0880933 0.117895 0.215274 -0.0750962 0.100673 0.175604 -0.0708531 0.0701736 0.25634 0.163182 0.145187 -0.44345 -0.204617 -0.0217014 0.00692933 0.103824 -0.0150033 -0.0943989 -0.0249248 -0.18707 -0.115327 -0.188757 -0.425795 -0.291164 0.0871121 -0.0846721 -0.166537 -0.0652945 0.0935234 -0.262794 0.0506261 -0.296108 -0.113997 -0.249227 0.332388 0.00556841 -0.102946 -0.0520213 -0.376693 -0.244746 -0.0577943 0.0634244 -0.315249 -0.114042 -0.00308046 -0.270674 0.0453571 0.297822 -0.233536 0.172199 -0.222645 -0.0360658 -0.0514639 -0.053149 0.0917797 -0.0765691 
-0.773576 0.0603884 0.0180748 0.310235 -0.00795072 0.0566945 0.0578481 0.185851 0.0824232 0.0158767 -0.0711034 -0.190846 -0.0355931 0.0441679 -0.00310582 -0.201183 -0.10477 0.157999 -0.043308 0.175813 -0.0233091 -0.0805509 -0.040868 -0.0552233 -0.169851 -0.00396694 0.202349 0.175676 -0.234616 0.0967166 0.192874 0.11181 -0.10003 -0.206285 -0.230544 -0.274614 0.10293 0.115403 0.135753 0.285016 -0.108508 -0.21101 -0.299447 -0.298711 0.045484 -0.0409244 -0.0982806 0.0751999 0.279914 -0.125124 -0.125484 -0.0849035 -0.0737205 0.026865 -0.278483 -0.0305858 0.193081 -0.142005 0.0600205 0.10858 0.142003 -0.285109 0.0728209 0.0241276 -0.226721 -0.358405 -0.27689 -0.00386317 0.201969 0.310282 -0.076053 0.00962776 -0.243344 -0.160058 -0.270757 -0.118506 -0.195348 -0.184638 -0.373698 0.32789 -0.172578 -0.00637991 -0.134797 0.247487 -0.175582 0.116574 -0.381157 0.0748635 -0.116344 -0.0199866 -0.0626486 0.0871602 0.304417 0.0604229 0.0969117 0.0780919 -0.37043 -0.0462957 0.0770896 -0.0390383 -0.356959 
-0.996608 0.0474604 -0.155171 -0.0543109 -0.0807136 -0.0593672 0.00548954 0.0413985 -0.408264 0.0955752 -0.0641103 0.112652 0.0981949 -0.0141283 0.0268506 0.169848 -0.131182 -0.299942 0.0380922 0.0912148 0.000141707 0.125315 0.154727 -0.118179 0.271766 -0.298303 -0.147366 -0.149862 -0.403056 -0.277258 -0.194655 0.0254794 -0.301201 -0.262964 -0.00901139 -0.0392391 0.0151526 0.105662 -0.119525 -0.395897 -0.265551 -0.144263 -0.153948 0.109624 -0.0103397 -0.000849824 -0.135216 0.0466688 0.069994 0.187407 -0.0838225 0.533242 0.0689429 -0.279298 0.0737213 -0.0276312 -0.131703 0.195259 -0.340571 -0.115853 -0.0354589 0.0917337 0.293303 0.14067 -0.184474 0.054341 -0.127856 -0.0341334 0.0932767 0.19222 0.181096 0.204443 0.113149 0.177459 0.0616706 0.0567828 0.114372 -0.0425406 0.062726 -0.0303061 0.201582 0.0922187 0.237378 0.136596 0.112324 0.277702 -0.0537289 0.12172 0.252892 -0.0555575 0.00685906 0.252974 0.0414083 0.211835 0.20785 0.307341 -0.0308588 0.0150179 0.346627 0.0979851 0.157727 
-0.872994 -0.0277473 -0.00864186 0.0644416 0.0326373 -0.240208 0.0727474 0.0936437 0.248318 0.0880707 0.0546868 0.0503134 0.178284 0.0960484 -0.00912358 0.401943 -0.111694 0.0240734 0.380505 0.114146 -0.22859 -0.157195 0.128591 0.128846 0.242646 -0.0379508 1.88805e-06 -0.0209216 0.170872 -0.0786892 -0.219553 0.0232269 0.370749 0.347004 -0.00293628 0.0322551 -0.0213817 -0.185581 -0.308951 -0.0984829 0.237881 0.16475 -0.0400229 0.283806 -0.339504 -0.125912 -0.06985 -0.272726 0.11288 0.179241 0.0657321 0.470546 0.0351631 -0.0332802 0.302623 -0.235046 -0.150406 -0.0915563 0.0630615 -0.155517 0.0054396 -0.0271156 -0.168533 -0.0466797 -0.157972 0.0617207 0.0849023 0.210815 -0.145274 -0.578223 -0.474456 -0.262536 -0.158461 -0.434869 -0.215964 -0.120844 -0.00118935 -0.257572 -0.107168 -0.012365 0.0942581 -0.102531 0.273887 0.0590235 0.155164 -0.38219 -0.462183 0.122425 -0.132603 -0.103525 0.172388 -0.0495055 -0.0336127 0.0248344 -0.0190758 0.120537 -0.55201 -0.0814662 -0.0637028 0.042256 0.129879 
-0.775115 -0.135966 -0.192066 0.219453 0.551551 -0.248491 -0.0238414 0.510042 -0.109712 -0.254752 0.0538348 -0.0778414 0.261034 -0.0812116 -0.148667 -0.0300453 0.0175568 -0.365489 0.131851 -0.0164007 0.0265158 -0.160652 0.184817 0.200969 -0.0577273 -0.2105 -0.0593772 -0.0399858 0.222179 -0.273346 -0.240154 -0.335238 0.435511 -0.148023 -0.479918 -0.406946 -0.429377 -0.0373618 0.207197 -0.0493608 -0.177133 -0.0898491 0.402065 0.0614351 -0.0707777 -0.107387 -0.110332 0.0497761 -0.216762 0.247168 0.0855803 -0.17927 0.033719 -0.0549199 0.189553 -0.125275 0.213208 -0.183203 -0.114898 0.0296168 -0.300746 0.856572 -0.0487747 -0.0809983 -0.394832 -0.017303 -0.29554 0.0650681 -0.229127 0.289159 0.452046 0.112932 0.405895 -0.0576567 -0.166877 -0.225148 -0.0475174 0.125989 0.283295 -0.165931 0.0311926 0.103774 0.0851141 -0.197182 0.0140307 0.0127795 0.162161 -0.0325222 0.00666541 -0.134711 0.25279 0.0752817 -0.303784 0.0619198 -0.0420426 -0.166337 0.373983 -0.0636082 -0.260997 -0.0278055 -0.26605 
-0.807186 0.0346084 -0.189846 0.0267069 -0.00325334 0.246978 0.505639 0.139121 -0.289328 0.152602 -0.0198566 -0.24959 0.0589865 -0.101701 0.119067 0.263645 -0.0644829 0.0802955 -0.0725693 0.11683 -0.00556406 -0.134368 -0.0271547 -0.256455 0.270204 -0.202218 -0.0706699 0.177117 -0.201272 0.0154113 -0.134003 -0.0621156 -0.262459 0.123578 -0.344637 -0.2073 0.0274697 0.0444872 0.0204888 -0.393209 -0.405488 -0.303864 -0.467869 0.0631948 -0.0648508 -0.0884716 -0.0144422 -0.0142837 0.0639753 0.0510083 -0.269164 -0.264298 0.0766593 -0.251957 0.106148 -0.184307 -0.23458 0.0245308 -0.373788 -0.287633 -0.100398 -0.0463376 0.105809 0.0715974 0.117111 0.0177186 -0.05688 0.0863962 -0.259116 -0.231839 -0.00720301 0.035541 0.322812 0.0370334 -0.0444596 -0.0410219 0.0901368 -0.0660627 0.0986777 0.0126578 -0.074427 -0.191014 -0.132648 -0.0904558 0.133765 0.209803 -0.104084 0.0999206 0.202165 -0.0321847 0.0726533 0.101091 0.0905172 0.014088 -0.0137956 0.130678 -0.290051 0.034162 -0.113622 -0.0040765 0.171088 
-0.940857 -0.00416746 0.104847 -0.0124662 -4.81112e-06 -0.0698893 0.183431 -0.00918744 -0.0548598 -0.000519169 -0.0640625 -0.0974321 0.228922 0.106425 -0.0111632 0.0948806 -0.0510876 -0.0951218 0.0743599 -0.18426 0.134562 -0.128011 -0.191527 0.101429 -0.0603455 0.314759 0.184398 0.196055 -0.0571489 -0.0114482 -0.0398521 0.223695 0.0383168 -0.101952 -0.07883 0.0620818 0.190281 0.258457 0.131547 0.338639 0.0497624 0.0188248 0.191381 0.0506618 0.0933192 -0.18041 -0.265663 -0.145931 0.118332 -0.0135388 0.15513 0.185526 0.0635174 -0.0126014 -0.0185921 0.0794609 -0.15053 -0.204217 0.288667 -0.0251822 0.179405 -0.506902 0.230605 0.0660417 -0.467263 -0.118205 -0.0193506 -0.196656 0.275669 0.207798 -0.0913729 -0.358134 -0.194232 -0.0741842 -0.0227925 -0.214882 -0.27235 -0.019163 -0.313104 0.0622773 0.0765586 0.0121914 -0.050837 -0.0802117 -0.1309 0.483209 -0.165688 -0.176125 -0.033986 0.0102528 0.00270934 0.0997814 0.0839388 -0.0461982 0.00468555 -0.278031 -0.260631 -0.0664423 0.102935 0.0274779 -0.164857 
-0.932044 -0.0523843 0.0654893 -0.181143 -0.0574581 0.000203522 0.310848 -0.037813 -0.209394 -0.100619 -0.0624333 0.0660176 -0.176158 -0.170914 -0.235836 0.0307623 0.0922152 -0.135411 -0.243685 -0.475762 -0.149924 0.102552 -0.134977 -0.0519451 0.211754 -0.0714394 -0.00431931 -0.401333 -0.129892 -0.18169 -0.0435897 -0.0658219 0.121244 0.181271 -0.0174246 -0.111487 -0.145213 -0.418536 -0.384184 -0.215083 0.0442902 0.134087 0.389657 -0.125807 -0.0363727 -0.211662 -0.0302047 0.421538 0.0149056 0.128495 0.10809 -0.264359 -0.0676156 0.276278 0.11424 0.114507 -0.465396 0.0923577 0.168056 0.131688 -0.00585316 0.566843 -0.00163407 -0.0322126 0.207948 0.20054 0.278869 0.130861 -0.143758 -0.0555516 0.402368 0.158197 0.210491 0.346323 -0.045339 -0.0459325 0.187108 -0.0108946 0.22096 -0.260115 -0.0520957 -0.464428 -0.0487332 0.0846494 0.268097 -0.00565095 0.397511 -0.0543302 0.213481 -0.169377 0.00660014 0.0499707 -0.270777 -0.107262 -0.125465 0.139355 0.244296 -0.0267135 0.0325484 -0.155729 -0.22997 
-0.372708 -0.0354395 -0.396336 -0.180604 -0.387297 -0.0931664 -0.523915 -0.286149 -0.327752 0.0908583 0.143757 -0.0259961 -0.263942 0.0201568 0.0474843 0.315435 -0.187201 0.161856 0.0891699 -0.294438 0.320148 -0.203984 -0.183336 -0.17829 0.0734588 0.0372395 -0.248327 0.311828 0.0779045 -0.11004 -0.160912 0.00863521 -0.451385 0.11774 0.0670394 0.113378 -0.0274277 0.317057 0.163192 -0.0743211 -0.221874 -0.319154 -0.715253 0.109768 -0.0536272 0.206492 0.0930702 -0.108182 -0.0176497 -0.0928196 -0.095131 0.300781 -0.0257499 -0.566832 0.0183093 -0.122675 0.0464432 0.127155 0.280308 -0.288078 -0.00321576 -0.00793246 -0.0578056 0.0370582 -0.253319 -0.321317 -0.173633 0.313991 0.00177455 -0.307195 -0.379618 -0.591962 -0.0882873 -0.431001 -0.219579 0.228103 -0.161886 -0.0540996 -0.0771847 0.266151 0.0708244 0.357271 0.172655 -0.394803 -0.00134644 -0.290347 -0.0414006 -0.182653 -0.437469 0.319005 -0.00859476 -0.0155059 0.00998978 -0.191033 0.0842446 -0.11325 -0.321817 0.0334709 -0.186214 0.0824211 -0.299143 
-0.655018 -0.0424674 -0.118172 -0.23268 -0.136258 -0.0925127 -0.346608 -0.351905 -0.23037 0.164484 0.127673 0.069287 0.0147065 -0.00852163 -0.124845 0.169976 -0.0444081 -0.0845779 -0.166059 -0.226376 0.0805827 0.0188157 0.0419544 -0.101104 0.124762 -0.147047 -0.120361 -0.109482 0.267383 0.134169 -0.199505 -0.0618493 -0.347675 0.0636415 0.168991 -0.0955376 -0.184901 -0.0996134 0.13698 0.0849948 0.0875675 0.00753682 -0.280313 0.227108 -0.188984 -0.0769744 0.000252605 0.013018 -0.186591 0.0825533 0.111281 -0.181423 0.0441435 -0.0694057 0.22968 0.00956409 -0.456922 0.0936859 0.16543 -0.205048 -0.0485567 0.143822 -0.224435 -0.0332697 -0.0464876 -0.102211 -0.012522 -0.0982523 -0.151032 -0.130816 0.0192406 -0.348232 0.093432 -0.258126 -0.150035 -0.147275 0.0938752 0.019327 0.211763 -0.0541578 0.103197 -0.0985076 0.0840039 -0.244875 -0.0564929 -0.444127 -0.0731519 -0.12782 0.0452014 0.233853 0.226736 0.151696 -0.26243 -0.200617 -0.0508428 -0.11799 -0.266664 -0.0489429 0.310861 -0.057269 0.120774 
-0.889123 -0.0589589 -0.146785 -0.0944659 -0.167437 -0.207771 -0.484284 -0.283654 -0.191374 0.0266024 0.0100014 0.276385 -0.248536 -0.286161 -0.268405 -0.235108 -0.158 -0.140982 -0.173441 -0.511357 -0.110651 0.306671 0.049455 0.0108183 -0.187551 -0.385832 -0.11045 0.101028 0.0362487 -0.016342 -0.149065 -0.0841653 -0.192689 0.0175954 0.0233969 0.074513 -0.151214 0.0754717 0.0102874 -0.119808 0.0698375 0.154275 -0.0108978 0.15839 -0.107382 0.0199113 -0.223829 -0.202362 -0.104517 -0.130622 -0.0440764 0.701536 -0.11077 0.143301 -0.0589009 -0.0834517 -0.135395 0.0870732 -0.0936566 -0.095831 -0.0923101 0.146067 -0.0902691 -0.161649 0.0110475 -0.0860073 0.0532992 0.0667821 0.368551 0.092573 0.140566 0.34133 0.174975 0.105046 0.110623 -0.188845 -0.0432711 -0.0308606 0.0689389 0.0926024 -0.155334 0.264036 0.222512 0.175753 -0.162588 -0.0375941 -0.128025 0.107286 -0.122416 -0.217063 -0.107731 -0.268209 0.172033 -0.00234993 0.21763 0.120211 0.183628 -0.0119173 -0.226272 0.00811345 -0.114653 
-1.0235 -0.0232727 -0.0497306 0.0115029 -0.0838644 0.260345 0.0183641 -0.101177 -0.340619 0.106863 -0.0138605 0.199085 -0.385258 -0.0571187 -0.0646314 -0.0603848 -0.0501389 0.00251577 -0.125656 -0.31265 -0.00471984 0.067846 0.0469103 -0.245827 0.144575 0.0458932 -0.0130171 0.155528 0.0330932 -0.076806 -0.158591 -0.0987801 -0.347914 0.338686 0.187502 0.130796 0.136143 0.206338 0.170257 -0.114965 -0.163503 -0.257543 -0.222674 0.042538 -0.0179473 0.164158 0.198762 0.131075 0.0870054 0.0699706 -0.106436 -0.318362 -0.121541 0.0764581 0.0779358 -0.101578 -0.284241 0.313476 0.0909099 0.224887 -0.118676 0.110811 -0.263735 -0.0524129 0.510243 0.0503303 0.17972 -0.00060329 -0.121089 0.216063 0.16913 0.315713 0.109153 0.276438 -0.00929247 0.264023 0.244598 -0.0222457 0.131478 0.256213 -0.0760322 0.0188811 0.0312877 0.0196574 -0.0189876 -0.123488 0.336297 -0.0829713 -0.0176026 0.138633 -0.0583119 0.294665 0.0459836 -0.00633444 0.402786 0.296082 -0.00174515 -0.0741928 -0.00495477 -0.0314383 -0.0772314 
-0.666947 -0.11906 -0.167218 0.0743107 -0.278756 -0.357532 -0.561773 -0.0115629 -0.268154 0.144853 0.0148454 -0.21144 -0.425108 -0.42389 -0.0262173 -0.114972 -0.11131 -0.278125 0.186223 -0.102797 0.0755577 -0.00455302 -0.189469 -0.106374 -0.0753438 0.313762 -0.107791 -0.0605966 0.159103 -0.00384604 0.144537 0.0568153 -0.18719 -0.0900418 -0.323005 -0.111001 -0.0753556 0.233461 0.228574 -0.402966 -0.232518 0.16865 -0.283113 0.104586 -0.000652487 0.198147 0.23736 -0.107926 -0.234621 0.148496 -0.165022 0.310628 -0.0446217 -0.158121 0.00773888 -0.256314 -0.208003 -0.0919328 -0.0689185 0.0927514 -0.257508 0.0966222 -0.153819 -0.0329483 -0.439066 0.0730362 -0.643039 -0.313492 -0.0841776 0.554172 0.179365 -0.101983 -0.327613 0.14746 -0.244492 0.137115 -0.293012 -0.129393 -0.117818 0.223242 -0.0332195 0.235144 0.140983 -0.178072 -0.0573983 -0.329695 0.266243 -0.219045 -0.307879 0.0589596 0.0683676 0.314552 0.204068 -0.132138 0.171785 -0.215767 0.114618 -0.00919722 -0.151735 -0.0351435 -0.258203 
-0.946953 -0.036105 -0.103942 -0.097131 0.000890784 0.455773 0.249666 -0.0918383 0.0612166 0.414736 0.0720919 -0.0975399 -0.253794 -0.303551 -0.00306391 0.0132989 -0.260301 0.130798 -0.125882 0.179107 0.128727 0.00774184 -0.023699 -0.354342 0.266852 0.0953908 0.0159511 -0.0729361 0.401691 0.24622 0.0141944 -0.0718072 -0.520745 0.42665 0.155108 -0.152281 0.0505374 0.0245303 0.283967 0.44654 0.10925 -0.0148044 -0.579927 0.55575 -0.168499 0.0111644 0.0560765 0.143279 -0.00294549 0.141085 -0.271895 -0.306001 -0.0459473 -0.428168 0.394745 -0.341356 -0.230255 0.0445188 -0.0515744 -0.226617 -0.0776133 -0.153327 -0.157234 0.00455541 -0.0198931 0.281204 0.0548237 0.0779408 -0.0468653 -0.0705451 -0.0448596 -0.035697 -0.0388828 0.110384 0.063923 0.239565 -0.147023 0.164945 -0.0679137 0.187145 -0.0153914 0.200489 0.161724 -0.249804 0.146757 -0.139496 0.317351 -0.149344 -0.0711634 0.257454 -0.00362096 -0.151296 -0.177865 -0.300793 -0.00244624 -0.025143 -0.00730831 -0.0502641 -0.0348741 -0.0719752 0.0725593 
-0.734583 0.056453 -0.048407 0.0896397 -0.292852 -0.262526 -0.432699 -0.215181 -0.345263 0.101385 -0.0456049 -0.0559874 -0.123378 -0.0352787 -0.051992 -0.0810506 -0.160536 -0.0395197 -0.100715 -0.162514 -0.0465855 -0.0428415 0.0422097 -0.103611 0.008614 -0.00727893 0.0718256 0.202371 -0.195183 0.181422 -0.110332 0.274487 -0.428099 -0.355281 -0.189351 -0.15775 -0.0618458 0.223534 0.153085 0.198834 -0.138017 -0.242406 -0.316957 -0.500444 0.0106695 -0.0927372 0.0692835 0.0129897 0.224235 -0.0448872 0.0543985 -0.221991 -0.0519743 -0.208175 -0.400491 0.195981 -0.431217 0.0471448 0.0522397 0.125254 0.133367 -0.0936632 -0.0470784 0.057751 0.0756133 -0.256233 -0.484021 0.0281899 -0.00721523 0.15734 0.0955033 -0.113345 0.118524 -0.154942 -0.234541 0.121124 0.252852 -0.0118371 -0.0598708 0.170088 -0.0629353 -0.237692 -0.187068 0.157029 -0.206124 -0.144758 -0.0559249 0.0205707 0.211093 0.0893075 -0.0145351 0.273473 0.0807458 0.0343555 0.220236 -0.0438501 -0.231357 0.101242 0.654113 0.0394767 -0.0487783 
-0.934105 -0.0331839 0.0753427 0.00313749 -0.449897 -0.482171 -0.486232 -0.228842 -0.0307283 -0.0242545 -0.0540059 0.305574 -0.360053 -0.326594 -0.265066 -0.286609 0.0940519 0.192466 -0.0348493 -0.38426 -0.129575 0.313603 -0.137278 -0.178369 -0.0411412 -0.187891 -0.0314795 0.230029 0.190235 0.0310569 -0.0389838 -0.178482 -0.206364 0.0692918 -0.0591806 -0.32161 0.0485676 -0.192354 0.309854 0.0420383 -0.112794 0.253324 0.028766 0.0386708 -0.0462634 -0.145308 -0.116102 0.0657888 -0.163939 -0.212151 0.0185939 0.0713869 -0.0983758 0.378547 0.0108311 -0.0132738 -0.368023 0.0180732 0.125553 -0.036519 0.0325121 -0.147178 -0.00313998 -0.229372 0.236948 0.169141 0.129507 0.307923 -0.0757639 0.199084 -0.16241 -0.107257 0.00905209 0.550951 0.109659 -0.226032 0.204593 0.140565 -0.107951 -0.077272 -0.269384 -0.33375 -0.0515094 0.0966962 0.00731167 -0.238341 0.215324 0.105445 0.0130974 -0.195073 -0.0886991 -0.0671713 -0.0251935 -0.123342 0.194274 0.211812 0.321985 -0.103462 -0.17106 0.0551029 0.142477 
-0.603458 0.00601255 -0.235698 -0.412731 0.0817126 0.188814 -0.123856 -0.241261 0.219254 0.0193409 0.175209 -0.295307 0.00010097 -0.144126 -0.0432597 0.0340558 -0.436012 -0.0410524 0.0728186 0.0898254 -0.0958099 0.164632 0.0752054 0.0594276 0.116356 0.241856 -0.0144649 -0.625364 0.530777 -0.04955 0.0189801 -0.0517752 0.120171 0.0343537 0.154089 0.00803796 -0.309305 -0.43173 -0.2421 0.165 0.396218 0.18425 0.112038 0.159294 -0.227167 -0.0197387 -0.0836518 -0.313338 -0.399057 0.160957 0.169039 0.318283 0.113035 -0.185618 0.187913 -0.1162 -0.322248 -0.0566072 -0.00599867 -0.0445144 -0.167325 -0.0420082 -0.267224 0.0228298 -0.449325 0.286292 -0.39052 -0.18208 -0.317286 -0.376535 -0.359855 -0.0926245 -0.229003 0.0205188 0.156176 0.0748028 -0.114769 0.132921 -0.0702861 -0.0158741 0.290363 0.216794 0.40368 -0.213468 0.104576 -0.220457 0.240595 -0.253157 -0.373 -0.140216 0.182846 -0.120635 -0.0857817 -0.0947093 -0.067103 -0.247645 0.196166 -0.0513683 0.187332 0.00202168 -0.109836 
-0.781326 -0.0429034 -0.00524068 -0.182358 -0.0386206 0.0687738 0.21668 -0.0421556 0.136663 -0.0333684 -0.0508946 -0.0224187 0.0199928 0.0395681 -0.0899109 -0.0392852 -0.0984297 0.360519 -0.0429188 -0.14624 -0.00817392 -0.0753134 -0.158536 -0.0859935 -0.0302189 -0.184452 0.0330802 0.281738 -0.00930339 -0.169582 -0.0771575 -0.0477536 0.115148 0.125485 -0.137943 0.0933638 0.149456 0.160682 -0.0454967 0.209717 0.112893 -0.0435231 -0.053846 -0.235701 -0.0340111 -0.0964077 -0.109732 -0.151021 -0.00400553 -0.111953 -0.0244618 -0.18824 -0.118341 -0.17027 0.0468089 -0.0446445 0.109992 -0.00854163 0.087541 -0.0908781 0.0507148 -0.221423 -0.13054 -0.0534384 0.159251 0.0155172 -0.00989681 0.282402 -0.0114826 -0.366561 -0.337455 -0.270674 -0.0721453 -0.138662 0.0268562 -0.0183548 0.0689665 -0.254236 -0.128506 -0.00523125 -0.181227 -0.114246 -0.0776306 0.0846434 -0.0162535 0.0211537 -0.227116 0.066098 -0.232804 -0.0457117 -0.090707 -0.225345 -0.0375233 -0.0613786 0.101883 0.220933 -0.653238 -0.0494861 -0.0957623 0.0520569 -0.117832 
-0.717297 0.0398045 -0.242701 -0.00725728 0.33966 0.131962 0.186225 0.0482738 -0.0651726 0.0636276 0.016351 -0.0557487 0.114515 -0.123509 0.277019 0.337969 -0.358564 -0.117245 0.26585 0.285502 -0.197572 0.075683 0.343082 -0.040235 0.289063 0.200076 -0.0423991 -0.293105 -0.0734052 -0.316921 -0.0710649 -0.0195964 -0.0922964 -0.0285062 -0.118113 -0.205212 -0.211469 -0.215974 -0.352012 -0.0119076 -0.136776 -0.246445 -0.46238 0.0559186 -0.191602 -0.219002 -0.308652 -0.3376 -0.189907 0.036471 -0.305211 0.0623507 0.100084 -0.428264 -0.289937 -0.229956 -0.426009 -0.169166 -0.41676 0.0692449 -0.0493022 -0.0362543 -0.167448 0.0828763 -0.247164 0.138599 -0.193213 -0.267588 -0.0672777 0.0448309 -0.0267982 0.25039 -0.074929 0.194706 -0.0155613 0.0160052 0.0699975 0.0211108 0.0272739 0.0639691 0.186006 -0.113034 0.249351 0.218841 0.124193 0.0429509 -0.0403085 0.0794799 0.0424978 -0.10801 0.00116122 0.0179601 0.155994 0.24395 0.164197 0.133493 0.0983555 -0.00173423 0.334422 0.00153061 -0.179902 
-0.407511 -0.0292845 0.0122964 -0.201737 -0.364917 -0.836524 -0.477276 0.0217543 -0.0834711 -0.0806373 -0.024713 0.218761 0.132037 0.0726306 -0.142748 -0.0543722 -0.195189 -0.392377 -0.0281109 -0.398643 -0.0796001 -0.244162 -0.0869097 0.170555 -0.0758126 -0.0692514 -0.104413 -0.0829778 -0.352452 -0.263129 -0.279298 0.133077 -0.0246871 -0.496357 0.299705 0.0516288 -0.298598 -0.405113 -0.428547 -0.441467 -0.26803 -0.162392 -0.332161 -0.413145 0.00365415 -0.0734409 -0.161877 -0.00700609 0.225252 -0.0943845 0.0682539 0.352502 -0.0322332 -0.158458 -0.418192 0.0456338 -0.0391029 -0.115482 0.108403 -0.237729 0.218206 -0.313546 0.545357 0.0465475 -0.330364 -0.26395 0.460581 -0.501568 0.0266489 -0.487001 -0.434803 -0.627337 -0.104133 0.161111 0.491522 -0.481422 -0.00586193 0.0727973 -0.13868 -0.1111 0.0580243 -0.0993615 0.0358767 -0.136056 0.0970558 0.620084 -0.227193 -0.00879786 -0.034747 0.105312 0.0386859 0.0304295 -0.0411036 0.10277 -0.119181 -0.18374 -0.350792 0.0285935 0.016307 0.0289788 0.134767 
-0.990444 -0.0336353 0.133086 0.172655 -0.113119 -0.0380627 -0.057782 -0.212733 -0.326867 -0.0299974 -0.0520574 -0.123623 0.0372536 -0.0212594 -0.0907824 -0.17118 0.2417 -0.157795 -0.102964 -0.433368 -0.0916423 0.0505053 -0.0696223 -0.178553 -0.142064 0.236535 -0.0256912 0.229223 -0.144726 -0.231633 -0.0563097 0.0125896 -0.197471 -0.188663 -0.102739 0.0386015 0.181338 0.386879 -0.073945 -0.217098 -0.0639454 0.0429178 -0.261323 -0.169455 0.0779824 -0.0195115 -0.00117245 0.0120204 0.144664 -0.0891347 0.000210446 -0.0455619 0.0577724 0.158395 -0.0832461 0.00434391 -0.368981 0.105523 -0.010476 -0.0437548 0.185255 -0.358982 0.0721745 -0.0297037 0.330615 -0.223493 -0.0674781 -0.374671 -0.175193 0.14261 -0.0235619 -0.325711 -0.281049 0.209778 0.173941 0.157011 0.208139 -0.22865 -0.155753 0.11678 0.0605278 -0.127943 -0.0841802 0.134728 -0.310897 0.183055 0.0919102 -0.00530006 0.111553 0.271527 -0.0763889 0.494535 0.226776 0.143707 0.194238 0.103809 -0.392337 -0.0662984 0.413316 0.0326638 0.296548 
-0.860837 -0.0279406 0.344796 0.213296 0.242041 0.136506 0.431238 0.0681279 0.193382 -0.213222 -0.158436 -0.0641731 -0.132894 0.138374 -0.0196671 -0.246632 0.261675 0.0231784 -0.191477 -0.000400475 -0.0345767 -0.102035 -0.115519 0.114179 -0.242204 -0.374318 0.123357 0.0162215 -0.101592 -0.00158141 0.159151 0.224692 0.315278 -0.181343 -0.19329 -0.197428 -0.16831 -0.15427 -0.272275 -0.107766 -0.00499855 0.109299 0.486169 -0.398106 0.131443 0.0347821 0.00289581 0.417532 -0.0610673 -0.177312 0.321294 -0.503904 -0.218337 0.147763 -0.133498 0.222207 0.488128 -0.228526 0.173429 0.22312 -0.022786 -0.0176656 -0.208572 -0.0387052 -0.344075 -0.146926 0.0274425 -0.09297 0.125064 0.325599 0.0421721 -0.0793476 -0.375557 -0.256783 -0.29972 -0.155624 -0.122057 -0.115355 -0.251192 0.140152 -0.332201 -0.112741 -0.255629 0.187461 -0.165783 0.224667 -0.355471 0.0184901 -0.245941 -0.0751024 0.0405684 -0.00249915 -0.0739598 0.0807325 -0.0551051 0.22823 -0.417788 -0.0802206 -0.272259 -0.117879 -0.164126 
-0.695282 -0.00821297 -0.21246 -0.223581 -0.180368 -0.118706 0.185634 0.354229 0.261354 -0.229996 -0.0369984 0.0574113 0.0810816 0.0647741 0.0674944 -0.172389 -0.214439 0.0119561 0.217762 0.138988 0.150308 -0.120165 -0.154856 0.103537 0.158822 -0.102217 -0.198342 -0.137577 -0.233526 -0.278705 0.0502756 0.0531621 0.326715 -0.0020324 0.203928 0.101694 -0.0243462 -0.192567 -0.315619 -0.328782 -0.307263 -0.142553 -0.266003 -0.318458 0.200788 -0.0720956 -0.0622814 -0.0697543 0.0998834 -0.0232243 0.138929 -0.0964928 -0.109596 -0.390018 -0.368219 -0.162376 0.181109 0.151755 0.210413 -0.048864 -0.0323161 -0.0676758 0.162411 0.113486 -0.254002 -0.105931 0.119622 0.0779343 -0.124259 -0.279699 -0.380191 -0.410113 -0.216754 -0.160239 -0.0872561 0.0653019 -0.06182 -0.0406926 -0.20564 -0.0512448 0.0329307 0.0717376 -0.00740438 -0.129281 0.304504 0.0673445 -0.0502443 -0.0235996 -0.345005 0.101049 -0.0648593 0.0984712 0.127508 0.295122 -0.0114312 -0.0149141 -0.0549001 0.0297784 -0.0115577 0.247652 -0.152832 
-0.913379 0.0157411 0.170587 -0.115554 0.120627 0.360981 0.0921678 -0.122816 -0.203775 0.279662 -0.0480951 0.121197 -0.227245 -0.0217297 -0.0988137 0.235245 0.092906 0.239614 -0.189545 0.0186989 -0.0185945 -0.198094 0.0400694 -0.126476 0.136092 -0.288072 -0.0420213 0.332378 -0.108814 0.153396 -0.167174 0.128793 -0.354012 -0.0935106 0.0109348 -0.125762 -0.0465157 -0.0352722 -0.0907013 0.199489 0.2213 0.274429 -0.260473 -0.100773 0.0536496 0.0457719 -0.000238052 0.139976 -0.117181 0.158884 0.0537341 0.241765 0.0511944 -0.111858 -0.154908 0.146992 -0.157909 0.208956 0.102589 -0.448819 0.121139 0.117214 0.149026 0.190889 -0.137255 0.321455 0.141326 0.191704 -0.157965 -0.19583 0.0575601 0.117518 0.196042 0.258791 0.0713117 0.0872037 -0.072703 -0.0624767 -0.141498 -0.119294 -0.0571878 -0.183837 -0.13445 -0.340831 0.149494 0.0821638 0.0767131 -0.0337626 0.267509 -0.328306 -0.220202 -0.204687 -0.0142972 -0.158097 -0.139576 -0.0306864 0.0968731 -0.0129156 -0.156856 -0.0398637 0.00776762 
-0.554884 0.0759654 -0.00791607 -0.488973 -0.21404 -0.110873 -0.273757 -0.350219 -0.0253081 0.329885 -0.0115657 -0.0987005 -0.196302 -0.123044 -0.23808 -0.198534 -0.327868 -0.18301 -0.240059 0.0340422 -0.165328 0.0335761 -0.0324254 -0.118169 -0.0503757 -0.216644 0.216973 -0.113419 -0.00884735 0.222865 0.0401972 -0.0387029 -0.174198 -0.166559 -0.304083 -0.161325 0.158368 -0.108103 0.0711714 0.478301 0.298964 0.00840615 -0.265587 0.266998 -0.126765 -0.185937 -0.375284 -0.257004 0.148521 0.138267 -0.217031 0.294517 0.0396228 -0.294698 -0.0123296 -0.00318521 0.0453651 -0.0994936 -0.0720281 0.0348561 0.22003 0.102513 0.278857 0.0902858 -0.286792 0.0056208 -0.0982177 -0.109863 0.587144 0.136063 0.0810398 0.395348 0.0259734 -0.086343 0.0955861 -0.0858779 -0.0792146 -0.069834 -0.0526161 -0.0632597 -0.0402702 0.0113571 0.141203 0.25537 0.126772 0.0502459 -0.335816 0.0836036 0.0124973 -0.353983 -0.175117 -0.644711 -0.217929 -0.272987 -0.149287 0.118156 -0.561765 -0.0162553 0.159351 -0.0829034 -0.247193 
-0.838349 -0.0880393 0.33985 0.129165 0.0217077 -0.0104788 0.0830206 0.0397471 -0.353473 -0.025541 -0.113154 0.0416482 -0.0455825 0.0725496 -0.0719177 0.138801 0.498413 -0.104118 0.0162238 -0.301668 0.0911764 -0.215078 -0.0611125 0.00823384 -0.412335 0.0198478 -0.0129016 0.323203 -0.197875 -0.0989142 -0.0773105 -0.0877804 -0.0877519 -0.0744361 -0.100905 0.0455336 0.129118 0.329008 -0.186266 -0.297576 0.104979 0.251077 0.06818 -0.29903 0.0504122 0.209636 -0.115516 -0.142222 -0.0211374 0.0967826 -0.203818 0.538186 -0.252615 0.124235 0.0127249 -0.0361251 0.404884 -0.0212377 0.059028 -0.305685 -0.0919971 0.209152 -0.0272499 -0.309406 0.295767 -0.0691113 0.198511 0.135033 0.192059 0.0337402 -0.239189 -0.161792 -0.147815 0.106659 0.220166 -0.0387947 -0.190559 -0.367778 0.105797 -0.0238983 -0.196327 0.230738 0.115825 -0.11717 -0.130039 0.0506907 -0.0412912 -0.128295 -0.343915 -0.0613586 0.0309794 0.0142561 0.228787 0.153967 -0.150416 -0.187097 -0.398596 -0.116831 -0.799374 -0.252194 -0.280079 
-0.7027 -0.164952 -0.111364 -0.0323586 -0.444411 -0.493368 -0.730233 -0.180878 -0.397423 -0.0251066 0.104272 -0.145552 -0.0031724 -0.245855 -0.0757793 0.0563083 -0.00157447 -0.537494 0.366557 -0.0991955 0.156729 0.06983 -0.168474 -0.015295 -0.0925129 0.881907 -0.199397 -0.42087 0.243154 -0.124865 0.114252 -0.198142 -0.120437 0.283694 -0.219449 0.139974 0.0531235 0.125787 0.436658 -0.314259 0.0402489 -0.0655675 -0.019943 0.10675 -0.124251 0.25507 0.23351 -0.00501559 0.0514526 -0.0319149 -0.280051 0.20791 -0.0426145 0.119602 0.33238 -0.256313 -0.423084 0.0946322 -0.00716482 0.341465 -0.167689 0.144259 -0.281954 -0.332288 0.438385 -0.230988 -0.134162 -0.208384 -0.145896 0.163279 0.0614974 -0.596268 -0.308508 0.227859 -0.00894667 0.0827922 -0.263148 -0.173859 0.282012 0.071632 0.146346 0.213134 0.313917 -0.256636 -0.0145322 -0.642501 0.559894 -0.396382 -0.314531 0.171678 -0.141361 0.0512594 0.00558462 -0.256963 -0.00283353 -0.423077 0.539617 -0.0775303 0.0873432 0.0142921 -0.225575 
-0.464238 -0.0103762 -0.157949 -0.190646 0.161743 -0.0748035 -0.189873 0.0803413 -0.195852 -0.163197 -0.0339473 -0.163926 -0.0400938 0.00898637 -0.185744 0.0425208 -0.0565352 -0.309593 0.0185085 -0.26266 0.0618173 -0.113088 0.00415954 0.168339 -0.105069 -0.20665 -0.0662443 -0.0661823 -0.115419 -0.132758 -0.271224 -0.011758 0.0794322 -0.454658 -0.344594 0.0309897 -0.41439 0.140668 -0.172952 -0.121878 -0.0697198 -0.159272 0.00547152 -0.337487 0.0202661 -0.299995 -0.392715 -0.292801 -0.186922 0.204714 0.0927363 0.0741914 0.0671106 -0.0117422 -0.232375 0.115092 -0.124309 -0.163555 -0.186242 -0.136663 -0.10937 0.547342 0.102719 0.0968411 -0.308512 -0.150517 -0.318536 -0.385226 0.221344 0.214238 0.469065 0.350399 0.317391 -0.194717 -0.163151 -0.256078 -0.11216 0.099679 0.112827 -0.192639 0.0111023 -0.0100386 -0.0096719 -0.118929 -0.127216 0.0294448 -0.192262 -0.0370101 0.132341 -0.221601 -0.184147 -0.166753 -0.11399 -0.0921357 -0.147889 -0.276385 0.109708 -0.0376649 0.0767487 0.0242218 -0.273637 
-0.88523 0.0565085 -0.30191 -0.135149 0.116038 0.103762 0.188379 0.244404 -0.176392 0.0745253 -0.155918 0.0714728 -0.126735 -0.18784 0.0737927 -0.0258317 -0.331951 -0.120628 0.055566 -0.0831432 -0.108534 0.192919 0.064376 -0.0489808 0.214907 0.212222 0.0810651 -0.0947813 -0.267889 -0.261245 -0.0124263 0.229216 0.00228518 -0.0225199 -0.162872 -0.0031854 0.0348443 0.0360414 0.00870133 0.143457 -0.0621366 0.0146876 -0.103683 -0.0970318 -0.102693 -0.16129 -0.163072 -0.288244 0.112385 -0.000866479 -0.130561 0.20624 -0.0689291 -0.343825 -0.306414 -0.254333 -0.5253 -0.0514726 -0.090273 0.321174 -0.0137019 -0.0381924 -0.0684313 0.174778 -0.357393 0.138575 -0.152158 0.0843488 0.182975 0.435894 0.178667 0.285046 -0.138499 0.169703 -0.251586 0.0532544 0.0444116 -0.161252 -0.14443 0.161302 0.0367288 0.0452389 0.124303 0.419904 0.158411 -0.00159625 0.128505 0.0419535 -0.0607655 -0.136858 0.101198 0.1793 0.285005 0.233471 0.469476 0.212572 -0.0985097 -0.0188678 0.253851 -0.0602121 -0.560449 
-1.06937 0.0247608 -0.0205902 0.0274934 -0.0603005 0.132603 0.0684723 -0.0828839 -0.103992 -0.124681 -0.0473655 0.25752 0.219579 -0.176411 0.10362 -0.113654 -0.152467 0.10183 -0.147692 -0.119612 -0.301584 0.169212 0.070237 -0.043574 0.0583212 -0.400677 -0.00526858 -0.123963 -0.28053 -0.370712 -0.00400715 0.0308956 -0.0125684 -0.0265452 0.00676416 -0.127608 -0.216461 -0.570781 -0.130959 -0.225749 0.011886 0.099441 0.452353 -0.0724811 -0.121178 0.0166153 -0.071929 0.30431 0.154675 -0.179735 0.161301 0.277784 -0.0654249 0.161546 0.221241 0.337628 -0.0587787 0.0369868 -0.078446 0.128885 0.167185 -0.132191 0.386587 -0.0113653 -0.214756 -0.133224 0.0121541 0.00464463 -0.208244 -0.317867 0.0875236 0.075194 0.348955 0.395979 0.14136 -0.259301 -0.0178469 -0.186493 -0.167473 -0.0698035 -0.12648 -0.302044 0.0605078 0.190112 0.27796 0.625673 -0.0535552 0.139673 0.109753 -0.113889 0.103694 -0.00157212 0.232949 -0.2044 0.0651889 0.449724 -0.0853988 0.0102338 0.245312 -0.139661 -0.431641 
-1.03182 -0.0223234 -0.000392392 0.175934 0.22898 -0.0775218 0.176491 0.227877 -0.0994236 -0.0615312 -0.0973779 0.0479552 0.095536 0.173088 -0.00914918 -0.191708 0.0547186 -0.188657 0.0140517 0.0374981 -0.107822 -0.0130191 0.0426117 0.0894682 0.00384413 0.021314 0.15288 0.0376229 -0.20342 0.0935916 -0.0101608 -0.0983447 0.371671 0.200802 -0.113755 0.0618623 0.205574 -0.0296114 0.0873526 -0.0847811 0.0479451 0.111517 0.157937 0.0663502 -0.0373933 0.0268176 0.163008 -0.055826 0.342297 0.110509 0.0763702 0.0904181 0.00220999 0.183488 0.160333 -0.0792735 0.129547 -0.0550148 -0.0829084 0.200166 -0.20333 0.363173 0.00306922 -0.0725603 -0.110291 -0.11381 0.116523 0.144906 0.0579731 0.0995676 0.320495 0.358155 0.214364 -0.234659 -0.369935 -0.0559061 0.0428272 -0.146835 0.163351 -0.0742602 -0.155919 -0.150181 -0.103449 0.0736055 0.0109585 -0.0458646 -0.134208 0.0178438 -0.029893 -0.192357 0.209378 0.0679236 -0.138342 -0.00265096 -0.0686103 0.0812183 0.070189 -0.0457317 -0.282998 -0.0851563 -0.0709317 
-0.983134 0.00380506 0.387142 0.298554 0.331522 0.183466 0.16057 -0.0372942 0.144497 -0.0733652 -0.00337964 0.125112 0.0349822 0.100484 0.0988233 0.238236 0.0987457 0.256247 -0.101453 -0.264981 0.0639207 -0.214135 0.049508 0.015776 -0.0255035 -0.254358 0.179445 0.489206 0.279733 0.04967 -0.21694 0.306273 4.81319e-05 -0.0499269 -0.037857 -0.270792 -0.137768 -0.0834538 0.0313601 0.226004 -0.0459455 -0.264756 0.20558 -0.101619 -0.0111228 -0.16616 -0.075693 0.333339 -0.0899587 -0.179152 0.306372 -0.494639 -0.0515596 -0.0114663 -0.0822377 0.27634 -0.0822939 -0.337853 0.258338 0.0267476 0.198011 -0.121082 -0.0353112 -0.0159975 -0.343318 -0.0239086 0.119898 -0.0542296 -0.000293197 0.0649737 -0.0250722 -0.281095 0.0765916 0.0144869 -0.00258961 -0.274289 -0.116399 0.082308 -0.226808 0.262971 -0.209737 -0.406782 -0.229254 -0.138458 -0.13601 0.48181 -0.149946 -0.0166117 -0.116681 0.182196 0.171062 -0.056028 -0.0557617 -0.258818 -0.0298219 -0.0308197 -0.169272 -0.0449486 -0.322452 -0.00800658 -0.084157 
-0.899759 -0.0929512 0.158428 -0.0388162 0.106679 0.0606085 0.136711 0.15615 0.371086 -0.304407 -0.0562395 -0.136443 0.119121 0.00129478 -0.000596028 -0.0196182 0.215661 0.0503725 0.107344 0.00553045 0.0570449 -0.185244 -0.167302 0.137394 -0.138985 0.28457 -0.0344725 -0.404013 0.13061 -0.12036 0.155308 0.00731516 0.49346 -0.164025 0.11862 0.125378 -0.286219 -0.179895 -0.0757778 -0.160838 0.0496488 0.13328 0.760535 -0.304367 0.119006 -0.0978346 0.0371377 0.377855 0.000613865 0.031904 0.323432 -0.54071 -0.0285794 0.116764 -0.0391254 0.2027 0.177731 -0.294212 0.106404 0.199928 0.0695453 0.0817474 0.100243 0.0751903 -0.241132 0.244738 0.0094636 -0.0208876 -0.133308 0.140809 -0.0051424 -0.218294 -0.268588 -0.144086 0.0832369 0.124837 -0.229646 0.0925831 -0.135057 -0.107042 -0.0429158 -0.165089 -0.220709 -0.213281 -0.0311563 0.153836 0.385287 -0.279002 -0.0723149 -0.0424034 -0.177912 -0.116925 -0.203683 -0.0735146 -0.21145 -0.281915 0.387234 -0.0955157 -0.215738 0.0894212 -0.228628 
